{"cls_token":[[[0.02723,0.00156,-0.00137,0.01991,-0.00511,0.01865,0.02708,-0.01114,-0.02636,-0.04916,-0.01533,0.0073,0.01352,0.01512,0.00445,-0.07925]]],"pos_embed":[[[0.00012,0.02548,0.00521,0.05804,0.00413,0.0192,0.02951,-0.01219,-0.04393,-0.05004,-0.00496,0.02738,-0.00514,0.05806,0.03181,-0.04947],[-0.09581,-0.04643,-0.10447,0.05766,-0.00622,-0.02209,-0.06232,0.09648,-0.0378,0.06117,0.04548,0.04442,-0.00157,0.02255,-0.10198,0.11216],[-0.10548,-0.03594,-0.08999,0.09563,-0.02461,-0.02653,-0.02467,0.10353,-0.01694,0.06597,0.00496,0.02272,0.04693,0.03408,-0.11159,0.06729],[-0.02088,0.01711,-0.10179,0.04527,-0.12454,-0.04612,0.03359,0.15509,-0.05024,0.0966,-0.03401,0.00934,0.04996,-0.0013,0.02423,-0.04995],[0.04318,0.00842,0.00707,-0.0834,-0.1399,-0.14149,0.04385,0.04627,-0.0103,0.06715,-0.04882,-0.1133,0.17698,0.06893,0.15198,-0.09245],[0.00586,0.05503,-0.03303,-0.0066,-0.1223,-0.04298,0.04052,-0.02526,-0.04417,0.0256,-0.01761,-0.06583,0.17728,0.07509,0.22619,-0.11482],[0.10593,-0.04872,-0.04787,-0.01487,-0.16322,-0.15073,0.00145,0.00504,-0.08382,0.02988,0.01208,0.01893,0.03908,0.08588,0.2172,-0.08081],[-0.01937,-0.0418,-0.09769,0.0708,-0.10075,-0.00453,0.05003,0.07511,-0.04911,0.03196,0.04815,0.03496,0.02994,0.10143,0.01425,0.01878],[-0.09471,-0.01796,-0.08951,0.08502,-0.04395,-0.02543,-0.00042,0.09035,-0.06485,0.04757,0.07648,0.02752,0.00448,0.01178,-0.10486,0.04629],[-0.06827,-0.02515,-0.14854,0.07464,-0.04746,-0.02787,-0.00946,0.1379,-0.06694,0.0162,0.01433,-0.01409,0.042,0.00063,-0.09306,0.01337],[-0.09619,-0.03431,-0.11392,-0.10265,0.07514,-0.0473,0.07251,0.18667,-0.0521,0.0671,0.04135,-0.02685,0.0432,0.1242,-0.00431,0.00745],[-0.07099,0.00746,-0.15451,-0.15685,0.07578,-0.02382,0.10423,0.22339,-0.07838,0.01553,0.00648,-0.22187,0.07385,0.19662,0.00616,-0.13783],[0.02033,0.14755,-0.00611,-0.07999,0.07115,0.11212,-0.07883,0.20767,-0.11915,0.06189,-0.09868,-0.27166,-0.01424,0.1935,0.04864,-0.34132],[0.05245,0.07014,0.23329,0.02361,0.09736,0.05859,-0.12316,0.15281,-0.02011,0.14345,-0.25839,-0.2399,-0.07836,0.08704,0.03502,-0.32524],[-0.12806,0.0187,0.27437,0.11941,-0.07578,0.10252,-0.11099,0.04983,0.19548,0.1401,-0.11579,-0.12966,-0.12827,0.09453,0.01022,-0.07145],[-0.14869,0.00947,0.09923,0.07194,0.03621,0.08183,-0.14663,-0.02778,0.09551,0.05098,0.03337,-0.02668,-0.08736,0.047,0.06,0.00242],[0.06474,0.05376,-0.0543,-0.01474,-0.0398,0.01598,-0.10008,-0.01383,0.02583,0.11102,-0.00261,0.06601,-0.08427,-0.00713,0.07093,0.06005],[-0.09034,-0.02804,-0.22712,0.05608,-0.01018,0.00051,0.00522,0.08885,-0.02827,0.03314,0.04708,0.03174,0.02158,0.0774,-0.07691,0.05952],[-0.21527,-0.12388,-0.1428,-0.10749,0.06214,0.09952,0.13344,0.28104,-0.07426,-0.06355,0.13209,-0.09711,0.02196,0.11857,-0.11099,0.02169],[-0.15599,-0.19607,-0.06656,-0.1078,-0.15196,0.18012,-0.0039,0.2038,-0.22243,-0.25591,0.32214,0.00085,-0.01792,0.08487,0.05656,0.27021],[0.17626,-0.07077,0.30571,-0.18572,-0.54053,0.26551,-0.10022,-0.05388,0.11442,-0.22774,0.31027,0.03321,-0.13379,0.26921,-0.0089,0.12025],[0.09995,-0.47129,0.62794,-0.04923,0.19509,-0.04973,0.12141,0.17942,0.17421,-0.33442,0.05305,-0.18294,-0.05612,0.39559,-0.45634,-0.158],[0.113,-0.27194,0.32954,0.00672,0.19813,-0.13652,0.24667,0.01103,0.49304,-0.01268,-0.08232,-0.21345,-0.01175,-0.09122,-0.65011,-0.30336],[-0.08514,0.00216,0.13137,0.06422,0.06683,0.08244,-0.08644,-0.0494,0.22891,0.03141,0.01127,0.08467,0.0151,-0.15462,-0.1824,-0.0505],[0.04369,-0.01258,0.1297,0.04695,-0.05975,-0.00617,-0.09121,-0.02861,0.17572,0.14624,-0.06258,0.0383,-0.07561,-0.0779,0.03596,-0.08204],[-0.10719,-0.06429,-0.17877,0.01837,0.02698,-0.04188,0.00129,0.05167,-0.06225,0.02672,0.06038,0.08234,0.05344,0.06739,-0.09185,0.07127],[-0.07316,-0.26977,-0.0723,0.02541,-0.19133,0.10305,-0.01695,-0.10179,0.09209,0.04893,0.11983,0.16175,-0.03572,0.06754,0.07804,0.02553],[0.09681,-0.11631,0.18272,0.07512,-0.33773,0.27306,-0.22371,-0.26563,0.03652,0.07844,-0.00913,0.40529,-0.16969,-0.11988,0.45829,-0.07752],[-0.06616,0.22066,0.42271,0.33954,0.15164,-0.0116,-0.26496,-0.23053,-0.16726,0.1918,-0.18469,0.37376,-0.20316,-0.48422,0.10882,-0.3127],[0.15795,-0.3707,0.14391,0.09508,0.38693,-0.60019,0.06131,0.07334,-0.1375,0.31892,-0.06058,-0.05597,-0.36695,-0.01383,0.23944,-0.13221],[0.17654,-0.4828,-0.03343,-0.00787,0.24996,0.08443,0.04932,0.0536,0.06933,0.29805,-0.12882,-0.14624,-0.22747,0.1988,-0.33809,-0.06349],[0.07143,-0.0367,0.02962,0.12622,0.04164,-0.03923,-0.01334,-0.19892,-0.04625,0.06035,-0.18111,0.22386,0.09712,-0.07724,-0.26655,0.13617],[-0.10603,0.01047,-0.05491,0.1159,-0.03769,-0.09297,0.02761,-0.04247,0.03801,0.04673,-0.0476,0.06706,0.08543,-0.01758,-0.08521,0.03799],[-0.0675,-0.00714,-0.26271,0.06885,-0.01298,0.00105,-0.01138,0.08133,-0.08599,0.03007,0.03288,-0.00115,0.03632,0.12142,-0.03189,0.04834],[0.08975,-0.00183,-0.02874,0.06977,0.0031,0.07589,-0.11589,-0.23119,0.17967,-0.03809,-0.03274,-0.03777,0.12586,-0.18302,-0.02842,0.09781],[0.2805,0.10906,0.21153,-0.00518,0.05787,0.25916,0.10873,-0.3885,0.20876,-0.05929,-0.13692,-0.22886,-0.14787,-0.50629,0.03152,0.12369],[-0.0082,0.20195,0.80841,-0.38546,0.45135,0.0377,-0.05712,0.03199,0.12662,-0.14134,-0.08595,-0.20385,-0.25767,-0.61762,0.08757,0.12582],[0.28652,-0.24699,0.27848,-0.6053,0.44131,-0.0996,0.15582,-0.05927,0.02755,-0.05986,0.1504,-0.28965,-0.1268,-0.23481,0.21419,0.28961],[0.29955,-0.56529,0.06111,0.13432,-0.11264,0.24707,-0.37089,-0.07135,0.17882,-0.15705,0.11092,0.07526,-0.12474,-0.24873,0.1513,0.32014],[0.0081,0.05229,-0.03609,-0.02638,-0.20009,0.10359,-0.0391,-0.24978,0.04718,-0.02787,-0.04758,0.072,0.14995,0.04033,0.25864,0.05582],[-0.08544,0.01441,-0.13066,-0.02921,-0.04705,0.01061,0.05355,-0.02338,0.03833,-0.03237,0.01243,-0.01125,0.10514,0.10182,-0.01127,0.04398],[-0.08518,0.00253,-0.12262,0.01491,0.07985,0.05514,0.02875,0.02837,-0.10417,0.17923,0.00242,-0.08289,0.00474,0.044,-0.05154,-0.00187],[-0.06966,0.29683,-0.13911,0.28909,-0.02873,0.00869,0.04211,0.02471,0.04109,0.00832,-0.04226,-0.30132,0.05772,-0.03206,-0.01066,-0.16252],[-0.05286,0.41309,0.31265,0.07321,-0.10218,-0.08493,0.2822,-0.09199,0.11271,-0.11639,-0.20814,-0.2062,0.12371,-0.08572,-0.04142,0.04899],[0.13878,0.06466,0.15746,-0.42761,-0.22196,-0.26078,-0.13117,0.06843,0.16548,-0.38833,0.0176,0.13501,0.33112,0.02388,-0.04109,0.03181],[-0.03753,0.25346,0.10493,-0.12271,-0.18171,0.287,-0.1149,-0.27462,0.04732,-0.31339,0.15283,-0.41129,0.48911,-0.07064,0.15738,0.0997],[-0.12284,0.22289,0.06533,0.24199,-0.06714,0.07529,0.03934,-0.20337,-0.00737,-0.0051,-0.26698,-0.38475,0.29718,-0.0712,0.377,-0.10468],[-0.05014,0.02587,-0.11798,-0.04014,-0.02374,0.03799,0.00931,-0.05028,0.05055,-0.13624,-0.02872,-0.0543,0.24829,0.05125,0.05909,-0.11231],[0.00555,0.08265,-0.09767,-0.08692,0.05281,-0.08029,0.08293,-0.065,0.02415,-0.10226,-0.02861,-0.07409,0.10532,0.06975,-0.00751,0.01379],[-0.06399,0.05476,-0.2279,0.05133,-0.02048,0.03574,0.03092,0.06897,-0.07787,0.02178,0.03729,-0.05146,0.02747,0.05155,-0.04662,0.00127],[-0.13432,0.06162,0.20944,0.0416,0.08086,0.08329,0.08254,0.15902,-0.15211,0.12079,-0.05439,-0.05384,-0.07588,-0.09904,0.02306,-0.1402],[-0.10869,-0.00998,0.28696,-0.00227,0.00655,0.09145,0.02842,0.05651,-0.11196,0.06039,-0.2755,0.1271,0.02212,0.25903,0.09916,-0.27561],[-0.01023,-0.01334,0.31625,0.20095,-0.06735,0.04885,-0.04737,0.01528,-0.2286,0.12341,-0.32324,0.39573,0.013,0.00297,0.11821,-0.2106],[0.21692,-0.09221,0.05768,0.39512,0.01633,-0.1261,-0.20253,0.10772,-0.34649,0.10473,-0.13653,0.27683,-0.03094,-0.04045,0.08164,-0.1495],[0.07516,-0.01095,-0.09742,0.20264,-0.04787,0.02941,-0.05067,0.04113,-0.12169,-0.00129,-0.09074,-0.0584,0.14974,0.07808,-0.034,-0.1108],[0.0716,0.00963,-0.10023,-0.07562,0.08418,0.08209,-0.01248,0.00758,0.00738,-0.13807,-0.00295,0.01489,0.12516,0.09255,-0.06429,-0.03331],[-0.09704,-0.01044,-0.15215,0.0618,0.01983,-0.032,0.04595,0.05103,-0.02028,-0.02507,0.00646,0.00524,0.07597,0.09501,-0.10757,0.0309],[-0.06201,0.00335,-0.09375,0.04041,0.00247,0.01099,-0.04781,0.09172,-0.06119,0.08066,0.02661,-0.00278,0.01508,0.01156,-0.05516,0.07404],[0.05329,-0.11201,-0.19291,0.07971,0.05803,-0.09032,-0.10338,-0.08913,-0.07451,-0.0082,0.1583,0.02335,-0.00617,0.13101,-0.08245,0.18737],[0.05975,-0.27381,-0.05516,0.03403,0.00446,0.10394,-0.1104,-0.12046,0.11207,-0.08111,0.21063,0.03434,-0.10368,0.04745,-0.17154,0.16328],[0.04547,-0.35152,0.04382,-0.02706,-0.0325,0.10267,-0.00696,-0.04275,0.08317,-0.16956,0.19465,0.08481,-0.02184,0.02948,-0.18609,0.1845],[0.08217,-0.24092,0.03303,-0.023,-0.05862,-0.02429,-0.09274,-0.04968,0.0378,-0.04209,0.27821,0.19561,-0.02536,0.03011,-0.19121,0.17933],[0.06013,-0.13589,-0.01395,-0.05745,0.02479,0.00924,-0.11039,-0.07868,0.03249,-0.00755,0.19884,0.13435,-0.02567,-0.0075,-0.15943,0.29584],[-0.08169,-0.06878,-0.14121,0.06339,0.04089,-0.02526,-0.06191,-0.02066,-0.04052,0.01279,0.09407,0.0715,0.02928,0.01432,-0.10597,0.11679],[-0.05575,-0.01674,-0.1782,0.09363,-0.04117,-0.009,0.05512,0.09666,-0.09425,0.0232,0.0432,0.0278,0.03411,0.03391,-0.10416,0.02441]]],"patch_embed.proj.weight":[[0.18251,0.00199,-0.25489,-0.24047,0.22722,-0.09838,0.15113,-0.17697,-0.11508,0.11996,0.11253,-0.08702,-0.10687,0.05459,0.11381,0.17944],[-0.13052,0.01326,-0.20811,-0.13983,0.05836,0.18354,-0.15062,-0.01034,-0.18879,-0.21513,0.08389,0.13793,0.05019,0.20712,-0.06091,-0.07099],[-0.13815,0.13722,0.09753,0.00312,0.14658,0.09413,-0.13018,-0.20946,-0.05315,-0.15214,-0.10443,0.15345,0.19547,-0.16955,-0.16692,0.09846],[0.04282,-0.12658,-0.14414,-0.06202,0.11962,0.18638,-0.15357,-0.03017,0.05307,-0.22432,-0.02007,-0.14964,0.1395,0.19354,0.01466,0.13579],[0.20693,0.0271,0.06268,-0.09249,0.10001,0.09119,0.08654,0.01205,-0.18937,0.10675,0.18093,-0.22728,0.09026,-0.07278,0.00822,-0.07895],[0.09739,0.15009,0.17608,-0.17018,0.18016,0.06992,-0.02556,0.08165,0.06446,0.04962,0.26975,-0.09973,0.07591,-0.24194,0.04748,-0.24368],[-0.08144,-0.12781,0.1944,0.12381,0.05799,-0.12705,-0.08747,-0.20271,-0.17515,0.17288,0.17801,-0.03594,-0.15234,-0.13687,-0.00796,-0.05503],[0.03587,-0.17268,-0.15548,0.04602,-0.09055,-0.10732,0.04112,0.17857,0.01452,-0.09747,0.12434,0.05816,0.17964,-0.01154,0.08406,0.12995],[-0.21985,-0.1959,0.1187,0.12432,-0.14913,-0.22679,0.20489,0.08061,-0.08451,0.17434,0.21822,0.05465,-0.12388,-0.18453,0.14469,-0.15556],[0.08532,-0.19643,-0.22625,-0.05664,0.14854,-0.01342,-0.01004,-0.08002,0.1611,0.02766,0.22926,0.25306,0.10544,-0.18045,-0.15603,-0.20483],[-0.03412,0.07857,-0.23282,0.18702,0.04507,0.14173,0.03407,0.20536,0.11093,0.00738,-0.21585,-0.12375,-0.10461,-0.04934,-0.1557,0.19304],[0.01816,-0.06644,0.0066,0.03533,-0.14921,0.11893,0.21163,-0.12153,-0.05687,0.22647,0.03959,-0.10632,-0.03729,0.03434,-0.05046,0.18579],[0.00368,0.06164,-0.10046,0.07294,0.05271,-0.13177,0.02267,-0.10861,-0.10562,0.0797,-0.05002,0.20408,0.19895,0.17977,0.01322,-0.0408],[-0.0542,0.12487,0.16042,-0.03148,-0.16739,-0.11678,0.13314,0.07182,-0.19949,0.20195,0.01331,-0.02312,-0.22949,0.17096,0.17119,-0.19802],[0.11339,-0.12541,0.07151,-0.03945,-0.0376,-0.03559,0.19931,0.04969,0.14411,-0.17237,0.18629,-0.02215,-0.23061,0.20782,0.19694,-0.12132],[-0.05505,0.06923,-0.06468,-0.08844,-0.08846,-0.21334,0.18309,-0.18055,0.08564,0.18256,0.15862,0.16558,0.08059,-0.16946,0.02948,-0.01407]],"patch_embed.proj.bias":[0.02137,-0.01577,-0.10593,0.10406,0.12831,0.05177,-0.05013,0.1741,-0.14505,-0.07144,0.1429,0.00693,0.04137,-0.1655,0.17401,0.1427],"blocks.0.norm1.weight":[1.02939,1.01473,1.06992,1.11286,1.11579,1.03139,1.00538,1.08487,1.02594,1.04204,1.00917,1.07144,1.01475,0.95454,1.12126,1.02082],"blocks.0.norm1.bias":[-0.00418,-0.02142,0.00987,0.0199,-0.00394,-0.00535,0.00254,-0.0286,0.01223,0.00814,-0.01604,0.00555,0.00512,0.03822,-0.04593,-0.00967],"blocks.0.attn.qkv.weight":[[0.16045,0.11709,-0.27971,0.34281,-0.5024,-0.05867,0.03796,-0.07486,0.01153,-0.30818,-0.30421,-0.11806,0.01248,-0.13564,0.44071,-0.26551],[-0.19954,-0.13975,-0.01401,0.03945,0.16118,-0.22706,0.21287,-0.20162,-0.21941,-0.15469,0.2338,-0.04333,0.1994,0.12573,0.1025,-0.20818],[-0.13409,0.40571,-0.47833,0.38855,-0.22369,-0.30756,0.24153,0.08928,-0.25568,0.07392,-0.14244,-0.08308,-0.03361,-0.07589,-0.07613,-0.03941],[-0.04926,0.12926,-0.22504,-0.22267,0.19469,-0.21987,-0.12274,0.10536,-0.18145,-0.05372,0.06849,-0.26235,-0.07462,-0.26541,0.00467,0.07859],[0.01572,0.08249,-0.0312,-0.16457,-0.10243,-0.14799,0.00484,0.2196,0.17145,0.21026,-0.19527,0.21575,0.23111,-0.11048,0.27796,-0.01917],[0.04664,0.09344,0.21672,-0.08449,0.22612,0.10103,0.0587,-0.17129,-0.21054,-0.21405,-0.10279,0.22145,0.18132,0.26818,0.02057,-0.13787],[0.14723,-0.02787,0.32914,-0.24607,0.02111,0.30274,0.06717,-0.11667,0.3287,0.29067,0.15739,0.10487,-0.12462,-0.14468,-0.06044,0.08171],[0.25662,0.04909,-0.09152,0.39451,0.08247,0.02259,0.16533,-0.05942,-0.21559,-0.01488,0.11498,0.21362,-0.06179,-0.0442,0.00108,-0.06957],[0.07033,0.29708,0.08666,-0.11136,0.12878,-0.03513,-0.05982,0.29174,0.19662,0.20628,0.17073,-0.2122,-0.19229,-0.05687,0.06535,0.25728],[-0.07036,-0.06976,0.18685,-0.18212,-0.04265,0.16982,-0.19834,-0.34089,0.17163,0.20246,-0.07433,0.22087,0.10175,-0.07034,0.12582,0.12907],[-0.08074,0.17368,0.33067,-0.18362,0.05706,-0.10521,-0.19654,-0.20262,-0.24833,-0.02058,0.0795,0.13273,0.18802,-0.2155,0.05275,0.26552],[-0.11029,-0.12745,-0.19319,-0.2941,0.01421,-0.10757,-0.23686,-0.07379,0.2907,-0.03887,0.1036,0.10693,-0.00271,-0.16542,0.26439,0.22496],[-0.09349,0.03105,-0.06179,0.14304,-0.1465,0.00866,0.23607,0.25884,0.24086,0.12335,-0.22815,-0.23739,-0.13676,-0.0349,-0.12211,0.20829],[0.21937,-0.08357,0.2969,0.24586,-0.10325,0.12519,0.01012,-0.15358,-0.2376,-0.11741,-0.18283,-0.06305,-0.21482,0.21428,0.27697,0.00178],[-0.06786,0.04184,-0.16484,-0.08784,0.02185,-0.26659,-0.17433,-0.14026,-0.19166,0.01419,0.18998,-0.23566,-0.15035,-0.0676,-0.28369,0.28707],[-0.07544,0.07054,0.2191,-0.10873,-0.10191,0.15641,-0.1085,0.13846,-0.08475,-0.134,-0.15202,0.06499,0.10024,-0.18133,-0.0443,-0.06445],[0.30592,0.12659,0.33007,-0.04815,0.31371,-0.1978,0.15343,-0.10503,-0.07573,-0.14928,-0.38746,0.10053,0.07744,-0.08962,0.14555,0.11265],[0.00515,0.13543,0.09236,0.03899,-0.06327,-0.23857,-0.02125,-0.22489,0.01566,-0.09818,-0.10159,0.09861,0.09804,0.14265,-0.25903,0.09529],[0.17562,0.23447,0.16783,-0.21891,0.2273,-0.1609,-0.22967,-0.16307,0.30798,-0.00752,-0.06217,0.23277,-0.25413,-0.19199,0.20699,-0.12747],[-0.12122,-0.08519,0.06869,-0.21885,0.12832,0.20452,-0.14054,-0.05493,0.13408,-0.03773,-0.01872,0.29686,0.01001,0.27655,0.11815,0.22998],[-0.23134,-0.27356,-0.12452,-0.09457,0.00984,-0.05009,0.07205,0.14681,0.39888,-0.02003,-0.2475,-0.12356,0.12686,-0.13465,0.01392,-0.16362],[0.30713,0.22236,0.22067,0.18208,0.18296,-0.16136,-0.01032,0.00997,0.10323,-0.1257,-0.06363,-0.21298,0.05455,-0.25182,-0.15592,0.23509],[-0.12687,0.22442,-0.16301,0.05053,0.16672,0.14482,-0.09988,0.01277,0.07393,0.07086,0.11252,0.08813,0.23555,-0.30506,-0.22897,0.23047],[0.0504,-0.18188,0.26645,0.24613,0.02929,0.05659,0.30896,0.19657,-0.12702,-0.09438,-0.18648,0.04171,-0.07814,0.14742,-0.21895,-0.21429],[-0.15964,0.17929,-0.23012,-0.13193,-0.12279,0.24787,0.02624,0.21935,-0.29773,0.2006,-0.18631,-0.12469,-0.10283,0.04992,0.16157,-0.0404],[-0.09133,-0.20575,-0.35724,0.23699,0.30658,0.18248,0.02468,0.05312,-0.20104,-0.17312,0.12974,0.21057,0.29058,0.09493,-0.18772,0.04369],[-0.11065,0.22317,0.02498,0.20276,0.03819,0.09407,0.00932,-0.20776,-0.2467,0.03261,-0.07919,0.14249,-0.16043,-0.07621,-0.06932,0.03065],[-0.08572,-0.15376,0.03611,0.10723,0.15563,0.09912,-0.23954,0.14901,-0.15097,0.02652,-0.12996,0.24042,0.18513,-0.0921,-0.18166,-0.07805],[0.08041,-0.0569,-0.09643,-0.06211,-0.30087,-0.17423,0.07507,0.16967,0.10393,-0.32684,0.07085,0.18867,-0.04257,-0.21687,-0.2046,0.01132],[-0.2676,0.22069,0.07768,-0.24005,0.24627,0.16996,0.06989,0.03646,0.23188,-0.18091,0.12631,-0.23825,-0.21859,0.17179,-0.06173,0.00734],[0.28982,-0.02878,-0.31848,-0.01266,-0.33831,-0.23164,-0.25396,-0.208,0.12604,0.01583,-0.02523,0.28036,0.15515,0.20423,0.24076,0.18346],[-0.17268,0.18255,-0.23918,-0.02275,-0.13879,-0.02473,0.26882,0.00475,-0.05547,0.24122,-0.09239,-0.13461,-0.22163,0.00493,-0.13352,0.21975],[-0.09013,-0.17595,-0.12789,-0.29292,0.21767,0.11577,0.16661,-0.03905,0.1128,-0.19069,0.1216,-0.18312,0.17261,0.02834,-0.29751,-0.04243],[0.14217,-0.03951,0.01641,-0.19372,-0.05308,0.08725,-0.22311,-0.06784,-0.14476,0.22485,0.09371,0.09463,-0.11092,-0.03014,0.20328,0.02245],[0.15315,0.12483,0.14676,-0.02544,0.24561,-0.10894,0.00479,0.13164,0.02337,0.27247,0.19623,-0.04536,-0.16233,-0.18974,0.20851,0.04256],[0.28947,0.24254,-0.09969,-0.23143,-0.19668,-0.07722,0.03226,-0.2545,0.20155,-0.18897,0.25228,-0.22038,-0.12894,-0.12672,0.138,0.05385],[-0.25341,0.20149,0.17409,-0.01381,0.18084,-0.13279,0.2218,0.23637,-0.13788,0.05564,-0.07198,0.08171,0.22518,0.05565,0.07454,0.16972],[-0.10019,-0.22899,0.19378,0.02968,-0.00064,0.20472,0.23686,-0.02637,-0.07869,0.15186,0.22165,0.11537,-0.25642,0.06503,0.10063,0.23399],[-0.04704,-0.05964,0.03709,-0.01486,0.08459,0.12793,-0.23708,-0.06549,-0.06139,-0.28836,-0.17218,-0.09271,0.10406,0.02622,-0.2043,0.06635],[0.11603,-0.01765,-0.20586,-0.10047,0.08943,-0.02671,-0.17839,0.00601,-0.21145,-0.33597,0.1561,0.09053,-0.05925,-0.06051,0.14231,-0.15791],[-0.09812,0.00244,-0.09825,-0.11483,0.20643,0.0359,-0.02677,0.16371,-0.17737,0.26636,-0.22868,-0.25631,0.07775,-0.13028,-0.00715,0.02064],[-0.20098,0.07038,-0.14851,-0.02566,0.17374,0.11611,0.18652,-0.02459,-0.25406,-0.08251,-0.00396,0.00881,0.27295,0.12705,0.22336,0.03324],[0.34486,-0.12489,0.13673,-0.21344,-0.01993,-0.20694,-0.24261,0.2576,-0.00664,-0.07496,0.16503,0.18206,-0.22725,-0.00906,0.08579,0.18526],[-0.07982,0.04757,0.13954,-0.13665,-0.06451,-0.24192,-0.04105,0.10395,-0.19048,0.04042,-0.25515,-0.16417,0.03012,-0.18414,0.07075,-0.21051],[-0.07468,0.17508,-0.00116,0.27707,-0.06007,-0.08855,-0.19819,-0.26642,-0.16939,-0.01449,-0.20754,0.18607,0.13916,-0.06098,0.27369,-0.00219],[-0.14001,-0.00532,0.14312,-0.08362,-0.25912,0.01831,-0.15522,0.03137,0.03207,-0.13384,0.236,0.14432,-0.1192,-0.06086,0.14822,0.1992],[-0.07327,0.17932,-0.06258,-0.11892,-0.3007,0.13188,-0.03154,0.06731,-0.1366,-0.32273,0.01388,0.02403,0.17184,-0.21207,0.07216,0.14373],[-0.06565,0.05184,-0.04579,-0.19778,-0.08916,-0.10705,-0.18914,0.22162,-0.07305,-0.12503,-0.03745,0.1851,-0.17109,-0.21315,-0.06806,-0.16332]],"blocks.0.attn.qkv.bias":[0.06494,-0.07615,0.13479,0.00359,-0.20275,-0.27648,-0.28651,0.3694,0.03503,-0.17123,0.14549,0.19489,-0.19425,-0.19795,0.24059,-0.25787,-0.08686,-0.14277,0.15806,-0.15718,-0.21273,-0.22376,0.03433,-0.14114,0.0655,0.10273,-0.08631,-0.04893,-0.00359,0.27627,-0.0319,0.02269,0.07856,-0.09847,0.03494,-0.02211,-0.19383,0.06615,0.01743,-0.2496,-0.10519,0.18281,-0.21071,0.06187,0.21051,-0.19796,-0.25648,-0.24053],"blocks.0.attn.proj.weight":[[-0.11478,-0.15855,0.02361,-0.18098,0.1932,0.21455,-0.10245,0.2288,0.03583,-0.10845,-0.12186,-0.08116,0.11053,0.22781,-0.12371,-0.01755],[0.11032,-0.28524,-0.05193,0.00122,0.06597,0.07145,-0.03527,0.02621,-0.08608,0.25506,-0.1887,0.1978,-0.26716,-0.16601,-0.09245,0.20834],[0.18133,0.02958,0.19875,0.00351,-0.24837,0.13023,0.15103,0.04382,0.00983,-0.26257,0.23542,-0.02191,0.1365,0.21665,0.18163,0.15417],[0.09631,0.05523,-0.11996,-0.20096,0.17307,-0.11866,0.19921,-0.05802,-0.03274,0.23434,-0.05378,0.11157,-0.14355,0.01344,-0.20375,0.01618],[0.25018,-0.18141,0.07854,0.01914,0.08056,0.13542,-0.02255,-0.06606,0.13887,-0.14314,-0.07238,-0.22844,0.26379,-0.25681,-0.2298,-0.05015],[0.07676,0.24694,0.0426,0.16966,0.0736,-0.17731,-0.09308,0.02584,0.24925,-0.00812,-0.13992,0.01054,0.09905,-0.17595,-0.1056,0.11024],[-0.21163,0.09143,0.22903,-0.13061,0.12605,0.00411,0.1428,0.22003,0.13062,0.03519,0.01094,0.216,0.14279,-0.1833,-0.29844,-0.22546],[0.05032,-0.0014,-0.1956,0.13235,0.17058,-0.19866,-0.01696,-0.22692,-0.15572,-0.05603,-0.18095,0.17971,0.17591,-0.28292,0.06014,0.06841],[-0.11529,-0.09465,0.0915,-0.03851,-0.13551,0.03044,-0.05696,0.16885,0.03502,0.00729,0.10386,-0.13295,-0.24225,-0.28961,-0.03822,0.09978],[0.23052,-0.02428,-0.08864,-0.07892,-0.07568,-0.19616,-0.1933,0.17227,0.09459,-0.02969,0.01631,0.13651,-0.2185,0.02958,-0.06474,0.02357],[0.15712,0.20426,-0.12136,0.19951,0.05694,0.19643,-0.1245,-0.29443,-0.23777,0.21983,0.26623,0.05175,0.09168,0.14414,0.08016,-0.28191],[0.16945,0.05018,0.07762,0.23763,0.07023,-0.18817,0.17161,0.2061,0.09018,0.09532,0.09068,-0.02308,0.16632,0.03375,0.1486,0.03567],[-0.22556,0.0412,-0.18496,-0.10599,0.14566,0.19601,-0.00773,0.09228,-0.07826,-0.22135,-0.22691,0.11864,0.09408,-0.04949,0.00323,-0.26621],[-0.06482,0.09056,-0.2366,0.15863,0.04865,-0.03256,-0.10262,0.31634,-0.14929,0.25537,-0.30169,0.08427,-0.05431,0.24551,0.22438,-0.09966],[0.19768,-0.05087,-0.13639,0.1535,0.18439,-0.03264,0.23564,0.13825,-0.09203,-0.00425,-0.13709,-0.16791,0.01375,-0.15236,-0.02617,0.03883],[-0.07627,0.03033,-0.0268,-0.14388,0.03181,0.03456,-0.24105,0.13177,0.21213,0.20387,-0.0508,0.09092,0.12774,-0.16267,0.14314,0.08956]],"blocks.0.attn.proj.bias":[-0.07766,0.03669,0.07336,-0.05273,-0.24301,-0.00831,-0.19906,-0.16992,0.00681,0.07371,-0.22149,0.10585,-0.18895,0.23081,0.03347,0.17604],"blocks.0.norm2.weight":[1.00063,1.007,0.9762,1.03219,1.02607,1.06605,1.09817,0.99424,1.04941,0.99307,1.00388,1.01587,0.99725,0.97287,1.07239,0.98343],"blocks.0.norm2.bias":[0.00656,-0.04353,0.01034,0.01764,0.00525,-0.02165,-0.0005,0.02381,-0.00472,0.01619,0.01,-0.01763,0.03436,-0.02684,-0.00756,-0.02369],"blocks.0.mlp.0.weight":[[-0.18811,-0.12993,-0.00974,0.14129,0.07898,0.17952,-0.0312,-0.12548,0.2421,-0.16873,0.11541,0.19394,-0.20356,-0.26292,0.02408,0.10436],[0.02431,-0.23121,0.143,-0.16873,0.28187,-0.08401,-0.11891,-0.11739,-0.11086,0.11112,0.28427,0.09737,0.01234,-0.21982,-0.15299,-0.11364],[0.19299,0.06521,0.08224,0.09278,-0.15289,0.21887,-0.18754,-0.08537,-0.03715,-0.22841,0.02208,0.09454,-0.14907,0.06531,0.16759,0.02206],[-0.19668,-0.03502,-0.25997,0.26669,0.16968,-0.03375,0.09538,0.12876,0.09969,-0.20291,0.15434,0.20287,0.06994,0.00685,-0.22233,0.17298],[-0.22411,-0.06991,-0.04973,0.13844,-0.03103,0.05614,0.21668,0.13328,-0.23688,0.06881,-0.14058,-0.27114,-0.00277,0.21199,-0.04238,0.1087],[0.04224,0.03283,0.20472,-0.13978,-0.18096,-0.00469,0.15257,0.05031,-0.18569,-0.08682,-0.16174,-0.16503,-0.11622,0.07018,0.31471,-0.04639],[0.09647,0.0646,-0.07351,-0.24333,0.17362,0.38571,-0.27645,0.06308,0.22426,0.17077,0.11548,0.24337,0.08613,0.15816,0.24362,0.13539],[-0.41104,-0.20559,0.46047,0.33847,0.25505,-0.17213,-0.24286,0.31611,-0.25477,-0.21682,-0.09672,0.14988,0.26837,-0.03162,0.28656,-0.13337],[-0.02529,-0.03651,0.13388,-0.00407,-0.02164,-0.07716,-0.14155,-0.05469,-0.03511,0.10332,0.18909,0.1193,0.02178,-0.10345,0.11422,-0.17897],[-0.3037,-0.12003,-0.14933,0.10157,0.03682,0.03265,-0.06625,0.15841,0.24043,0.23624,0.02671,0.24696,0.08153,-0.03951,0.08773,-0.0414],[-0.25111,0.05153,0.05997,-0.14718,-0.05844,0.00125,-0.13941,0.21575,-0.21762,0.08865,-0.01808,-0.12938,0.15384,0.11062,0.07458,-0.09323],[0.27461,0.05542,0.15101,0.02589,0.11975,0.04674,-0.14454,0.20658,-0.23342,-0.26089,-0.11725,-0.06838,0.04783,-0.12366,-0.01822,0.13536],[-0.14536,0.21361,0.21214,0.07267,0.21374,0.14846,0.00133,0.24441,0.19311,0.24099,-0.07607,-0.20192,0.15243,0.16458,-0.30294,0.05829],[0.22736,-0.03995,0.18587,0.22467,0.20487,-0.01081,0.08765,0.0165,-0.27671,-0.15204,0.0484,-0.22241,0.07337,-0.15862,-0.00828,-0.00177],[-0.18874,0.20685,-0.15567,0.20698,0.10621,0.2118,0.09519,0.10117,0.1717,0.01581,-0.0354,0.15015,0.00697,0.19503,-0.17925,0.18959],[-0.18622,-0.06929,0.09188,0.13682,-0.03759,0.2104,-0.00701,0.17481,-0.00069,-0.14365,0.17728,0.16502,0.01669,-0.05572,0.30045,-0.11897],[-0.20915,0.11249,0.13493,-0.1042,0.2074,-0.19103,-0.06076,0.03321,-0.13419,0.15508,0.31945,-0.10624,-0.23775,0.07611,0.26259,0.23051],[-0.07972,0.13132,-0.06408,-0.21861,0.01544,0.17606,0.08102,0.05057,0.0802,0.15363,0.24078,0.21821,0.03251,0.11921,0.02311,0.13148],[0.19725,0.09015,0.03209,-0.11428,-0.19761,0.04568,-0.17726,0.1017,0.1399,0.19845,0.1472,0.14041,0.06426,0.21503,0.08619,0.09037],[-0.11644,-0.06981,0.27957,-0.00833,0.15323,0.1018,0.016,0.16759,0.26711,0.13531,-0.13744,0.01993,-0.05846,0.2217,-0.10112,-0.03271],[-0.25898,0.11771,0.02952,0.18918,0.21676,0.0036,-0.01181,-0.23317,-0.21888,-0.08113,0.02962,-0.07713,0.07701,0.18112,-0.20067,-0.15158],[-0.09643,-0.16866,0.09475,0.01822,-0.16671,-0.15164,-0.09162,-0.06906,0.084,-0.10417,0.05968,-0.21025,0.14457,0.14458,0.03492,0.00276],[-0.01015,0.14524,-0.23391,0.04623,0.11655,-0.03948,-0.17577,-0.11079,0.07444,0.17164,-0.05104,-0.06397,0.04821,0.06526,0.14404,-0.09382],[0.24455,-0.19983,0.02185,-0.19647,-0.07145,-0.05652,0.02651,0.14978,0.02191,0.00126,-0.24915,-0.16197,-0.08218,-0.25112,0.16115,-0.00666],[0.08709,0.01264,0.16641,0.15427,-0.19613,-0.02639,0.01374,-0.20257,0.30837,-0.18096,-0.07409,-0.03674,0.31357,-0.21237,0.13266,0.13566],[-0.03883,0.03992,-0.13453,0.06126,0.05425,0.43862,-0.02754,0.03619,-0.09422,0.19955,-0.24607,-0.10961,0.00201,-0.22863,0.05114,0.06056],[-0.16596,-0.08712,0.08074,-0.14748,-0.12931,0.24287,-0.01573,-0.06624,-0.09401,0.08407,0.01019,-0.16156,0.2018,0.15878,-0.04537,-0.04811],[-0.03976,0.03686,0.08372,-0.26348,-0.19616,0.14044,-0.17233,0.16904,-0.02111,-0.15024,-0.12361,-0.15408,0.16822,0.01715,-0.06775,-0.06314],[-0.06302,0.02441,-0.1361,-0.16697,0.21421,-0.11282,0.05978,0.20613,0.08234,-0.21435,-0.20537,0.01733,0.14396,0.02518,-0.10223,0.21683],[0.14396,0.25407,0.10621,0.10491,-0.1271,0.09308,-0.10749,0.33092,-0.0921,0.04688,0.0102,-0.0879,-0.10889,-0.08171,-0.04496,-0.21979],[-0.0034,-0.2614,-0.04704,-0.13948,0.10693,0.25959,-0.18013,-0.13569,0.1615,0.21247,0.07958,-0.03114,-0.01863,0.17152,-0.16391,-0.22821],[-0.29479,-0.11318,0.12448,0.18502,0.23438,0.08502,-0.08822,-0.19542,-0.19792,-0.02909,-0.19389,0.03389,-0.10866,-0.14919,0.18826,-0.0377]],"blocks.0.mlp.0.bias":[0.05461,-0.13598,-0.08347,0.17277,-0.07952,0.01266,-0.21276,0.29495,0.0803,-0.0765,-0.17276,0.01586,0.09993,0.05031,0.16154,0.01976,0.05345,-0.24203,-0.23475,0.21686,0.05347,-0.01825,0.04693,0.23222,-0.16123,0.13474,0.00939,-0.16712,0.19056,-0.09319,0.13893,0.20337],"blocks.0.mlp.2.weight":[[0.10704,0.20532,-0.05318,0.02584,0.13114,0.02301,0.15562,0.08459,-0.08774,0.14033,0.13192,0.1797,-0.08395,0.17614,0.01978,-0.08006,0.03756,-0.03391,-0.11847,0.04031,0.07861,-0.08632,-0.03642,-0.0217,0.23523,0.0879,0.12175,-0.11225,0.06416,-0.00657,0.11144,-0.01601],[-0.10452,0.15416,0.08998,-0.08555,0.19655,0.09749,0.10591,-0.15436,-0.06382,0.02798,-0.04611,-0.10193,0.1429,0.11117,-0.06832,-0.02583,-0.07873,-0.18757,-0.10044,-0.10944,0.05369,0.04728,-0.09842,0.02502,-0.01885,-0.06901,-0.01037,-0.10934,-0.14837,-0.16883,-0.04275,0.04643],[-0.00255,-0.09848,0.00978,-0.17571,-0.19411,0.01629,-0.1158,0.03501,-0.04444,-0.06394,-0.07737,0.04767,0.01239,-0.03196,0.13135,0.09788,-0.16973,0.17912,0.01852,-0.12313,0.06468,0.08306,-0.12436,-0.13911,0.12202,-0.0156,-0.1568,0.00544,0.11276,0.00773,-0.14492,-0.02298],[-0.09343,0.04936,-0.19497,0.11097,0.02765,0.08695,0.06203,0.15131,-0.08991,-0.02074,-0.04794,-0.10386,-0.13704,-0.1756,-0.03069,0.00747,0.1469,-0.07733,-0.08045,-0.03876,0.11473,0.07424,0.11664,-0.31148,-0.09976,-0.07283,-0.03989,-0.12589,0.13472,-0.1642,0.05524,0.07083],[-0.12494,-0.18808,-0.16592,-0.06588,0.06552,0.10483,-0.0827,0.14759,-0.19421,-0.21027,-0.14552,-0.10226,-0.15533,-0.05197,0.14394,-0.02001,0.06627,-0.06133,-0.14651,0.02082,0.06787,0.07433,-0.06662,0.10591,0.0598,-0.15854,-0.07753,-0.01633,0.14715,-0.10871,-0.15348,0.01329],[0.094,0.12489,0.10132,0.06463,-0.05411,0.08916,0.08777,-0.126,-0.0766,0.08266,-0.02978,0.21245,-0.05152,-0.03104,-0.14839,-0.02984,0.1237,-0.01267,0.07729,0.16516,0.15249,-0.14494,-0.17368,-0.15858,-0.10144,0.10844,0.11642,-0.12282,-0.09859,-0.15689,-0.13164,-0.10849],[0.08528,-0.09081,-0.0285,-0.14192,-0.15884,0.1593,-0.0412,0.19597,-0.06413,0.06224,-0.0821,-0.18042,-0.06025,0.06171,0.1376,0.11391,-0.13117,-0.04797,-0.04903,-0.11795,-0.08137,-0.1508,-0.01445,-0.06131,0.0312,0.08635,0.11147,-0.07142,-0.02491,-0.03013,0.17476,0.10442],[-0.01971,0.02542,-0.15022,0.16719,0.07111,0.13071,0.1137,-0.08429,-0.05707,0.0868,-0.1265,-0.09621,-0.19233,0.12934,-0.05379,0.04157,-0.07982,0.06282,0.13479,0.02594,0.03323,-0.00919,0.14512,-0.12659,-0.15164,-0.14977,-0.06375,-0.06858,-0.11551,0.04252,-0.09057,0.02208],[0.12767,0.19169,0.15817,0.13238,-0.0885,0.17009,0.08085,0.20126,0.1384,-0.10201,-0.04627,0.07231,-0.12598,0.05688,-0.02669,0.11407,0.02264,-0.10061,-0.07534,0.07913,0.17037,-0.15823,0.16299,0.07708,-0.03634,-0.09607,-0.05668,0.0033,0.01156,0.01999,0.00281,0.08866],[0.13876,0.08416,0.10658,-0.10782,-0.09039,-0.08785,0.10669,0.10962,-0.01408,0.05104,0.08537,0.15555,0.06983,0.10727,-0.04453,-0.04085,-0.01712,0.02452,-0.18831,0.13689,0.02391,-0.17522,0.16254,-0.00499,0.16454,0.09599,-0.09622,0.06698,-0.06972,-0.11364,0.04107,0.06395],[0.1026,0.05927,0.00212,-0.1355,0.05955,0.14845,0.05174,-0.24144,0.15693,0.14762,0.09178,-0.0644,-0.08638,-0.21445,-0.07737,-0.17574,0.06363,-0.06404,0.06578,0.14921,0.10441,0.03001,-0.01431,0.05353,0.22787,-0.03772,0.10356,0.19672,0.09026,-0.14593,-0.04548,-0.1425],[-0.04038,-0.09462,-0.09286,-0.1571,0.14236,0.08416,-0.18579,-0.23602,0.05492,-0.0925,-0.09294,0.03499,0.20534,-0.06786,-0.11117,0.0745,-0.00931,-0.19995,-0.04455,-0.02642,-0.04102,-0.0103,-0.15252,-0.02173,-0.23937,0.19325,0.10828,0.07675,0.1422,-0.04134,-0.17748,-0.07583],[0.13678,0.07485,0.13133,0.08773,0.00156,0.05048,0.10411,-0.02303,0.1178,0.08239,0.01746,-0.00174,0.0629,-0.16103,-0.02722,0.1807,-0.02296,0.08469,-0.18184,-0.02686,0.07741,0.15782,-0.0526,-0.02408,-0.11072,0.28577,-0.01211,0.02747,0.10874,0.06092,0.19503,-0.08736],[-0.17261,0.1476,-0.14674,0.05192,0.05298,0.03277,0.0653,-0.05769,0.12478,0.19905,0.1447,-0.10256,-0.01385,-0.09178,-0.14766,0.13469,0.14472,-0.14624,0.01564,0.0112,-0.08989,0.21692,0.06038,-0.08195,0.10298,-0.00318,-0.12638,-0.01433,0.04347,0.17116,-0.16357,-0.07071],[-0.05531,0.09517,-0.01795,-0.01525,0.10249,-0.05801,0.15786,0.15385,-0.03142,-0.0991,0.05849,-0.11852,0.07555,-0.11501,0.02285,0.11469,0.05213,-0.11669,0.09117,0.17557,-0.00582,0.01227,-0.02732,0.1856,0.15452,-0.10877,0.07396,0.10002,0.0033,0.02224,0.09538,-0.1306],[0.07179,-0.12391,-0.06204,0.14649,0.08823,-0.15107,0.03172,-0.03304,0.00363,0.10694,-0.12512,-0.06218,0.02036,-0.06366,-0.14485,0.11479,0.05031,0.1723,0.10042,-0.08663,0.12781,0.17984,-0.07789,-0.0363,0.11005,-0.09923,0.01744,0.06745,-0.06939,0.0707,-0.04183,-0.22023]],"blocks.0.mlp.2.bias":[-0.12311,0.13938,-0.09302,0.08497,0.0142,0.11424,0.10425,0.11246,0.12541,0.08669,0.04725,0.10201,0.1656,-0.04486,-0.06454,-0.1147],"blocks.1.norm1.weight":[1.04163,1.03044,1.02939,1.05885,1.04551,1.00963,1.04209,1.03071,1.06094,1.03187,1.0701,1.0239,1.06467,1.00988,0.97781,1.00682],"blocks.1.norm1.bias":[0.00205,0.01522,0.00437,-0.02346,0.01687,-0.01302,0.01636,-0.00398,0.00957,0.01134,-0.00765,-0.02327,0.00352,-7e-05,0.03054,-0.02293],"blocks.1.attn.qkv.weight":[[-0.08297,0.09175,0.06239,0.17348,0.28455,0.00161,0.04791,-0.0014,-0.13569,-0.06396,-0.02332,0.18172,0.04834,0.12894,0.15563,-0.14814],[0.00237,-7e-05,-0.09105,-0.11036,0.03429,0.14536,0.17996,0.25112,-0.12221,0.01496,-0.16014,0.30758,0.17938,-0.10977,0.01318,-0.18769],[0.12044,-0.22128,-0.03054,-0.09376,0.05981,-0.12643,-0.25794,0.10935,0.18905,0.18935,0.14541,-0.14889,-0.07817,-0.18184,0.01641,0.22002],[-0.077,0.21946,0.09287,-0.3186,0.31575,0.13687,0.3675,-0.16585,0.08181,-0.01784,-0.00259,-0.15819,0.06501,-0.09142,0.06964,-0.08142],[-0.16307,-0.22345,0.28292,0.31601,-0.10707,-0.09145,-0.03772,0.02802,-0.06213,0.24,-0.06872,-0.23397,-0.33289,-0.22226,-0.24705,-0.13477],[0.06769,-0.14143,0.00391,-0.05216,0.30145,-0.13186,-0.01572,0.19111,0.05281,-0.27451,-0.29125,0.20177,0.17377,-0.2545,-0.12873,-0.29964],[0.27705,-0.09665,0.04542,-0.01786,-0.3193,0.08354,0.13776,0.03367,0.01779,-0.14801,-0.08726,0.09984,0.23336,0.17359,0.01665,0.00766],[-0.13674,-0.07167,-0.22471,0.13302,-0.10525,0.01256,-0.05937,-0.12975,0.20707,-0.15972,0.05594,0.07202,0.17682,0.05837,-0.12501,-0.18928],[0.07475,-0.19409,-0.08691,0.18234,-0.03568,-0.12911,0.26451,-0.16934,0.01778,-0.25876,0.12807,0.2541,0.24204,-0.15501,-0.22449,0.18602],[-0.21016,0.12502,-0.00979,0.18484,0.02504,-0.16783,-0.1978,0.12238,0.13963,-0.22137,0.05144,0.23094,-0.09067,0.07367,0.05649,-0.3027],[-0.02486,0.12165,0.01519,-0.02544,0.33022,-0.22894,0.07228,0.06624,0.10218,-0.03872,0.04657,0.18084,0.15192,0.30264,-0.06531,-0.04562],[-0.06325,0.02218,-0.04218,-0.23255,0.30011,-0.03421,0.18926,-0.05306,0.10449,-0.12084,0.05208,-0.04329,0.062,-0.13163,0.01184,0.0494],[0.08986,0.02501,-0.21486,-0.12057,0.00506,0.04158,0.07541,-0.19302,0.24486,-0.13463,0.26081,0.14031,-0.17715,0.11455,0.10475,0.27205],[0.04374,0.10855,-0.11433,-0.06695,0.08599,-0.20635,0.25432,-0.14003,0.3362,-0.06574,-0.17243,-0.0461,0.15271,0.11054,0.09862,0.04159],[-0.12217,0.06631,-0.0944,-0.1909,0.19311,0.28142,0.09477,0.09882,0.20833,-0.1856,-0.14329,0.19111,-0.12502,0.04198,-0.18714,0.10648],[0.01064,-0.13036,-0.20621,-0.04874,0.13548,-0.18961,0.02637,0.13931,-0.29253,-0.17317,-0.06823,0.00871,0.14092,0.50397,0.00261,-0.04946],[0.31026,-0.01696,0.07418,-0.15657,-0.20234,0.02252,0.08077,-0.11861,0.01148,-0.03182,-0.15115,-0.2661,-0.26579,-0.17927,-0.01956,0.05596],[0.04237,0.05262,0.0296,-0.30827,0.1913,0.04987,-0.21846,0.00158,0.39161,0.03676,-0.01944,-0.21576,0.15599,0.04222,-0.05634,-0.11383],[0.10502,0.1104,-0.03233,0.2134,0.15075,0.16158,0.0661,-0.18015,-0.09832,-0.04226,-0.23448,-0.0393,0.23686,-0.17205,-0.03612,-0.07866],[0.21393,-0.0523,-0.11841,-0.12327,-0.17629,-0.24312,0.33163,0.12182,0.0974,0.19384,0.24739,0.05884,-0.103,0.32355,0.14352,-0.12919],[0.27364,0.08096,-0.07026,-0.30539,0.05376,0.22309,0.04409,-0.03559,0.0953,-0.16537,-0.06866,-0.13241,0.36296,-0.14946,0.19387,0.00327],[-0.07293,0.09945,0.11415,0.20663,0.12905,-0.22692,0.25044,-0.26254,-0.02746,0.20734,-0.20012,0.09827,-0.22944,0.11922,-0.21009,0.03809],[0.10935,0.15361,-0.15216,0.09484,0.18044,-0.03812,-0.0706,-0.13413,0.0274,-0.17777,0.02206,0.05386,0.02181,-0.26858,-0.09511,0.13891],[-0.27379,0.09998,-0.0538,0.24846,0.23821,-0.13707,-0.18546,0.05631,0.09661,0.05951,-0.35528,0.10725,-0.16919,-0.15995,-0.19185,0.21373],[0.13449,-0.02463,0.18434,0.08656,-0.30501,0.04429,0.20928,0.33885,-0.02277,0.01352,0.10251,0.17308,-0.03484,0.03514,-0.12652,0.27671],[-0.22613,0.00492,-0.35201,-0.14223,-0.32951,0.17828,-0.26022,0.14322,-0.106,-0.07212,-0.14046,0.05747,0.20874,-0.06198,0.25519,0.10059],[-0.12159,-0.04567,-0.22629,0.08958,-0.00288,-0.05941,-0.24154,-0.08305,-0.23782,0.22562,-0.10581,0.14224,0.05171,-0.0581,0.00726,-0.16249],[0.10387,-0.10327,-0.12268,-0.2302,-0.18738,0.1543,0.15295,-0.13924,-0.22101,0.17815,0.30497,0.18365,-0.164,-0.11157,-0.01723,0.06141],[0.2269,-0.24389,-0.11084,-0.08832,0.11977,0.1364,0.1481,-0.14839,0.11188,0.18846,-0.17574,0.02173,-0.26873,-0.22716,0.13544,0.22217],[0.20054,0.1648,0.14393,0.09289,-0.1893,0.0916,0.2102,-0.28366,0.28952,0.14856,-0.05071,-0.23422,0.0122,-0.26657,0.17617,0.11787],[0.12284,0.05406,0.23242,0.13051,-0.12496,0.227,-0.19281,-0.16115,0.17307,-0.16104,-0.3604,-0.15207,-0.19092,-0.18174,0.08318,-0.17947],[0.21709,-0.09572,0.06495,0.28657,-0.14642,-0.18815,0.04165,0.36174,0.22348,-0.09827,0.38366,0.17826,0.2417,0.18123,0.13694,0.08118],[-0.0927,0.04063,0.00802,0.10296,0.16625,-0.28992,0.05111,-0.01266,0.1464,0.15509,0.02999,0.24466,-0.22209,0.23409,0.08157,-0.15161],[0.03669,0.20843,-0.07304,-0.15425,-0.01013,0.06668,-0.21588,0.1419,-0.03369,-0.05115,-0.06577,0.21163,-0.27654,0.19999,-0.21183,-0.0632],[0.26338,0.07636,0.12191,0.17861,-0.19895,-0.11756,-0.00378,0.22623,0.11727,-0.07601,-0.26738,-0.09363,0.16834,0.27574,0.0994,-0.26823],[-0.12315,-0.02327,0.2925,-0.10902,-0.1506,-0.17045,0.01339,0.02654,0.12294,-0.15198,-0.00998,0.15913,0.17613,-0.02638,-0.03618,-0.1304],[-0.13858,-0.06854,0.28222,-0.0327,0.00281,-0.06708,0.23975,0.02346,0.09609,-0.04094,-0.116,0.09049,-0.1222,0.21039,-0.20993,0.1152],[0.09636,0.17324,0.08484,-0.09066,0.05158,0.01858,-0.10729,-0.09977,-0.0434,-0.23651,0.05724,-0.19101,-0.15854,0.02483,0.14644,-0.20408],[0.01317,0.22412,-0.22352,-0.00428,-0.19447,-0.14024,0.27098,0.19088,0.05722,0.13365,-0.12064,-0.16261,0.07932,0.10856,0.05579,-0.04104],[-0.08363,-0.13864,-0.25704,0.11813,0.02589,-0.02237,0.09322,0.1389,-0.26726,-0.07683,0.05809,-0.16921,-0.23142,-0.11227,-0.12045,-0.1896],[-0.28034,-0.04995,-0.03158,-0.18076,0.03297,-0.0623,-0.15678,0.18803,-0.16949,0.23154,-0.13737,0.07841,0.01212,-0.33554,0.07522,-0.22109],[-0.18733,0.04022,0.17446,-0.08419,0.00103,-0.12985,0.2147,-0.22989,-0.23413,0.16018,0.00495,0.18492,-0.08468,0.07395,-0.05401,0.24261],[-0.13035,0.11469,0.05094,0.03594,-0.10361,-0.22456,0.19525,0.26202,0.23701,-0.00197,0.07049,0.07251,-0.12203,0.14869,0.12257,0.02095],[0.16417,0.06367,-0.14796,-0.03501,-0.07734,-0.08128,-0.02422,0.09484,0.07174,-0.05594,0.13461,0.0661,-0.14715,0.20185,-0.00989,0.09268],[0.09496,-0.28594,-0.00702,0.25044,0.21387,0.11335,0.09257,-0.11634,0.02489,-0.07995,0.22965,-0.15841,0.03536,-0.11403,0.09333,0.18449],[-0.26991,0.06796,-0.0827,-0.09952,0.2768,0.01676,-0.1872,0.22182,-0.24531,-0.03706,0.10178,0.23611,-0.29566,-0.2176,-0.16043,-0.19721],[-0.01784,0.27457,0.20677,-0.1433,0.25231,-0.1741,-0.12019,0.08886,0.09372,0.00057,-0.05174,-0.08045,-0.10787,0.04865,0.20358,-0.09693],[0.10025,0.11369,0.12547,0.04099,-0.10846,-0.07234,0.0862,-0.19615,0.3582,-0.10291,0.18485,-0.15293,-0.11014,-0.13638,-0.11387,0.0815]],"blocks.1.attn.qkv.bias":[-0.00607,0.26285,-0.23147,0.22894,0.07758,0.15243,-0.09528,0.08122,0.13383,0.20211,-0.17577,-0.19986,0.11782,0.38892,0.14464,0.10294,-0.1364,-0.08895,-0.26837,-0.18795,-0.06231,0.10616,0.21586,-0.15182,-0.14007,-0.08795,-0.2217,-0.17869,0.08991,-0.23967,-0.02725,0.04798,-0.13849,-0.13928,0.15502,-0.12166,0.03444,-0.09068,0.13883,0.18096,-0.17475,-0.24163,0.07471,-0.18241,0.10919,0.17856,0.21616,-0.20441],"blocks.1.attn.proj.weight":[[-0.24563,0.16744,-0.03182,-0.17849,0.20504,0.03276,-0.02723,-0.06025,0.05224,-0.06339,0.16495,0.19481,-0.22366,0.1471,0.08221,-0.1799],[-0.17856,0.18007,-0.27711,0.0829,-0.04753,-0.18307,-0.23127,-0.07408,0.2153,-0.125,0.28104,0.06171,-0.15014,-0.20838,0.02098,0.00996],[0.16291,-0.01082,0.30586,0.05745,-0.08746,0.06397,0.1854,0.15567,-0.0091,0.29045,0.03914,0.25075,0.13887,0.21013,-0.08,-0.33672],[0.02291,0.02515,-0.15658,-0.01702,-0.1502,-0.1587,0.24844,0.25285,0.23763,0.22643,-0.32581,-0.202,-0.03589,-0.11431,-0.04437,0.07266],[0.16817,0.19797,-0.11907,0.05616,0.03495,0.13584,-0.04722,-0.13709,-0.14055,0.02979,0.0481,-0.04325,0.09605,-0.15928,0.07372,0.14625],[0.08318,-0.25409,-0.04351,0.00759,-0.00871,0.22398,-0.09205,0.07004,0.1439,-0.06522,0.24354,0.07266,0.18259,-0.26305,0.03736,0.14035],[0.00737,-0.1822,-0.0657,-0.03854,-0.09607,0.26306,0.07002,-0.17074,-0.10266,0.03977,-0.05809,0.10974,0.10676,0.24965,0.2105,-0.15968],[0.02943,0.09099,0.033,0.23266,0.1448,0.00824,0.2587,0.12271,0.09243,0.14086,0.03578,0.06993,-0.20463,0.15055,0.164,0.22344],[-0.23809,0.18494,0.2188,0.15747,0.21205,0.20356,-0.24142,0.19533,0.18029,0.00992,-0.19032,0.19891,0.00554,-0.21251,-0.0362,0.08428],[-0.00223,-0.0808,0.22634,0.13842,-0.13561,-0.05889,-0.01737,0.19697,-0.06878,-0.14535,0.08059,0.09556,0.05652,0.10572,-0.14353,0.306],[-0.17046,-0.12912,-0.00825,-0.07439,0.00479,0.03285,-0.03903,-0.13991,0.07812,-0.03594,0.07666,0.04488,-0.21539,-0.07053,0.15216,-0.01507],[0.2972,-0.07056,0.21435,-0.05826,-0.19441,-0.08124,0.08511,-0.26381,0.13763,-0.07316,-0.15273,0.03891,-0.22037,0.13337,0.05686,0.18743],[0.20999,-0.15992,-0.10453,-0.13522,-0.0631,-0.1197,0.01757,-0.22106,-0.20597,0.04565,0.09925,0.10284,0.13844,-0.28161,-0.14444,0.01691],[-0.21777,-0.14462,0.02645,-0.01959,0.1123,0.20332,0.11955,0.26359,0.09112,0.25718,0.23802,0.01198,-0.11103,0.10887,-0.07914,0.22459],[0.06341,0.08606,-0.1089,0.16337,0.09914,0.11466,0.25183,-0.06478,-0.26975,0.05567,-0.01016,0.08384,-0.10784,0.23562,-0.02006,-0.2198],[0.24554,0.28514,-0.08432,-0.21485,0.16433,-0.15284,-0.17968,0.16703,-0.07769,0.06371,-0.18356,-0.0022,-0.22495,0.12238,0.32065,0.2478]],"blocks.1.attn.proj.bias":[0.20819,-0.14094,-0.07079,0.14628,-0.22799,0.10794,-0.00368,0.04841,-0.05424,0.23004,0.13758,-0.15068,0.0923,0.05476,-0.07493,0.08268],"blocks.1.norm2.weight":[1.0127,1.15012,1.12218,1.03372,1.02981,1.01969,1.03223,1.08244,0.99109,1.02558,1.00971,1.03823,1.02122,1.13584,1.00573,1.04361],"blocks.1.norm2.bias":[-0.03299,0.00038,-0.01081,0.01766,0.0034,0.02502,-0.00155,-0.01739,-0.01465,0.01755,-0.02718,-0.01265,-0.002,-0.02408,-0.01253,-0.00922],"blocks.1.mlp.0.weight":[[0.23183,0.02193,0.00218,0.33309,0.1865,-0.11727,-0.08742,0.14555,-0.34292,-0.18162,0.09431,0.02358,-0.11301,0.33875,0.2072,0.02157],[-0.02412,-0.30142,-0.26522,-0.12405,0.10049,0.10911,-0.21129,0.23395,-0.09817,-0.31301,-0.11066,0.17766,0.22103,0.25934,0.27443,0.09001],[-0.0143,-0.02855,0.35688,-0.01326,0.27871,0.04294,0.20542,-0.14838,-0.08334,0.29564,0.0754,0.10591,0.12236,-0.3327,-0.01146,0.07994],[-0.1577,-0.09441,0.13039,-0.0337,0.40793,-0.08206,0.03017,-0.32673,0.03095,-0.08198,0.06284,-0.05459,0.1597,-0.13421,0.17783,0.31406],[0.19609,-0.02431,0.44531,-0.17353,0.15878,0.1461,-0.08285,0.10983,-0.2664,-0.08709,0.11432,-0.12283,-0.23561,-0.13567,0.17683,0.10217],[0.03296,-0.06608,0.13544,-0.00891,-0.10478,0.1366,0.19223,-0.20685,0.05665,0.32225,-0.08947,-0.12692,-0.02522,0.11567,-0.02024,-0.18547],[0.14825,-0.39366,0.18183,0.16437,0.00318,-0.13029,-0.03407,-0.14058,-0.13526,-0.01442,0.19594,0.16173,-0.02773,0.00243,-0.32456,-0.14259],[0.12936,0.29274,-0.08995,-0.18917,-0.04002,-0.05277,-0.15358,-0.2026,-0.03448,-0.00642,0.27403,0.16031,0.0859,0.06458,-0.20982,-0.0068],[-0.11975,-0.04557,-0.2872,-0.1552,0.14103,0.19529,-0.08288,0.06014,0.06615,0.05802,-0.02611,0.01459,0.05284,-0.22584,-0.25196,0.03838],[-0.02934,-0.1332,0.13284,0.0389,0.16972,0.11657,0.28495,0.2112,-0.14987,-0.21314,-0.2193,0.19015,-0.06741,-0.1953,-0.05136,-0.01513],[-0.06227,-0.32928,0.34783,0.15027,0.07788,0.0837,0.07029,0.14635,-0.15706,0.04394,0.00234,0.37593,-0.27707,0.27049,0.10555,-0.15213],[-0.06906,-0.01372,0.12199,0.14403,-0.1022,-0.23765,-0.21442,0.20135,0.03025,-0.11626,0.1061,-0.11461,0.16233,-0.10534,0.17582,0.11075],[-0.22564,-0.22398,-0.00619,-0.16485,-0.17019,0.07015,-0.02168,0.19269,-0.14147,-0.22051,0.21025,0.20223,-0.24461,0.01696,-0.21208,-0.06514],[0.22636,0.25017,-0.24304,0.10943,-0.1122,0.24869,0.24003,0.04231,-0.1539,-0.09508,0.04845,-0.01557,-0.11553,-0.25354,-0.06274,0.04142],[-0.09263,0.0017,0.33699,-0.11794,0.01347,-0.10399,0.13641,-0.02737,0.07762,-0.20358,-0.12409,0.09991,0.0899,0.09926,-0.16208,0.19647],[-0.22134,0.24579,-0.11225,0.11599,-0.11209,0.02614,-0.21976,0.05268,-0.16066,0.1472,-0.07059,-0.26776,0.0711,-0.11192,-0.2032,-0.28622],[0.15838,-0.21149,-0.09735,0.09695,-0.1309,0.21104,0.29326,-0.00417,-0.25928,-0.03478,0.2445,-0.20024,-0.15286,0.27971,0.13313,0.15599],[0.20578,-0.07672,0.07044,0.1985,-0.21453,-0.11368,-0.15776,0.04762,0.08717,-0.06115,-0.06523,-0.03464,0.07988,0.01688,0.06302,0.0444],[0.27106,0.18618,-0.26561,0.01359,-0.10858,0.09634,0.08506,-0.08016,-0.08671,-0.07445,0.04236,0.20739,0.13713,0.01809,0.08082,-0.24729],[0.06903,-0.26843,-0.08055,0.13525,-0.06395,0.12679,-0.35918,0.31243,0.22179,0.03113,-0.14914,0.11439,0.0659,0.0146,0.01395,-0.19504],[0.07313,0.13314,-0.11986,-0.03985,0.102,-0.23361,-0.01383,0.14631,0.00141,-0.25255,0.20124,0.25233,0.01036,-0.51537,-0.05905,0.10696],[0.03135,-0.30281,-0.38386,0.18168,0.07432,0.04398,0.11089,0.15021,-0.09825,-0.17753,0.03273,0.1407,0.01559,-0.1966,0.18255,-0.11473],[0.1691,0.12473,-0.11362,-0.09571,-0.16141,-0.04964,0.0657,0.22518,-0.07336,0.1795,0.3314,-0.02271,-0.03955,0.20759,-0.00348,0.10238],[-0.19503,-0.00219,-0.03152,0.02181,0.00701,0.30504,0.22083,-0.27616,-0.32678,0.06855,-0.1079,0.13099,-0.09684,-0.20405,-0.18101,0.29027],[0.16165,-0.10879,0.08825,-0.00875,0.12382,-0.18623,0.16294,0.3322,-0.14973,-0.07275,-0.17748,-0.16802,-0.00647,0.1259,-0.32604,-0.07494],[0.24111,0.201,-0.0338,0.14326,-0.03799,-0.115,-0.00295,0.02262,0.25898,-0.01193,0.35537,-0.10811,-0.1037,0.07008,-0.26364,-0.00902],[0.03537,-0.22358,0.34665,-0.0949,-0.37197,0.29055,0.1155,-0.16958,0.0105,-0.08163,-0.11729,0.19702,0.02731,-0.21752,0.25914,-0.12498],[-0.22264,0.27743,-0.19433,0.01695,-0.15666,0.05084,-0.26029,0.02739,0.09685,0.08129,0.19338,0.08819,-0.2645,-0.05993,-0.05178,0.10266],[0.02288,-2e-05,-0.19485,-0.13631,-0.16849,0.38324,0.04984,-0.29684,0.09277,-0.09487,0.19385,0.11313,0.23002,0.25436,-0.05619,0.06197],[0.0338,0.15608,0.22174,-0.16936,-0.22773,-0.24035,0.12945,-0.233,0.0796,-0.00838,-0.04052,0.18414,0.17237,-0.05552,0.07333,0.03612],[0.09126,-0.17996,0.06907,-0.22342,0.25964,-0.16267,-0.13383,-0.15875,0.12622,0.1408,-0.01979,0.17883,-0.18086,-0.12597,0.00528,-0.11312],[0.23224,0.07948,-0.20182,-0.2556,-0.0004,-0.1829,0.04471,0.15161,0.25684,0.31094,-0.15885,0.10189,-0.08553,-0.06103,-0.02871,0.01791]],"blocks.1.mlp.0.bias":[-0.33649,-0.10808,-0.24384,0.13177,-0.15808,0.0426,-0.15789,-0.13255,-0.23594,0.09209,-0.03833,0.07937,0.10448,0.20331,0.074,0.03409,-0.06973,0.12219,-0.03116,-0.19324,-0.17162,0.06419,0.01806,0.17891,0.10161,0.01295,-0.09866,0.06492,0.07026,-0.12684,0.18097,0.1776],"blocks.1.mlp.2.weight":[[0.19287,0.13,0.22152,-0.0762,-0.20816,0.12244,0.07628,-0.05836,-0.25751,0.07449,-0.09091,0.01386,0.05396,-0.04714,-0.07646,0.09298,0.10035,-0.14264,0.0577,-0.18655,-0.09861,-0.09561,0.08101,0.03982,-0.05733,-0.11697,0.12506,0.03315,-0.01547,-0.03265,0.15836,0.04241],[0.16949,-0.12334,0.14108,0.15996,0.11279,-0.0996,0.14047,0.09667,0.05923,-0.16018,-0.11259,-0.03717,0.1409,0.00022,0.18114,-0.15924,-0.11934,-0.04222,-0.12325,0.03643,0.00039,-0.06567,0.12748,0.1327,0.19539,-0.22644,-0.05044,0.04454,0.11536,0.11869,0.0241,-0.03679],[-0.14552,0.03742,-0.015,-0.03917,-0.08456,0.11885,-0.12124,0.11356,0.01494,-0.22534,-0.00173,0.12189,0.02707,-0.09283,0.03341,-0.07661,-0.07105,0.11135,-0.03397,0.29165,0.11089,0.10262,0.06935,0.14541,0.03885,0.11561,0.00585,0.05721,0.19054,0.02789,0.05812,-0.09863],[0.15817,-0.1259,-0.05258,-0.10174,0.00246,0.09161,0.14102,-0.02804,-0.00717,0.06219,0.2536,-0.01587,0.22881,-0.20288,0.13413,0.10708,-0.17083,-0.14722,0.01176,0.02519,-0.12371,-0.14041,-0.00374,-0.08232,-0.08164,0.09814,-0.1705,-0.14391,-0.0011,-0.04824,0.25254,0.09806],[-0.15142,-0.02695,-0.20505,0.01385,0.12063,0.06206,-0.07574,-0.08082,0.04166,-0.02551,-0.2295,0.24437,0.05035,0.04534,-0.13566,-0.00411,0.10022,-0.15545,0.06085,0.0563,0.05416,0.04261,-0.05602,0.1335,0.10008,-0.03206,0.10213,0.02525,-0.01,0.0515,-0.00542,-0.05197],[-0.03107,0.22602,-0.07983,-0.31591,0.04778,-0.0597,0.07756,-0.06432,-0.29471,0.0254,-0.18358,-0.139,-0.08543,0.0015,-0.02892,0.15293,0.20815,-0.1362,0.17896,0.0433,0.01125,-0.10598,0.09546,-0.02811,0.20034,0.05316,0.1134,0.00489,-0.15663,-0.11645,-0.04231,0.1687],[0.11781,0.00171,-0.12032,-0.04987,0.12095,-0.12722,-0.05802,-0.14766,-0.13693,-0.11854,-0.04336,-0.03221,0.09192,0.01554,0.02829,-0.04552,-0.05657,0.13599,-0.14284,-0.04651,-0.0977,0.18484,-0.03838,0.16708,0.07991,0.14678,0.06325,0.09282,-0.1285,0.09903,-0.12308,0.03993],[-0.05873,0.15686,0.18957,-0.03477,0.20888,-0.04441,0.12722,0.02999,-0.08724,0.0943,0.02678,0.10757,-0.13475,-0.01584,0.22365,0.09031,-0.0614,0.18069,0.13733,0.10001,0.12574,-0.14986,-0.06364,0.03655,0.03083,-0.0557,-0.1391,-0.05666,0.10852,-0.01882,-0.14255,-0.08497],[-0.12594,0.14968,-0.14455,-0.03715,0.07478,-0.19144,-0.02633,-0.14866,-0.02087,-0.00704,0.17742,0.10809,-0.03055,0.0548,-0.0009,0.10559,-0.12342,-0.03577,0.03539,-0.14582,-0.00993,0.13375,-0.1545,0.0344,-0.00445,0.0854,-0.05627,-0.1464,-0.01895,-0.20184,0.04909,-0.0519],[0.00816,0.11307,-0.08979,0.17789,0.11017,-0.20885,-0.09862,-0.20832,0.18996,0.02639,-0.11315,0.19908,-0.02919,0.02771,-0.05423,0.0259,0.0916,0.04457,-0.15333,0.01063,0.04005,-0.07763,-0.03361,0.02357,-0.01376,-0.05501,0.06032,-0.1008,-0.12521,-0.28642,0.07977,-0.02517],[0.11439,-0.16044,-0.16411,0.04076,-0.20777,0.08306,0.0011,0.13693,-0.14165,0.0363,-0.15097,-0.04913,-0.06032,-0.07351,-0.04097,0.08843,0.06059,-0.1243,0.15533,0.05278,0.13506,0.12598,-0.21159,-0.15059,-0.08371,-0.11912,-0.08943,-0.20878,0.02192,0.00524,-0.02932,0.01845],[0.16534,0.00991,0.14697,-0.11383,0.00032,0.07327,-0.1392,0.00433,0.20174,0.01675,0.09756,-0.07485,0.10017,-0.22618,0.02331,-0.15079,0.19376,0.17362,-0.04998,0.08349,0.04702,0.0283,-0.00477,-0.21467,0.03675,0.11031,-0.31729,-0.11973,0.12537,0.08224,-0.03048,0.13553],[-0.05631,0.01868,-0.15665,-0.03138,-0.11567,0.15042,-0.0643,-0.07025,-0.07082,0.10014,-0.21674,-0.21871,0.20866,0.05955,0.03331,0.06207,-0.02533,0.02954,-0.1145,-0.16091,0.08607,-0.03269,0.05843,0.10124,0.1041,0.16671,-0.07008,0.00677,-0.10133,0.06012,-0.03703,-0.08779],[0.03655,0.10517,0.12973,0.03889,-0.18423,0.00814,-0.13459,-0.11141,0.22662,-0.18404,0.0282,0.01877,-0.09201,0.04217,-0.03815,-0.09274,0.03784,0.03665,0.08159,0.08606,0.06335,-0.03927,-0.04014,-0.00998,0.16998,-0.05134,0.08516,0.25847,0.01324,-0.04979,-0.12402,0.0346],[0.04604,-0.05557,-0.0554,0.06804,-0.01417,-0.01664,0.19894,-0.00938,0.06422,-0.38558,0.06452,0.12344,-0.1349,0.23676,-0.02983,0.08005,-0.13051,-0.1549,0.00197,-0.03162,-0.13544,-0.16121,0.04562,0.15651,0.08819,0.12173,0.05936,0.03248,-0.30002,0.04366,0.19917,0.12818],[-0.05749,0.23451,0.02876,0.03393,0.16432,-0.05025,-0.09506,0.21828,-0.01599,0.12134,0.01786,-0.0448,-0.04443,-0.00527,0.12868,-0.30786,-0.19924,-0.06329,0.15792,0.09391,0.23498,0.08434,0.04024,-0.07375,0.00537,0.15901,0.23161,-0.00819,0.09387,-0.14327,-0.21459,0.0513]],"blocks.1.mlp.2.bias":[-0.16142,0.13343,-0.01437,0.04541,0.09157,-0.12363,-0.10618,-0.10245,-0.12311,0.09763,0.18429,0.06483,-0.09735,-0.14554,-0.07794,0.03315],"norm.weight":[1.84717,1.49752,1.62883,1.70623,1.53696,1.88079,1.77476,1.65924,1.70419,1.8303,1.67618,1.7176,1.62204,1.73152,1.8574,1.9883],"norm.bias":[-0.13671,0.00142,0.03864,-0.03041,-0.03254,-0.0078,0.04711,0.10486,-0.06421,-0.04436,-0.046,-0.00141,0.02713,0.06169,-0.04346,-0.04187],"head.weight":[[0.58621,0.0047,0.4537,-0.45983,0.52046,0.20612,0.52078,-0.22364,-0.39877,0.44546,0.06115,-0.70249,0.27531,-0.35801,0.10376,0.0089],[-0.43218,-0.49416,0.46485,-0.45268,0.4775,-0.08443,-0.5446,0.2463,0.49992,0.68288,-0.04848,0.12588,-0.48928,0.06237,0.51751,0.44388],[-0.13292,0.30121,0.16863,0.26681,0.15999,-0.71664,-0.2135,-0.54541,-0.09899,-0.17806,0.56625,0.23439,0.39569,0.07766,-0.52869,0.55383],[-0.25407,0.42687,-0.16447,-0.0575,-0.29817,0.47332,-0.41905,-0.25297,0.25486,-0.6948,0.15971,-0.31987,0.03775,0.51657,0.38361,0.703],[-0.18924,0.37862,0.62618,0.37285,-0.23593,-0.71584,0.21619,0.57893,-0.36126,0.07208,-0.63322,0.18685,-0.42345,-0.03713,0.14495,-0.37682],[-0.45958,0.12148,-0.75485,0.47733,-0.01353,0.22495,0.35083,-0.36698,0.47988,0.08127,-0.41968,-0.66224,0.26436,0.34592,0.58503,-0.28258],[0.84486,-0.37546,-0.08132,0.64738,0.03822,-0.1435,-0.25856,-0.52831,0.08591,0.6233,0.05184,0.06316,-0.12745,-0.63369,0.40421,-0.60294],[-0.24718,-0.44389,-0.18952,-0.21623,-0.0794,0.24409,0.33877,0.63745,0.08854,-0.19646,-0.3453,0.41407,-0.05495,-0.25864,-0.71133,0.55444],[-0.34185,-0.03772,0.50979,0.40029,-0.32913,0.4144,-0.54372,0.0226,0.02095,-0.15022,0.53239,-0.17868,0.3591,0.27886,-0.30428,-0.59912],[0.04326,0.04286,0.06312,-0.34377,-0.42973,0.32725,0.34019,0.28469,-0.70867,-0.45065,-0.41714,0.3013,0.21994,0.64675,0.15193,-0.32333]],"head.bias":[-0.13484,0.01615,0.19577,0.09433,-0.08065,0.24571,0.00699,0.18719,-0.04549,-0.1468]}