{"cls_token":[[[0.01352,-0.04801,0.03895,-0.03777,-0.01112,0.00035,-0.04684,-0.03896,0.00437,-0.03666,0.04975,-0.01767,0.00811,-0.11471,-0.02022,0.1006]]],"pos_embed":[[[-0.00805,-0.02833,0.03808,0.01222,0.01926,0.03557,-0.04911,0.02343,0.00017,-0.00187,0.08481,0.00532,0.01635,-0.08648,-0.01625,0.09304],[-0.39108,0.1917,-0.14725,0.41624,0.01431,-0.23659,-0.083,0.12482,-0.14538,-0.30992,0.25748,0.38717,-0.10903,0.00145,-0.21098,0.1276],[0.07439,-0.06135,-0.01346,4e-05,-0.16087,0.20329,-0.02454,-0.11758,0.10964,-0.00498,-0.05757,-0.03894,0.04736,0.21067,-0.10692,-0.06623],[-0.04118,-0.11528,-0.03785,-0.25398,-0.02423,0.05721,0.19342,-0.0872,0.07476,0.27579,0.01331,-0.03751,0.13514,0.10146,0.20688,-0.27773],[-0.05298,0.10975,0.03955,-0.05258,0.03838,-0.04695,-0.04311,0.10714,0.12495,-0.16804,0.02989,-0.06946,-0.11421,0.04239,0.13572,-0.06671]]],"patch_embed.proj.weight":[[0.039,0.05645,0.09528,0.04219,-0.04231,-0.02097,-0.03661,-0.02797,-0.01835,0.08795,0.09363,0.10507,0.01376,0.02134,0.01366,0.05304,-0.08852,0.03353,-0.01144,0.10787,0.07359,-0.03544,0.01003,0.0093,0.03131,0.0097,0.04649,0.04961,-0.0351,0.02245,0.04143,-0.04972,0.02235,0.07416,0.04221,0.06576,-0.0347,-0.10561,-0.09416,-0.02834,0.04497,-0.00338,0.03934,0.04056,-0.02846,-0.02009,-0.01386,-0.06385,0.00438,0.0809,0.0418,-0.01885,0.0101,-0.02783,-0.02767,0.03826,-0.03218,-0.02399,0.0229,-0.01973,-0.03123,-0.03856,-0.07913,-0.08133,0.09925,0.02384,-0.00179,-0.05774,-0.00541,0.00833,-0.01034,-0.0252,0.01878,-0.03613,-0.01927,-0.05907,-0.01948,-0.02819,-0.03751,-0.06432,0.04928,-0.03423,-0.03154,-0.01849,-0.00032,-0.03842,-0.03606,0.02471,-0.02582,-0.03154,-0.06842,0.02444,-0.03976,0.02979,0.0438,-0.05793,0.04302,-0.05266,-0.07845,-0.04573,-0.09567,-0.04086,-0.07392,0.07737,-0.03275,0.02074,0.06571,-0.02556,0.01989,0.03985,-0.06158,-0.14311,0.04415,0.00951,0.01428,-0.02762,-0.11522,-0.03465,-0.02815,-0.02898,-0.02131,-0.01464,-0.00183,-0.06473,-0.02848,0.00067,-0.06763,-0.09943,0.10146,-0.01738,-0.03901,-0.05737,-0.05835,-0.01994,-0.0332,-0.01438,0.00212,0.04799,0.01583,-0.01068,-0.02675,0.03587,-0.03212,-0.16858,0.08037,-0.02767,-0.0595,-0.07779,-0.01765,-0.03016,-0.01641,-0.03109,0.00438,0.04003,-0.02654,0.05425,-0.05023,-0.03556,-0.05475,-0.05547,0.14351,-0.07521,-0.12225,-0.09679,0.00145,-0.04772,0.02169,0.0439,0.02103,-0.00695,-0.0116,-0.01719,0.01122,0.01778,-0.03645,-0.11254,0.03706,-0.02335,-0.06929,-0.04588,-0.03894,0.03235,0.00248,-0.05923,0.01599,-0.03419,-0.03512,-0.02391,0.05364,-0.021,-0.01065,-0.09717,0.031,0.0461,-0.09658,-0.00199,0.00476,-0.00424,-0.04543,-0.03564,-0.03774,0.02615,-0.00826,0.03736,0.05007,0.00335,-0.05635,-0.17103,0.04449,0.05279,0.02709,-0.05648,-0.06922,-0.00419,-0.03562,-0.09946,-0.02957,-0.08119,-0.01016,0.03922,0.01811,0.02272,0.02473,-0.10315,0.02346,-0.07339,-0.04366,-0.03879,-0.03719,-0.05024,-0.04208,-0.03487,-0.06774,0.00876,-0.01029,0.02938,0.04744,0.16653,0.15733,-0.02124,-0.0039,0.01621,0.01637,0.08512,0.0931,0.04194,0.0598,0.03974,0.06287,0.0125,-0.00517,0.01191,-0.02993,0.06322,0.09344,-0.11243],[0.09822,0.05561,-0.02152,0.04759,0.05204,-0.00764,-0.00019,-0.03661,-0.04207,-0.10469,-0.00241,-0.05023,-0.13881,-0.08431,-0.11629,-0.153,0.02276,-0.02619,-0.00291,0.05384,-0.02541,-0.04638,-0.08101,-0.02678,-0.01156,-0.08549,-0.03869,-0.0425,-0.06301,0.03865,0.05856,-0.04304,-0.09064,-0.02192,-0.02704,-0.085,-0.10199,-0.0661,0.0067,-0.00475,-0.00109,-0.05187,-0.02704,-0.00133,-0.02294,-0.10375,-0.10695,-0.00517,-0.1104,-0.10679,-0.09312,-0.07344,0.03232,0.06499,0.03595,0.01723,0.07299,0.03915,0.03966,-0.0221,-0.04948,-0.03341,-0.01997,-0.04137,-0.06794,0.00945,-0.00838,0.01061,-0.01063,0.00879,0.03919,0.01662,-0.00162,0.01098,0.08385,0.00449,0.05499,-0.03869,-0.02788,-0.0071,0.00881,0.08625,0.03657,0.03007,0.06914,0.00493,-0.01097,-0.0109,0.02663,0.05657,0.13212,0.01158,0.02826,0.03942,0.10295,0.06093,0.04125,0.01164,0.09016,0.12471,0.08498,0.00448,0.03259,0.02767,0.04956,0.04343,-0.02211,0.05547,0.09847,0.1262,0.09282,0.14027,0.02572,0.0148,0.09779,0.06408,-0.0071,0.00755,-0.0392,-0.01406,-0.04682,0.04053,-0.0182,0.03706,0.06938,0.05876,0.05107,0.09179,-0.01815,0.09044,0.05362,-0.01171,0.03849,-0.01461,-0.0377,0.02526,0.01879,0.06517,-0.06229,0.02218,0.00924,-0.01432,-0.01862,0.03773,0.05349,0.04634,0.11551,0.09799,0.03884,-0.01231,0.03896,-0.02169,-0.00263,0.06485,-0.00341,-0.02007,0.02464,0.03644,-0.01566,0.06555,-0.0043,0.0888,0.03052,0.02598,0.05253,0.00899,0.04396,0.03378,-0.03478,-0.02459,0.0313,0.0381,0.09754,0.03047,0.07387,0.00875,0.03936,0.00763,0.03028,0.03793,-0.01238,-0.05915,-0.00698,0.01204,-0.02244,0.09554,0.00512,-0.01342,0.05747,0.03939,0.01094,0.04656,-0.06241,0.00798,0.06674,-0.02668,-0.01081,-0.04304,-0.0169,-0.03297,0.00086,-0.06596,-0.02779,-0.01899,-0.06195,-0.00624,-0.0011,0.061,-0.09551,-0.05562,-0.01932,-0.02505,-0.11218,-0.03528,-0.05996,-0.02072,-0.0886,-0.06365,-0.08846,-0.12501,-0.04013,-0.0458,-0.07739,-0.00167,-0.13325,-0.0599,-0.03661,-0.07152,0.01957,-0.00319,-0.01248,0.02334,-0.06991,-0.07522,-0.10477,-0.05098,-0.06732,-0.02091,-0.01507,-0.09557,0.00013,-0.04515,-0.01895,0.0267,0.01337,-0.0322,-0.06293,-0.03858,-0.01743,-0.05115,0.01768,-0.08104,-0.02,0.01077,0.04499,0.06216],[-0.11391,-0.05118,0.01044,0.01259,0.0758,-0.00079,0.04789,0.00356,0.04788,-0.01118,-0.03385,-0.05437,-0.03997,-0.02235,0.00817,-0.09017,-0.04152,0.00561,-0.03215,0.00115,0.07695,0.00077,-0.04326,0.01372,0.00557,-0.0314,-0.01478,0.07517,-0.04825,0.04445,0.02703,-0.11444,0.02356,-0.00312,-0.01791,0.02745,0.06288,-0.04739,-0.02183,-0.04522,-0.01398,0.00161,-0.03074,-0.00433,0.0394,-0.04714,0.03399,-0.09257,-0.04696,0.05101,0.0823,0.01487,0.06197,-0.075,-0.02975,0.03894,0.02171,0.0543,0.06159,-0.0129,0.0189,-0.03793,-0.02648,0.07593,-0.0605,0.05586,0.03412,0.06574,-0.03677,-0.04864,0.00339,-0.00774,-0.02988,0.00018,-0.0285,0.01144,0.01005,-0.04525,-0.02502,0.07244,-0.02255,0.03161,-0.05851,0.03245,-0.04232,-0.0449,0.00233,-0.00721,-0.07954,-0.06513,0.01179,-0.07736,-0.00627,0.01227,-0.02907,-0.01972,0.00108,-0.01896,-0.02457,0.02954,-0.07142,-0.10761,-0.09063,-0.00907,-0.02468,-0.03354,-0.08513,-0.04569,0.00316,0.03499,0.04265,-0.00272,-0.07583,0.01837,0.00419,0.01276,-0.0056,-0.06048,-0.01926,-0.04486,-0.02127,-0.03055,-0.07413,-0.03047,-0.02354,-0.03006,0.03856,0.01161,-0.01721,-0.00603,0.08085,0.00374,0.05307,-0.0815,-0.03437,-0.03956,-0.04283,0.03044,-0.06959,-0.0002,0.04168,-0.02745,0.0121,-0.00343,0.01137,0.05418,0.04673,-0.05656,-0.08324,-0.01424,-0.00678,-0.04531,0.04009,-0.0008,-0.0043,-0.03674,0.0277,0.07622,0.02048,0.0182,0.09726,0.06287,0.03277,0.03416,0.02335,-0.03624,-0.01931,-0.07556,0.03071,-0.02483,0.03685,0.00579,0.02054,0.07703,0.08617,-0.03696,0.15944,0.05834,0.11053,0.02612,0.01803,0.01191,0.02263,0.04336,-0.06292,-0.00394,0.02797,0.0192,0.09051,0.06985,0.00532,0.02926,-0.02075,0.03873,0.01314,0.00315,0.01315,0.01093,0.04952,0.00922,0.03556,-0.01375,0.02924,0.05964,0.01645,0.12512,0.02867,-0.02141,-0.03528,0.00049,-0.02905,0.05246,-0.05724,0.05568,0.00152,0.03071,0.00504,0.02322,0.07564,-0.02682,0.07549,0.05116,0.00799,-0.01294,-0.05668,-0.05524,-0.03235,0.03469,-0.1109,-0.00234,0.01656,-0.0073,-0.00049,0.01865,-0.03813,-0.04154,-0.05373,-0.03512,-0.07893,-0.12261,-0.00154,-0.00734,-0.05253,-0.0186,0.03827,-0.02806,-0.08163,-0.00321,-0.02542,0.03347,-0.014,0.00919,0.06221,-0.00821,-0.0559,-0.11745],[0.00573,-0.09179,0.0224,-0.04615,0.05283,-0.03148,0.00752,0.0803,-0.02995,0.0016,-0.00881,-0.04639,-0.07352,-0.00239,-0.04317,-0.07539,-0.03109,0.04769,-0.03698,0.03045,0.00708,-0.02595,0.00524,-0.01906,-0.01763,-0.01425,0.06333,-0.02167,-0.00978,-0.00382,0.05851,0.02966,-0.0725,0.02097,0.04488,-0.01258,-0.01709,-0.02749,-0.03353,0.01903,0.02074,0.08102,0.00222,0.05458,0.0184,0.03975,-0.04731,0.00674,-0.05098,-0.03917,0.01523,0.03805,0.04571,0.01866,0.00304,-0.0141,0.01187,0.02232,0.03032,-0.03628,-0.02063,0.02594,-0.00388,0.04477,0.03481,0.02593,0.03466,0.08449,0.0762,0.03126,-0.0344,-0.08869,0.00298,-0.03801,-0.08733,-0.03605,-0.04471,-0.01138,0.02716,-0.04798,-0.00789,0.02706,0.00545,0.03811,0.06951,-0.0381,0.02991,-0.05805,-0.03896,-0.01747,-0.00533,-0.10787,-0.01255,-0.0472,0.00691,0.04726,-0.07928,0.02887,0.08026,0.03532,0.03461,-0.03081,0.03314,-0.0481,-0.01392,-0.0531,0.00174,-0.06408,-0.01648,0.02232,0.03026,0.08398,-0.06876,0.00207,0.1105,0.07839,0.0764,0.04283,-0.03668,-0.03163,0.00554,-0.06888,-0.05795,-0.07855,-0.00043,0.04401,0.09164,0.09792,-0.08052,0.02055,0.06895,0.06717,0.04583,-0.03968,-0.05464,-0.01038,0.01238,0.00523,-0.03693,-0.02356,-0.03773,-0.01331,0.03714,0.02008,-0.04902,0.02988,0.12784,0.01824,-0.03423,-0.06176,0.03624,-0.0022,-0.05829,0.00641,-0.02668,0.04471,-0.00451,0.00075,0.10021,0.04759,-0.01366,0.1345,0.05974,-0.00381,0.05774,0.00414,-0.05244,-0.03275,-0.00637,-0.00086,-0.03925,-0.03594,0.04939,0.06193,0.03636,0.02522,0.00949,0.08309,0.05461,0.01511,0.03179,-0.02238,0.01005,-0.02885,-0.02838,0.00263,-0.09708,0.02219,0.04207,0.04027,0.10498,-0.00641,0.06471,0.02204,0.02431,0.00504,0.00662,0.02828,0.03598,-0.00942,0.0225,-0.02841,-0.08733,-0.01099,0.09554,0.11288,0.06287,-0.0375,0.03783,0.15111,0.0027,0.07784,0.00579,0.05245,0.00495,0.00708,-0.0528,-0.01042,0.01886,-0.01159,0.07866,0.19192,0.16441,0.05949,0.04245,0.04633,0.04927,0.08108,0.0298,0.06636,-0.01721,-0.00787,-0.05752,-0.01093,0.03089,0.01404,0.05842,0.09891,0.05804,0.07098,-0.01292,0.07124,0.04708,0.0092,-0.00262,-0.00044,-0.07002,-0.02407,0.07652,0.01885,0.06561,0.02428,0.11961,0.04903,0.0027,0.06909],[-0.04291,-0.05426,-0.00469,-0.03588,-0.00395,0.02896,0.0511,0.09771,-0.04396,-0.07725,-0.02538,-0.06843,-0.11014,-0.09734,-0.08341,-0.05594,0.03565,0.03881,-0.01569,0.02252,-0.03004,0.03086,0.03148,-0.01661,-0.01832,0.00494,0.04889,-0.01848,-0.00466,0.07489,-0.00295,0.06472,0.05048,0.06613,0.1031,0.01845,0.01169,0.00554,0.04631,0.01631,0.02606,0.04808,-0.01892,0.02103,0.04057,0.02488,0.05682,0.06903,0.06929,0.04626,0.02005,0.00537,0.02166,0.03537,0.04136,0.00937,0.07329,0.03035,0.01246,0.04058,0.04622,0.07102,0.04769,0.12811,0.10592,-0.00353,-0.01986,-0.0247,-0.02543,0.01875,0.03958,0.01818,0.01517,0.02905,0.03815,-0.04409,0.01256,0.03994,-0.00368,0.09193,-0.04698,-0.02869,-0.00306,-0.09496,-0.04836,0.05903,0.05269,0.07884,0.01126,-0.01284,-0.05199,-0.01986,-0.01628,-0.01828,-0.05781,-0.03026,-0.05725,-0.00551,-0.01938,-0.09385,0.01365,0.02574,0.00769,0.06572,0.05498,0.00602,0.07223,-0.0434,-0.08727,-0.1114,-0.16027,-0.04758,-0.05353,-0.11194,-0.09819,-0.07558,0.07594,0.0395,0.08134,0.04694,0.01504,0.04706,0.00505,0.01899,-0.01272,-0.08899,-0.11744,0.05023,-0.10548,-0.04987,-0.02033,-0.09812,0.01872,0.06126,0.08295,0.04586,0.03245,0.02483,0.02094,-0.01061,-0.05749,-0.05956,-0.05711,0.13941,-0.10096,-0.11101,-0.06292,-0.00191,0.07035,0.04969,0.04496,0.02041,0.0539,-0.02392,-0.01433,-0.08694,-0.00912,-0.02363,-0.03924,0.12718,-0.10417,-0.1181,-0.00501,0.06842,0.1436,0.09598,-0.01487,-0.01569,0.06888,-0.02892,0.00802,-0.08997,-0.04312,-0.05386,-0.01684,0.11734,-0.08755,-0.05412,0.12107,0.06511,0.05522,0.05804,0.09154,-0.00728,-0.03477,0.00933,-0.03315,-0.01267,-0.12262,-0.12364,-0.01265,0.21612,-0.10938,-0.02721,0.07647,0.08811,0.04994,0.01234,0.06877,-0.04425,0.04073,-0.0072,-0.05681,-0.09741,-0.09247,-0.04666,-0.03603,0.21688,-0.07566,0.05881,0.09303,-0.01812,0.04839,-0.03837,-0.0314,-0.04924,-0.03728,-0.07963,-0.02442,-0.1088,-0.04466,-0.06952,-0.10838,0.09306,-0.07973,-0.00914,0.01327,-0.02408,-0.02326,-0.07583,-0.0601,-0.02415,-0.08306,-0.01498,-0.02835,-0.06988,0.01001,-0.06407,-0.03674,0.04009,-0.05282,0.00255,0.00038,0.01255,0.01678,0.00223,-0.06752,-0.07981,-0.07217,-0.02918,-0.02081,0.02863,0.07138,0.02138,0.0907,0.11122],[-0.10295,-0.00246,-0.094,-0.01874,0.05144,-0.0064,0.01534,0.04508,0.08839,0.00981,0.01374,0.05424,-0.01685,0.09038,0.09973,0.03478,0.06378,0.00529,-0.03734,-0.00689,-0.00599,0.0414,0.06021,-0.002,-0.02407,-0.04284,0.00126,-0.00292,-0.02248,-0.03393,-0.01235,-0.02177,-0.09411,-0.03334,0.02694,-0.04008,-0.06021,-0.02715,0.05378,0.03804,0.00029,0.00835,0.00108,-0.08837,-0.03161,-0.09229,-0.05819,-0.0571,-0.11823,-0.05696,-0.05487,-0.07569,-0.06527,-0.02223,0.00763,0.02734,0.02647,0.01832,-0.03856,-0.04215,-0.01154,-0.0244,-0.0068,-0.01834,0.00358,-0.06839,-0.05827,-0.05884,-0.04982,-0.04015,-0.01428,0.08699,0.02719,0.00465,0.08277,0.02289,-0.00737,-0.07306,-0.00446,-0.0709,0.02115,0.02127,-0.01991,-0.03515,-0.00658,0.02747,-0.01221,0.05716,-0.01602,0.04027,0.06934,0.01498,0.0299,-0.06138,-0.01201,-0.01561,0.0368,-0.0866,-0.03623,0.05617,0.00295,0.04687,0.02688,0.01031,-0.01562,0.02241,-0.00655,0.00082,-0.00843,0.04253,0.03541,-0.04453,-0.03946,0.01902,-0.0095,-0.04683,0.07621,0.03798,0.02849,0.02854,0.043,0.08251,-0.02396,-0.01275,0.00617,0.02787,0.01915,-0.00213,-0.02595,0.00524,-0.00742,-0.03111,0.0251,0.01064,0.03888,-0.01533,-0.00824,0.03224,-0.00866,0.00068,0.00044,-0.04614,-0.04756,0.00536,0.01082,-0.05682,0.01678,0.01485,0.07267,-0.01257,0.01005,0.05621,0.00419,0.00557,0.0005,-0.0363,0.0103,-0.00425,0.04101,0.03776,-0.04833,-0.03482,0.05226,0.06547,0.06307,0.01367,0.05447,0.03967,0.00543,-0.02668,0.00812,0.03404,-0.02553,-0.0245,-0.00257,0.08587,-0.0157,0.05287,0.10973,0.04092,0.03449,0.01787,0.04283,-0.04162,-0.0337,0.03355,-0.01972,-0.02165,0.0231,-0.02072,0.00077,0.03275,-0.00095,0.02024,0.02815,-0.01327,-0.01353,-0.02331,0.05314,-0.00644,0.0562,0.04063,0.0681,0.01454,-0.01089,0.04351,0.12207,0.03524,0.03855,0.00901,0.04253,0.00242,-0.04453,0.00468,-0.00366,0.06298,-0.00678,0.05771,0.04221,0.09753,-0.01379,0.00262,0.08113,0.11606,0.10826,0.00477,0.04212,0.01874,0.02989,0.02993,0.00682,0.03393,0.05613,0.01087,0.06699,0.02543,0.00939,0.03106,-0.00483,0.0005,0.11209,0.03266,0.02141,-0.05332,0.00211,0.03999,-0.07423,0.01653,-0.05413,-0.06759,0.0275,-0.01969,-0.0632,-0.07165,0.01192,-0.07813],[0.04752,0.02138,-0.00539,-0.05033,0.04466,0.04637,0.04519,0.03402,0.06407,0.04686,-0.05006,0.01959,0.07131,0.08698,0.08258,0.06531,0.171,0.06682,-0.04452,0.03982,0.00904,0.03711,0.00899,0.02362,0.03693,0.07704,0.07722,0.09779,0.119,0.1227,0.06695,0.04711,0.02308,0.06661,0.02578,0.10739,0.03161,0.02256,-0.02109,-0.00197,0.01896,-0.00221,0.06387,0.03519,0.09452,0.1087,0.00438,0.06389,-0.02964,-0.03522,0.04212,0.07081,0.05144,-0.01816,-0.02261,-0.02191,-0.03483,-0.08066,-0.02664,-0.02812,0.00158,0.04512,0.04464,0.12031,-0.02241,-0.0288,-0.01806,-0.00429,-0.02656,-0.0032,0.00225,0.03433,-0.00942,-0.05856,-0.01923,-0.09631,-0.09805,-0.0011,-0.01583,0.12004,-0.0833,-0.04916,0.01679,0.01785,0.02386,0.08779,-0.05316,0.0104,0.01943,-0.04195,-0.00079,-0.00199,-0.02335,0.02067,0.11357,0.09745,-0.10235,0.02101,0.07002,0.01102,0.02716,-0.00242,0.02644,-0.04558,0.00583,-0.01413,-0.00265,-0.04304,0.04821,0.03229,0.03233,0.15184,-0.11403,0.08744,0.01184,0.02497,-0.02311,-0.0583,-0.10903,-0.01971,0.01301,-0.085,-0.03553,0.00487,0.01113,0.04545,-0.00502,0.02489,-0.05049,-0.00776,-0.02935,0.0391,0.01027,-0.0173,-0.08076,-0.1129,-0.00551,0.05089,0.0683,0.01956,0.02002,0.01672,-0.01476,-0.02793,-0.03224,-0.03715,-0.00836,-0.02437,-0.10106,-0.11728,-0.08218,0.00964,-0.00322,-0.00457,-0.06536,-0.04804,0.07024,0.04853,0.01083,-0.07064,0.04009,-0.03399,-0.00904,-0.05264,-0.04925,-0.03756,-0.04219,-0.00221,0.0223,0.06906,0.03774,0.00206,0.03325,0.0427,0.08116,-0.08383,-0.00602,-0.02183,0.00215,0.00626,0.03057,0.04127,0.02066,0.04847,0.04531,-0.02793,0.02613,0.01405,0.03039,0.07868,-0.05086,-0.09126,0.00073,0.08896,0.01015,-0.01218,-0.09331,-0.01511,0.01066,-0.09221,0.06795,-0.03032,0.06756,0.05874,0.04815,0.07829,-0.00045,0.00383,0.04494,0.03778,-0.02752,-0.11019,-0.09925,-0.00481,0.02053,-0.00756,-0.0134,-0.01574,-0.01585,0.01759,0.06336,0.04506,0.01811,0.04302,0.07134,0.01489,0.00306,0.03502,-0.04699,-0.01334,0.01191,0.03644,-0.02248,0.00328,-0.08226,-0.06652,-0.0646,0.03987,0.00358,0.02932,0.00744,0.02521,0.03807,-0.03121,0.04553,-0.00857,-0.0301,-0.00992,-0.03545,-0.00023,-0.00467,-0.13827,-0.03629,-0.06447,-0.0737,0.03639],[0.15864,0.11086,-6e-05,-0.04817,-0.04975,0.06131,0.02434,-0.00128,-0.01272,0.05329,0.07713,0.00574,0.07651,-0.04392,0.05161,0.05281,0.06582,0.02055,-0.0685,-0.06526,-0.13319,-0.04695,-0.04837,-0.03493,-0.0181,0.04954,0.06574,0.05237,0.10399,0.05739,-0.03433,0.08215,0.05298,-0.03492,-0.10907,-0.07936,-0.02877,-0.05396,-0.0655,-0.0663,-0.03462,-0.00952,0.07595,0.05597,0.06178,0.12056,0.06287,0.11913,0.0633,-0.0811,-0.07865,-0.02549,-0.08906,-0.08383,-0.10082,-0.17335,-0.04532,-0.10988,-0.05881,0.05056,0.00054,0.02169,0.1171,0.06019,0.0175,-0.053,-0.0216,-0.02364,0.03079,-0.05578,-0.0131,-0.0385,-0.08516,-0.08204,-0.1072,-0.12992,-0.03134,-0.03953,-0.01881,-0.00728,-0.00258,-0.02433,0.06222,0.00693,0.03526,0.0437,-0.04348,-0.0228,-0.02274,-0.05307,-0.12904,-0.06623,-0.0676,-0.14743,-0.13174,-0.04914,0.09088,-0.05108,0.00487,0.00334,0.01408,-0.04161,0.02677,0.04719,-0.00748,0.07263,0.0037,-0.07828,-0.0733,-0.07036,-0.03597,-0.10966,0.13543,-0.04003,-0.03106,0.00445,-0.0413,0.04857,0.06612,0.06099,0.0166,-0.0029,0.00512,0.05857,-0.01218,-0.01075,-0.01852,-0.10204,0.15041,0.05276,-0.05617,0.01409,-0.04776,0.05351,0.04114,-0.01364,-0.02308,-0.01271,-0.01667,0.0507,0.01098,0.00989,-0.002,-0.0789,0.03855,0.03239,-0.07023,-0.09152,0.0553,0.09859,-0.01293,-0.00172,0.07017,0.00209,0.09364,-0.01046,0.05921,-0.00978,0.03595,-0.01178,0.04932,-0.06754,-0.04133,0.01005,-0.00654,-0.02129,0.01247,-0.01236,-0.0176,0.03694,-0.01535,0.03771,-0.04195,-0.0068,-0.00963,-0.00254,0.03191,-0.08944,-0.07916,-0.07862,-0.01133,0.06689,-0.01275,0.06057,0.07049,0.00616,0.06733,-0.04643,0.03002,0.02724,-0.08754,0.06937,0.10027,-0.02047,-0.08761,-0.10405,0.0477,0.01207,0.00089,0.04432,0.03912,0.09061,0.02352,0.06511,0.02802,-0.08315,-0.05887,0.06774,0.13274,0.06759,-0.09649,-0.05421,0.04514,2e-05,0.0076,-0.06116,-0.00044,0.09209,0.15756,0.0031,0.01289,0.05141,0.0534,0.09563,0.05237,0.03586,-0.00229,0.01053,-0.05051,0.0028,-0.05777,-0.00178,0.03505,-0.01216,0.07377,0.02941,0.01975,-0.00912,0.03066,0.07012,-0.04703,-0.01688,-0.06985,-0.10904,-0.01099,-0.03792,-0.03159,-0.01406,-0.09926,-0.09159,-0.08133,-0.12866,-0.0641,-0.04197,-0.05008,0.10439],[-0.0937,-0.02232,-0.12283,-0.09228,0.00416,0.11852,0.06405,0.01244,-0.0019,-0.02086,0.0427,0.06307,0.05631,-0.00971,-0.01827,0.07604,-0.09538,-0.05171,0.01333,-0.02929,0.00793,0.05754,0.06275,0.00678,0.02926,-0.01313,0.00457,0.06473,0.03141,-0.00298,0.03705,-0.02217,-0.02213,-0.02083,-0.0457,-0.03584,0.02594,0.10525,0.09226,0.03209,0.0066,-0.09366,0.00881,0.03767,0.06442,0.0233,0.05529,-0.04739,-0.09738,-0.04568,-0.04786,0.05078,0.10529,0.1193,0.08305,0.01252,-0.0397,0.00337,0.0179,-0.07184,-0.03398,-0.0759,0.03681,0.02014,-0.04304,-0.06415,0.0279,0.03115,-0.01023,0.10928,0.05075,-0.01349,0.05029,-0.02129,-0.01876,-0.04568,-0.06948,0.01914,0.03997,-0.00133,-0.03269,-0.09296,-0.05486,-0.03252,0.06234,0.00995,0.0393,-0.00688,-0.01286,0.01465,-0.01358,-0.01865,-0.04822,0.01591,0.05823,0.00379,-0.01697,-0.03899,-0.03203,0.06868,0.09064,0.10148,0.04264,0.03155,0.02613,0.12509,0.01914,0.01196,-0.00319,-0.00632,0.03715,-0.04794,-0.02498,-0.0199,0.01947,0.02443,0.05208,0.06675,0.10125,0.02,-0.02301,0.04369,0.02453,0.06286,0.01993,0.06394,0.01691,-0.02863,-0.0445,-0.00036,-0.03379,0.06888,0.0833,0.03491,0.07083,0.05377,0.01616,0.0274,0.04152,0.02477,0.06202,0.05043,-0.01191,0.03784,-0.0316,-0.02234,0.0969,0.11255,0.01795,0.07087,0.00449,0.02046,0.03254,0.01384,0.06205,0.00919,-0.00244,0.04145,0.01582,-0.00369,-0.01371,0.02514,0.01155,-0.01072,0.04316,0.02462,0.03394,0.05187,0.03299,0.01648,-0.07619,0.01752,-0.05375,0.02083,-0.00372,-0.10656,0.00809,0.01994,-0.01184,-0.0016,0.0325,0.0346,6e-05,0.0208,0.05564,0.0035,0.01147,0.00973,-0.04975,-0.01823,0.04268,-0.09741,0.0642,-0.02129,0.03059,0.04064,0.0468,0.00277,0.03612,0.02103,-0.02607,-0.02895,-0.02681,-0.01936,-0.05918,0.00193,-0.05531,-0.15264,0.051,-0.0235,-0.00076,-0.05149,-0.06934,0.01896,0.04562,-0.00729,-0.00633,-0.09326,-0.10262,-0.03848,0.042,0.00204,-0.04877,-0.20688,-0.02447,-0.02978,-0.07333,-0.07925,-0.01882,-0.03276,-0.03269,-0.00074,-0.0132,-0.01812,-0.01863,-0.04327,-0.04703,0.04806,0.08841,-0.17515,-0.00546,-0.09076,-0.16712,-0.03402,-0.04569,-0.01375,-0.06558,-0.06872,-0.00857,-0.00224,-0.01191,-0.01145,-0.03306,0.04894,0.06153,0.02677],[-0.09274,-0.00247,0.13937,0.10745,-0.00115,-0.08468,0.02851,-0.08929,-0.10506,-0.10006,0.01179,-0.01211,0.04978,0.10422,0.08648,0.00577,-0.04518,-0.0584,0.03925,0.1005,0.02675,0.09599,0.07447,0.04939,0.01677,0.02279,0.00124,0.05158,0.06382,0.05829,-0.04352,0.04163,-0.03939,-0.01247,0.09509,0.03895,0.05012,0.10538,-0.00102,0.01599,-0.06529,-0.0422,-0.01992,-0.02833,-0.00745,0.03679,0.04608,-0.07601,-0.0532,0.07415,0.0488,0.06869,0.06919,0.05503,-0.04082,-0.03629,-0.00329,-0.07354,-0.01862,-0.05898,-0.04196,-0.01169,-0.05391,-0.10594,-0.06331,-0.06247,-0.03059,0.09111,0.10983,0.10044,0.00158,-0.02999,0.00905,0.01995,-0.02294,-0.08043,-0.14637,-0.13718,-0.04196,-0.1161,-0.09487,0.02344,0.08569,0.00102,0.0606,0.06509,0.04546,0.04429,0.02035,0.01582,-0.06438,-0.08556,-0.09731,-0.08182,-0.10848,0.01627,-0.05584,-0.01536,0.09384,0.11488,0.13021,0.13885,0.10953,-0.04383,-0.00065,-0.07536,-0.00868,-0.02895,-0.06216,-0.04606,-0.04676,0.05136,-0.09082,-0.07052,0.07806,0.07351,0.11319,0.04305,0.00896,-0.02308,-0.03806,-0.0283,-0.04408,-0.06908,0.0002,0.00873,0.04845,0.09579,-0.02795,-0.05487,0.11469,0.10666,0.08032,-0.01637,-0.00314,-0.05057,-0.01379,0.01373,-0.03165,-0.0282,-0.02973,0.01027,0.03323,0.04664,-0.0632,0.03537,0.08896,0.15193,0.05069,0.00265,0.00437,-0.04232,-0.00803,-0.04363,-0.05058,0.00907,-0.009,-0.00213,0.02913,0.10339,-0.11441,0.06077,0.05159,0.10122,-0.01882,-0.08665,-0.01968,-0.03585,-0.01953,-0.06861,-0.0647,-0.0398,-0.0529,0.00438,0.09991,0.06329,-0.06669,0.003,0.04104,0.0162,-0.06583,-0.09935,-0.02708,-0.06558,-0.04576,-0.03958,-0.05578,-0.0232,-0.01882,-0.00271,0.10939,0.01941,-0.07639,0.07874,0.04504,0.01454,-0.04048,-0.09083,-0.04733,-0.0674,-0.06993,-0.0583,-0.04352,-0.11016,-0.0497,0.01698,0.0924,0.05783,0.04758,-0.03262,0.08775,0.00307,-0.02639,-0.02183,-0.09862,-0.10874,-0.02273,-0.01174,-0.10868,-0.07005,-0.08574,0.03632,0.09451,0.09597,-0.04495,-0.00203,0.03101,-0.00359,-0.09569,0.02898,-0.03779,-0.03269,-0.09824,-0.09609,-0.02827,-0.00795,-0.02457,0.04134,0.15753,0.01968,0.00851,0.00888,-0.03781,0.00669,0.08349,0.00478,0.10096,0.05727,0.04157,0.05528,-0.01762,-0.04545,-0.08416,-0.08942,0.011,0.00282],[0.05132,0.05406,0.05378,0.0888,0.04079,0.07624,-0.04453,0.02813,-0.00301,-0.0159,0.00664,-0.09128,-0.07765,-0.12255,-0.07045,-0.13396,0.06424,-0.01771,-0.03959,0.06606,0.0832,0.04008,0.09239,0.1112,0.13467,0.08382,0.01819,0.02191,-0.07076,0.01289,0.02002,-0.02696,0.01945,-0.03784,-0.04382,-0.03114,-0.04877,-0.05461,0.00638,0.09587,0.07812,0.17066,0.12134,0.03169,0.00354,0.00094,-0.07484,-0.05553,-0.00151,0.04963,0.03214,0.01084,-0.10646,-0.05405,0.07186,0.05578,0.12886,0.17408,0.19456,0.17469,0.11563,0.02456,0.03864,-0.03934,0.01709,0.09719,0.03256,-0.06067,-0.05179,-0.03767,-0.0446,0.09162,-0.01251,0.10977,0.18389,0.21166,0.17067,0.15667,0.13924,0.05701,0.06887,0.07995,-0.02766,-0.02238,-0.02058,-0.11237,-0.06577,-0.06967,-0.05584,-0.01909,0.01601,0.01767,0.08021,0.11985,0.12474,0.04345,0.13566,0.04907,0.05114,-0.0792,-0.09146,-0.05678,-0.08265,0.01021,-0.04954,-0.03191,-0.02948,-0.04218,-0.05947,0.04113,0.00808,-0.08054,0.09407,0.05079,0.04385,-0.05821,-0.05362,-0.05355,-0.01599,0.03997,0.00354,-0.02799,0.01417,-0.08758,-0.09188,-0.08065,-0.1256,0.00858,0.11184,0.09512,0.04227,-0.08872,-0.02328,-0.06762,0.03608,-0.0315,-0.00313,-0.04248,-0.00356,-0.02543,0.03632,-0.05627,0.00138,-0.01722,0.05692,0.11232,-0.00758,-0.05677,-0.07619,-0.06692,0.03393,-0.00596,-0.06577,-0.02469,-0.01692,-0.02733,0.01561,-0.00248,-0.00284,0.00875,0.11393,0.05651,-0.11265,-0.07979,-0.01991,0.00139,-0.02453,0.05658,-0.01159,-0.09214,-0.0086,-0.0014,-0.02256,-0.04019,-0.03331,-0.03902,0.04414,-0.04284,-0.11542,-0.03007,-0.04551,-0.02055,-0.10879,-0.06211,0.01188,0.0146,0.01129,-0.04771,-0.07922,-0.03567,-0.03058,0.07628,0.09079,-0.0269,0.03093,-0.06124,0.04151,-0.01419,-0.0248,-0.01778,-0.05549,-0.00887,0.00553,-0.04859,-0.07271,-0.11137,0.0574,0.16916,0.04431,-0.0404,-0.02051,-0.00664,-0.01806,0.0545,0.04075,0.05465,-0.01733,0.04038,-0.04499,-0.09655,-0.03383,-0.03117,-0.03985,0.1709,0.01966,0.05602,0.02275,-0.02576,0.02787,0.05648,-0.01407,-0.02614,-0.01525,0.04223,0.07785,0.05308,0.07327,0.01722,-0.03357,0.0486,0.03163,0.09174,-0.02231,-0.04865,0.03716,-0.00311,0.04528,0.00341,-0.02026,0.04782,0.07184,0.05253,0.05056,0.02345,0.00768,0.14881],[0.09736,0.08023,0.06408,0.09952,0.09128,0.06248,0.03905,-0.09223,-0.07613,-0.04182,-0.12096,-0.01342,-0.0038,0.01572,-0.08459,-0.00965,-0.02164,0.00155,0.00291,0.06823,0.10449,0.06597,0.04215,0.03339,-0.00759,-0.0781,-0.04135,-0.08135,-0.04963,-0.05161,0.00155,0.01039,-0.02344,-0.01277,-0.01223,0.0476,-0.09222,-0.0181,0.00162,-0.00868,0.05437,-0.04582,-0.07967,-0.02545,-0.09154,-0.0555,-0.00994,-0.03342,0.01082,0.02405,-0.0568,-0.02893,-0.10245,0.01385,0.04263,0.04168,-0.00612,-0.0035,0.02188,-0.08155,-0.00447,-0.00208,-0.00952,0.03145,-0.01175,0.00033,-0.1112,-0.0353,-0.07832,-0.05064,0.01681,-0.00601,0.02226,0.05699,0.05166,0.03858,0.04609,0.08941,-0.00573,0.09709,-0.02951,-0.07721,-0.14396,-0.10919,-0.07512,-0.02718,0.05585,0.00504,0.01024,-0.01545,0.06772,0.00665,0.04844,0.05615,0.02716,0.06327,0.00209,-0.0549,-0.05819,-0.10806,-0.0679,-0.00907,-0.01082,-0.0306,-0.01955,0.04594,0.06882,0.01176,-0.00656,0.00951,0.00179,-0.02214,0.00134,0.0223,-0.09423,-0.00613,0.00499,0.06935,0.00332,0.10482,-0.0429,0.00867,0.02215,0.01015,0.02695,-0.04025,0.00323,-0.03403,0.01198,0.00281,-0.02167,-0.00649,0.00168,0.04607,0.04642,0.08402,0.01579,-0.01219,0.02935,-0.01068,0.00991,-0.01903,-0.08246,-0.00888,-0.04157,-0.10532,-0.03816,-0.04351,0.0632,0.04851,0.00429,-0.01924,-0.01437,-0.0442,0.00429,-0.03606,0.01988,-0.03667,-0.07029,0.13505,-0.05897,-0.04414,-0.02284,-0.02633,0.00725,-0.02641,-0.00459,0.02188,0.03672,-0.0746,0.04875,-0.08281,-0.09184,-0.07883,-0.00847,0.04083,-0.06148,-0.04481,0.01235,-0.01894,-0.02821,-0.01461,0.01057,0.01838,0.00888,-0.03748,0.02077,-0.09794,-0.09817,-0.10284,-0.07184,-0.01523,-0.04049,0.07509,0.01449,-0.06153,0.03943,0.01685,0.0329,0.00077,-0.00463,-0.02137,-0.0043,-0.00084,0.02527,-0.05009,-0.02848,0.0303,0.06953,0.11929,-0.02554,0.05236,-0.02811,-0.01699,-0.03838,0.02932,-0.01426,0.01136,0.03888,0.03168,-0.05752,-0.03623,-0.09924,0.10907,-0.06957,0.0861,0.01701,-0.0169,0.02259,0.05973,0.05808,0.02866,0.04772,0.04609,-0.01611,-0.00333,0.01445,-0.03715,-0.09027,0.07896,0.01545,0.06165,0.01105,0.06539,-0.01022,-0.02959,0.07915,0.05893,0.07625,0.0527,0.07795,0.12654,0.064,-0.06336,-0.06337,-0.0835],[-0.01446,0.01839,-0.03067,-0.06176,-0.12975,-0.04273,0.08474,-0.0369,0.06379,0.10853,0.15268,0.08599,0.0259,0.02901,0.03268,-0.0593,-0.09928,-0.03216,-0.08201,-0.03977,-0.0397,-0.05026,0.01975,0.01926,0.01074,0.09675,0.11323,0.05033,0.04854,0.03026,-0.06656,-0.09375,-0.00109,-0.02983,0.01793,0.01438,0.00178,-0.06594,-0.01462,0.02737,0.047,0.04686,0.0568,-0.03742,0.08853,0.06275,0.06844,0.03009,-0.01847,0.02372,0.04534,0.00599,-0.04716,-0.00789,-0.04521,-0.01791,0.00419,0.01164,-0.06395,-0.01419,0.03577,0.08524,0.01677,0.07349,-0.01313,0.03345,0.06879,-0.02378,0.0181,-0.08117,-0.03037,-0.09463,-0.02114,-0.00523,-0.00952,-0.00203,-0.01583,-0.0416,-0.05119,-0.01205,0.05205,0.04198,0.07248,-0.03763,-0.00223,-0.03759,-0.03932,-0.00697,0.04492,-0.06551,0.01668,-0.03403,-0.09739,-0.03106,-0.02711,-0.01257,0.03325,-0.01303,0.03939,-0.01222,0.07087,0.02027,-0.00287,-0.01883,-0.05903,0.02863,0.00938,-0.00923,0.02037,-0.00584,0.08254,-0.0123,-0.05432,0.06095,0.03028,-0.01696,-0.0186,0.0161,-0.04553,-0.01952,0.06571,-0.06254,-0.09021,-0.00289,0.05964,0.03242,0.04098,0.02685,0.01263,0.05307,-0.04533,0.06067,-0.01528,0.06556,0.01695,1e-05,-0.00207,-0.03643,-0.00391,-0.07981,0.03794,0.06294,-0.02795,-0.03794,0.00478,0.03538,0.01206,0.03674,-0.02823,0.04879,-0.00446,0.04173,0.03764,-0.0389,0.01323,0.04162,0.00336,0.03146,0.01296,0.00547,0.00437,-0.02907,-0.0574,-0.09537,-0.04009,0.03737,-0.08261,-0.04971,-0.01055,0.01752,-0.01369,0.07394,0.00136,-0.04785,0.07862,-0.03355,-0.01779,0.04739,-0.07661,0.00103,-0.00833,-0.06283,-0.06212,-0.01162,-0.00899,-0.00835,0.00862,0.05117,0.04628,0.05936,-0.05711,-0.0003,-0.0344,0.01997,-0.06976,-0.0243,0.05287,-0.00905,-0.01089,-0.07216,-0.0371,-0.01835,-0.05143,0.05125,-0.00566,-0.02737,-0.01114,-0.04089,-0.00891,-0.07641,-0.03929,-0.07474,-0.01739,0.02187,-0.06507,-0.03679,0.01712,-0.03077,-0.01721,0.03118,0.00196,-0.03508,-0.01078,-0.00762,-0.11254,-0.05496,0.03351,0.0461,-0.00751,0.0055,0.00201,0.02476,-0.03926,0.08593,0.0677,0.01498,0.04987,0.04697,0.04338,-0.03401,-0.12305,-0.00018,0.00991,-0.0571,0.05596,-0.00452,0.0389,0.00555,-0.05684,0.01275,-0.00889,0.02491,-0.04431,-0.09058,-0.03089,-0.07966],[0.00205,-0.05548,0.02008,0.01773,0.02876,-0.02224,-0.09466,-0.029,-0.12653,-0.13169,0.01604,-0.10164,-0.0597,-0.03342,-0.06679,0.06912,0.05937,-0.00345,0.05696,0.03263,0.0006,-0.01877,-0.02389,-0.02628,-0.03415,-0.0417,0.03577,-0.0433,-0.01407,-0.05672,0.00235,-0.00219,0.11231,0.01363,-0.0366,0.03007,0.02604,0.02312,-0.03645,0.01789,0.04112,0.05457,0.06289,0.00146,0.05044,0.0794,0.05599,0.06147,0.03013,0.06753,0.04816,0.07126,0.04134,-0.07274,-0.0255,-0.06278,0.00457,-0.03822,0.0464,-0.05011,-0.02326,0.05385,-0.00387,0.12978,0.01613,0.0146,0.0394,0.07216,0.01166,-0.03585,-0.04393,-0.10078,-0.02683,-0.01622,0.00486,0.01784,0.0042,0.02115,0.09474,0.07643,0.04355,0.06313,0.0801,0.06193,0.05784,-0.05054,-0.06697,0.00104,-0.01337,0.01542,-0.05627,0.02067,0.05757,0.03442,-0.02633,0.00434,0.02982,-0.00413,0.02895,-0.02657,0.04181,0.0215,0.0463,-0.01622,0.03595,0.0643,-0.06927,0.06314,-0.03523,0.02053,0.02227,-0.0209,0.061,0.0419,0.04616,0.03457,-0.01347,-0.01388,0.03337,-0.04581,-0.02718,-0.01752,-0.01388,0.02599,0.05873,0.01893,0.02163,-0.10992,0.02496,0.04476,-0.02581,0.01412,-0.02886,-0.02756,0.095,-0.02996,0.02136,0.05042,0.04564,-0.00369,0.02359,0.00493,-0.06285,-0.06662,0.05879,0.0227,-0.04226,-0.02712,-0.01518,0.01916,0.03859,0.02634,0.07551,0.0242,0.00714,-0.02454,-0.00093,0.00597,-0.00946,-0.08265,0.03868,-0.07641,-0.08012,0.03923,-0.0324,0.02434,-0.00548,-0.0063,0.01933,0.04885,0.03757,0.03677,0.14341,-0.00365,-0.11643,-0.01611,-0.04155,-0.04573,-0.06211,-0.04541,0.02535,-0.00085,0.04593,0.05824,0.0485,0.12798,0.00833,0.09968,0.07061,-0.03968,-0.08566,-0.06447,0.02717,-0.13392,-0.04136,-0.03417,0.06291,-0.01778,0.06001,0.03944,0.06168,0.10883,0.08191,0.09826,-0.04238,8e-05,-0.09063,-0.1496,-0.00283,-0.09457,0.00868,0.00497,0.04253,0.04679,0.04963,0.04468,0.01352,0.09438,-0.02578,0.02256,0.06002,-0.02721,-0.084,-0.12502,-0.0533,-0.02906,0.00318,0.04289,0.04788,0.03353,0.10719,0.07276,0.06352,-0.01579,0.01911,-0.03163,-0.05621,0.04393,-0.0315,-0.08348,0.07615,0.01262,0.00418,0.01356,0.09066,0.04178,0.04724,-0.02528,-0.00797,0.00384,0.00522,0.00592,-0.06703,0.02605,0.04985,0.01174],[0.02208,-0.09732,-0.00756,0.05281,-0.08243,-0.13929,-0.1336,-0.05462,-0.05238,0.0299,0.02951,0.06785,0.05691,0.02299,0.03945,0.12081,0.08046,0.02542,0.04465,0.02808,-0.00281,-0.03737,-0.08286,-0.01851,-0.0569,-0.04155,-0.04723,-0.09303,0.01795,-0.02036,0.02033,0.09048,0.06006,0.17019,0.05367,-0.01097,-0.06927,-0.08465,-0.07964,-0.048,-0.00122,-0.10452,-0.06996,-0.12282,-0.07219,-0.10237,-0.03164,-0.03771,0.0962,0.07052,-0.01749,0.03121,-0.03647,-0.00599,-0.02649,0.07487,0.02272,-0.04856,-0.08655,-0.04204,-0.08214,-0.07644,-0.07118,-0.03728,0.10949,-0.01359,-0.01187,-0.08049,0.01021,-0.05526,-0.00852,0.01869,0.00802,0.07187,0.09322,-0.04618,-0.05088,-0.06244,-0.06665,-0.12827,0.04779,0.06745,-0.01572,0.03329,0.03638,-0.02059,-0.01944,0.10194,0.08716,0.02982,0.03649,0.13933,0.08052,0.09923,0.06454,-0.09231,-0.00722,-0.05306,-0.03327,0.03953,-0.00636,-0.04584,0.03968,0.04127,0.02117,0.07894,0.08922,0.09239,0.12592,0.15893,0.14348,-0.07643,-0.05107,-0.04745,-0.02842,-0.06415,0.02363,0.00775,0.01522,-0.02816,-0.02289,0.06818,-0.02875,0.01781,0.05314,0.0626,0.07739,-0.03262,-0.01118,0.00495,-0.05594,-0.04254,0.04693,-0.03628,-0.07053,-0.00803,0.04906,-0.0222,-0.00484,0.05729,0.04646,0.06781,0.0254,-0.00906,-0.07585,-0.05378,0.0562,0.03941,-0.03714,0.0053,0.04097,0.01065,-0.00933,-0.00217,0.03754,0.00204,-0.00904,0.08765,0.02701,0.03528,-0.13603,-0.01525,0.04643,-0.05044,-0.05729,-0.05047,-0.0317,-0.02279,-0.03623,-0.0061,-0.05483,-0.01491,0.03663,0.00814,0.00464,-0.01142,0.04725,0.02763,-0.03842,-0.02154,-0.10133,-0.05153,-0.08937,-0.05634,-0.01284,0.00311,-0.01104,0.0476,-0.04645,0.02478,0.0025,-0.05308,0.21811,0.09537,0.07485,-0.08702,-0.03259,-0.03691,-0.09106,-0.0499,-0.01877,-0.04292,0.019,0.08999,0.08349,0.03953,0.08395,-0.08665,0.17651,0.03947,0.01561,0.04823,-0.00135,-0.03436,0.02136,0.05371,-0.02903,-0.02938,0.02592,0.05071,0.00083,-0.01716,-0.07067,-0.10335,0.18848,-0.01799,-0.02408,-0.03739,-0.03463,-0.04567,-0.04564,-0.01319,0.04189,0.00989,-0.06847,-0.06023,0.03106,0.03595,-0.04223,-0.11976,0.0964,-0.00741,0.03322,-0.05474,-0.07956,-0.05141,-0.02017,-0.06594,-0.04153,-0.053,0.05007,-0.00359,0.0076,-0.00056,0.05554,-0.00898],[-0.01451,-0.04597,0.00385,-0.03044,-0.07845,-0.06121,-0.09238,-0.00055,-0.02068,0.01012,0.04145,0.01566,-0.09112,0.03143,0.03234,-0.05381,-0.03168,-0.01627,-0.00899,-0.08409,0.01118,0.06293,-0.02701,0.00605,0.0063,-0.01293,-0.00826,0.04028,0.0257,0.02687,-0.03213,-0.0292,-0.10304,-0.10178,-0.07614,-0.07337,0.08196,0.04489,0.16069,0.13665,0.06795,-0.03413,-0.03162,-0.06202,-0.07445,-0.07519,0.05043,-0.05938,-0.11398,-0.04236,-0.11295,-0.00579,0.07667,0.05902,0.07665,0.07526,0.03113,0.01965,-0.06062,0.01731,-0.09331,-0.07827,0.00296,-0.06218,-0.01238,-0.06358,0.02981,0.04814,0.0338,0.01916,-0.01293,0.07184,0.0022,0.02852,-0.0439,0.00599,-0.02458,-0.04675,-0.08727,-0.08602,-0.03765,-0.07428,-0.00472,0.06659,0.04488,0.00901,-0.04814,-0.0439,0.00559,0.02737,-0.02121,-0.02159,-0.00825,0.02208,-0.05462,-0.01318,0.02531,-0.14981,-0.01475,-0.01227,0.04747,-0.02353,0.02709,-0.03481,0.00021,0.07665,0.04899,0.07239,0.02751,0.08878,-0.02598,0.02444,0.06867,-0.0433,-0.07545,-0.00373,-0.02067,-0.00775,0.03187,0.04127,-0.02074,0.03923,0.02773,-0.01408,0.03748,0.01574,-0.04032,-0.07254,0.02435,-0.10258,-0.02245,0.01511,0.0238,-0.00539,-0.00465,0.02302,-0.00662,-0.01073,-0.0092,0.01569,-0.03243,0.00146,-0.0421,-0.06044,-0.04655,-0.01569,-0.04064,-0.05402,-0.0071,-0.00593,0.03202,-0.00584,-0.02508,0.02603,0.02756,-0.01861,0.00183,0.00998,-0.00429,0.03768,-0.02241,-0.13304,-0.11335,-0.02971,-0.00254,0.03506,-0.09596,0.06505,0.00654,0.00403,-0.00268,-0.04367,-0.03926,-0.01741,-0.03928,-0.12469,-0.04856,-0.18668,-0.13324,-0.05691,-0.05594,-0.0542,-0.04388,0.04302,0.02317,0.07052,0.00334,0.00763,-0.00079,-0.03844,-0.0077,-0.01561,-0.06887,-0.02539,-0.01541,0.05134,-0.0045,-0.00072,0.00339,0.05618,0.02849,0.03939,0.0619,-0.08448,-0.06695,-0.07626,-0.05946,-0.06956,0.03622,-0.01324,0.01089,-0.0371,0.08948,0.03342,0.10202,0.01227,0.01399,0.03264,0.02077,0.00785,-0.04296,0.01255,0.02382,0.03037,-0.01808,0.00977,0.05353,0.00974,0.016,-0.00026,0.00778,0.07565,-0.0194,0.08955,0.01181,0.00397,0.07331,-0.04927,-0.08592,0.07665,0.05988,-0.04105,-0.01033,-0.03917,0.02025,0.08418,0.05632,0.07019,-0.01102,-0.02765,-0.09676,-0.0512,0.02308,0.01897,0.03516,0.07532]],"patch_embed.proj.bias":[-0.15992,0.09252,-0.07205,-0.02696,0.01082,0.05139,0.05379,0.00719,-0.00329,-0.10094,0.04744,0.08208,-0.0597,0.12096,-0.0417,-0.09972],"blocks.0.norm1.weight":[0.98222,1.02749,1.03872,1.00902,0.97321,1.0504,1.0231,1.00924,0.92482,0.99715,0.95322,1.00745,0.96782,0.98309,1.0044,0.92945],"blocks.0.norm1.bias":[0.02251,-0.02769,0.03691,-0.02819,0.00713,0.05337,0.03994,0.02498,0.01088,-0.02474,-0.01266,-0.02601,0.01551,0.00556,0.00823,0.00063],"blocks.0.attn.qkv.weight":[[-0.28293,-0.02191,0.17151,0.26477,-0.28161,-0.08256,0.22213,0.09863,-0.19712,0.11507,0.08312,-0.06677,0.14303,-0.16149,0.00997,0.15081],[-0.22278,0.10735,0.27092,0.22401,0.1135,0.02367,-0.00815,0.06422,0.15274,0.04421,-0.17116,0.03244,-0.21612,0.25303,0.05173,-0.17019],[-0.07163,-0.09642,-0.04256,-0.35905,-0.12336,0.04765,-0.07027,-0.30961,0.28386,-0.11317,-0.16594,-0.32049,0.18418,-0.08828,0.31334,-0.02452],[-0.18612,0.10929,0.11922,0.00812,-0.09727,0.0001,-0.07226,0.29566,0.2725,0.12198,0.10774,-0.11103,-0.19148,0.04777,0.19104,-0.20212],[0.31501,0.02427,0.2029,0.04411,0.07307,0.03704,-0.01714,0.07193,-0.13047,0.24186,0.151,0.10056,-0.12215,0.13625,0.09159,-0.18759],[-0.38637,-0.07556,0.10854,-0.49868,0.01381,0.08261,0.25672,0.31753,-0.18425,-0.28312,-0.20463,-0.07057,-0.0552,-0.07592,0.01114,0.00777],[-0.18047,0.17463,0.22511,-0.12006,0.24807,-0.18736,0.11101,0.1377,-0.13493,0.01619,-0.29127,-0.1504,0.04297,-0.0992,-0.1188,0.13487],[0.3015,-0.17786,-0.16346,0.02966,-0.28163,0.1473,-0.11161,-0.08491,0.02997,-0.20722,0.12102,0.12858,0.11359,0.02282,0.09788,0.04865],[-0.30645,-0.15604,0.15719,0.03368,0.05659,-0.07468,0.103,-0.02084,-0.16496,-0.17416,-0.21868,0.05093,-0.01684,-0.1037,-0.22172,0.15465],[-0.03545,0.11187,0.12633,-0.47961,-0.1109,-0.0692,0.03482,-0.18657,0.33348,0.13678,0.02805,0.16596,0.30792,0.04033,0.16797,-0.1231],[0.01262,-0.18276,0.1898,0.0384,0.17179,-0.11828,0.12604,0.14016,-0.0008,0.10067,-0.0101,-0.12727,-0.10293,0.15111,-0.10533,0.1749],[0.06725,-0.29123,-0.20804,-0.22437,-0.20867,0.08952,0.19434,0.15672,0.06267,0.22838,0.03057,-0.07087,0.25864,0.20504,0.13047,-0.15425],[0.09482,0.10026,-0.29236,0.21462,0.15018,0.06411,0.0081,-0.07215,0.30742,0.17,0.12141,-0.26347,0.06535,-0.14182,0.40026,0.18691],[-0.18626,0.2165,-0.00762,0.01151,-0.0719,-0.15266,0.04486,0.10517,0.18676,-0.09404,-0.17252,-0.14057,0.01749,0.15868,0.25371,0.14013],[-0.20514,0.07052,-0.14303,-0.01375,0.03086,-0.07951,-0.16019,0.16995,-0.1148,0.05272,0.1012,0.08666,0.10004,0.12146,0.21727,-0.17654],[-0.07746,-0.05549,-0.00248,-0.07941,0.19454,0.08255,0.07332,0.07286,0.03042,0.11426,-0.19109,-0.18294,0.04315,0.24158,0.1115,0.00911],[-0.18617,0.20667,-0.24254,-0.17846,-0.03257,0.11585,-0.26799,-0.00148,-0.03032,-0.11133,0.10602,0.22192,0.11093,0.0187,-0.1795,-0.17204],[0.04709,0.12183,0.28928,-0.1102,0.18169,0.17854,-0.00638,-0.28021,-0.2282,-0.15553,-0.12027,0.17002,0.1684,-0.28196,-0.28856,0.13764],[0.06361,0.24314,-0.41737,-0.28367,0.16578,-0.06462,0.07535,0.13917,0.0933,0.06974,-0.33781,-0.04955,0.13391,-0.17193,0.08732,-0.02571],[0.15952,0.01359,0.19964,-0.10648,0.19116,-0.13485,0.20971,0.07783,-0.12746,0.05559,-0.02827,0.14945,0.08331,-0.12667,0.0832,-0.10399],[-0.10597,-0.01558,0.03826,-0.0658,0.01663,-0.02098,0.07886,-0.19227,-0.03799,0.12898,-0.10861,-0.12792,-0.18512,0.13961,-0.31894,-0.19084],[0.1169,0.08469,0.39172,-0.23297,-0.22027,-0.07321,-0.15091,0.03894,-0.04083,0.02249,0.12804,0.08574,0.08084,-0.12692,0.48655,-0.20465],[0.17887,0.1037,0.40913,0.12797,0.17518,-0.15198,-0.16396,-0.17975,0.05121,-0.03252,-0.0417,-0.03443,0.11297,0.03409,0.10391,-0.24479],[0.17108,0.26149,-0.20847,-0.05416,0.02302,-0.16742,-0.0648,-0.07694,-0.0649,-0.12741,0.01244,0.20121,-0.0647,0.23533,0.09732,0.1545],[-0.15169,-0.1232,0.11969,0.14191,0.00609,-0.15319,-0.07868,-0.01383,0.15146,0.17874,-0.0887,0.03155,-0.18339,-0.14893,-0.16183,-0.18551],[-0.20924,-0.25389,0.02371,-0.2,-0.20382,0.25181,-0.11234,-0.17224,0.02913,0.10313,-0.09535,-0.29183,0.07759,0.0706,0.15718,-0.1182],[-0.05885,-0.00559,0.10493,-0.149,0.04021,0.14416,0.06511,-0.20419,0.07477,0.05378,0.12719,0.26132,-0.20674,0.14988,-0.00638,-0.01143],[-0.07887,-0.19396,0.25772,-0.05813,0.06395,-0.03958,0.22654,0.12655,0.22506,-0.01405,-0.10589,-0.09723,-0.14382,-0.05784,-0.01306,0.04275],[0.02685,-0.06184,-0.2121,-0.26144,-0.03537,-0.10593,0.28977,0.16484,0.18242,-0.0956,0.15653,-0.19921,-0.04785,0.17908,0.16976,0.01182],[0.10773,-0.17642,0.23951,-0.22773,-0.08665,0.14691,-0.00231,0.08332,-0.00549,-0.11693,0.29081,-0.09738,-0.1238,-0.10094,0.19959,0.19418],[-0.19401,-0.21105,-0.02035,-0.23923,-0.05758,0.12878,0.18026,-0.05074,-0.05184,-0.19056,0.02597,-0.02719,-0.08574,-0.18524,0.01304,0.10238],[0.24238,-0.18067,0.11212,-0.24389,-0.08585,0.11816,-0.1231,0.16164,0.02416,0.14052,0.09449,-0.16611,0.26636,-0.08341,-0.17724,0.20477],[0.1931,-0.1904,-0.14298,0.03951,0.00993,-0.03417,-0.00142,-0.03527,0.26441,0.26851,0.24028,0.01071,0.10298,0.0062,0.01511,-0.09254],[0.08004,-0.14662,0.11048,-0.20532,-0.22847,0.32643,0.08601,0.15749,0.02958,0.01149,0.12162,-0.0662,-0.25216,0.08328,-0.06051,0.01067],[-0.0403,0.09856,-0.11878,-0.08014,0.11444,-0.17085,-0.1165,-0.1513,-0.12628,0.01174,0.09359,-0.20469,-0.04819,0.18215,0.05371,0.19314],[0.06902,0.08516,-0.2151,0.18683,-0.25599,0.2038,-0.24636,0.08757,0.14809,0.06511,-0.07517,-0.19,0.11874,0.03896,0.0069,0.21111],[0.13077,0.05094,0.16363,0.04149,0.06375,0.21846,-0.02796,0.00687,0.00491,-0.31235,-0.0778,-0.09262,-0.24272,-0.23159,0.10737,0.03225],[0.09889,-0.20053,0.07822,-0.13131,0.13358,-0.08222,0.11073,-0.24475,0.13567,-0.01869,-0.05963,-0.14027,0.0702,0.05305,0.00172,0.10693],[-0.02208,0.00476,0.06208,0.15949,0.0098,0.03919,-0.19969,-0.21933,-0.11499,0.22336,-0.01823,0.14397,-0.22034,0.12493,-0.17215,0.15775],[-0.14543,0.02949,-0.10527,0.01192,-0.21396,-0.24969,-0.08721,0.24273,-0.04019,-0.01323,-0.13498,0.25931,-0.19684,0.14406,0.09533,-0.292],[-0.17745,0.10968,-0.15704,-0.1916,-0.11815,-0.07795,-0.04431,0.08129,0.1843,-0.05687,0.28621,-0.20299,0.20592,-0.18151,-0.10341,0.05963],[-0.18297,0.20109,-0.22575,0.15664,0.08562,0.01244,0.23677,-0.00716,-0.21959,-0.06816,0.22196,0.19395,-0.08255,-0.23039,-0.12049,0.14492],[0.17357,-0.26487,0.20295,0.23726,0.02749,0.0388,0.00753,-0.22314,-0.05391,-0.08011,0.18262,0.10636,0.09736,0.006,-0.06431,-0.07838],[-0.04648,-0.19352,0.09808,0.17344,-0.02531,-0.07833,0.08679,0.0436,-0.09147,0.09671,-0.08372,0.09777,-0.28406,0.2845,0.10822,-0.16697],[-0.16938,0.22293,0.14599,0.05725,0.2153,-0.09791,0.02369,-0.00601,0.14279,-0.21593,-0.19287,-0.05679,-0.04042,0.10485,-0.2378,-0.27782],[0.06206,0.055,-0.12372,-0.06431,0.07956,0.04456,0.10106,0.27162,-0.1724,0.06054,-0.14429,-0.24196,-0.14257,-0.24567,0.27645,-0.10107],[-0.13618,-0.07348,0.24254,-0.09795,0.00891,0.2069,0.01955,0.21933,-0.12172,-0.18745,-0.13397,-0.0822,0.15072,0.07115,-0.21607,-0.02692],[-0.22657,-0.28245,-0.05093,0.00302,-0.01262,-0.10491,0.2885,0.00548,0.06808,-0.11233,0.15853,-0.13455,0.06983,-0.0782,-0.13651,0.18385]],"blocks.0.attn.qkv.bias":[0.03651,0.21939,-0.21055,-0.22028,-0.06589,0.1871,0.10718,0.09439,-0.29104,0.13293,-0.10973,0.11163,0.00222,-0.10906,-0.0087,-0.11769,0.09735,0.08078,0.04394,-0.1498,0.05633,-0.15844,-0.16182,0.07595,-0.06583,-0.06686,0.24638,0.00702,-0.02474,0.05573,-0.18891,-0.17572,0.07052,0.03772,-0.08305,-0.03968,0.08898,0.18086,0.11873,-0.02727,-0.06384,0.06488,0.11238,-0.09541,-0.21848,-0.00446,-0.04349,0.18764],"blocks.0.attn.proj.weight":[[-0.12439,0.07474,0.11156,0.0199,-0.06535,0.04421,0.01261,0.14253,-0.061,0.10288,-0.16952,0.11694,0.07708,0.01869,0.1439,0.10311],[0.25662,-0.0407,0.24464,-0.06005,-0.27942,0.19664,0.07851,0.17712,-0.08106,-0.30256,0.19703,0.19458,0.18633,0.13569,-0.04722,-0.19036],[-0.04102,-0.07953,0.18134,-0.0375,-0.12419,0.09534,0.1679,-0.20014,-0.17272,0.17139,-0.03793,-0.14081,0.0797,-0.05265,-0.10237,0.08645],[0.0981,-0.17021,0.02573,0.09018,0.08884,-0.27085,-0.22251,0.18634,0.21759,0.2454,0.01788,-0.10001,-0.16491,0.06006,-0.2371,-0.14472],[-0.0019,0.17786,-0.06798,0.22239,-0.12283,-0.12667,-0.00206,-0.14644,0.21888,-0.17613,-0.26428,0.16465,-0.22155,0.17403,0.22301,0.04851],[-0.20413,0.12311,0.30134,0.1691,0.06292,0.08295,-0.10641,-0.18528,0.23774,-0.1574,-0.16977,0.1143,0.03673,-0.14804,-0.05111,-0.06349],[0.30727,-0.00183,0.04082,0.01273,-0.03024,-0.01164,-0.10288,-0.28955,0.15901,0.01627,0.2077,0.01554,0.02947,0.07061,-0.08636,0.23896],[0.04085,0.14542,0.0349,0.35956,-0.10497,-0.06895,0.24486,0.08916,-0.23885,-0.02717,0.01758,-0.03802,-0.13254,-0.23159,0.20934,-0.24958],[0.11548,-0.11731,-0.0034,0.19153,0.16481,-0.07569,-0.12762,-0.16659,0.11943,-0.17956,0.12203,-0.2104,0.10872,0.07885,0.15384,-0.19725],[0.04772,0.21608,0.19679,0.27217,0.12857,0.08534,0.17876,-0.22294,0.05163,-0.11465,-0.15958,-0.01978,0.06606,-0.02945,0.08022,-0.0585],[-0.03158,0.11377,0.15829,-0.16102,0.08769,-9e-05,0.16759,0.09053,-0.14187,-0.03528,0.11424,0.03405,-0.07875,-0.1532,0.21369,-0.12447],[-0.05523,-0.13483,0.08478,-0.16084,-0.1549,-0.15087,0.006,-0.05735,0.24727,0.09343,-0.2267,-0.0045,0.21909,-0.28199,0.10757,0.04708],[0.07011,0.20433,-0.07984,0.01722,-0.25233,-0.0482,0.21167,0.05232,0.28415,0.16535,0.19364,-0.23162,-0.04709,-0.10967,-0.17422,0.09427],[-0.073,0.09776,-0.1802,-0.07677,0.0167,-0.33319,0.11217,-0.10843,0.17036,0.1809,0.1199,0.00137,0.26261,0.23152,-0.15316,-0.24908],[-0.11332,-0.12265,-0.00735,0.13022,0.19485,-0.19436,0.16926,-0.15494,-0.15356,0.13038,-0.00386,0.0647,0.18019,0.02559,0.18999,0.01536],[-0.04072,-0.14902,-0.04796,-0.00455,-0.00146,0.01838,-0.22579,0.02756,-0.16181,0.31107,0.16904,0.12119,0.07008,-0.08763,0.08763,0.24962]],"blocks.0.attn.proj.bias":[-0.17094,0.13913,-0.02639,-0.23709,0.03497,-0.15412,-0.03178,-0.24884,-0.04581,0.16257,-0.1447,-0.11311,-0.10404,0.12409,0.01814,0.21911],"blocks.0.norm2.weight":[1.01006,1.06987,1.12373,1.14331,1.14039,1.04532,1.04297,1.18187,1.20227,1.04499,1.04193,1.14693,1.01256,1.14424,1.23784,1.04883],"blocks.0.norm2.bias":[0.02661,-0.10292,0.03193,0.01939,-0.01876,0.02954,0.04151,-0.06435,0.03466,0.0291,-0.01334,0.01915,0.0186,0.02547,-0.05225,-0.07222],"blocks.0.mlp.0.weight":[[0.11382,0.21627,-0.34264,0.37971,0.05164,0.12622,-0.19126,0.37485,0.08723,-0.25923,-0.08066,-0.01538,-0.00647,0.14002,-0.34923,0.04131],[-0.02439,0.15756,0.25039,0.08266,-0.08742,-0.04295,-0.01847,0.02588,0.19712,-0.03265,-0.13737,0.0128,0.0692,-0.22998,-0.32797,0.10938],[0.17762,-0.02059,-0.27908,-0.2259,0.22653,0.21903,0.00831,0.09582,-0.2448,-0.21316,-0.00983,-0.14304,0.25462,0.03152,0.10804,0.00037],[-0.06009,0.29565,-0.28769,0.04043,-0.0181,0.18501,-0.10427,-0.08766,0.26666,-0.18925,-0.0925,-0.11583,0.10908,-0.32508,0.25162,0.25752],[0.05723,-0.04951,-0.1033,-0.30779,0.28988,-0.23407,-0.13141,-0.13367,0.177,-0.03637,-0.01508,0.16427,0.05026,-0.10337,-0.09335,-0.18862],[-0.02419,0.24706,0.15351,0.00961,0.0824,-0.03406,0.24258,-0.02733,0.14006,-0.03506,-0.21486,-0.11592,0.23982,-0.17869,0.42196,-0.37086],[0.23756,0.26288,-0.19471,0.08224,-0.39076,0.00924,-0.10468,-0.10564,-0.15528,-0.00473,0.09795,0.19285,0.00398,-0.01833,0.13475,0.04412],[0.04524,0.04013,0.1544,0.17259,0.00904,0.04671,-0.16507,-0.10101,0.06962,0.02419,-0.22239,-0.21068,-0.00536,-0.24315,0.27201,0.11273],[-0.07601,0.17492,-0.02447,0.08993,0.04101,0.01491,-0.05792,-0.23818,0.22547,-0.10951,-0.20435,0.20061,-0.15368,-0.03375,-0.19773,-0.17164],[-0.10819,0.16595,0.15167,0.28083,0.31773,-0.05926,-0.11195,0.00811,0.07505,0.22849,0.0958,-0.09096,0.1795,-0.29231,0.00555,0.13817],[0.11786,0.34972,-0.13518,-0.08173,-0.02779,-0.13262,-0.04102,0.31106,0.12493,-0.2225,0.00073,-0.02459,0.11083,0.22114,-0.02495,-0.02153],[0.27015,0.10147,0.08184,-0.04787,0.03769,-0.1623,-0.02191,0.14517,-0.08123,0.23108,0.2057,0.22105,-0.08246,-0.12182,0.12867,0.09417],[0.10065,-0.17295,-0.31697,-0.02147,0.17263,0.01375,-0.03231,0.24131,-0.01968,-0.09776,0.04793,-0.07145,-0.19302,-0.14809,-0.03488,0.27437],[0.02422,0.09077,-0.03083,-0.07809,-0.13046,-0.05438,-0.18603,0.13821,-0.17379,-0.21577,-0.13246,0.15525,0.0921,-0.15461,0.08554,0.17952],[0.24398,-0.36021,-0.26025,0.0783,-0.01452,-0.04111,-0.16216,-0.15256,0.17989,-0.16241,-0.16903,0.35251,-0.18237,0.05142,-0.24538,-0.16448],[0.11154,0.18978,0.00518,-0.24499,-0.04861,-0.01146,-0.12881,0.15748,0.27956,-0.05889,0.16133,0.14133,-0.2481,0.02892,0.16293,-0.07017],[-0.1153,0.11597,-0.08612,0.14767,0.11665,-0.15029,0.28663,-0.11902,-0.0917,-0.12353,-0.25609,0.00759,0.16837,0.12963,-0.02119,-0.03124],[-0.10224,-0.04256,0.03503,-0.09601,0.05239,-0.07751,-0.03873,0.19216,-0.07477,-0.13364,-0.11779,0.1433,-0.02163,-0.02249,0.13238,0.18596],[0.01164,0.05594,-0.11873,-0.18404,0.05028,-0.21167,0.4631,-0.21303,-0.10514,0.00392,0.07311,-0.00583,0.25078,-0.01309,0.16694,-0.0583],[-0.03947,0.08075,0.00468,-0.13642,0.09609,0.02239,0.22659,0.07409,-0.14673,0.28023,0.14167,-0.20805,0.18936,0.12043,-0.02866,0.09276],[0.0334,-0.00231,0.12762,0.40437,-0.35132,0.23224,-0.1909,0.31518,0.27936,0.01281,-0.37488,-0.07004,0.29026,0.07156,-0.22983,0.15113],[-0.06078,0.1694,-0.01978,0.06633,-0.38972,0.2637,-0.11833,-0.0438,0.09217,0.05643,-0.15012,0.17131,-0.08199,0.05101,0.12092,0.13117],[0.18877,-0.06459,-0.06315,0.06667,-0.23242,-0.24686,0.06024,0.08657,0.08374,-0.34877,0.04626,-0.18075,-0.22987,0.09895,0.07197,0.05313],[-0.21623,0.04524,-0.00403,0.12002,-0.12092,0.37151,0.01678,0.42865,-0.06593,0.20854,-0.08628,-0.16214,0.10047,-0.09986,0.10618,-0.03449],[0.26014,0.10877,0.30224,0.23493,-0.2154,0.31022,-0.18503,-0.02108,0.15553,-0.1297,-0.20461,0.40696,-0.19449,0.07722,-0.16836,-0.0592],[0.03187,0.13437,0.09992,0.24447,-0.08144,0.1436,-0.12924,0.16557,-0.39886,0.22134,0.05335,0.3605,-0.22656,0.01582,0.04558,0.04521],[0.10636,-0.11777,0.27606,0.08824,0.09996,0.17398,0.28481,0.15473,-0.13431,-0.19184,0.05343,0.00205,0.19366,-0.02509,-0.52199,0.07718],[-0.3094,0.16901,0.02223,0.10165,-0.14824,0.01334,0.04286,-0.11835,-0.1766,0.23637,-0.03063,0.04938,-0.28664,0.20068,0.16627,-0.27572],[-0.10165,-0.16305,0.24768,0.28132,0.11118,-0.14161,-0.07696,0.35205,-0.3259,0.17018,-0.02557,-0.04947,0.15479,-0.03571,-0.16636,-0.04815],[0.09544,-0.16754,-0.05066,0.01222,0.11282,0.17652,-0.09526,0.18825,-0.06172,-0.1543,-0.03767,0.23077,-0.32075,0.30627,0.35533,-0.00151],[-0.05631,0.00233,-0.1949,0.01896,0.14246,0.26468,-0.20777,0.32859,0.20283,-0.25561,0.17236,0.36291,-0.04295,0.30375,0.22583,-0.25032],[-0.14396,0.12654,-0.15893,0.15726,-0.09095,0.0948,-0.18507,0.20971,-0.32814,0.1587,0.11245,-0.02095,0.05747,-0.1416,-0.22784,-0.07603]],"blocks.0.mlp.0.bias":[0.05157,-0.10931,0.08185,-0.24137,0.04976,0.08937,0.01893,-0.18346,0.22097,-0.02226,0.189,-0.03976,0.15715,-0.00992,-0.18801,-0.20788,0.24627,-0.13325,0.18088,-0.04717,-0.05814,-0.00957,-0.01837,-0.23293,-0.13144,0.10741,-0.21458,0.12999,0.06814,0.0232,-0.05118,0.11299],"blocks.0.mlp.2.weight":[[0.04496,-0.19519,-0.05321,-0.08752,-0.11092,-0.05363,0.02392,-0.04616,0.16799,0.01821,0.11128,0.09662,0.14074,0.06521,-0.21727,0.16821,0.13508,-0.14858,-0.17172,-0.1343,-0.06236,-0.10936,0.06123,-0.01584,0.00815,0.09428,0.01336,0.05763,0.00479,0.07277,-0.09081,0.10954],[0.01058,-0.08471,-0.02557,-0.18025,-0.1326,-0.15007,-0.06313,-0.19101,-0.08499,-0.20569,-0.05432,0.03246,0.09612,-0.18357,0.23196,-0.16302,-0.2182,-0.08278,-0.03984,0.14476,-0.04965,-0.15956,0.19792,0.1148,0.17805,-0.00275,-0.01627,-0.03726,-0.11314,-0.04841,0.14284,-0.0752],[-0.06345,0.19469,0.15459,0.25328,0.03937,-0.21004,-0.04625,-0.14096,0.19415,0.15844,-0.02026,0.09596,0.11743,-0.0937,-0.0286,-0.03467,-0.19179,0.0247,0.06307,0.18832,0.10492,0.09382,-0.07892,-0.16924,0.19924,-0.13601,0.182,-0.17043,0.16539,0.13689,0.25482,0.07465],[-0.39188,0.07238,0.12435,0.03513,-0.1598,-0.19215,0.19157,-0.13365,-0.02987,-0.01169,-0.10216,0.13772,-0.0454,-0.03575,0.16791,-0.05675,-0.13187,-0.02469,0.09769,0.00628,-0.01844,0.24249,-0.03083,-0.19959,-0.23617,-0.02143,-0.14059,-0.20415,-0.10732,0.14957,-0.14343,0.01277],[0.07947,0.03211,-0.19806,0.02291,-0.00291,0.10845,0.158,-0.0563,-0.01454,-0.16779,-0.08018,-0.16866,0.1092,0.05036,-0.09791,0.08772,-0.00744,-0.15329,0.04389,0.00425,-0.14275,0.07577,0.04177,0.19875,-0.19905,-0.09261,0.15551,-0.08507,-0.09032,-0.28138,0.03117,-0.00813],[0.02188,-0.07304,0.13458,0.04224,-0.06064,0.3222,-0.22522,-0.13692,0.01544,0.02688,-0.01614,0.01661,0.07317,-0.08632,0.12222,0.12377,-0.02712,0.00571,0.05875,0.08539,-0.11253,-0.03598,0.05933,-0.09793,-0.06706,0.10761,-0.02118,0.05529,0.08048,0.15244,-0.12059,0.01818],[-0.08111,0.20692,-0.01363,-0.27207,-0.05013,-0.07483,0.06613,-0.04492,0.143,0.06315,-0.06095,-0.01584,-0.13815,0.14166,0.2092,-0.18553,0.05532,-0.03846,-0.03779,-0.23174,-0.06549,-0.17539,-0.11091,-0.02092,0.18883,0.16239,0.16985,-0.02492,0.06952,0.03968,0.31629,-0.22153],[-0.06194,0.02978,-0.11194,0.02659,0.09094,-0.14215,0.10878,0.17766,-0.06161,-0.10674,0.0888,0.06741,-0.19386,0.15242,-0.055,-0.0824,0.11687,0.08497,-0.00619,0.15758,-0.05698,0.07396,0.10865,0.06098,-0.1092,-0.10034,0.15675,-0.22556,0.0245,0.0715,-0.28447,-0.20048],[-0.0264,-0.14494,0.0112,-0.11019,0.05589,-0.10688,0.11857,-0.215,-0.12551,-0.15459,-0.07003,0.07967,-0.17955,0.14119,-0.11676,-0.12032,0.03099,-0.0607,0.261,0.13903,0.09274,0.05902,0.02889,-0.02201,0.24194,0.13548,-0.05857,0.03178,-0.07865,0.21483,0.0452,-0.07771],[0.28226,0.18911,0.0265,-0.0739,0.02974,-0.05302,0.18153,-0.0685,0.05105,-0.0732,0.0881,-0.08549,-0.14779,0.02667,0.17989,0.05768,0.1458,-0.11963,0.11357,-0.10203,0.13072,0.01515,-0.05237,0.20763,0.06199,-0.1294,-0.15573,-0.12577,0.03002,-0.02818,0.28139,-0.18029],[0.13059,-0.1115,0.0207,-0.18954,0.24322,-0.23643,-0.06493,0.11244,0.14637,0.00284,0.10509,-0.15777,-0.09955,-0.13424,-0.09708,-0.1217,-0.04867,0.04803,0.04855,-0.09253,-0.06813,-0.08077,-0.10147,0.05191,0.16587,0.19598,-0.1148,0.12806,-0.01019,0.05891,-0.05307,0.18027],[0.06114,0.16879,0.2015,0.05489,0.0815,-0.03639,0.0828,0.04468,-0.09123,0.07665,0.15876,-0.02191,-0.111,0.10763,-0.13897,0.10905,0.06652,0.129,0.06551,0.21988,-0.28785,-0.25088,0.12654,-0.25669,-0.01733,0.21142,-0.33888,-0.02192,-0.03764,0.05253,-0.07696,0.0228],[-0.08181,-0.01199,0.04329,0.04069,-0.17532,0.02287,-0.13925,0.14948,-0.06007,0.0083,-0.00015,0.09617,0.21796,0.05317,-0.02058,-0.04803,-0.10638,-0.04832,0.00758,-0.0142,-0.07529,-0.11783,-0.02473,-0.28938,-0.17191,0.00826,-0.08846,0.02079,-0.12877,0.16656,-0.10311,-0.17576],[-0.09259,-0.13522,-0.07372,0.21989,0.05074,0.24018,0.09498,0.11396,-0.0461,-0.12352,-0.13044,-0.15666,0.1033,0.12587,0.10671,-0.08797,-0.065,-0.08132,-0.18165,-0.16524,-0.172,-0.13256,-0.23789,-0.01481,-0.26914,0.20405,-0.00627,-0.23516,0.16549,-0.04006,-0.1838,0.11129],[0.0068,-0.0582,-0.11878,0.16352,-0.03801,-0.15075,0.08052,-0.07982,-0.01498,-0.1004,-0.22813,-0.00085,-0.14188,-0.12385,-0.05351,-0.00584,0.11311,-0.05471,0.03247,0.17383,0.22747,0.19637,-0.19705,0.03467,0.05976,0.18157,0.14859,0.02657,0.23401,-0.2293,0.07158,-0.08981],[0.30282,0.09536,-0.0637,0.12083,0.19514,-0.13968,0.02721,0.09684,0.05565,-0.13641,-0.13887,0.01923,0.14688,0.1283,0.22174,0.03273,-0.05277,-0.06634,0.16307,0.01315,0.09083,0.20346,0.12834,0.20557,-0.04988,0.058,0.06773,-0.03135,-0.10723,-0.00437,-0.14867,0.13628]],"blocks.0.mlp.2.bias":[-0.01006,-0.12932,-0.11975,-0.00377,-0.08301,0.13084,-0.00411,0.15624,0.09361,0.1368,0.23106,-0.06955,-0.07603,0.0207,-0.03154,-0.11175],"blocks.1.norm1.weight":[1.03635,1.0416,1.05972,1.02529,1.0135,1.09315,0.99762,1.02762,1.04152,0.97529,1.00506,1.11405,1.03858,1.11772,1.09336,1.07818],"blocks.1.norm1.bias":[0.07378,-0.02039,0.00177,0.05945,0.05192,-0.0575,-0.03036,0.0289,-0.04307,0.01439,0.02321,0.00394,0.03339,-0.01254,-0.04226,0.08954],"blocks.1.attn.qkv.weight":[[-0.1353,-0.16778,0.00744,0.00882,-0.18151,0.01955,-0.15725,-0.10449,0.33187,-0.16568,0.14434,-0.02216,-0.16921,-0.07682,0.00452,0.18588],[-0.01324,-0.16676,0.2213,0.01483,-0.00682,-0.0733,-0.24505,0.12018,-0.10967,0.20184,0.25226,-0.18807,0.17803,0.13158,-0.02168,0.07291],[-0.08605,-0.1811,0.08942,-0.12919,0.26237,0.15546,-0.08683,0.03202,0.25179,0.07457,-0.08931,0.04464,-0.07952,-0.17545,0.03976,0.13962],[-0.21016,0.09908,-0.10423,-0.10812,-0.13377,-0.10385,0.00181,-0.04579,-0.00707,0.14743,0.17114,-0.04197,-0.06303,-0.24184,-0.12471,0.01896],[-0.25367,0.05101,0.178,-0.20073,0.12741,0.02985,0.08998,0.00571,-0.12075,-0.07082,-0.04199,-0.20702,0.24098,0.06497,-0.12212,-0.24559],[0.2358,-0.06195,-0.09915,0.05364,0.12246,0.16072,-0.11783,-0.03574,-0.16061,-0.11209,0.01471,-0.00176,-0.03234,0.02957,0.06428,-0.22577],[-0.08147,-0.1663,-0.09612,-0.05932,0.04771,0.23056,0.06101,-0.26045,0.0935,0.01295,0.23482,0.34943,-0.2583,0.2623,-0.19579,0.12459],[0.02497,0.0801,-0.05226,-0.11361,0.18754,-0.11094,0.01466,0.07144,0.10953,-0.0205,-0.2126,0.1068,0.09603,-0.16164,0.07718,-0.08852],[0.08098,-0.17001,-0.04603,-0.01694,-0.18164,0.09094,0.19156,0.12964,-0.33046,0.16031,-0.15372,0.00537,0.19861,-0.0207,-0.19243,0.16338],[0.15086,0.03622,0.41286,0.03836,-0.12245,0.23393,0.1439,0.00557,0.05932,0.03105,0.27115,0.03987,0.0227,-0.17313,0.06121,0.1297],[-0.33614,0.04066,0.23419,0.04542,0.18342,-0.19746,0.25429,0.24057,0.12239,-0.11305,0.31698,0.06942,0.03006,0.11526,-0.18269,-0.01027],[-0.29544,-0.17203,0.03914,-0.40411,-0.01248,0.14701,0.09387,0.15601,-0.08166,-0.04408,0.10195,-0.05219,-0.17809,-0.0553,0.02727,-0.16323],[0.17191,0.11238,-0.20963,0.15102,0.06759,-0.17236,0.22997,-0.21474,0.03488,0.12938,0.03208,-0.09738,0.03194,0.085,0.06251,-0.10128],[-0.13495,-0.1751,0.12129,-0.0448,-0.14726,0.06671,0.28403,0.16559,-0.2395,0.2231,-0.13936,-0.1871,-0.07535,-0.25666,-0.15111,-0.05547],[-0.02831,0.29016,0.17336,-0.38702,0.0529,-0.06124,-0.04446,-0.24071,0.11194,-0.05982,-0.1184,-0.23165,0.17407,-0.05913,-0.17395,0.27378],[0.07952,-0.09678,0.12935,-0.18417,-0.0121,0.27633,0.06645,0.23897,-0.3559,0.08436,-0.10898,-0.16927,-0.21386,0.27798,-0.06664,-0.22832],[-0.06258,0.05713,-0.07187,-0.06633,0.10666,0.04616,0.15703,0.08891,-0.16272,-0.14983,0.08509,-0.12903,0.0707,0.16573,0.02627,-0.061],[-0.23949,-0.13592,0.07228,-0.03855,0.05072,0.34285,0.04905,0.17429,0.33682,-0.19162,-0.19649,-0.25186,0.12392,0.0414,0.12022,0.00647],[-0.1403,0.15016,-0.17285,-0.07718,0.17814,-0.11699,0.02713,0.28419,0.03261,-0.20866,-0.09034,-0.23079,0.06384,0.21761,-0.08528,-0.3258],[0.1845,-0.18006,0.07748,0.21213,0.05428,0.14877,-0.0039,-0.29438,0.10075,-0.16861,0.19901,-0.0378,-0.23005,-0.12955,0.17085,0.0103],[-0.01273,-0.08709,0.25654,0.11354,-0.1077,-0.1909,-0.02912,0.0483,0.08218,0.02888,0.10017,-0.13047,-0.25242,0.20341,-0.32849,-0.00489],[0.1033,0.03829,0.20325,-0.17997,-0.27263,0.07263,-0.07756,-0.02992,0.08927,0.07412,0.09175,0.13908,-0.12731,-0.16053,-0.00264,0.04581],[0.09828,0.23691,-0.09041,-0.20433,0.09922,-0.35031,0.00115,-0.09432,0.1253,-0.16228,-0.12152,0.28174,0.09504,-0.27787,-0.14288,-0.20478],[0.03409,-0.27595,-0.11433,0.13607,-0.02278,0.00317,0.01763,0.25436,0.01676,0.24851,0.04866,-0.00593,-0.13609,-0.10975,0.08268,-0.09124],[0.08294,-0.02342,0.05678,0.04464,-0.05428,0.1235,0.00708,-0.03018,0.03572,-0.08827,0.02259,-0.15198,0.1113,-0.09956,-0.02665,0.2216],[-0.35641,-0.22433,-0.16212,-0.17597,0.07247,-0.01824,0.15202,-0.0157,0.09147,-0.24061,-0.11334,0.01553,-0.05898,0.25393,-0.26957,-0.04673],[0.38454,0.1539,-0.13338,0.05751,0.09331,0.26696,-0.03618,-0.13165,-0.09744,-0.46062,-0.10834,0.01642,-0.13177,0.17197,-0.1015,0.16233],[0.1731,0.06812,-0.0129,0.23702,-0.23807,0.03559,0.20815,-0.19791,0.06648,-0.233,-0.00969,0.14442,0.03163,0.06883,-0.15588,-0.13581],[0.2707,-0.16335,0.04521,-0.00436,-0.1628,-0.32651,-0.02686,0.19067,0.12992,-0.12283,0.31785,0.11922,0.12687,0.13363,0.25959,0.31829],[0.07288,-0.09114,-0.16767,0.13734,0.0458,0.30615,-0.07203,-0.27538,0.19605,-0.00798,0.13329,-0.09542,0.22738,0.0357,0.06476,0.31175],[0.18137,0.09947,-0.09988,0.1066,-0.05536,0.15838,0.33236,0.19602,-0.49933,-0.2603,0.15858,-0.02025,-0.19804,-0.00442,-0.07387,-0.0023],[-0.1858,-0.08467,0.00427,0.05334,-0.26859,0.12621,-0.09667,0.02849,0.23231,0.21217,0.13964,0.21894,0.11316,0.13516,-0.15096,-0.11645],[0.03691,0.23308,0.16418,0.09369,0.14379,0.26617,-0.12665,0.02275,0.03587,-0.12465,-0.14063,-0.04949,0.01905,-0.28907,-0.14428,0.19716],[-0.11895,-0.0683,0.04449,-0.21074,-0.11957,0.12172,-0.00822,-0.15866,0.04085,0.01413,0.22091,0.02671,0.24883,-0.03435,-0.06191,-0.05235],[0.1117,0.02434,-0.04662,-0.25539,-0.20047,-0.27432,0.14606,-0.14876,0.11946,0.09608,0.22021,-0.20615,-0.04819,-0.15248,0.17744,0.31147],[0.02168,0.25165,-0.28748,-0.08429,0.00131,-0.05891,-0.06682,-0.2621,-0.16753,-0.00074,-0.09252,0.05866,0.33208,0.06872,-0.23144,0.11114],[-0.05856,0.25559,0.27552,0.23088,-0.20601,-0.07443,-0.03175,0.07264,0.08428,-0.17344,-0.23119,0.41862,-0.02759,-0.03036,0.17199,-0.25541],[0.21495,0.02421,-0.01842,-0.16425,-0.28419,0.1556,-0.19527,0.15007,0.20072,-0.10631,0.0926,-0.02191,0.03254,0.09953,-0.23693,-0.25138],[0.24992,0.2419,-0.10539,-0.13334,0.13134,-0.25855,-0.00955,-0.03585,-0.00653,0.1135,0.09849,-0.07295,0.0843,-0.08746,-0.26562,-0.06363],[0.10255,0.02932,0.27294,0.05256,-0.10443,0.09613,-0.23622,0.18301,-0.01148,-0.11385,-0.14535,-0.00598,-0.14874,0.11615,0.07953,0.16998],[-0.02988,-0.2131,-0.17732,-0.11927,-0.05188,0.09906,0.21385,-0.29793,-0.20424,0.09435,-0.03836,0.11137,0.23802,0.03153,-0.08083,0.01745],[0.09981,0.02098,-0.14291,-0.0414,0.14482,0.20462,0.22787,-0.24577,0.1332,0.12447,0.2322,-0.00629,-0.17521,0.18671,0.19649,-0.27901],[-0.07381,0.18562,0.07367,-0.2915,-0.10927,-0.01609,0.13616,0.05712,0.1712,-0.24149,0.03861,0.00536,-0.02961,-0.29149,-0.1088,-0.209],[0.13663,-0.183,-0.09913,0.09912,-0.24649,0.0006,-0.04398,0.01637,-0.11422,-0.10264,-0.25871,-0.03344,0.05674,0.03262,-0.30834,-0.07522],[0.01226,-0.15554,-0.17699,0.02038,0.01103,0.2589,0.05171,-0.25545,0.08103,0.01747,-0.18127,0.05863,0.04583,-0.01774,-0.0794,-0.08238],[0.24891,-0.05943,0.18328,0.38222,0.0746,-0.02644,0.0116,0.0873,0.04289,-0.27478,0.0316,0.28855,0.15942,-0.08698,0.02814,-0.05914],[0.07619,0.03448,-0.04311,0.13705,-0.06418,0.06239,-0.03335,-0.26855,0.2578,-0.20789,0.14348,-0.1712,-0.18743,-0.37434,0.10364,-0.24957],[0.09811,-0.21094,-0.12862,0.05655,0.14868,-0.21723,-0.19439,0.14742,0.17245,-0.09959,0.06394,-0.4421,-0.12647,0.30738,0.07916,-0.16474]],"blocks.1.attn.qkv.bias":[0.13026,0.09752,0.04104,-0.09728,-0.12701,-0.18167,-0.03559,0.06417,-0.07474,0.07058,0.05098,-0.10191,0.08005,0.23448,-0.18167,0.19158,-0.1916,-0.19064,-0.23162,0.17911,-0.06479,-0.12957,0.22358,0.21771,0.12076,0.19681,-0.05246,0.11705,-0.02122,-0.11218,0.21624,0.17486,0.08413,-0.25005,-0.14826,-0.05028,0.18815,0.12903,0.07882,-0.08305,0.07662,0.03296,-0.14144,0.24646,-0.05796,-0.01622,-0.2021,-0.2252],"blocks.1.attn.proj.weight":[[-0.15969,0.05405,-0.11571,0.00301,-0.09885,0.18739,0.06616,-0.20128,0.21588,0.31969,-0.00372,-0.06619,-0.18143,0.17069,-0.17084,-0.05446],[0.02779,0.0781,0.07375,0.21136,-0.11262,0.25466,0.24661,-0.15362,0.19928,0.10979,-0.04898,0.27105,0.11159,0.01266,-0.07618,-0.14941],[-0.18461,-0.09191,0.14532,-0.34637,0.081,-0.09569,0.10436,0.09843,0.13128,0.29301,0.23391,-0.35397,-0.15075,0.10447,0.16095,0.06291],[0.02922,-0.15653,0.03891,0.25818,-0.14073,-0.11481,-0.15308,-0.08348,-0.00738,0.00366,0.04541,-0.00185,0.06321,-0.13205,-0.17628,0.1358],[0.1545,0.1959,-0.24378,-0.10365,0.32256,0.20249,0.03908,0.02573,0.03675,0.06944,0.09623,-0.02749,0.0869,0.35249,-0.01508,-0.33839],[0.20046,0.11134,-0.00725,-0.1021,-0.02397,0.06653,0.07226,-0.18416,-0.15038,-0.2177,0.21366,-0.02738,-0.25979,-0.08494,0.25832,-0.1161],[0.22112,0.10304,-0.06861,-0.23376,0.08721,-0.05662,-0.16325,0.23421,-0.08223,-0.09018,-0.13574,0.06912,-0.19463,0.09789,-0.27576,0.19977],[0.10948,0.10834,0.03759,-0.01978,-0.07171,0.14391,-0.18055,-0.22056,0.16684,-0.14364,-0.19025,-0.09476,0.11737,0.16953,-0.10184,-0.06455],[-0.06888,0.18808,-0.1,-0.11624,-0.05013,0.11119,-0.19856,-0.00266,-0.10498,0.2131,-0.11232,-0.06514,-0.11284,-0.0152,-0.23592,0.10452],[0.13687,-0.16428,-0.16925,0.17039,0.01877,0.17275,0.22039,0.18282,0.03592,0.18756,0.20078,0.16054,-0.04652,-0.04291,0.06662,-0.03546],[-0.04249,-0.22543,-0.04907,0.08326,0.02647,0.15391,0.15104,-0.01124,-0.21385,-0.26397,-0.24614,-0.07984,-0.16137,0.23071,0.17631,0.01855],[-0.03712,-0.15824,0.03482,-0.08597,0.32903,0.03903,-0.13123,0.13237,-0.18307,-0.11895,0.04192,-0.35599,-0.21873,-0.25813,0.0666,-0.11303],[0.01875,-0.06934,-0.21579,-0.04089,0.05866,0.1643,0.11299,0.17559,0.0337,0.18777,-0.24819,-0.01137,-0.01222,0.06207,-0.1564,0.06152],[0.10769,0.27779,-0.11683,-0.29114,-0.31406,0.16143,-0.24988,-0.01381,-0.0743,0.105,0.15802,0.15893,0.27857,-0.22085,0.00494,0.25211],[0.11937,-0.32917,-0.23893,-0.24725,-0.09757,-0.03094,0.08165,-0.02579,-0.21314,-0.22817,-0.00571,0.12153,-0.11977,0.18096,-0.19066,-0.06881],[0.12583,0.18642,0.18194,-0.1698,-0.08737,0.13823,-0.10234,0.24077,-0.2076,-0.07649,0.16432,-0.14033,-0.22398,-0.25507,-0.06488,-0.00801]],"blocks.1.attn.proj.bias":[0.16418,0.14417,0.02339,0.21253,0.13696,-0.09536,0.20205,-0.08964,-0.07143,0.16009,0.00576,-0.23455,0.18096,0.02638,0.00923,-0.21189],"blocks.1.norm2.weight":[1.04593,1.17299,1.14623,1.1295,1.23954,0.96533,1.20339,1.07184,1.09408,1.18168,1.05635,1.17024,1.03733,1.23851,1.05354,1.10658],"blocks.1.norm2.bias":[0.02943,0.07325,0.04071,-0.05219,-0.01591,0.01597,0.05748,-0.00822,-0.0009,-0.01701,0.0349,-0.01801,-0.02093,-0.06842,0.04125,-0.02742],"blocks.1.mlp.0.weight":[[0.00652,-0.32874,0.18494,0.0351,-0.0691,-0.14479,0.1669,-0.43757,-0.01025,0.045,-0.0496,0.2592,0.16879,0.14155,0.15502,0.17337],[0.11341,-0.12538,0.08784,-0.07832,-0.08802,0.20534,-0.19648,-0.06123,0.13066,0.22442,0.02747,-0.13469,0.01397,0.35411,0.25334,0.18383],[0.20545,0.23305,-0.02776,0.05554,0.15084,-0.11848,0.53966,-0.05571,-0.07286,-0.16315,-0.30458,0.08189,0.11597,-0.19601,-0.20513,-0.1203],[-0.10927,-0.15107,-0.11291,-0.19901,0.20072,0.11516,0.01518,0.15423,-0.01215,0.15821,-0.29624,0.34145,-0.31409,0.32175,-0.30832,0.08811],[0.25819,0.19624,0.18431,0.01616,-0.26403,-0.14571,-0.00792,0.28773,-0.17482,0.14509,-0.01813,-0.38537,-0.30425,0.13779,-0.06011,-0.20541],[-0.31352,0.06275,-0.42481,-0.4317,0.31732,0.01424,-0.05906,-0.18406,-0.3369,-0.17279,-0.01299,0.31164,-0.24407,-0.04125,0.23428,-0.0481],[-0.0311,-0.04996,-0.07926,0.12188,-0.04065,-0.00873,0.34238,0.31733,0.16854,0.13312,-0.18629,-0.08019,-0.01422,0.19633,0.26363,-0.01804],[0.0527,0.09518,0.07874,-0.3112,0.35925,0.1516,0.05358,0.01594,-0.10249,0.1028,-0.22772,-0.05537,0.1785,-0.25204,-0.18547,0.08487],[-0.27994,0.20221,-0.05174,-0.04444,0.07825,-0.03482,0.40358,-0.22499,-0.08231,-0.03142,-0.21097,0.04531,0.09392,0.07906,-0.04301,0.22121],[-0.02991,-0.15705,0.10639,-0.24665,0.11135,-0.16122,0.25695,-0.11822,-0.16333,-0.20794,0.0678,0.43363,0.02418,0.06008,-0.14114,-0.08939],[0.15166,0.03941,0.24877,-0.17523,0.16859,-0.15404,-0.02757,-0.23456,-0.05746,0.29176,0.04076,-0.18669,-0.21674,0.15629,0.04758,-0.13634],[-0.01188,-0.3448,-0.05159,-0.22276,-0.44336,0.01791,0.07028,0.2078,-0.22677,-0.04738,-0.14992,0.08364,0.30646,0.00898,-0.25619,-0.0856],[-0.1601,-0.12031,0.02594,-0.38701,0.01477,-0.11077,0.36732,0.04277,-0.22838,-0.04802,0.1947,-0.37275,0.06218,0.18393,0.11355,0.04796],[-0.01148,0.04044,-0.00391,-0.04506,0.00342,-0.04161,0.10698,0.10808,-0.21866,-0.21846,-0.12765,-0.16524,0.2895,0.05812,0.05266,0.27235],[-0.18905,-0.01178,0.26393,-0.18548,-0.1293,0.08406,-0.2498,0.04848,0.12771,0.23437,0.21947,-0.13569,0.3464,-0.2466,0.18548,0.06548],[0.14621,0.13254,0.03973,-0.07755,-0.0436,0.00649,0.1729,0.19995,-0.14112,-0.11327,-0.25426,0.28027,0.11882,-0.09444,0.14977,-0.17476],[0.18474,-0.27526,-0.24573,0.20729,0.01792,-0.1908,0.15855,0.17273,0.23604,-0.20381,-0.06559,-0.01569,0.15416,-0.04813,-0.15438,0.35349],[0.06104,0.07696,-0.15018,0.03899,-0.1077,0.10697,-0.08736,-0.28734,-0.00264,0.17472,-0.24869,-0.07733,-0.2077,-0.16681,0.20433,-0.00951],[0.11136,-0.15786,0.06228,0.13728,0.14976,0.02373,-0.24499,0.13156,0.03129,-0.37945,-0.16164,-0.04412,0.12833,0.1548,-0.04295,-0.38169],[-0.26834,0.30484,-0.31074,-0.04971,-0.18143,0.09487,0.13222,0.06372,-0.16888,0.20069,-0.09471,0.05935,0.17496,-0.14985,0.03108,-0.16945],[-0.23245,-0.35681,-0.06312,0.07381,-0.02022,0.25786,0.18836,0.0937,0.12057,0.14687,-0.1592,0.00608,0.05504,0.11087,-0.17834,0.07605],[0.10633,0.0813,-0.48614,-0.022,0.03846,-0.24438,0.0516,0.05059,0.00821,0.23212,-0.15985,0.05251,-0.15931,-0.08003,0.13769,0.16094],[-0.04797,-0.19269,-0.25949,-0.03898,-0.21406,-0.0036,-0.02625,-0.12127,-0.01371,-0.22504,0.17311,-0.05145,0.08639,-0.20089,0.21714,0.27815],[-0.23465,0.2263,0.38244,0.25364,0.13686,-0.21408,-0.02381,-0.05858,-0.17072,0.02743,-0.22866,-0.07427,0.20461,-0.23357,-0.00803,0.10685],[-0.07206,-0.1107,-0.01456,0.18958,0.08815,0.26606,-0.30312,-0.19849,-0.06179,-0.00262,0.07398,0.08747,-0.13602,0.17498,0.09381,0.24664],[-0.08549,-0.09193,0.23525,0.03668,0.43651,-0.14664,0.13884,-0.06524,-0.29729,-0.03906,-0.13787,0.00591,-0.2395,0.13188,-0.01573,-0.20167],[0.10144,0.02033,0.04858,0.12569,-0.29572,-0.01766,0.13015,0.09549,0.06122,-0.18958,-0.28443,-0.09037,-0.20983,0.26805,-0.23001,0.22664],[-0.1879,0.08012,-0.01108,0.39656,0.09503,-0.01809,0.21726,-0.04935,0.13804,-0.36848,0.01713,-0.04344,0.04365,-0.13879,-0.13513,0.21417],[-0.01376,-0.18647,-0.31545,-0.03879,0.48193,0.09174,-0.20502,-0.08729,0.12259,0.12315,0.18387,0.4053,0.06363,-0.15716,-0.02593,-0.09903],[-0.3158,-0.10337,-0.06395,0.0632,0.2736,0.19466,0.24685,0.27044,-0.0266,-0.04674,-0.13613,-0.07419,0.05408,-0.11319,0.29679,0.12494],[-0.21219,0.4423,-0.0834,0.05581,0.04922,0.27434,-0.10175,-0.13127,-0.12577,0.0303,0.09956,-0.25315,0.06876,-0.20136,0.08587,0.18291],[0.25229,-0.0952,-0.10068,-0.09724,-0.27511,0.16626,-0.12186,-0.14281,0.00433,-0.36421,-0.10749,-0.03344,0.18205,-0.02282,0.19629,0.13484]],"blocks.1.mlp.0.bias":[-0.15974,-0.02557,-0.30887,-0.31572,-0.10721,-0.07691,-0.15273,0.16575,-0.26087,0.16499,-0.14768,-0.20903,-0.25473,0.10013,0.08639,0.24929,-0.05828,0.00598,-0.10937,0.04841,0.05397,-0.21616,-0.07912,-0.08269,0.08075,0.10243,0.21075,-0.1888,0.00311,0.04904,-0.28515,-0.06023],"blocks.1.mlp.2.weight":[[-0.03667,0.09464,-0.01339,-0.00042,0.19125,0.19209,0.22208,0.06475,-0.06674,0.17184,-0.0443,-0.25094,-0.26595,0.1076,0.05122,-0.17853,-0.12832,0.16392,0.02602,0.31359,-0.02629,-0.07501,-0.17176,-0.00836,-0.1307,0.11679,0.0736,0.23806,0.04623,0.32734,0.09194,-0.04562],[0.16748,0.10476,-0.07748,0.27788,-0.00929,-0.12048,0.04889,-0.20432,0.29068,-0.04911,0.01158,0.12639,-0.15493,0.0736,0.15872,-0.18241,-0.13683,-0.17061,-0.04259,-0.20822,0.25339,-0.20114,0.07463,-0.04815,-0.09656,0.11861,-0.19419,-0.1106,-0.04385,0.0049,0.09207,-0.07346],[-0.03572,0.25396,0.38288,-0.15205,-0.00853,-0.01957,-0.07946,-0.11376,0.2671,-0.17911,0.08202,0.25847,0.09516,0.00328,-0.09879,-0.0595,-0.07387,0.01575,-0.1556,-0.02087,0.08694,-0.00432,0.04327,-0.15775,0.0411,0.07079,0.02312,0.11809,0.193,-0.12384,-0.05342,-0.02576],[0.14469,-0.17445,-0.14927,0.12407,-0.0793,0.0218,0.01628,-0.16493,-0.05077,-0.04479,-0.13998,0.04355,0.07391,0.11153,0.20712,-0.21686,-0.1657,0.11953,-0.32522,-0.10694,0.18553,-0.24293,-0.09525,0.03114,-0.23379,-0.24103,-0.0438,-0.26569,0.19173,-0.32497,-0.03963,0.00901],[0.03928,0.01175,0.10171,0.08922,0.14105,0.05681,-0.07456,-0.10102,-0.07382,-0.19872,0.15682,0.01793,-0.04695,-0.02307,0.14506,0.13892,-0.02596,-0.15924,0.15724,-0.09817,0.09147,0.05914,0.0609,-0.01614,0.12911,0.07033,0.05542,0.05627,-0.17748,0.08078,-0.15742,-0.10925],[0.04409,0.03121,0.01928,-0.09567,0.08617,0.12921,0.0404,-0.31736,-0.04034,-0.09436,0.19624,-0.17299,0.03535,0.09726,0.18096,0.21407,0.23313,-0.14804,-0.01656,0.12631,0.09428,0.04946,-0.02679,0.21665,0.10814,0.05702,-0.27813,0.23767,-0.12842,-0.09433,0.12261,-0.03659],[-0.10809,0.12222,0.21809,-0.11487,-0.04032,0.17165,0.02406,0.04284,-0.00755,-0.09618,0.08294,-0.10549,-0.17351,-0.18731,0.04607,0.04879,0.13136,-0.0211,0.18827,-0.0075,-0.06086,0.16796,-0.01349,-0.20471,0.08754,0.15524,-0.12986,-0.24586,0.09697,-0.01167,0.05735,-0.01481],[-0.09057,-0.04718,0.07388,0.14376,-0.14625,0.11064,0.04169,0.27769,-0.03487,-0.09762,0.21491,0.035,-0.29298,-0.08798,0.04875,-0.13046,0.00159,0.02084,-0.03317,-0.17176,0.16309,0.07065,0.21241,0.0851,-0.09852,-0.01471,-0.06584,-0.31519,-0.23831,-0.03763,-0.16653,0.20333],[0.00608,-0.10861,0.01567,-0.04855,0.04428,0.06407,0.14762,0.13016,0.08406,-0.14239,-0.22472,0.12163,-0.01091,-0.13871,-0.12676,0.14693,-0.14026,0.07972,0.04077,-0.00656,0.18639,-0.15386,-0.038,-0.02023,-0.12239,0.00686,0.11735,0.03224,0.04987,-0.07122,0.07062,0.10448],[0.04633,-0.16635,0.07894,0.2654,-0.06157,-0.03937,-0.1531,-0.08757,0.09821,-0.08025,-0.16021,-0.01668,-0.03372,0.12797,-0.07205,-0.00258,-0.12311,-0.08313,0.05736,-0.08334,0.05364,0.20712,-0.06564,-0.04074,-0.15504,-0.16536,0.04624,0.12744,-0.12724,0.00986,0.1322,-0.04549],[-0.05148,0.11591,0.00603,-0.04468,-0.10427,-0.10832,-0.05816,-0.01855,-0.03863,-0.04703,0.08248,0.22323,0.15039,0.08559,0.13272,-0.06123,0.03433,-0.1025,-0.1495,-0.09976,0.11061,0.1229,-0.19008,0.00417,-0.20124,0.20896,-0.12453,-0.20782,-0.02248,-0.22442,-0.26738,0.1478],[0.065,0.10783,0.0104,-0.14936,0.21483,0.17219,0.39831,0.09298,-0.13622,-0.23848,-0.12903,-0.07186,0.03353,0.06329,0.04566,-0.06564,0.07629,0.08234,-0.08327,-0.01178,-0.11197,-0.23907,0.12832,-0.06076,0.04248,-0.29845,0.17841,-0.07158,-0.03565,0.08815,0.0855,-0.0322],[-0.1735,0.01773,-0.18148,-0.19106,0.0153,-0.19663,-0.10697,0.0479,-0.07488,0.16001,0.11127,0.02437,-0.29711,0.13103,0.11869,-0.12355,-0.04464,0.14563,0.18493,-0.04838,0.04266,0.0832,-0.12065,-0.12949,-0.09803,0.00465,-0.15621,-0.11025,-0.08952,-0.1128,-0.032,0.05475],[-0.02861,0.12332,-0.03567,0.01295,-0.28698,-0.2281,0.06648,0.07562,0.03603,0.23264,-0.14623,0.077,0.11553,-0.16042,0.11283,0.05911,-0.03427,0.12487,0.20849,0.00988,-0.02958,0.15029,-0.30035,0.23026,-0.12854,0.02007,-0.04041,0.20211,0.0276,-0.01787,0.09956,0.20818],[0.25108,0.11153,-0.12646,0.03191,0.06477,0.17463,0.03196,0.17435,-0.30376,0.12495,0.06514,-0.09155,0.12114,-0.19139,-0.08405,-0.11801,0.09932,0.01647,-0.16182,0.09403,-0.12982,0.02857,-0.18589,0.11729,-0.06927,-0.14168,-0.07956,0.07079,0.05098,0.02701,0.15974,-0.05464],[-0.23139,-0.23997,0.01121,0.23387,0.08085,-0.01907,0.04109,-0.16544,0.14922,-0.00573,0.08476,-0.12157,0.09855,-0.12148,0.10519,-0.13583,-0.13995,-0.09508,0.06172,-0.06294,-0.13393,-0.1392,0.01328,-0.22258,-0.11074,-0.19586,0.20313,0.04176,0.30763,-0.00893,-0.26211,-0.09844]],"blocks.1.mlp.2.bias":[-0.08059,0.05265,-0.14996,-0.05873,-0.09619,-0.07575,0.14859,-0.15441,0.09964,-0.03499,-0.17151,-0.06974,-0.09264,-0.00332,-0.03147,0.08323],"norm.weight":[1.63028,1.50377,1.7424,1.63642,1.5585,1.59232,1.6732,1.71518,1.68912,1.60281,1.60169,1.66167,1.63532,1.61326,1.66503,1.7731],"norm.bias":[0.04985,-0.07599,0.07507,0.14282,-0.20417,-0.05707,-0.00932,0.02484,0.05038,-0.07844,0.0909,0.1848,0.14207,-0.04544,0.06873,-0.10728],"head.weight":[[-0.52454,0.30407,-0.54744,-0.06369,0.50811,-0.19877,-0.18858,0.42378,0.3682,0.58976,-0.38402,-0.68091,-0.51615,0.46876,-0.5975,0.53773],[0.4059,-0.42113,-0.53577,0.44643,0.2014,-0.59451,0.53577,-0.53346,-0.4764,0.44067,0.41525,-0.57988,0.30056,-0.39966,0.441,0.18329],[0.42704,0.10687,0.6138,0.63831,-0.43039,-0.20005,-0.50264,-0.49489,0.28124,0.52754,-0.47268,0.36995,-0.71181,-0.61707,-0.41254,0.54829],[-0.25654,-0.22783,0.20175,0.58039,-0.4971,-0.5365,0.00022,0.03074,0.50844,-0.15354,0.2263,0.40604,-0.10493,0.48144,0.53236,-0.50282],[0.53292,0.51375,-0.77577,0.16478,-0.43971,0.50989,-0.52828,0.1471,-0.29226,-0.03018,-0.41406,-0.22309,0.43115,-0.31121,0.08625,-0.17543],[-0.36839,0.34342,0.57364,-0.3517,0.44818,0.61953,-0.02804,-0.59495,-0.61201,-0.05253,0.48313,-0.34369,-0.27586,0.36748,0.32146,-0.29062],[0.53414,-0.20478,0.42303,-0.62188,0.46436,0.24554,0.55899,0.50653,0.13885,0.21131,-0.47336,-0.48735,-0.3015,-0.45742,-0.33559,-0.5654],[-0.37734,-0.31804,-0.50524,-0.27237,0.2454,0.04183,0.32153,0.11633,-0.1857,-0.36924,-0.23084,0.59417,-0.50155,-0.7227,0.61483,0.43235],[0.64873,-0.50217,0.11031,-0.40151,0.1672,-0.29713,-0.35111,-0.44121,-0.02273,-0.49656,-0.39017,0.31726,0.42443,0.68573,-0.55818,0.25717],[-0.66321,0.20849,-0.25576,-0.08851,-0.19295,-0.13694,-0.28322,0.48559,-0.42731,-0.46607,0.57611,0.11094,0.34644,-0.4696,-0.64021,0.38898]],"head.bias":[-0.01924,0.03075,-0.14741,-0.10825,0.03482,0.02347,-0.16168,0.17368,0.06862,0.06627]}