{"cls_token":[[[-0.05168,0.0153,0.00461,0.04276,0.00207,-0.02663,0.02314,-0.02907,0.02587,0.004,0.02011,-0.01151,0.01643,-0.03882,0.0089,0.04184]]],"pos_embed":[[[-0.05626,-0.02088,0.02469,0.05209,-0.003,0.02138,0.02556,0.00807,0.03026,0.01662,0.0015,0.00046,-0.03288,0.0065,-0.02788,0.05682],[0.00213,-0.01164,0.11262,-0.02285,0.02812,0.05766,-0.0011,-0.00507,0.02788,-0.11853,0.05375,-0.02785,0.05606,-0.05623,-0.10853,0.15048],[-0.04798,-0.01886,0.09222,-0.08434,0.06371,0.08595,0.03755,0.01337,0.01087,-0.05517,0.06804,-0.04787,0.01692,-0.03852,-0.07932,0.13378],[0.15597,0.01813,0.0013,-0.12146,-0.04904,-0.13462,0.15059,0.12435,0.0618,-0.11969,0.08592,0.05066,-0.01408,0.03599,0.02657,-0.03595],[0.25094,-0.05647,-0.07964,-0.16948,-0.14095,-0.15622,0.10604,0.07716,0.07768,-0.07076,0.07884,0.04696,0.00262,0.08112,0.1147,-0.05893],[0.24689,-0.09045,0.01038,-0.09428,-0.08584,-0.19083,0.12662,0.09435,0.03108,-0.12615,0.18572,0.02699,0.05698,-0.07894,-0.00934,-0.03812],[0.29605,-0.17071,-0.02318,-0.10379,0.01297,-0.21049,0.13535,0.16673,-0.00916,-0.1818,0.11993,0.07606,-0.00771,-0.0537,0.06494,-0.07039],[-0.02169,-0.0184,0.12617,-0.04739,0.01978,-0.13755,0.11442,0.05627,-0.01719,-0.19099,0.1018,0.06597,-0.11438,-0.00906,0.02255,-0.017],[0.00798,-0.02188,0.14282,-0.08646,0.03261,0.02225,-0.02004,0.05855,0.00182,-0.03477,0.02687,-0.01598,0.00283,-0.04582,-0.12127,0.1737],[-0.05783,0.00028,0.09707,-0.02457,0.05211,0.02977,-0.00136,-0.05334,0.01074,-0.05654,0.00889,-0.07716,0.05698,-0.0559,-0.11409,0.19346],[0.05645,0.01211,0.07582,-0.05521,-0.04273,0.00953,0.08183,-0.00358,0.04091,-0.17043,0.04704,0.00092,0.12234,0.0205,-0.12909,0.08797],[0.13814,0.16187,0.01497,-0.10001,-0.20885,-0.02102,0.12401,-0.06628,0.06891,-0.22066,0.14764,0.01271,0.09984,0.05391,-0.06264,-0.19959],[0.01757,0.46934,0.24372,-0.12173,-0.14148,-0.02479,-0.06451,-0.10036,0.22728,0.17171,-0.04296,0.10004,0.09927,-0.24498,-0.16435,-0.30564],[-0.0611,0.15645,0.05391,-0.1091,0.03297,0.05302,-0.1548,-0.19319,0.1715,0.36853,0.04181,0.32382,-0.09429,-0.42029,-0.0167,-0.12694],[-0.07031,-0.01912,-0.06204,0.10806,0.3219,-0.21134,-0.11821,-0.16798,-0.01321,0.32988,-0.1973,0.25696,0.01581,-0.05719,-0.0833,0.21843],[0.03277,-0.19302,0.05686,0.10512,0.04326,-0.08197,0.05904,-0.01466,-0.08606,0.06777,-0.26409,0.07088,-0.01074,0.10296,-0.27843,0.1481],[0.09205,-0.05798,0.00234,0.08018,0.06349,0.08763,-0.0282,-0.07256,-0.02505,0.05408,-0.13298,0.0318,-0.09743,0.01847,-0.01873,-0.00395],[-0.09873,0.01734,0.08508,-0.01205,0.0445,0.03736,-0.04104,-0.01654,0.03436,-0.05454,0.14387,-0.11204,-0.00387,0.01277,-0.00796,0.15392],[-0.11941,0.12967,-0.15007,-0.07359,0.00236,0.10124,-0.03463,-0.00747,-0.04511,-0.06508,0.39482,-0.24819,0.17276,0.22561,0.00323,-0.12935],[-0.3109,0.08398,-0.0048,0.09072,0.12457,0.11162,-0.18989,-0.07952,-0.11198,0.12358,0.18471,-0.14297,0.09193,0.2956,0.04241,-0.37246],[-0.14428,0.04198,0.08169,0.12981,0.26527,0.12327,-0.4075,-0.27612,-0.28096,0.45666,-0.04807,-0.07222,0.02224,0.10131,0.27639,-0.21409],[-0.30398,0.62052,-0.25658,-0.1877,-0.15844,0.15046,-0.14637,-0.25037,0.10089,0.21776,0.16623,-0.32464,-0.11575,0.02098,0.56979,-0.13249],[-0.18744,0.16426,-0.39398,-0.08754,-0.04487,0.18485,-0.28487,0.1409,-0.04537,0.16037,-0.02285,0.10873,-0.04905,-0.01172,0.75926,-0.16837],[-0.29948,0.00629,-0.38401,0.05106,0.42696,0.14174,-0.07056,0.10674,-0.11616,0.16904,-0.13839,0.14035,-0.08975,0.07567,0.16399,0.09077],[0.07399,-0.05999,-0.08965,0.14581,0.27814,0.06926,-0.13713,-0.04684,-0.01735,0.20571,-0.2497,0.01555,-0.13025,0.0533,0.04733,0.04442],[-0.05012,-0.00231,0.09529,-0.02779,0.14832,0.03082,-0.00531,-0.03639,0.02345,0.00434,0.12812,-0.05609,0.01359,-0.04258,-0.11339,0.18103],[-0.0874,-0.12153,-0.11039,0.11639,0.27931,0.14015,-0.0265,-0.13307,-0.25918,-0.06259,0.04568,0.0162,0.19683,0.17244,-0.08596,-0.10088],[-0.10662,-0.26882,-0.21192,0.45622,0.0772,0.01198,-0.05976,-0.7352,-0.06781,-0.02308,-0.1299,0.03315,0.14704,0.43909,-0.20603,-0.06265],[0.08703,-0.06778,-0.03635,0.67743,-0.35831,0.34956,0.23285,-0.58596,0.04262,0.22187,-0.31237,0.02115,-0.43642,-0.18316,-0.04753,-0.17643],[0.01109,0.52533,0.03247,0.24963,0.0309,-0.06878,0.13094,0.23881,-0.15056,-0.11164,0.18486,-0.09909,-0.73527,-0.55905,0.12265,-0.19373],[0.22301,0.1193,-0.38866,-0.02409,-0.13764,0.27963,0.05968,0.17765,-0.17886,-0.21947,0.04204,-0.04951,-0.23787,-0.16296,0.60675,-0.40818],[-0.0455,-0.05471,-0.04065,-0.00613,0.04495,0.18594,0.10232,0.12156,-0.13918,-0.3311,0.02169,0.05979,0.09882,0.07516,0.1659,-0.33151],[0.02626,-0.03217,0.05064,-0.01752,0.01911,0.01729,-0.0209,-0.03646,0.00957,-0.11493,-0.02626,-0.00813,0.08863,-0.05055,-0.03809,0.18993],[0.00828,0.03687,0.04746,-0.04096,0.03802,0.05283,0.03101,-0.03479,0.01867,-0.05497,0.04773,-0.06889,-0.00526,-0.04737,-0.08398,0.20229],[0.17786,-0.22648,-0.03359,-0.00773,-0.07829,0.02408,-0.09417,0.06779,-0.02977,-0.14565,-0.28004,0.10584,0.10592,0.13209,0.04218,-0.04882],[0.30628,-0.076,-0.30198,0.05196,-0.25058,0.15874,-0.11614,-0.11631,0.06541,-0.04936,-0.12735,0.03383,0.07825,0.23983,-0.05999,0.04331],[0.03284,0.2033,-0.34211,0.17781,-0.27978,0.05972,-0.15564,0.21687,0.28209,0.31306,-0.22887,0.37839,-0.16332,-0.34487,-0.14655,-0.43745],[0.0111,0.43457,-0.46239,0.08845,-0.13374,-0.2389,0.23762,0.61635,-0.05782,0.24191,-0.2435,0.08649,-0.51115,0.07984,0.3701,-0.67169],[0.35349,-0.18342,-0.53283,0.01811,0.28814,-0.20634,-0.14804,0.1016,-0.2562,-0.27261,0.12908,0.02314,0.63569,0.30911,-0.15425,-0.19706],[0.21003,-0.34144,-0.16386,-0.03284,0.11034,-0.08049,0.05972,-0.10356,-0.00895,-0.25915,-0.06332,0.01993,0.36633,0.27011,0.00215,-0.11741],[0.02674,-0.08797,-0.01333,0.00903,-0.00915,-0.05889,0.05799,-0.00434,0.06108,-0.16,-0.05965,0.0754,0.06355,0.02104,-0.04009,0.00472],[-3e-05,0.11063,0.06356,-0.05694,-0.08923,-0.0005,0.06721,0.00046,0.02808,0.10519,0.09515,-0.13685,-0.05355,-0.11655,-0.05635,0.11919],[0.13661,-0.28312,0.16994,-0.16962,0.06947,0.1352,0.0425,0.09407,0.22598,-0.1088,-0.28719,-0.0352,-0.03986,-0.23049,0.00446,0.14316],[0.29525,-0.58565,0.14892,-0.18783,-0.08989,0.07379,-0.37457,0.09171,0.48132,0.18621,-0.37175,0.12623,0.06754,0.06317,-0.07302,0.03312],[-0.03859,-0.41279,0.06645,-0.0854,-0.17686,-0.23154,-0.46062,0.21788,0.32297,-0.0331,-0.20303,0.27657,0.05824,0.08056,0.12612,0.00627],[0.07588,-0.33805,-0.14026,-0.13113,-0.17936,-0.46068,0.09893,0.11944,0.27948,0.07339,0.10607,0.42844,-0.0427,0.18164,-0.19491,-0.03957],[0.17496,-0.07779,0.13968,-0.11157,-0.42579,-0.36155,0.47839,-0.05447,0.29296,0.13687,0.06533,-0.08186,0.05029,0.12521,-0.14332,-0.19503],[0.14406,-0.16068,0.16775,-0.13692,-0.19619,-0.26765,0.26965,0.12405,0.05963,-0.06424,0.05902,0.02751,0.05643,0.00769,0.0134,-0.08039],[0.04345,-0.04277,0.09589,-0.08829,-0.11341,-0.12344,0.08376,0.11572,0.08934,-0.10712,-0.00813,0.05533,0.04458,0.04093,0.05928,-0.04205],[-0.02363,0.0378,0.08465,-0.06119,0.04229,-0.00147,0.0219,0.02149,0.03797,-0.06649,0.08394,-0.02743,-0.00213,-0.03651,-0.06888,0.12364],[-0.18421,0.21259,0.09181,0.00225,-0.08346,-0.07198,0.00961,-0.07317,0.04249,0.06729,0.19265,-0.25987,-0.07464,-0.0512,0.09481,0.05771],[-0.28094,0.17007,0.42232,0.08206,-0.1031,-0.14255,-0.1073,-0.03641,-0.00215,0.11842,-0.19414,-0.2205,-0.09394,0.05952,0.13431,0.1679],[-0.12351,0.23759,0.62046,0.05092,-0.20963,0.12635,-0.14313,0.0063,-0.08342,0.31853,-0.39182,-0.2918,-0.17031,-0.24624,0.36663,0.20342],[0.00284,0.39216,0.28381,0.21529,-0.05867,-0.13273,0.02959,-0.04788,-0.40516,0.30387,-0.06302,-0.27691,-0.10083,-0.26873,-0.05389,-0.03921],[0.11022,0.09372,0.14233,0.07607,-0.03621,-0.35927,0.34828,-0.09212,-0.26728,0.15539,0.08609,-0.07316,-0.06565,-0.05337,-0.02261,-0.01662],[-0.13674,-0.00204,0.15831,-0.03089,-0.05092,-0.1199,0.05084,-0.00701,-0.0928,-0.09306,0.0405,0.06114,0.14971,0.0356,0.11398,0.00093],[-0.079,-0.00996,0.07108,-0.07474,-0.02105,0.02945,-0.00995,0.01044,0.05956,-0.05243,0.01223,0.03316,0.01792,0.01,-0.02101,0.10037],[0.03062,0.02507,0.09526,-0.02103,0.08608,0.07028,-0.02499,0.01364,0.0485,-0.06865,0.03124,-0.05655,-0.00656,-0.07636,-0.07446,0.15335],[0.00506,-0.06284,-0.00014,0.01147,0.09129,0.17003,-0.0419,-0.03951,0.01713,-0.03013,-0.01385,-0.04532,0.09317,0.03006,-0.12265,0.16682],[-0.12372,0.06069,-0.17932,-0.00579,0.03539,0.21131,-0.03726,0.02843,-0.08559,-0.00044,0.18545,-0.10312,0.0306,0.12006,-0.12172,0.04198],[0.08681,0.0692,-0.13968,-0.08923,0.28789,0.2186,-0.11012,0.10124,-0.10743,0.056,0.16744,-0.19739,0.07358,0.07915,-0.32119,0.00685],[0.10009,0.15269,-0.13514,-0.10989,0.3342,0.27761,-0.1681,0.17834,-0.03851,0.06212,0.04979,-0.271,0.03194,0.02405,-0.20751,0.00369],[0.21494,0.10102,-0.19363,-0.06635,0.21207,0.16305,-0.14141,0.08764,-0.0781,0.08075,-0.00686,-0.149,0.03457,0.00292,-0.2263,0.14037],[-0.0267,0.04334,0.02296,-0.01516,0.12923,0.08764,-0.03371,-0.00084,-0.06267,-0.03937,0.08388,-0.05801,0.0523,-0.07073,-0.06704,0.24755],[-0.00252,-0.0082,0.09607,-0.05543,0.09382,0.03769,0.01609,0.00298,0.00413,-0.05111,-0.0288,-0.02783,0.03101,-0.0507,-0.0568,0.14167]]],"patch_embed.proj.weight":[[0.05928,-0.11703,0.04832,-0.20787,0.14226,-0.0502,0.17926,0.07454,0.2012,-0.18302,0.06568,0.07115,-0.15385,0.06372,0.0754,0.06722],[0.06273,0.16408,-0.08803,0.01933,-0.0505,-0.02532,0.19641,-0.1372,-0.10523,0.19755,-0.11008,0.03453,-0.15585,-0.23211,0.1736,0.00332],[-0.19342,-0.17984,-0.09949,-0.04704,0.06086,0.10841,-0.14283,-0.17647,0.1168,-0.07654,0.12645,0.01288,-0.10184,0.04761,0.11952,-0.02064],[0.10855,0.04241,0.02571,-0.15182,-0.16127,0.25255,-0.23567,0.10176,-0.15112,0.16033,0.15225,-0.21764,-0.0867,0.22315,-0.19984,0.02107],[0.20112,0.04242,-0.11263,0.09848,-0.05004,-0.19699,-0.14387,0.20338,-0.05439,-0.17673,-0.06323,0.14131,-0.13532,-0.21912,-0.14876,0.05461],[0.23449,-0.06775,0.03625,-0.10755,-0.14703,-0.08819,-0.16398,-0.21386,0.12456,0.06676,-0.18519,0.0507,0.09466,-0.10966,-0.22243,-0.08182],[0.16276,0.08457,0.06874,-0.21233,-0.07481,0.05365,-0.16259,-0.01581,0.23871,0.01713,0.22496,-0.00341,-0.08006,0.18536,-0.18284,-0.24898],[0.10814,0.10533,0.12387,-0.07056,-0.05201,-0.17525,-0.19362,0.05587,0.13118,0.13974,0.19122,-0.0013,0.05744,-0.16056,0.01124,0.07289],[-0.19059,0.09545,-0.1377,0.06477,-0.20776,0.194,-0.06603,0.12037,-0.18232,0.25442,0.08762,-0.07985,-0.1264,-0.00496,0.01767,-0.10403],[0.1048,0.05895,0.19276,0.05672,0.10353,-0.02461,0.04661,0.08527,0.13063,0.10811,-0.2212,-0.06278,0.13179,0.18347,0.22476,-0.18294],[0.04591,-0.05771,-0.01946,0.2088,0.12178,-0.23655,-0.04469,-0.13151,-0.15603,-0.04372,-0.13381,0.16186,0.18043,-0.01774,-0.17902,0.03389],[-0.11314,0.19831,0.15569,0.10649,-0.17241,-0.1728,-0.16297,-0.02934,-0.16027,0.12026,-0.07499,-0.16779,-0.03757,0.01155,0.05658,-0.0104],[0.04113,0.1769,-0.03337,-0.10867,0.0218,-0.24257,-0.03634,0.24303,0.16789,-0.20014,-0.21559,0.13678,0.05676,-0.08132,0.11396,0.16304],[-0.14804,-0.05718,0.06957,0.17239,-0.07981,0.09616,0.10643,-0.22535,-0.11326,0.16145,0.09753,-0.17869,0.01172,0.15689,0.08634,-0.03231],[0.10388,-0.17516,0.18772,-0.16889,-0.19446,0.06339,-0.16247,0.1765,0.10079,0.09134,-0.02363,-0.05541,0.1144,0.09454,0.05261,-0.152],[-0.06679,0.21023,-0.10196,0.02923,0.07338,0.01437,-0.20144,0.02679,-0.05842,0.19569,-0.04371,0.2541,0.21318,-0.00554,-0.18517,0.00457]],"patch_embed.proj.bias":[-0.19198,0.04957,-0.11764,-0.01825,-0.23801,0.03222,0.15505,0.10766,-0.10681,0.19899,-0.04131,-0.01112,0.10227,-0.04083,-0.15282,0.13334],"blocks.0.norm1.weight":[0.97587,1.01548,1.04327,1.02806,1.00606,0.98879,1.02148,0.98511,1.0561,1.01359,1.05268,1.02503,1.00005,1.01469,0.98663,1.09598],"blocks.0.norm1.bias":[0.01175,-0.00051,-0.01239,-0.00438,-0.00647,-0.01636,-0.0101,0.01001,0.00561,0.01146,-0.03399,-0.00992,-0.01532,0.01096,0.03285,-0.00069],"blocks.0.attn.qkv.weight":[[-0.15572,0.22124,-0.17166,0.03812,-0.16029,-0.22816,-0.11173,0.08915,0.18323,0.12554,-0.11985,-0.12995,0.14147,-0.1542,-0.19475,-0.20978],[0.22503,0.04167,-0.07496,0.05666,0.11447,-0.03699,-0.08202,0.23216,0.18275,0.23409,0.05879,-0.26731,0.00658,-0.1094,0.07971,-0.26853],[-0.2581,0.14177,-0.13438,-0.02278,-0.09432,-0.32346,0.08285,-0.10762,-0.17211,-0.07843,-0.36865,-0.13841,-0.08706,-0.11597,-0.10888,0.22243],[-0.03642,0.06648,0.23283,0.21026,-0.00647,-0.1433,-0.12662,-0.21783,0.09794,-0.17999,-0.18704,-0.20094,0.12863,0.18259,-0.27689,0.26841],[-0.27226,0.16217,-0.27739,0.28161,0.11961,-0.06151,0.12448,-0.23346,-0.14405,-0.16269,0.05519,-0.24536,0.11599,0.07332,-0.19126,0.09525],[-0.14562,0.1993,-0.24553,0.05152,0.29548,0.26808,-0.18466,-0.04443,-0.23426,-0.1702,-0.08882,-0.13036,0.23682,0.17649,-0.18221,-0.25911],[0.24532,0.22763,-0.1507,0.03892,-0.03412,-0.08952,-0.10807,0.05238,-0.20326,0.15079,-0.13428,0.19306,0.09184,-0.18756,0.28456,-0.23162],[-0.2488,-0.06854,-0.00092,-0.14552,0.31305,-0.01699,0.04502,-0.2068,0.31521,-0.15457,-0.30187,0.24478,0.12271,-0.11631,-0.01158,0.03632],[0.25668,0.22161,0.11305,-0.14488,0.01335,0.17301,0.16643,-0.12718,-0.18402,0.13359,-0.11615,0.07959,0.19001,-0.24901,-0.09737,-0.08296],[0.11874,-0.0976,-0.17429,-0.11789,-0.16317,-0.07404,-0.13637,-0.10243,-0.01184,0.14405,-0.0241,0.16428,-0.19338,0.13821,0.12574,0.14127],[-0.27216,0.06435,0.0959,0.2745,0.00578,-0.43812,0.06995,-0.01082,0.25402,0.0327,-0.39427,-0.32826,-0.01136,-0.17441,0.10581,0.12509],[-0.24448,0.08678,-0.1464,-0.27943,0.16898,-0.06728,0.14349,0.08538,0.12988,0.09003,0.20685,0.08449,0.18667,0.17392,0.21324,-0.23623],[-0.20187,-0.16038,0.26876,-0.18113,-0.05197,0.11766,-0.07649,-0.20506,-0.09817,-0.02139,-0.11205,-0.24853,0.11344,0.11531,0.05414,0.24774],[0.02769,0.14205,0.20999,-0.13531,-0.08827,0.0825,0.07617,-0.14217,0.03451,0.03752,-0.02952,0.19916,-0.13309,-0.27623,-0.21895,-0.11697],[0.29892,0.29898,-0.03095,-0.26918,0.00142,-0.04014,-0.0214,0.09264,-0.0475,0.07772,-0.26906,0.21095,0.18344,0.17091,-0.14605,-0.09344],[-0.14663,0.21892,-0.00961,-0.13985,-0.12125,-0.05762,0.25051,0.08959,-0.02755,0.22631,-0.21394,0.00843,-0.23921,0.21937,-0.08767,-0.19019],[0.19316,0.09399,-0.05073,0.01794,0.0496,0.23278,0.04054,0.1588,-0.06612,-0.02298,0.36371,-0.08283,0.24234,0.23779,-0.04575,0.12812],[0.00308,-0.19633,0.16127,-0.05841,-0.11581,-0.08509,-0.14418,0.19139,-0.12454,-0.02218,-0.0494,-0.13184,-0.2437,0.03381,0.23884,-0.0091],[0.01663,0.12149,0.12322,-0.2464,0.17398,-0.07614,-0.2503,0.16128,-0.26858,-0.11123,-0.06796,0.26341,0.26574,0.19932,-0.24917,-0.20979],[-0.02348,0.02048,-0.05476,-0.19879,0.22149,0.21259,-0.08899,0.02995,0.12689,0.05512,-0.24919,0.16351,-0.1005,0.0677,-0.1471,0.10561],[-0.10709,-0.17752,-0.26797,0.19499,-0.16951,0.24504,-0.24155,0.15904,0.13486,0.05695,-0.02947,0.10332,0.27999,0.18196,0.18863,-0.10282],[-0.13282,-0.16342,0.25861,-0.20633,-0.12325,0.02971,0.06708,-0.01414,-0.0077,-0.1527,0.00969,-0.0417,-0.07875,-0.04646,0.22094,0.35741],[-0.23874,-0.05082,0.14156,-0.01991,0.01615,-0.24006,-0.11816,0.05276,-0.2535,-0.18691,0.06957,-0.02079,0.14582,-0.14369,0.27265,0.16611],[0.01373,-0.16023,-0.06212,0.00195,-0.08235,0.23693,-0.02362,0.01545,-0.05585,-0.09145,-0.07333,0.30089,-0.16132,0.20925,0.18362,-0.15783],[0.10183,0.14972,0.09763,-0.14725,0.11052,-0.2286,0.20351,0.14824,-0.167,0.15583,0.13162,-0.11428,-0.04663,0.06058,0.15911,-0.01993],[0.23552,-0.2221,0.06497,-0.30613,-0.1801,-0.07515,-0.15044,0.12578,0.25542,-0.12999,-0.21533,-0.00186,-0.05555,-0.08999,-0.04335,0.01367],[-0.22931,0.18123,0.10238,0.08795,-0.27292,0.00694,0.20525,0.13883,-0.03753,-0.09187,-0.26579,-0.14069,-0.08902,-0.18749,0.1385,-0.2538],[-0.0985,0.05876,-0.109,-0.24445,0.09042,-0.03688,-0.12107,-0.2241,-0.13674,0.09588,0.14613,-0.25812,0.31058,0.21176,0.13812,-0.10244],[-0.16837,-0.02045,0.20011,0.23854,0.11547,-0.0882,0.10093,-0.22684,-0.12249,-0.0399,-0.06676,-0.11476,0.09241,-0.07664,0.15798,0.08564],[-0.1685,0.19445,-0.15183,-0.11301,0.2609,0.22325,0.10305,-0.24959,-0.13943,-0.14793,-0.02534,-0.11431,-0.1673,0.10014,0.02672,-0.25777],[0.16627,-0.11835,0.0915,-0.1874,0.21377,-0.1213,0.079,0.08436,0.15306,-0.20242,-0.09969,-0.28411,0.35672,-0.07758,-0.2208,0.2567],[-0.08938,0.05743,0.10246,0.02181,-0.01381,-0.00865,-0.03222,0.16531,-0.15787,-0.13372,0.02716,-0.06482,0.1194,-0.09466,-0.24793,0.27808],[0.08794,-0.08737,0.02346,0.02406,-0.13444,0.04178,-0.15434,-0.22573,-0.30654,0.19615,-0.21915,-0.00942,0.11186,0.14381,-0.19825,-0.05359],[-0.01987,0.02278,0.16918,-0.07929,0.23574,0.07453,-0.10911,0.27149,-0.13485,0.09687,0.04128,-0.10954,-0.20601,-0.05881,-0.22936,-0.11441],[0.17731,0.18005,-0.06524,0.21173,-0.17779,-0.12612,0.17434,0.14777,-0.16427,-0.22203,-0.00691,0.13004,-0.2386,-0.29238,0.19526,-0.25781],[0.0679,-0.27895,-0.0914,-0.1489,0.06041,-0.236,0.06414,0.09926,0.18771,-0.09365,0.24232,0.25123,-0.10354,0.10403,0.07145,-0.0116],[0.20814,-0.12146,-0.07418,-0.15715,-0.10391,0.09682,-0.01484,0.14766,0.00888,-0.00846,0.1006,-0.22122,0.12112,0.02342,-0.09802,-0.09108],[-0.079,0.253,-0.02846,-0.26398,-0.12475,-0.02047,0.17534,0.15062,0.17374,-0.08384,-0.10877,0.18188,-0.13358,-0.23232,0.19437,0.3179],[0.09219,0.07616,0.12509,0.17464,0.13341,-0.05082,0.21756,-0.15392,-0.13872,-0.1156,0.27927,-0.16503,0.10954,-0.05858,-0.16164,0.04755],[0.2096,0.05983,-0.13261,0.03431,-0.15766,-0.05414,0.21203,-0.06039,-0.17802,-0.25641,0.1875,0.17828,0.19079,0.35128,0.22761,-0.10311],[-0.23521,0.05994,-0.09712,0.2105,0.15964,-0.11363,-0.08038,-0.08506,-0.26602,0.04118,0.22435,-0.23207,0.12199,-0.12266,0.15245,0.12084],[-0.24039,-0.18521,-0.18412,-0.13649,-0.15206,-0.12594,-0.22103,-0.0328,-0.18409,-0.12085,0.13657,0.24952,0.16332,0.24494,0.24678,-0.08879],[-0.11193,-0.12613,-0.23093,0.18235,0.1353,0.00198,-0.24118,-0.05218,-0.1289,0.06076,-0.17065,-0.02585,-0.14005,-0.1159,0.08214,0.22021],[0.20609,-0.04581,-0.02604,0.24487,0.10193,-0.08559,-0.10731,0.18465,0.07459,0.00012,-0.21629,0.0158,0.00332,0.14321,0.03347,-0.18143],[-0.13335,0.05712,0.1026,0.02241,-0.068,-0.1663,0.09787,-0.20799,-0.05381,0.13351,0.16511,-0.24671,-0.06221,0.04142,0.06749,0.05611],[-0.08537,-0.20925,0.10646,0.15563,0.26261,-0.17098,0.21058,-0.05914,-0.17002,-0.17249,-0.10925,0.17859,0.22645,-0.14498,-0.18752,0.09844],[-0.05587,-0.09714,0.11567,-0.07156,0.11662,-0.20743,0.18045,0.08291,0.15669,0.21244,-0.05921,0.11538,-0.02587,-0.0037,-0.19654,0.28018],[0.19609,0.2069,-0.16349,0.19147,-0.11133,0.12712,0.20853,0.12525,-0.17787,0.25965,0.13685,0.25368,-0.08403,-0.15662,-0.01096,-0.02018]],"blocks.0.attn.qkv.bias":[0.08478,-0.17084,-0.09337,0.20278,-0.01406,-0.08684,0.05484,0.16381,0.13941,-0.15093,0.02285,0.05005,0.10132,0.15145,-0.18433,0.23983,-0.00094,-0.11073,0.09881,0.2407,-0.21813,0.10972,0.20595,-0.07763,0.23626,0.01449,-0.13197,0.08263,-0.0533,-0.07777,0.05808,-0.12297,-0.17873,0.18608,0.03992,0.13913,-0.1523,-0.00086,-0.05561,0.16126,-0.19124,0.19736,0.07866,-0.00739,0.02819,-0.21454,-0.10974,-0.07325],"blocks.0.attn.proj.weight":[[0.06251,0.03019,-0.15992,0.00772,-0.02671,0.01241,0.11955,0.32547,-0.13749,-0.0423,0.22275,0.2128,-0.08315,-0.12947,0.10726,0.11414],[0.03474,-0.14069,0.15716,0.26725,0.15398,-0.06722,-0.19007,0.03462,-0.1077,0.28921,-0.12198,0.12077,-0.24499,0.20891,0.20866,-0.08207],[0.21234,0.16057,-0.11371,-0.13941,-0.19882,0.02232,-0.19634,-0.19183,-0.07435,-0.05371,-0.09746,0.22392,0.05601,0.1484,-0.15538,0.08945],[-0.0078,0.21411,-0.06985,-0.00592,0.05396,-0.2625,-0.02412,0.01647,-0.04379,-0.06685,0.25082,-0.20787,0.15994,-0.19781,0.14262,-0.33462],[-0.04793,-0.09175,-0.21662,0.19598,0.18084,0.23062,-0.15449,-0.04714,-0.18546,-0.06987,-0.24977,0.14781,0.24385,-0.05043,0.20522,0.22511],[-0.17422,-0.20438,-0.01375,-0.21274,0.10008,0.08171,0.01054,0.07906,0.17048,-0.1853,0.06145,0.08965,0.04273,0.17188,-0.09398,-0.19644],[-0.21123,-0.21032,-0.19724,-0.09203,-0.15604,0.03324,-0.22198,-0.08474,0.06485,-0.08614,0.16354,0.15903,-0.21303,0.18175,0.18741,0.20333],[0.15743,-0.03879,0.22786,0.05813,0.18233,-0.11743,0.16437,-0.14142,-0.11105,-0.21418,0.22113,-0.1622,0.2745,0.0801,0.0735,0.13885],[-0.09838,-0.01646,0.05398,0.01863,0.15293,0.26017,-0.00671,-0.12451,-0.25747,0.07387,-0.17083,-0.00343,0.1345,-0.09684,0.19944,-0.35719],[0.03621,-0.225,-0.00564,0.18885,-0.1767,-0.17225,0.20865,-0.02435,-0.2707,-0.23825,-0.07482,0.20984,-0.24378,0.07131,0.17251,0.1077],[0.1166,0.01314,-0.22642,-0.28644,-0.05523,0.01636,-0.01108,0.24535,-0.16259,0.18091,0.10075,-0.07192,0.11539,0.08629,-0.174,-0.05848],[0.24099,-0.0224,-0.19239,0.09556,0.23234,0.24038,-0.08336,0.20095,0.10064,-0.076,-0.13404,0.12247,0.16167,0.0914,-0.22938,-0.29827],[0.12711,0.00196,-0.28024,-0.16577,0.14983,0.15736,0.17618,-0.23243,-0.16895,0.30847,0.00568,0.00995,-0.00852,0.05208,0.09011,-0.12438],[-0.07582,0.20892,0.20672,0.05268,0.16576,0.16252,0.22295,-0.13017,0.15934,-0.10202,-0.17075,-0.16705,-0.1176,-0.21013,-0.26808,0.01737],[0.06314,-0.11728,-0.0617,0.1219,0.07038,-0.10467,0.03125,-0.03101,0.12301,-0.02465,0.01766,0.0492,-0.2054,0.16725,-0.1259,0.00399],[-0.02298,0.23393,-0.20443,-0.02724,0.20107,0.11311,0.09702,0.21127,0.20715,0.23737,-0.24471,-0.21502,0.14434,0.02742,0.16198,-0.24832]],"blocks.0.attn.proj.bias":[0.05165,0.16054,-0.02452,0.21643,0.11601,-0.12183,-0.10802,0.09992,0.15577,0.07525,0.00327,0.15302,-0.21133,-0.08117,0.09048,-0.24726],"blocks.0.norm2.weight":[1.00851,1.03083,1.06929,0.94001,1.11118,0.99247,1.01297,1.02058,1.02728,1.00668,1.00726,1.04146,1.02037,0.97235,1.09694,0.97979],"blocks.0.norm2.bias":[0.05962,0.01729,-0.00091,-0.05794,-0.00076,0.02448,0.04452,-0.03499,0.00578,0.05341,-0.03352,-0.03328,0.01074,0.02817,-0.02425,-0.00213],"blocks.0.mlp.0.weight":[[-0.0454,0.12577,-0.2446,0.06462,-0.09195,0.18288,-0.03627,-0.06348,-0.22849,0.25873,-0.02619,-0.08515,-0.2982,-0.03528,0.37502,-0.19212],[0.24998,-0.01184,-0.1186,-0.20191,-0.00651,-0.20959,0.15163,-0.01563,-0.06191,0.26717,-0.25301,-0.14409,0.18746,-0.25561,0.20913,-0.10413],[0.06985,-0.11263,-0.06532,0.00847,-0.19797,-0.22477,-0.1287,0.27816,-0.01288,0.12761,0.17854,-0.06116,-0.03872,-0.20462,-0.01327,-0.14975],[0.15935,-0.11281,0.14057,0.09307,0.33728,-0.16128,-0.15051,-0.04063,0.17701,-0.19307,-0.17578,-0.17847,0.02271,-0.05502,0.22578,-0.04589],[0.03687,-0.23961,-0.17021,-0.18405,-0.15364,0.14261,-0.07052,-0.14015,-0.41548,0.07919,0.20923,0.0997,0.30975,0.18529,-0.21271,0.10316],[0.17334,-0.08103,0.14098,0.01059,-0.06382,0.06107,-0.16872,0.19638,0.17627,-0.15727,-0.03177,-0.21673,0.00993,-0.02675,0.01503,0.18627],[-0.10509,0.01,0.10625,0.20129,0.02686,-0.18435,0.09242,0.08011,-0.09929,-0.04023,0.04811,0.15486,-0.07505,-0.26408,-0.01758,-0.07944],[0.40121,0.26958,0.20394,-0.25742,0.11326,0.08324,-0.07138,0.06495,-0.12177,0.07384,0.10567,-0.21546,0.36961,-0.03466,-0.27272,-0.03402],[0.10849,0.11668,0.36601,0.0064,-0.10569,0.07424,-0.2201,0.06919,-0.22508,0.11433,0.05203,0.29239,-0.19399,0.16827,-0.19583,-0.1257],[0.04502,0.07634,0.02611,0.03444,0.06854,-0.15208,-0.21468,0.15168,-0.17598,-0.12514,-0.19665,0.07295,0.08365,0.10257,-0.23878,0.23647],[0.12108,0.22181,-0.06731,0.03265,-0.18478,-0.15059,0.08117,0.09231,0.01102,0.08324,-0.01575,-0.07225,-0.01656,0.33854,-0.20293,-0.224],[0.07393,0.32521,0.12781,-0.06158,0.32675,-0.23499,0.14459,-0.13597,-0.13127,0.08738,-0.31723,-0.29714,-0.03779,-0.13098,-0.43303,0.23896],[-0.05257,0.01067,0.2532,-0.04738,-0.06444,-0.0987,0.26756,0.04647,0.14924,-0.21098,-0.06931,0.06693,-0.09509,-0.13882,0.19472,-0.17779],[0.00929,0.14815,0.10777,0.11606,-0.06361,-0.10455,0.08359,-0.04376,-0.24861,-0.15993,0.06304,-0.06546,0.24492,-0.0349,-0.049,-0.15653],[-0.15963,0.18453,-0.16353,0.02485,0.20377,-0.06678,0.16125,0.06764,0.0059,-0.23068,-0.09677,0.14907,-0.1223,-0.07514,0.15218,0.03835],[0.22272,0.17612,-0.12658,-0.08015,-0.1769,-0.02439,0.0615,0.1007,-0.04881,0.1924,0.06055,-0.25709,0.09937,0.17051,-0.14944,0.00508],[-0.36168,0.08827,0.06832,-0.18338,-0.22266,0.31971,0.00121,0.11116,-0.15003,-0.1684,0.00199,0.17829,-0.11167,-0.03907,0.24501,-0.04544],[-0.14766,0.10817,-0.09423,0.09143,-0.24954,0.17014,-0.00712,-0.16813,0.16072,0.24606,-0.12822,-0.2031,-0.18757,-0.11324,0.20723,0.02856],[0.22418,-0.1703,-0.41986,0.1144,0.02068,0.18217,0.08544,-0.1049,0.18824,0.18629,-0.12087,-0.13895,-0.06677,0.18394,0.21994,0.03533],[-0.0489,0.13914,0.10342,0.18917,0.02537,0.04061,-0.05935,0.28133,0.13564,0.08735,-0.04629,-0.0779,-0.19784,-0.01605,-0.25024,0.13827],[0.02321,0.06979,0.18654,-0.21526,0.23449,0.20842,0.04533,0.14953,0.25942,0.00448,0.15243,-0.07691,-0.05371,0.04736,-0.27482,0.01986],[0.20473,0.26092,0.0235,-0.01084,0.22227,-0.03916,0.10541,-0.146,-0.21924,-0.17495,0.20068,-0.0308,0.045,0.06164,0.20283,-0.11951],[-0.11874,0.14921,0.21484,0.1901,-0.05027,0.0367,0.00947,-0.25696,0.16378,0.1401,-0.02661,-0.06567,0.00763,0.14038,0.25203,-0.19272],[0.03902,0.12118,-0.12178,-0.26267,-0.02293,-0.07452,-0.04868,0.13775,0.33404,0.02255,-0.11698,0.20463,-0.28067,-0.07405,0.11545,0.04282],[0.13416,0.3552,-0.15802,-0.15512,-0.13261,-0.25838,0.17824,-0.18372,0.21697,0.02635,-0.20199,0.05082,-0.23646,-0.11622,0.01268,-0.04663],[-0.05067,-0.25268,0.00836,0.15846,-0.19216,-0.18892,0.15343,-0.19502,0.23075,-0.1967,-0.03674,0.20864,-0.02409,0.16442,-0.01937,-0.23299],[-0.16365,0.03939,-0.00512,-0.20636,0.11321,-0.14344,-0.1803,0.10854,-0.06063,-0.15971,0.02225,-0.07338,0.0746,-0.08249,0.27621,-0.05448],[0.07041,-0.08488,0.16561,-0.18834,0.0367,0.28264,0.36697,0.0223,-0.32894,0.21744,0.23976,-0.25737,-0.00881,-0.03547,-0.08545,0.01843],[-0.05819,0.08804,0.29708,0.05433,-0.06433,0.00368,0.10318,-0.27695,0.09207,0.12597,-0.00662,0.03865,-0.02995,-0.01373,0.1366,0.34609],[-0.12722,-0.0192,0.22664,-0.04811,0.06702,-0.00661,-0.00018,0.14284,-0.1573,-0.20924,-0.0337,0.10433,0.1667,-0.1816,-0.12452,0.08686],[0.00949,0.12305,-0.13714,0.08068,-0.20323,-0.03808,-0.23261,-0.12566,0.04231,0.02807,0.18285,0.24793,0.00283,-0.14396,0.11367,-0.24611],[-0.10928,-0.09834,-0.24209,-0.07661,0.07126,-0.20762,0.0705,0.1275,-0.06552,-0.23571,0.09136,0.20686,-0.23386,0.18033,0.22731,-0.0655]],"blocks.0.mlp.0.bias":[0.13279,-0.05108,0.04934,-0.05346,-0.18807,-0.07255,-0.09207,-0.16238,0.05346,0.1857,-0.02056,-0.14771,-0.12893,0.05992,0.101,0.20907,-0.21106,0.09333,-0.09437,0.01075,0.18054,0.12049,-0.05927,-0.20106,-0.0053,-0.04262,0.15391,-0.22664,-0.00196,0.15329,-0.04343,-0.09211],"blocks.0.mlp.2.weight":[[0.12804,-0.08,-0.0953,-0.10209,0.09389,0.1449,-0.12109,-0.16389,-0.06014,0.24129,0.15105,0.18922,-0.08339,0.1761,0.06809,0.06951,-0.13397,0.20677,0.14176,0.00432,-0.21637,-0.02282,0.12986,0.18559,0.13705,0.15643,-0.10368,0.0045,0.14833,0.02391,0.05903,0.11333],[-0.11027,-0.0663,0.1095,-0.16166,-0.10595,-0.11349,-0.10252,-0.06393,-0.06315,-0.12799,0.00536,-0.28243,0.1154,0.10309,0.12484,-0.14543,-0.12695,-0.18787,-0.05346,-0.04688,-0.00722,0.11283,0.0856,-0.03978,-0.06257,-0.03528,-0.00948,0.09628,-0.03916,0.00339,-0.11554,-0.02563],[0.2946,0.05015,0.10657,-0.17112,0.13749,0.03375,-0.01383,0.18293,0.18455,-0.01544,-0.14957,-0.01823,-0.09273,0.0983,-0.13249,0.03794,-0.16899,0.12847,0.21382,0.03587,-0.16964,0.04008,-0.09733,-0.09231,-0.05707,-0.06079,-0.00488,0.07706,-0.23415,-0.11441,0.16229,-0.00851],[-0.11108,-0.01653,0.01199,0.13958,0.04242,-0.00777,0.06585,0.05998,0.05014,-0.10637,-0.12392,-0.21196,0.00463,0.01972,0.14187,-0.0233,0.017,0.00139,-0.18658,-0.15876,0.04831,0.09848,-0.04412,-0.13793,-0.05227,0.04617,0.07553,0.13125,0.11546,0.09799,-0.15848,-0.09761],[0.04227,0.16892,0.04872,0.1118,-0.15924,-0.16218,0.06454,-0.14355,-0.15683,0.08651,0.12321,-0.1362,0.09,-0.10062,-0.05263,0.00115,-0.0156,-0.00276,0.06798,0.11753,0.08134,-0.1252,0.10162,-0.13126,0.17324,0.08006,0.17394,0.10196,0.15162,-0.0876,0.07827,-0.08039],[-0.24081,0.22685,-0.16526,0.1605,0.05071,0.01449,-0.15292,-0.25906,-0.06539,0.09806,0.0701,-0.09255,-0.01788,-0.07986,0.10175,0.16238,0.16421,0.0949,0.21005,0.00472,0.07969,-0.14732,0.05439,-0.1084,-0.12424,0.18803,-0.09948,0.09029,0.20448,0.11795,0.16164,-0.21445],[0.13071,-0.06762,-0.00445,0.03571,0.04474,0.08291,0.01149,0.0492,-0.06927,-0.07593,-0.09735,-0.16323,0.08309,0.00045,-0.08339,0.12463,-0.06367,-0.19419,-0.04276,-0.03858,0.08015,0.24906,0.05106,0.16906,-0.04478,0.14213,0.14928,0.22842,-0.18879,-0.00295,-0.04119,-0.03351],[-0.20454,-0.06828,-0.10785,0.0393,0.14841,0.02762,0.16933,-0.03766,-0.11386,0.07617,0.09842,-0.14949,0.14978,0.00772,-0.09394,-0.10186,-0.17204,0.12251,-0.05937,0.03184,-0.02752,0.11653,-0.10026,0.08105,0.15804,-0.1523,0.11977,0.12042,0.11349,-0.11241,0.04561,0.05359],[-0.09929,-0.01619,0.11975,-0.0761,-0.16699,0.04322,0.16895,0.12604,-0.07377,0.12066,-0.17908,-0.02309,0.08204,-0.07795,0.10072,-0.16105,0.03834,-0.05567,0.18226,0.03251,-0.04461,0.02967,-0.09661,0.03974,-0.14233,0.0073,-0.11909,0.06465,0.0153,0.13519,-0.12203,-0.03454],[-0.08431,-0.18714,-0.0365,0.15115,-0.03877,-0.158,-0.00733,-0.0528,-0.03166,0.02993,-0.06707,0.03872,0.05124,-0.0916,0.15307,-0.23286,0.00053,0.07279,-0.06107,0.17063,-0.00583,-0.06087,-0.11311,-0.0201,0.01717,-0.12781,-0.10554,-0.22064,-0.01419,-0.06192,0.05954,0.11272],[-0.09702,0.12407,0.13387,0.12049,-0.185,-0.05583,0.10357,0.08506,-0.16503,0.20096,0.31233,-0.16861,-0.0162,0.04529,-0.03813,0.18817,0.16114,-0.00181,0.06386,0.04679,-0.04239,0.11383,-0.12872,0.07282,0.22059,-0.14649,0.02962,-0.04434,-0.031,-0.06014,-0.01909,-0.14386],[0.00304,0.0461,0.06332,-0.03311,-0.15576,0.00504,-0.05969,0.09277,-0.14272,0.06678,-0.03974,-0.08687,-0.15111,-0.09997,-0.08619,-0.04051,0.07827,0.02537,-0.08975,-0.00936,0.03958,-0.0434,-0.04048,-0.0981,0.18294,0.041,0.23344,0.03261,0.11115,-0.04895,-0.05803,-0.16709],[-0.05992,-0.17154,-0.05621,-0.01776,-0.15112,-0.10917,0.11768,-0.08966,-0.14138,-0.00698,-0.03905,0.01807,0.08413,0.03065,0.06515,0.07196,-0.03711,0.13182,-0.15424,-0.08361,0.14078,0.14817,0.12606,-0.05195,0.08182,0.04547,0.0933,0.00826,0.21134,-0.03683,0.10549,-0.04256],[-0.14952,-0.07174,-0.13466,-0.00242,-0.11657,-0.03175,-0.00283,-0.07176,0.07003,0.05698,-0.00479,0.01771,0.05935,0.03258,-0.01332,-0.24204,0.13493,0.10562,-0.08003,0.01248,-0.07429,0.17133,0.02191,-0.14831,-0.19305,-0.11544,0.0862,0.19346,0.12803,0.03009,-0.08856,-0.06946],[0.00451,0.18645,-0.03205,-0.14265,-0.09518,0.06024,-0.10076,0.16863,0.10402,-0.09458,-0.02029,0.11479,0.12196,0.16332,-0.16459,0.00141,0.05865,0.08524,-0.08458,-0.04322,0.10099,-0.08579,-0.03513,-0.01403,-0.11128,-0.14535,0.00289,-0.14918,0.01258,-0.10537,0.10657,-0.22401],[-0.1605,0.02865,-0.13989,-0.10547,0.07348,-0.16497,-0.07137,-0.13165,0.07624,0.09916,-0.09047,-0.00748,0.05214,-0.10716,0.15177,-0.07307,-0.01128,-0.02039,-0.15327,-0.15747,-0.17764,0.07046,-0.0137,0.06626,0.10581,-0.17715,-0.11754,-0.1425,-0.13985,-0.02335,0.10351,0.09867]],"blocks.0.mlp.2.bias":[0.17523,0.03977,0.06498,-0.15465,0.01094,-0.13914,0.0663,-0.00351,0.00327,0.0188,-0.13782,0.03908,-0.16036,-0.11242,0.14028,0.15904],"blocks.1.norm1.weight":[1.01814,1.07363,1.08406,1.03147,1.01077,1.03518,1.05864,1.00523,1.09197,1.02349,1.0733,1.00306,1.11096,1.11317,1.04234,0.92825],"blocks.1.norm1.bias":[-0.02966,0.00975,-0.02063,0.01024,0.02381,0.02189,0.00914,0.00893,0.00686,-0.04213,0.00179,0.01967,0.01163,0.00407,0.00279,-0.04383],"blocks.1.attn.qkv.weight":[[0.14982,-0.35742,0.09479,0.31694,0.28425,-0.1378,-0.22451,0.05395,0.11998,-0.06898,0.01423,-0.13554,0.00511,-0.09089,-0.28229,0.1244],[-0.24186,-0.14524,-0.18014,-0.03581,-0.14877,-0.18922,0.35004,-0.15218,0.15651,-0.08309,-0.03356,0.1651,0.08967,0.23187,0.0392,-0.24001],[0.09477,0.01122,-0.19227,-0.23836,-0.26381,0.23312,-0.08248,0.23441,-0.08147,0.17957,0.05968,-0.07181,-0.0236,0.18389,-0.18208,0.09668],[0.05188,-0.03343,-0.13909,-0.19888,0.12651,-0.09861,0.06599,-0.03648,-0.09774,-0.19697,0.04128,0.18853,0.20045,0.2807,0.13731,0.13095],[-0.06161,-0.15542,0.32341,-0.0581,0.03494,-0.1323,0.05763,0.2745,-0.16155,0.17242,0.11287,0.35487,-0.10746,0.21126,-0.04143,-0.1947],[0.18399,0.08958,-0.19212,0.04218,0.10913,-0.28175,0.06067,0.02597,0.17026,0.18892,0.08475,0.04713,-0.15108,0.07187,0.06186,0.16765],[0.12499,0.18949,0.15979,0.09271,-0.07001,-0.1188,-0.08827,0.00084,-0.20173,0.05314,-0.2106,0.18322,0.12341,0.16935,0.20466,-0.1093],[-0.26569,0.14519,-0.05969,0.11382,0.11404,-0.14712,-0.14496,-0.0759,0.06728,-0.03253,-0.25474,-0.04119,-0.17144,-0.11031,-0.13997,-0.01649],[0.10456,0.11957,0.07211,-0.19866,-0.04937,-0.05115,0.27216,-0.24588,0.03364,0.02395,-0.01103,0.06852,-0.03374,-0.18086,0.09097,-0.08796],[-0.05162,0.11613,-0.07638,-0.21488,-0.06491,0.15225,0.0731,-0.09674,-0.03347,0.15269,0.0124,0.10132,0.18484,0.18391,0.26485,-0.11851],[0.28571,0.10188,-0.26079,0.16848,-0.15949,-0.19533,-0.07528,0.23961,0.21188,0.08973,0.14552,-0.10998,-0.06242,0.07116,0.03367,0.19647],[0.16276,-0.10461,-0.02904,0.02415,0.11049,-0.03705,0.12205,-0.05761,0.18507,-0.08016,0.04866,-0.06412,0.23567,0.19854,0.13574,0.05243],[0.04755,0.16058,-0.17315,0.11138,0.01317,-0.03516,-0.1307,-0.01951,0.25759,0.1957,-0.08924,0.18398,0.29432,-0.31954,0.18357,-0.25192],[0.18986,0.0325,0.13695,-0.20305,-0.01433,0.16073,-0.08955,0.25228,0.06103,0.11003,0.00547,0.07151,0.02443,-0.091,0.03586,0.16427],[-0.08869,-0.00048,0.14671,-0.06458,-0.12622,0.18492,-0.07453,-0.22513,-0.24804,-0.277,0.04249,0.14096,0.19204,0.16907,0.2341,0.14557],[-0.31499,0.23909,0.14968,0.03494,-0.29331,0.29331,-0.20294,-0.05978,0.05533,-0.11121,-0.04512,-0.02841,-0.04741,0.25665,0.24964,0.22085],[0.16122,-0.14764,0.09693,-0.23767,-0.23512,0.1581,-0.29536,-0.25259,0.03236,-0.10691,0.16671,-0.20386,0.09757,0.0769,0.12635,-0.04305],[-0.06512,0.19763,0.13827,0.08849,0.02942,0.23259,0.19122,-0.1513,0.08761,-0.09946,0.09794,0.15629,-0.01227,-0.07499,-0.08655,0.24757],[-0.27893,0.27486,0.15803,0.08205,0.24236,0.01722,-0.00941,-0.19446,0.00084,0.06937,0.09138,0.22447,0.02966,-0.23117,-0.06895,-0.28618],[-0.02621,0.1222,-0.21644,0.10344,0.15611,0.20592,0.13879,0.27179,-0.18299,-0.10682,0.23478,-0.18995,-0.13391,0.04535,0.03601,-0.07846],[0.0165,0.03061,0.09113,-0.06865,0.15771,0.20084,0.13866,0.02364,-0.20936,0.2154,0.17065,0.10995,-0.14892,-0.13133,-0.10562,-0.26009],[0.28914,-0.22816,0.27261,-0.02064,0.18311,-0.12571,-0.15174,-0.0521,0.04867,0.26113,0.01879,0.03497,-0.11969,0.16513,0.16984,-0.16205],[-0.13117,0.05143,0.02682,0.01797,0.11665,0.11667,0.24735,0.01386,0.13408,0.12515,0.16229,-0.03865,0.19042,-0.22818,0.07786,-0.16241],[0.08725,-0.24086,0.21268,-0.20747,0.12711,-0.16133,0.15133,0.15646,0.07332,-0.17638,-0.25927,-0.04429,-0.04984,-0.14479,0.08215,-0.14374],[0.06445,-0.09771,0.02309,-0.13412,0.17921,-0.14529,0.21376,-0.16824,-0.13001,0.09497,0.20595,0.01751,-0.11967,-0.30772,0.01791,-0.11584],[-0.0826,-0.22428,0.04591,0.05761,-0.05155,0.04064,-0.13254,-0.23033,0.07004,-0.01214,-0.00383,-0.19831,0.04978,0.33803,-0.12331,-0.02116],[0.17955,0.17548,-0.0292,-0.03492,-0.03896,-0.12585,-0.1774,-0.07131,-0.09151,-0.24075,0.18057,-0.22352,0.12026,-0.29466,0.19524,-0.02338],[-0.17665,-0.04011,-0.22379,-0.28458,0.03886,-0.01641,0.10902,-0.02215,-0.23294,0.11002,-0.08304,-0.30779,0.27871,-0.04095,-0.05013,-0.13688],[-0.0442,0.25051,0.08447,0.00464,0.18099,0.29063,0.08253,0.18504,0.06843,0.06714,0.27471,0.00329,-0.34561,-0.48241,0.20282,0.0317],[-0.06755,-0.15677,0.03233,0.20908,0.07844,-0.10787,-0.293,0.18425,-0.0771,-0.14565,-0.00674,0.23084,-0.09787,0.27202,0.20525,0.19363],[-0.10347,0.18804,0.24938,0.3145,0.05855,0.15618,-0.00351,-0.16133,-0.106,0.00344,-0.02131,-0.20592,0.28379,0.29446,0.13153,-0.15822],[0.01471,-0.12727,0.14001,0.16081,0.11691,0.05583,0.15998,0.01304,-0.08266,-0.0737,-0.14674,0.0339,0.16395,0.29173,-0.15971,0.13749],[0.21939,0.01506,0.1052,0.24891,-0.2422,-0.13432,0.22125,-0.28722,0.17429,-0.02203,0.37968,-0.02769,-0.12658,-0.24511,-0.0543,0.13933],[-0.22617,-0.07754,0.21381,0.11902,0.21022,-0.22639,0.00695,0.06211,0.08048,0.05745,0.08665,0.25644,-0.47435,-0.02369,0.17214,-0.11507],[-0.12126,0.00139,-0.15887,0.11643,0.07405,-0.13323,0.15867,0.11976,-0.29353,-0.09384,0.17426,0.199,-0.05289,0.03052,0.24533,-0.00249],[-0.04451,-0.20302,-0.00318,0.08342,-0.02501,0.14085,-0.18533,0.07144,0.18593,-0.17519,-0.31954,-0.07504,0.2749,0.30669,-0.15889,-0.08944],[-0.20209,0.16212,0.12965,0.01796,-0.01752,0.14459,-0.42621,-0.02385,0.18611,0.16424,0.2048,-0.17024,-0.02851,-0.11643,0.25857,0.11909],[0.22159,-0.14072,0.41486,-0.22041,0.03897,0.0207,-0.12699,0.20783,-0.29059,-0.03749,-0.03825,-0.0477,-0.35048,-0.08651,0.21485,0.11341],[-0.09926,0.05381,0.17158,0.04207,-0.01609,0.21396,0.11539,0.0594,0.26868,-0.08365,-0.11163,0.0022,-0.11876,-0.19828,0.1226,0.05163],[0.03619,-0.00153,-0.27564,-0.0206,-0.00178,-0.08332,0.06371,0.09014,0.11296,-0.1517,0.12657,0.18554,0.21234,0.2781,0.22105,-0.22274],[-0.04516,0.06277,0.17356,-0.07885,0.01328,0.01882,-0.07218,0.29167,0.01728,-0.03233,0.15545,-0.02589,0.23383,0.0937,0.18287,0.24508],[0.02269,0.05139,0.15621,0.20515,-0.09757,-0.1943,0.0277,0.08792,0.01254,-0.19413,-0.10232,0.1328,0.4093,-0.06291,-0.18338,-0.14983],[-0.03347,0.1376,0.08557,0.071,-0.03529,-0.0457,-0.09257,-0.02723,-0.08329,0.13417,-0.25124,-0.11004,0.09097,-0.20872,0.22656,0.24308],[0.21191,-0.07713,0.26718,-0.06033,-0.02135,0.18694,0.08023,0.14499,-0.05745,0.06309,0.26962,-0.28564,0.08749,-0.04458,-0.07244,-0.24027],[-0.12398,0.11219,0.00023,0.1023,0.28164,0.05598,-0.05289,0.0118,-0.20913,-0.28436,-0.09003,0.09048,-0.32192,-0.10097,0.05364,-0.17694],[0.07718,0.11009,0.04112,0.0259,0.25866,-0.19922,0.18746,-0.20672,0.13299,0.24451,0.09531,-0.12818,-0.2869,0.17533,-0.12991,-0.03794],[-0.13244,0.01331,-0.04314,0.01036,0.06404,0.09979,0.05152,0.08808,0.21617,-0.1379,0.01935,-0.10482,0.13224,-0.09939,-0.25986,-0.22916],[0.14958,0.18636,-0.07682,0.09659,0.05986,-0.31924,-0.04529,0.1476,-0.08983,-0.15484,0.04181,-0.16598,-0.04252,-0.01312,-0.07777,0.20326]],"blocks.1.attn.qkv.bias":[0.19498,-0.10377,-0.13253,-0.03247,-0.32183,0.12785,0.19976,-0.07785,0.18606,0.10924,0.21306,-0.18819,0.16661,-0.11072,-0.05198,0.00217,-0.18439,0.23107,-0.10697,-0.00173,-0.07102,-0.13284,-0.23485,0.03769,0.07727,0.09873,0.0331,0.06942,-0.16581,-0.25022,0.01758,0.05372,-0.07382,-0.1101,-0.18067,0.19787,0.05453,0.04167,-0.23467,-0.16323,0.23869,-0.03349,-0.01368,-0.00829,0.07611,0.1137,-0.08643,-0.05849],"blocks.1.attn.proj.weight":[[0.09156,0.21365,-0.11669,0.04588,0.06848,-0.17559,-0.05508,0.06366,-0.23116,-0.01074,0.30552,-0.19957,0.17938,-0.18214,-0.25794,-0.1242],[0.07313,-0.23096,0.23209,0.1513,0.25285,0.0513,0.08758,0.11217,-0.13191,-0.11927,0.00583,0.34304,0.04193,0.05087,0.16847,-0.20385],[0.09292,-0.25888,-0.22105,0.09226,0.20717,0.13635,-0.04714,-0.04291,-0.10252,0.13932,0.03419,-0.17321,-0.12308,0.17538,0.02428,0.06432],[0.1319,0.12098,-0.12082,0.22233,-0.30884,0.02178,0.13648,0.26438,0.12014,0.17957,-0.22151,-0.07628,-0.24543,0.04596,-0.21223,-0.11382],[-0.15323,0.13195,-0.17022,-0.02263,0.01147,0.0592,-0.01942,0.02341,-0.00599,0.00069,0.09665,0.23143,0.19479,-0.04581,-0.09279,0.14226],[0.20861,0.11149,0.02029,-0.14329,0.2066,0.07388,-0.19434,-0.22821,0.36479,-0.16017,-0.15834,-0.13693,0.31541,0.07041,-0.12742,0.09843],[-0.18828,-0.13841,0.1538,-0.18317,0.30379,0.1229,0.21463,0.09731,0.07404,-0.00891,0.26851,0.01128,0.23742,0.11762,-0.09493,-0.0207],[-0.15331,0.14854,-0.28921,0.21053,0.09873,0.05341,-0.02093,-0.10892,0.13589,0.05837,-0.14053,0.16056,-0.18684,-0.19875,-0.11507,-0.22044],[-0.26006,-0.04858,0.17373,-0.08243,0.06412,-0.02926,-0.17424,0.1946,-0.09295,0.00252,-0.33465,0.05106,-0.14306,-0.13463,0.24445,-0.15503],[-0.05378,0.1898,-0.16095,-0.09296,0.27317,-0.25461,0.02467,-0.12206,0.22686,-0.04192,-0.12832,-0.24632,0.05803,-0.13823,-0.18893,0.02442],[-0.12868,0.07213,-0.16055,-0.04777,-0.33492,0.09914,-0.28243,-0.20939,0.22481,-0.07562,0.15031,0.15872,0.18448,-0.21425,-0.23892,0.09052],[0.19465,-0.28427,0.03373,-0.10808,-0.11847,-0.15546,-0.06479,0.197,0.09551,0.33554,-0.16846,0.12429,0.30398,-0.01484,0.16946,-0.06562],[0.21591,-0.16362,-0.22277,0.05043,0.23816,0.0708,0.06228,-0.15016,-0.10304,0.04627,-0.07311,-0.1431,-0.11134,0.00872,-0.22814,0.07258],[-0.25464,-0.21048,-0.1377,0.25032,-0.11311,-0.03487,-0.18041,0.06122,-0.00247,-0.13175,-0.11899,-0.14685,0.13671,0.24802,0.1844,-0.02971],[0.09141,-0.08394,0.05186,-0.14309,0.34695,0.06711,-0.07999,0.23734,0.07194,-0.05431,-0.10235,0.13819,-0.08756,0.16198,0.08242,-0.16535],[-0.05476,0.04854,-0.13922,-0.06999,-0.07206,0.16671,0.29047,-0.01576,-0.1208,-0.28749,0.09884,-0.22418,-0.04527,0.0622,-0.20828,-0.23038]],"blocks.1.attn.proj.bias":[0.06644,0.17232,-0.24736,-0.15017,-0.21325,0.00258,-0.03815,-0.06494,0.04241,-0.01361,-0.17985,0.0049,-0.11265,0.03102,-0.00233,0.06659],"blocks.1.norm2.weight":[0.94463,0.9679,1.02479,1.11286,1.01694,1.06731,0.98451,1.05154,1.06263,1.08217,1.10273,1.09188,1.17685,1.04865,0.98485,1.04553],"blocks.1.norm2.bias":[0.01703,-0.06182,0.01109,-0.01755,-0.06505,-0.00686,0.032,-0.01533,0.02621,-0.02881,0.01657,0.02748,-0.01935,-0.01135,-0.01889,-0.00227],"blocks.1.mlp.0.weight":[[0.02471,0.09074,-0.08574,-0.13098,0.06398,0.01226,0.02109,0.02037,-0.49666,0.00269,-0.078,-0.27176,0.26063,0.18707,0.07809,0.33186],[0.03607,0.20178,0.32704,0.18058,-0.29297,-0.04048,0.07487,0.21949,0.04414,-0.29128,-0.16887,-0.00156,-0.21017,0.06014,-0.07588,0.20897],[0.16994,0.0344,-0.22049,0.07043,-0.2037,-0.21634,-0.20132,-0.18707,0.22215,-0.19484,0.06639,-0.17352,-0.26139,0.12899,0.13175,-0.11918],[0.09342,0.24786,0.12431,-0.09857,0.26057,-0.20117,-0.23047,0.12275,0.16513,-0.11691,0.14451,0.10795,0.10876,-0.08522,-0.29548,-0.04392],[-0.08192,-0.10739,-0.17629,0.44993,0.08063,0.07796,-0.23974,0.10985,-0.0538,-0.06058,-0.21073,-0.08006,-0.12976,-0.11,-0.15016,0.0135],[0.21691,-0.25345,0.07342,-0.23861,0.06961,-0.12862,0.19731,0.09089,-0.15568,0.01182,0.32417,0.09103,0.02589,0.26585,0.23663,-0.07928],[-0.08937,0.31891,-0.0623,0.09035,-0.04974,-0.06995,-0.14184,0.04024,0.01547,-0.288,-0.17057,0.06456,0.33986,0.20723,0.14693,-0.20145],[0.11523,-0.12627,-0.33873,-0.15108,-0.12695,0.00245,0.20586,0.17731,-0.04586,0.22256,-0.16098,0.18461,-0.26158,0.3598,-0.08404,-0.05657],[-0.15438,0.16591,-0.05128,-0.03468,-0.07593,0.19056,-0.31345,0.21276,0.21635,-0.13267,0.18224,0.03776,-0.0178,0.04764,0.41003,-0.18959],[-0.38632,-0.0754,-0.18062,-0.02502,0.13154,0.07436,0.12438,0.08885,0.07284,0.09746,-0.23957,-0.24788,-0.21601,0.1449,0.13807,-0.1515],[0.13809,0.27234,-0.15597,0.14826,0.2309,0.05932,-0.04645,0.24167,-0.24986,0.31851,-0.17277,-0.20513,0.14142,-0.06472,0.09996,-0.14016],[-0.13431,0.04954,-0.18391,-0.30414,-0.08416,-0.11225,0.08707,0.29816,0.17678,-0.16838,0.04963,-0.05719,0.16166,0.27047,-0.30436,0.10996],[-0.06502,0.15442,0.0207,-0.18035,0.25914,-0.01376,-0.00602,0.09366,-0.13061,0.12532,-0.13841,0.19336,-0.27265,0.34915,0.20893,-0.27873],[-0.07522,0.00938,-0.07966,0.0108,-0.06349,-0.18523,0.07329,0.18518,-0.40655,-0.18926,0.26511,0.0029,0.34031,-0.02255,0.11821,-0.0504],[-0.22351,-0.05235,-0.20228,-0.14756,0.06654,0.24271,0.13756,0.16577,-0.27787,0.06261,-0.0249,0.01335,0.25466,-0.23727,0.24531,0.14137],[0.21644,-0.01469,-0.1849,-0.13961,-0.27357,-0.33325,-0.22687,0.2125,0.03106,-0.16495,-0.14606,0.07775,0.13696,-0.15344,-0.10999,0.19241],[-0.08301,-0.13976,-0.18948,-0.0664,0.14789,0.25288,0.03544,0.01511,0.07898,0.02367,-0.27498,-0.0824,0.36174,-0.18639,-0.00891,0.03362],[0.14941,0.06993,-0.09666,-0.04066,0.18396,0.21975,-0.01673,-0.10602,-0.27543,-0.15296,0.36874,-0.06112,-0.04855,-0.34628,-0.08304,-0.1648],[0.03452,-0.09294,-0.37851,0.2227,0.14181,0.23863,0.21647,-0.04153,-0.10523,-0.26889,-0.11393,0.06104,0.11136,-0.26317,0.05126,0.03753],[-0.18346,-0.10846,-0.01601,-0.17187,0.2417,0.21532,-0.06079,-0.16705,-0.0344,0.15463,0.19185,0.1694,-0.01895,0.15452,-0.00985,-0.01043],[-0.18601,0.24293,0.11104,-0.13424,0.07093,-0.15232,-0.00765,0.07218,-0.17561,-0.00889,-0.28184,0.14624,0.01798,-0.20584,0.06412,0.00849],[0.18143,0.22297,-0.02598,0.3876,-0.00027,-0.01218,-0.01172,-0.08015,0.15197,0.02107,-0.1274,0.18657,-0.02423,-0.03243,-0.21093,0.19241],[-0.23771,0.15775,-0.15106,0.15164,0.09131,-0.01751,0.06145,-0.11588,-0.00935,-0.21522,0.1098,0.1381,-0.10879,-0.26277,0.20385,0.2569],[0.30502,-0.1836,0.12712,0.11272,0.09862,0.42631,0.11571,0.19131,-0.40859,-0.14386,0.26019,0.25717,-0.05425,-0.08856,0.12843,0.37792],[-0.13778,-0.03012,0.28601,0.22784,-0.14752,0.14127,-0.046,0.07577,-0.04859,-0.05168,0.13033,0.13231,0.19474,0.02692,0.03606,-0.14658],[0.16587,-0.04642,0.00249,-0.28979,-0.08586,-0.00891,-0.01681,-0.1469,-0.02326,-0.10486,0.33018,0.01308,0.01812,0.22285,0.06172,0.39929],[-0.07255,0.16345,-0.10379,0.20888,0.163,0.09708,-0.26339,-0.03721,0.12114,0.11497,0.14361,-0.02959,-0.27626,0.43432,-0.09714,0.12637],[-0.10354,0.09704,-0.04385,0.0944,-0.1473,-0.10153,0.24401,0.23827,0.12666,-0.33167,0.09622,0.23808,-0.17128,-0.20483,0.15359,-0.16874],[0.07327,-0.09639,0.05208,0.12945,-0.21723,-0.06449,-0.05998,-0.25005,0.02688,0.26829,0.00828,0.33963,0.11219,-0.23525,-0.05958,-0.06576],[0.12823,0.04344,-0.38727,0.18898,-0.1831,0.42318,0.07301,-0.16545,-0.01397,0.0654,0.25719,0.00111,-0.29643,-0.01377,0.16203,-0.2814],[0.07633,-0.27195,0.13146,-0.26272,-0.22117,-0.13186,0.05315,0.13747,0.04243,0.23124,-0.02324,-0.17787,-0.12839,-0.1361,-0.08839,0.29535],[0.12823,-0.03074,0.03491,0.25748,-0.24359,-0.13869,-0.21325,-0.01431,-0.21717,0.07843,0.20279,-0.05145,0.305,0.15011,0.18045,-0.0654]],"blocks.1.mlp.0.bias":[-0.28737,0.08379,0.06399,0.18911,0.10313,0.06624,-0.16185,0.09078,-0.26321,0.17507,0.02178,0.02356,-0.07744,0.07068,0.15185,0.24184,-0.15658,-0.19602,-0.09749,-0.19496,0.12784,0.1121,-0.0372,-0.07707,0.15324,0.15292,-0.202,0.10642,0.15792,-0.18788,-0.04664,0.10234],"blocks.1.mlp.2.weight":[[-0.16414,0.09425,-0.04259,-0.12697,0.098,-0.207,-0.33475,-0.27733,0.01707,0.13276,-0.11465,-0.15554,0.01471,-0.08515,0.00982,0.01141,0.12878,0.15364,0.11786,0.03646,-0.14358,0.01068,-0.14622,-0.08604,-0.1324,0.09199,-0.22326,0.29414,0.06465,-0.02383,-0.07908,-0.155],[0.18283,0.08257,-0.18128,0.06052,0.03427,-0.17042,-0.35299,-0.1041,-0.03535,0.04801,0.00507,-0.20904,-0.0854,0.19827,-0.22342,0.08417,0.12378,-0.03814,0.09898,-0.16119,-0.15648,-0.05067,-0.08823,-0.2032,-0.09377,0.16155,-0.07607,0.00304,-0.18075,-0.12708,0.06538,-0.09052],[-0.10512,0.03513,0.07102,-0.14384,-0.21428,0.00878,0.20241,0.17935,0.12035,-0.11768,0.1596,-0.08341,0.03672,0.17658,0.00457,0.05637,0.12363,-0.02718,-0.18384,0.07997,0.18808,0.05029,-0.23234,0.00863,0.141,-0.26688,0.08745,-0.20963,0.06461,0.08549,-0.0718,0.21829],[0.0952,-0.09156,0.15558,-0.02849,-0.08977,0.22751,-0.19331,-0.19042,0.30231,-0.03679,0.12919,-0.2342,-0.05479,-0.06078,0.15459,0.05303,0.07377,-0.06898,0.05738,-0.03908,-0.24759,0.09118,-0.04642,-0.03858,-0.15438,0.14862,0.05325,-0.04345,-0.02456,0.18794,0.06961,-0.15357],[0.20936,0.2089,0.13729,-0.03881,-0.08585,-0.13628,-0.01001,0.08533,0.08715,-0.05071,0.02404,-0.21352,-0.19438,-0.05372,-0.04722,-0.03682,-0.15979,-0.0081,0.18942,-0.01981,-0.07679,-0.06781,0.09673,-0.17235,-0.11021,0.11297,0.02643,-0.05135,0.15785,0.02705,-0.09065,0.01798],[-0.14942,-0.04802,-0.03604,0.1096,-0.07065,-0.02231,0.02259,0.02826,-0.02659,-0.0891,0.07863,-0.17696,-0.05162,0.09694,-0.05011,-0.02379,0.00298,0.20299,0.05254,0.20435,-0.00213,0.04023,-0.01413,-0.19427,0.11941,-0.11597,0.14269,-0.34388,0.00844,-0.15402,-0.01193,0.06552],[0.16125,-0.06117,-0.1173,0.14706,0.05564,0.23525,0.12207,0.01056,0.16714,-0.08305,0.12039,0.14351,0.02385,-0.19253,-0.22006,-0.0002,0.12974,-0.20401,0.14594,0.12676,0.1424,-0.14424,0.0517,0.06682,0.07761,-0.05342,0.11674,-0.20438,-0.00551,0.15326,-0.02703,0.0131],[0.03245,0.1362,-0.12989,0.10614,-0.08851,0.1342,-0.11319,0.26529,0.08778,-0.10622,-0.12636,0.16066,0.24596,-0.1639,0.0622,-0.15757,-0.11915,-0.0238,0.23535,0.16654,0.02003,0.08421,0.09668,-0.05356,-0.03476,0.09974,-0.01393,0.01013,0.19748,-0.22189,0.09261,0.1082],[-0.01184,-0.36138,-0.12633,0.08001,-0.03124,-0.11406,-0.05881,0.02514,0.10986,0.0823,0.1859,-0.09423,0.0283,0.01351,0.21776,-0.12462,-0.0343,-0.21791,0.1703,-0.01676,0.09323,0.07686,0.1179,0.28693,0.08853,0.00194,-0.12071,-0.1239,-0.13314,0.25987,0.24264,0.07831],[-0.11293,-0.06302,0.15168,0.10811,-0.11163,-0.02979,0.16303,-0.0615,0.01298,0.03447,-0.26182,-0.07027,0.12311,-0.02851,0.02045,0.08223,0.09339,0.04371,-0.0064,0.03135,-0.2205,0.03118,0.17015,-0.10836,0.04504,-0.10361,0.03035,-0.06784,0.1768,-0.18101,-0.01568,-0.06206],[0.05752,0.12733,-0.09363,-0.12323,-0.14555,-0.24744,0.03114,-0.09029,-0.13446,0.23341,0.12697,0.10029,-0.01559,-0.24733,0.02783,-0.14898,-0.07675,-0.02273,0.12913,0.20956,0.08288,0.02733,0.1135,0.05575,-0.09323,-0.036,-0.14611,0.12037,0.10168,0.03693,-0.0041,-0.19202],[0.03972,-0.27723,0.11874,0.04436,0.08479,0.04187,0.03358,0.032,-0.05697,0.10276,0.09548,-0.30431,0.05769,0.13765,0.00651,0.06782,-0.02075,-0.08273,0.04477,-0.10751,0.00202,0.11202,-0.18634,-0.01445,-0.02526,-0.06802,-0.12638,-0.00251,-0.04154,0.33023,0.09351,-0.02572],[-0.08744,-0.02204,-0.05658,0.03868,0.1671,-0.06098,0.0172,0.07301,-0.25359,-0.10776,-0.15182,-0.04311,-0.15843,-0.14125,0.17598,-0.19688,-0.28024,-0.08355,0.2229,0.03983,0.03161,0.17314,0.18919,0.19085,-0.25983,0.18101,0.16121,0.05609,0.02824,-0.11387,0.16576,-0.07371],[0.12716,0.17763,0.07664,-0.07577,0.09142,0.20226,-0.23452,-0.07603,-0.10346,-0.078,-0.0424,0.1748,0.03565,-0.08313,-0.03581,0.01088,-0.11436,-0.00205,0.08723,0.05474,0.01591,-0.0237,0.18639,-0.04257,0.00876,0.14315,-0.06981,0.15235,0.16608,0.03257,-0.00523,-0.01953],[-0.09763,-0.03127,0.0754,0.15375,-0.00772,0.00159,0.00564,0.07324,-0.12735,-0.07363,-0.03729,0.014,0.04483,-0.10686,-0.25957,-0.26103,-0.12739,-0.04682,0.00662,-0.09065,0.14995,0.19842,0.27388,-0.00592,0.11277,0.00761,-0.05147,0.22031,-0.1742,-0.18079,-0.10447,0.03475],[-0.10062,-0.08715,-0.08522,0.06642,0.18773,0.2264,-0.01701,-0.17257,-0.1504,0.07177,-0.04244,0.06925,-0.23451,-0.07305,-0.15093,-0.10152,-0.14822,-0.01122,-0.27465,-0.12809,-0.06969,-0.04085,-0.02428,0.13146,0.25536,-0.2828,0.11796,0.17857,0.02439,0.04172,-0.04464,-0.12539]],"blocks.1.mlp.2.bias":[-0.05549,-0.02212,0.00438,-0.05833,-0.15082,-0.05219,0.06585,-0.01167,-0.11246,-0.07176,-0.00416,-0.05058,-0.13333,-0.02335,0.11351,0.11787],"norm.weight":[1.82915,1.91844,1.86344,1.83983,1.48933,1.73108,1.76257,1.67238,1.74397,1.69879,1.63558,1.54248,1.76343,1.64591,1.60978,1.80364],"norm.bias":[-0.04191,0.14576,0.09077,-0.02398,0.04775,0.06832,-0.00375,0.05933,0.11944,0.02466,-0.01952,-0.01555,0.13131,-0.10898,-0.05381,-0.07601],"head.weight":[[0.23116,-0.77847,-0.22769,0.35212,-0.09227,0.38633,0.56595,0.16653,-0.7524,0.11049,0.31582,-0.31818,-0.6706,0.48688,-0.41385,-0.15825],[0.48951,0.46046,0.51151,-0.00607,-0.03797,-0.46256,-0.52357,0.63267,-0.50704,0.55679,-0.39991,0.31171,-0.2937,0.43062,0.03197,-0.23298],[0.08879,-0.51162,0.39538,-0.65534,-0.34673,0.13712,-0.44732,-0.11327,-0.63847,-0.30764,0.39995,-0.4286,-0.14011,0.07353,0.5746,0.61674],[-0.48823,0.36099,0.6671,-0.32235,0.48988,0.45664,-0.22383,-0.12958,0.11344,-0.50072,0.0146,0.05747,0.18189,-0.23849,0.02272,-0.44573],[-0.43933,-0.26496,-0.27326,0.50624,-0.22069,-0.18598,0.15543,-0.19237,0.1306,0.25708,-0.70673,0.57593,-0.00037,0.08251,-0.13238,0.72984],[-0.19185,0.58009,-0.52173,0.0152,0.19827,-0.17398,0.28601,0.21476,-0.25791,-0.67876,-0.0421,-0.522,0.12806,0.33669,-0.45683,-0.35806],[0.64033,-0.5079,-0.66583,0.46474,0.34027,-0.57805,-0.45183,-0.29619,-0.19824,-0.42063,0.46923,0.31826,0.04538,0.77761,0.2157,0.03432],[-0.47679,-0.20119,0.08708,-0.62698,-0.4929,-0.34207,0.5872,0.46359,0.48948,0.24811,0.07166,0.30025,-0.28578,-0.06021,0.6051,-0.11211],[0.16331,-0.18253,-0.40587,-0.20687,-0.1579,0.35972,-0.64185,0.30974,0.12424,0.33481,0.24534,-0.44366,0.35873,-0.52164,-0.34309,-0.01333],[0.33442,0.56278,-0.05653,0.29481,-0.34493,0.15299,0.40459,-0.35812,0.54948,0.20528,0.06429,0.29082,-0.56887,-0.42886,-0.33407,0.30388]],"head.bias":[0.04338,-0.07588,0.17467,-0.11114,0.08305,0.25726,0.00734,-0.02883,-0.07352,-0.15584]}