{"cls_token":[[[0.02108,0.01547,-0.03443,0.06852,0.01021,0.02095,-0.00179,-0.00774,-0.00167,-0.00149,-0.05057,0.0033,-0.06022,0.0428,0.02034,-0.02596]]],"pos_embed":[[[-0.01871,0.02626,-0.02842,0.07803,0.0404,0.04139,0.0482,-0.02088,0.03251,-0.00727,-0.03768,0.00617,-0.05864,0.0305,0.01538,0.00242],[-0.04307,-0.08824,0.04436,0.01101,0.00544,0.11571,0.07644,-0.10952,-0.22875,0.06931,-0.18738,0.14871,0.06096,0.0131,-0.05704,-0.01969],[-0.15795,-0.12923,0.10136,-0.07535,0.11339,0.24578,-0.01838,-0.06548,-0.09036,-0.02686,-0.00519,-0.10882,0.0724,0.16379,0.02686,-0.01446],[0.08058,0.04543,0.08402,0.09596,0.06028,-0.05454,0.09126,-0.01413,-0.01093,-0.09983,-0.0393,-0.16748,0.03885,0.01293,0.10769,0.05559],[0.32711,0.06505,-0.05655,0.04388,-0.18098,-0.20539,-0.09671,-0.1594,-0.01555,0.00381,0.16502,0.07455,-0.31011,0.09753,0.04689,-0.02333],[-0.13419,-0.03922,0.09778,0.22117,-0.19958,0.12279,0.24164,0.12924,0.10955,-0.0217,-0.18036,0.28294,0.35343,-0.22348,-0.2342,-0.18384],[0.07391,0.00842,-0.60761,-0.04204,-0.70437,-0.50365,0.52208,0.25498,0.2866,0.0058,0.4786,-0.12616,-0.5855,0.33665,-0.04203,-0.12082],[-0.49039,-0.78548,0.39298,0.47535,-0.28432,-0.6374,0.22965,0.04194,0.18628,0.25611,0.48672,0.49944,-0.31401,-0.28693,-0.05392,-0.06796],[-0.15892,-0.23118,0.19274,-0.01515,-0.12123,0.01969,-0.06222,-0.32739,-0.0526,0.38393,-0.20569,0.5592,-0.22071,-0.222,0.25106,0.08507],[0.25778,0.03245,-0.09755,-0.30788,-0.06178,-0.0158,-0.16288,0.41206,-0.11124,-0.00743,0.08229,0.03552,0.07349,0.12721,-0.2177,0.04799],[0.06068,0.81236,0.13556,-0.20563,0.49294,0.42825,-0.79489,-0.11315,0.11103,-0.72223,-0.32864,-0.48715,0.33441,0.36984,0.35529,-0.0126],[0.42369,0.58942,-0.51961,-0.26508,-0.31038,-0.02323,-0.07696,-0.082,0.24766,-0.1073,0.2719,-0.31529,0.52794,-0.44051,0.29172,-0.44798],[-0.09824,0.20282,0.01202,-0.18145,0.15309,0.06322,-0.38811,0.0972,-0.04736,-0.07294,0.01631,-0.081,-0.05412,0.11956,-0.0927,0.25073],[-0.26245,-0.05149,0.15124,-0.12451,0.08106,0.04299,0.24227,-0.13821,0.00528,0.11447,-0.01042,-0.0394,-0.04253,-0.12965,0.00328,0.00983],[-0.41662,-0.14441,0.12528,-0.16731,0.44616,0.31245,0.11698,0.16799,-0.10808,0.40686,-0.00653,-0.17727,-0.2949,-0.18195,-0.24458,-0.08813],[-0.05676,-0.29121,-0.22564,-0.06781,0.03168,0.06798,0.27547,-0.09608,0.01762,0.12853,0.04838,-0.01338,0.13291,0.09581,0.01094,0.03421],[0.03748,-0.02042,0.0037,0.10008,-0.26727,-0.01282,0.16926,-0.17699,-0.12583,-0.09928,0.03927,0.15918,0.06064,0.14589,-0.00881,0.03003]]],"patch_embed.proj.weight":[[-0.05065,-0.08766,-0.0391,-0.12683,-0.08719,-0.09582,-0.01242,-0.08765,0.08966,0.07077,-0.06713,0.03415,0.09745,-0.08368,0.02441,-0.00547,-0.08466,-0.01041,-0.0709,0.03722,0.03852,0.03384,0.02817,-0.01312,0.05359,-0.07303,-0.03223,-0.0039,-0.06292,0.04449,-0.057,0.06347,-0.0489,0.09609,-0.11532,0.05035,-0.10007,0.10562,0.01352,-0.00955,-0.06711,-0.09154,0.111,0.14505,-0.05962,0.00286,0.05452,0.00505,0.05231,0.06146,-0.03521,-0.02995,-0.02386,0.12064,-0.02515,0.12249,0.05175,-0.05642,0.02697,0.10565,-0.06946,-0.00283,-0.03802,-0.06305],[-0.08368,0.07727,-0.07183,-0.04969,-0.09529,-0.03733,0.05566,-0.03455,-0.11366,-0.04836,0.04542,0.1022,-0.05548,-0.00555,0.06659,0.09367,-0.08034,0.02032,-0.05201,-0.00688,0.03326,-0.04974,-0.11556,0.00842,-0.00587,-0.08049,0.01674,-0.02122,-0.02035,-0.04727,0.0229,-0.01904,-0.08955,0.10102,0.06445,0.00395,0.00477,0.05583,0.07154,0.13336,-0.01747,0.10883,-0.06929,-0.03306,0.01747,-0.03785,0.1141,0.00557,0.02683,-0.02872,0.06454,0.04446,-0.10935,-0.00632,-0.10204,0.00617,0.00898,-0.10783,3e-05,-0.07772,-0.01563,-0.04458,-0.01077,-0.01045],[0.05089,0.07735,0.09741,-0.12178,0.02967,-0.02668,0.01231,0.10952,0.05162,0.00021,0.04395,-0.042,0.07399,-0.09032,-0.08715,0.03336,-0.07115,0.0249,-0.02324,-0.05973,0.04924,-0.02522,0.01021,0.09623,0.04264,-0.04597,-0.03717,0.0003,-0.06029,-0.05651,0.02174,0.04557,-0.00389,-0.0345,-0.05586,-0.09477,-0.09401,0.06127,-0.03706,0.1474,0.04056,-0.01634,0.04703,-0.11342,-0.05777,-0.0605,0.04264,-0.07685,0.03043,0.00654,0.01028,-0.06227,-0.05596,0.08158,0.05296,0.11393,0.06083,-0.02158,-0.04516,-0.05921,-0.01032,0.04764,-0.10716,0.00732],[0.0906,0.04555,-0.03671,-0.00163,-0.0583,-0.05004,-0.02125,-0.12992,-0.02176,-0.1375,0.0357,-0.04907,0.05591,-0.02447,-0.05518,-0.02615,-0.00537,0.02653,-0.08157,0.10273,-0.09018,-0.04082,0.06698,-0.146,0.07866,-0.00546,-0.02447,-0.0029,0.05253,-0.04736,0.0172,0.02656,-0.00887,0.03929,0.04251,0.05302,-0.05119,0.07848,0.0471,0.04029,0.00341,-0.04382,-0.05861,0.14146,0.07773,0.01341,0.12058,0.02545,0.08367,0.0159,-0.02069,-0.02305,-0.08731,-0.03093,0.06491,-0.04955,-0.0962,-0.15211,0.05245,0.01116,0.05652,0.05176,0.10352,-0.07081],[0.08471,-0.01185,0.08702,0.01491,-0.01064,-0.09001,0.06376,-0.12471,0.03096,0.01811,-0.09256,0.05571,0.04245,0.01093,-0.02779,-0.0228,0.08061,-0.08899,-0.02405,0.01209,-0.05875,0.00544,0.11214,-0.14502,-0.07418,-0.06259,0.00309,-0.02015,-0.00603,-0.01919,-0.03184,-0.08437,0.06249,-0.0129,0.06233,0.08023,0.05929,-0.00871,0.04227,-0.04533,-0.03715,-0.02895,-0.08783,0.02153,-0.04949,0.07999,-0.01037,0.01434,-0.0562,0.07657,-0.00886,0.05363,0.02239,0.02923,-0.03454,-0.04631,0.03445,-0.04728,0.03554,0.11046,-0.04423,0.05552,-0.08733,-0.00313],[0.04072,0.0505,-0.03369,0.07929,0.0989,-0.00973,-0.04009,-0.01884,0.03632,-0.00542,0.0552,-0.06888,-0.01902,0.0628,0.01013,0.02485,-0.00588,0.02495,0.11852,-0.02244,-0.05126,0.01946,-0.09482,-0.02238,-0.02719,0.01425,-0.05971,0.11955,-0.02469,0.0205,0.01458,0.10219,0.09799,0.06982,0.02964,0.02901,-0.04764,0.02594,-0.05161,0.02386,0.05655,-0.0525,0.02162,0.06982,0.0238,-0.00877,-0.11417,0.02425,-0.02413,-0.0301,0.05281,-0.00483,-0.14313,0.09214,-0.088,0.07115,-0.24112,-0.00777,-0.06431,0.00387,-0.06621,-0.06372,0.05997,-0.12704],[-0.01289,0.08179,0.03274,0.00585,0.00892,0.01015,0.02841,0.04698,-0.01325,0.03633,0.01693,0.06429,0.07263,0.02126,0.02801,-0.0457,-0.02658,0.00962,-0.08843,0.02932,0.00427,-0.05826,0.09091,0.01109,-0.0854,-0.00732,0.1057,0.12382,0.09147,0.02416,0.01242,0.00423,-0.08141,0.00471,-0.07079,-0.05188,0.03628,0.07624,0.06651,0.04158,-0.14561,-0.0519,-0.07824,-0.13233,-0.0287,-0.11787,-0.02084,-0.00988,-0.04072,-0.08893,0.06515,-0.04388,-0.01342,-0.04711,-0.00893,-0.09148,-0.0711,-0.01489,-0.09501,0.04884,-0.03677,0.03293,-0.04875,0.00019],[0.02267,-0.0518,0.03481,-0.11967,-0.0161,0.025,-0.04031,0.1219,-0.03719,-0.07866,-0.01083,-0.07163,-0.03183,-0.09841,0.04194,-0.01908,0.08167,-0.11179,0.03348,0.06743,-0.07341,-0.05823,0.04277,-0.03862,-0.10441,-0.09759,0.04253,-0.12591,-0.00054,0.06027,0.00676,-0.01507,0.10754,0.05439,0.01003,0.04951,0.04762,-0.02792,0.04628,0.02322,0.10672,0.05009,-0.08451,0.11747,0.00386,0.0678,0.02052,-0.03645,-0.12254,-0.09024,0.10871,-0.02968,-0.05234,0.10081,-0.00418,0.02545,-0.12955,-0.02434,-0.03852,-0.07912,0.0394,0.00578,-0.07567,-0.06987],[-0.04672,0.02269,0.02405,-0.00105,0.01979,-0.06267,-0.01281,-0.00851,0.07382,-0.00491,0.08527,-0.02098,0.05172,0.03995,0.00086,0.02818,0.02754,-0.03421,-0.00406,-0.07413,0.00025,-0.02057,0.02306,-0.00937,0.10162,0.0069,0.06428,0.11331,0.08374,-0.03684,-0.02783,-0.06265,0.00504,-0.01009,0.06982,-0.08486,-0.06565,0.02607,0.06041,0.0755,0.00942,-0.00185,-0.04102,-0.02243,0.03459,-0.01419,-0.01987,-0.06592,-0.00647,0.01442,0.00421,0.04194,0.03856,-0.08223,0.05795,-0.04259,0.04024,0.03722,0.04414,0.10186,-0.06163,-0.03638,0.06415,-0.0808],[-0.04558,-0.00532,-0.03521,-0.06336,-0.07733,-0.02277,0.00841,0.03315,0.04043,-0.03915,-0.06993,0.08251,-0.02997,-0.01665,-0.04188,-0.02223,0.08921,-0.09332,0.0969,-0.05024,-0.08397,-0.0092,0.04124,0.00376,-0.06154,0.06156,0.06199,0.1437,-0.0196,0.02292,-0.08465,0.04496,0.04647,-0.01516,-0.00188,0.01607,-0.01536,0.13208,-0.01228,0.00221,-0.006,0.07258,0.00942,0.03899,-0.0361,-0.10392,-0.06413,-0.00748,-0.02759,-0.04852,0.12139,-0.0539,-0.06002,-0.03861,0.04965,0.0442,-0.00713,-0.02817,0.04575,-0.0392,-0.04914,-0.00784,-0.07586,-0.03394],[0.04495,0.09071,0.04156,0.05993,0.10913,0.00391,0.05815,0.05407,-0.11743,0.02432,0.06427,-0.01823,0.01044,0.02324,0.03762,0.02859,-0.06475,-0.09516,-0.05908,0.04306,-0.00013,-0.04831,0.03538,-0.00663,-0.17179,0.02873,0.0653,-0.08993,0.02593,-0.07093,-0.01822,-0.00282,-0.09432,-0.03494,-0.09508,-0.01454,-0.05201,-0.06886,0.02142,-0.05437,0.13565,0.09319,0.12566,0.19267,-0.00368,0.04311,-0.03628,0.07213,-0.0403,0.01933,0.046,0.051,-0.0773,0.0237,-0.00523,-0.00544,-0.06002,0.05366,-0.02872,0.02984,-0.01822,0.03169,-0.0737,0.02971],[0.10671,0.04947,0.08062,-0.07182,-0.00161,0.00677,0.04063,0.00116,-0.08119,-0.07087,-0.01557,0.0234,0.05873,-0.146,0.04793,0.04881,-0.04135,-0.01794,0.0325,-0.05872,-0.07061,0.01207,-0.01036,0.00783,-0.14516,-0.0699,-0.10609,-0.08189,-0.01843,-0.0841,-0.00665,-0.08091,0.08866,0.03506,0.03726,0.03769,-0.03841,-0.03794,0.04362,0.05194,-0.02641,-0.05058,-0.02193,-0.0474,0.01534,-0.01331,-0.01501,0.03754,0.035,0.04064,0.04553,-0.063,-0.06048,-0.03531,-0.10298,-0.07674,0.01559,-0.06754,0.04276,-0.0936,0.10272,-0.10668,0.02995,-0.02302],[0.04369,0.05713,0.03418,-0.02638,-0.0891,-0.03531,-0.04352,0.08614,0.0843,-0.0017,-0.10472,0.05204,0.00142,-0.04341,-0.05786,-0.06133,-0.01085,-0.00188,0.0047,-0.03491,-0.09414,-0.04582,0.03081,0.03464,-0.01224,0.0175,0.08355,0.08041,0.07581,-0.06232,-0.04594,0.1021,-0.00996,-0.00872,-0.01642,0.06808,0.06387,0.13417,0.01683,-0.03526,-0.05493,0.03793,-0.01416,-0.10997,-0.13548,-0.07047,0.08846,0.13433,-0.07967,0.00576,0.04482,-0.00949,0.02261,-0.05769,-0.02951,-0.0179,-0.01111,-0.01868,-0.05568,0.02325,0.04719,0.10087,-0.06386,0.10589],[0.07314,0.04275,0.01976,0.022,-0.05435,-0.00569,0.01556,-0.04481,-0.00473,-0.09726,-0.03927,0.02081,-0.0299,-0.01789,-0.06125,-0.02359,0.0199,0.03043,0.05578,0.01916,-0.10896,0.03404,-0.05646,-0.00943,-0.08998,0.01526,-0.08911,-0.11724,-0.10164,-0.12327,-0.09142,-0.04504,0.00961,-0.03291,-0.08527,0.03157,-0.00344,-0.14058,-0.01615,-0.01709,-0.0044,0.03584,0.08596,-0.13906,-0.06191,-0.05569,-0.02379,-0.05418,-0.00118,0.00399,-0.076,0.03957,-0.12715,-0.00205,-0.08375,0.06029,-0.02496,0.02896,0.04401,0.08782,-0.0631,0.05017,0.06561,0.00277],[0.00599,0.01391,0.02204,-0.03003,-0.00754,0.07717,-0.05187,0.16877,0.05831,-0.03462,-0.00608,0.0147,-0.04606,-0.01495,0.08112,-0.10988,-0.19815,-0.03274,-0.08739,0.0795,0.01299,-0.06704,0.08969,0.05543,-0.10488,0.02593,-0.162,0.04747,-0.1356,0.07267,0.00281,-0.01156,-0.11266,-0.11525,-0.07605,-0.00523,-0.01355,-0.03678,0.00846,-0.04108,-0.0085,-0.02096,-0.12745,0.0838,-0.10307,-0.04112,0.0368,-0.0816,-0.10357,0.03777,-0.05567,-0.02726,0.00154,0.00997,0.07072,-0.04872,0.02017,0.00111,0.10728,0.06062,0.11272,-0.00853,0.03712,-0.07992],[0.04659,0.09114,-0.10416,-0.02597,0.03929,-0.07375,-0.04444,0.0802,0.038,0.01174,0.07003,0.09967,-0.05937,0.11347,-0.08945,0.03154,0.05695,-0.05302,0.06053,0.05728,-0.0251,0.09904,0.0825,0.01091,-0.0391,0.1098,-0.05657,0.02337,0.09688,-0.0791,0.04381,0.06946,-0.08179,-0.05702,-0.03887,-0.08432,-0.01807,-0.09529,0.06742,0.00361,-0.08965,0.0001,0.01903,-0.03547,-0.03886,-0.07306,-0.03247,-0.1346,0.05515,-0.08735,0.00506,0.02249,-0.10658,-0.04177,0.07359,-0.00189,0.02119,-0.09894,-0.04316,-0.06755,0.08735,0.06484,0.00939,0.01783]],"patch_embed.proj.bias":[0.00889,-0.07163,0.12273,0.06678,0.01727,0.0498,-0.03203,-0.02202,0.13165,0.09494,-0.02382,-0.11858,0.06902,-0.10952,-0.04466,-0.11673],"blocks.0.norm1.weight":[0.95903,1.02909,0.95273,1.01323,1.08332,1.04981,1.03937,0.96122,0.97205,1.07239,0.97703,1.07645,0.99837,1.04861,0.99407,0.95315],"blocks.0.norm1.bias":[-0.02902,-0.00781,-0.01228,0.02851,0.00416,0.01626,0.02701,0.01045,-0.03627,0.0175,-0.01372,0.02776,-0.00314,0.00705,-0.00637,0.01519],"blocks.0.attn.qkv.weight":[[-0.29691,-0.266,0.07961,0.14867,-0.03847,0.08962,-0.08006,-0.20225,-0.01484,0.07195,-0.29544,0.11301,-0.11731,0.38716,0.08376,-0.24861],[-0.13774,0.00965,0.16847,-0.16748,0.27026,-0.05326,-0.16706,0.1034,-0.18016,-0.11458,-0.09018,-0.15428,0.01812,0.14432,0.17611,0.05456],[0.17637,0.1053,-0.164,-0.00565,-0.27348,-0.13138,0.08873,0.20258,-0.22067,0.17149,0.30955,-0.3643,0.20384,-0.36988,-0.22436,-0.17878],[-0.18344,-0.05465,-0.07422,-0.07066,-0.26081,-0.19962,0.18458,-0.24913,0.16841,-0.1622,-0.23489,0.24724,0.16736,0.18212,-0.08398,0.02586],[0.19892,-0.20571,0.0497,-0.01018,0.05707,0.01208,-0.01673,-0.13672,-0.21917,0.21923,-0.20787,0.36016,0.22219,0.2205,-0.02675,0.01867],[0.1143,-0.05184,0.11797,-0.13694,-0.12742,-0.0389,-0.19838,0.07208,-0.1063,0.11678,-0.10429,0.08899,-0.08424,-0.14798,0.08662,-0.26267],[-0.10355,-0.15036,-0.09157,-0.10147,-0.15013,-0.07914,0.04717,-0.14548,-0.25612,-0.19217,0.26577,0.22768,0.15112,-0.09815,0.03727,-0.00479],[0.21206,0.22205,-0.10878,-0.01659,0.09568,-0.12686,-0.20802,0.06612,0.00673,-0.00374,0.05848,0.18443,-0.20153,-0.22329,0.16808,0.10954],[-0.07354,-0.08527,-0.13584,-0.0658,0.02278,0.10974,0.00631,0.02905,0.26959,-0.10147,0.12576,-0.18494,0.11443,-0.25674,-0.13228,-0.03351],[-0.0643,-0.13918,0.18314,-0.0814,0.17112,-0.21751,-0.12601,-0.02945,-0.05358,0.18838,0.23686,0.15844,0.14324,0.02698,-0.15338,0.00142],[-0.12846,-0.11364,0.00561,-0.02091,-0.04257,-0.21653,0.12254,-0.13941,-0.10777,0.07523,-0.00738,-0.01519,0.24374,-0.2683,-0.21382,0.32661],[-0.33286,0.0464,-0.05044,0.09482,0.24003,0.00892,0.30868,-0.20419,-0.05661,0.13712,0.01499,-0.08901,-0.16937,0.02502,0.0767,0.11141],[-0.05182,-0.16168,0.20461,0.20032,-0.09126,0.15131,0.27227,-0.08343,-0.00128,0.00852,-0.21265,-0.13389,-0.27938,0.10033,-0.22067,-0.1419],[0.03352,0.07569,0.23567,0.24716,0.1437,-0.15549,0.06767,-0.23202,-0.16368,-0.07038,-0.18021,0.09529,0.11558,0.1872,0.05292,0.10553],[0.16875,0.04322,0.23971,-0.10054,-0.08444,-0.01988,-0.15355,0.13645,-0.25142,0.14579,-0.03279,0.42062,0.05402,-0.15503,0.02799,0.07147],[0.14471,-0.10276,0.05492,0.05862,0.13936,0.08143,0.01541,0.19921,-0.09951,-0.21285,0.19036,-0.11602,-0.2006,0.08605,-0.32512,0.2361],[-0.14036,0.14757,0.05787,-0.06696,0.33605,0.31057,-0.22422,0.19022,0.23946,0.05987,-0.08555,-0.19326,0.22502,-0.04361,0.15015,-0.01196],[-0.32011,-0.19114,-0.06364,-0.15923,-0.00451,0.20131,-0.04809,-0.20583,0.09307,-0.00392,-0.01302,-0.19488,0.17596,0.09897,0.13248,-0.20189],[0.11179,-0.17215,-0.08214,-0.04662,-0.14385,-0.17781,0.15898,0.26546,-0.09573,0.10626,-0.0355,0.30189,-0.15569,-0.0003,-0.00025,0.03157],[-0.13477,-0.12876,-0.08197,0.11641,0.29084,-0.15496,-0.24306,0.15323,0.05314,0.10207,-0.10823,-0.24067,0.05959,-0.05294,-0.11802,0.26234],[0.04599,0.25626,-0.10195,0.17545,-0.08336,-0.13088,0.28291,-0.1177,0.14549,-0.34446,0.04848,-0.24579,0.34165,0.20439,0.20127,-0.10991],[-0.02087,-0.17727,-0.12507,-0.20435,-0.2009,0.0851,0.02555,-0.13803,0.23212,-0.28163,0.17594,-0.16348,-0.19962,0.23399,0.19434,0.17065],[0.06303,-0.14895,0.01766,0.14794,0.06183,0.01259,0.34199,0.18993,-0.0681,0.27416,0.2769,0.08998,-0.11418,-0.08671,0.2372,-0.0078],[0.08806,-0.01894,-0.07979,0.06793,-0.23274,-0.03037,0.27927,0.12089,0.03607,-0.03284,-0.2987,-0.15622,-0.15916,0.20084,-0.00733,-0.11773],[-0.23002,0.18176,0.03249,-0.09561,0.1755,0.31141,0.16688,-0.14645,-0.17225,0.23497,0.14277,0.34519,-0.12706,0.22187,-0.24073,0.11804],[0.22698,-0.03321,0.14399,0.16613,-0.04482,0.21947,0.17676,0.05073,0.21179,0.15763,-0.20156,0.191,0.22742,-0.01377,-0.16059,0.03138],[0.00084,-0.13301,-0.03678,0.0081,0.07723,0.10979,-0.1485,-0.04053,0.1079,0.1535,-0.00271,0.15535,0.02613,-0.16743,0.10466,0.07536],[0.05694,0.07968,0.02302,-0.14752,0.11309,0.01331,0.08211,0.20629,0.02557,0.21621,0.19126,-0.22093,-0.06443,0.26973,-0.0408,-0.22178],[0.04737,-0.0215,0.06189,0.03873,-0.04319,-0.12435,0.18082,0.02832,0.13176,-0.16796,-0.17294,-0.22825,-0.17386,0.05903,0.04431,-0.1155],[0.11612,0.15058,-0.22939,0.11819,-0.07152,0.13424,0.00513,0.2151,-0.15939,0.05555,0.02401,-0.08836,0.07994,0.1291,0.1889,-0.14448],[-0.17633,0.19427,-0.15917,0.2827,-0.19537,0.00274,0.23045,0.169,-0.20124,0.01123,-0.14599,-0.00657,0.14585,-0.2538,0.04982,-0.14175],[0.12301,0.06466,0.04974,0.06683,0.1325,0.11991,-0.05832,-0.27902,-0.11803,0.19635,0.03558,-0.10655,-0.19487,0.11497,-0.15379,0.37068],[-0.01915,0.04577,-0.23341,-0.05846,-0.29459,-0.09784,0.19935,0.04551,0.04372,0.05277,0.00262,-0.10529,-0.26948,0.07295,-0.09089,-0.10589],[-0.19824,0.08224,0.08277,0.04075,0.3126,0.09484,0.21881,-0.00435,-0.28072,0.07092,-0.11165,0.18966,0.00356,0.33362,0.03963,0.0633],[0.17437,-0.11302,0.03981,0.18595,0.19437,-0.05985,0.08622,-0.09058,0.15793,-0.28849,0.0915,-0.08167,0.21531,0.27828,-0.14043,0.2598],[-0.09043,-0.1463,0.15879,-0.01219,0.32112,0.09096,-0.13677,-0.13484,0.06836,-0.02205,-0.19304,-0.00996,0.07137,-0.18294,-0.21976,0.22633],[-0.20543,-0.13942,-0.07566,0.13424,-0.04611,0.01369,0.09531,0.20016,0.11051,0.14368,0.0978,0.24456,0.16536,0.29016,-0.15139,-0.06349],[-0.20145,-0.18257,-0.20938,-0.08691,-0.05204,-0.06514,-0.21188,-0.04625,0.19707,0.05795,-0.08041,0.19802,0.05283,-0.05066,0.22449,-0.11846],[0.07256,0.19945,0.00833,0.3351,0.22926,0.17411,-0.21926,-0.22442,0.03663,-0.09573,0.15953,0.02049,0.07944,0.02557,0.06602,0.06987],[0.09251,0.08057,-0.13332,0.16659,0.12642,-0.10311,-0.25677,0.27805,0.07342,0.26292,0.09872,0.04134,-0.17669,-0.03956,0.00022,-0.05151],[0.02624,0.38629,0.12154,-0.01114,-0.20962,0.12264,0.00337,0.1422,0.09413,-0.20585,-0.04299,-0.15898,-0.08742,-0.18404,0.03654,-0.08376],[0.16958,-0.12951,0.02786,0.02496,0.17235,-0.00569,0.21115,0.072,-0.10599,0.11146,-0.27385,0.23827,0.12789,0.12181,0.05313,-0.06081],[-0.13394,-0.04037,-0.21768,-0.09135,0.17163,0.23192,-0.08293,0.13591,-0.1239,-0.11567,-0.21981,-0.24961,0.12349,-0.02588,-0.11649,-0.08897],[0.27683,0.21621,-0.2166,0.00252,-0.08605,0.01527,-0.11717,0.0044,-0.16948,0.07627,-0.07074,0.15182,0.09799,0.05282,-0.22959,-0.02172],[-0.00739,-0.08744,0.18646,0.22707,0.03799,0.07235,0.03938,-0.16091,-0.01069,0.02919,-0.21618,0.10949,0.19434,-0.08722,-0.09556,-0.3429],[-0.14635,-0.22846,0.07424,0.06819,0.13299,0.03512,0.07219,0.08699,-0.07189,0.29691,-0.08191,-0.14873,-0.23678,-0.15642,0.11402,0.01103],[0.23409,0.19024,-0.07732,-0.05419,-0.18898,-0.15055,-0.25502,-0.06734,-0.16642,-0.37844,0.04782,-0.154,-0.02379,0.14466,0.17832,-0.09501],[0.26345,-0.16218,-0.16064,0.15832,-0.15441,-0.13189,0.17548,-0.07955,0.13497,0.24419,0.25037,-0.117,-0.02571,-0.19254,-0.16417,-0.16766]],"blocks.0.attn.qkv.bias":[0.39211,-0.01136,0.05958,0.22315,-0.02563,0.18197,0.13323,-0.00805,0.16702,-0.24147,0.13625,0.07886,0.00701,0.26613,0.29811,-0.03284,0.24899,0.04215,0.01164,0.02942,0.05624,0.20222,-0.16658,-0.23212,-0.24903,-0.10289,0.17321,0.00425,-0.27398,-0.01602,-0.00955,0.1749,0.06739,-0.12071,-0.1117,-0.19346,0.22156,-0.22053,0.17216,-0.1187,0.15893,-0.0464,-0.11508,-0.09405,-0.08919,-0.21117,0.18783,0.20661],"blocks.0.attn.proj.weight":[[-0.14853,0.21921,0.31294,0.20566,0.22796,0.10476,0.22966,-0.1214,-0.0202,-0.00217,-0.02254,-0.14199,-0.21724,0.12268,0.24281,0.22803],[-0.05502,-0.01143,0.0237,-0.16076,0.10948,0.05606,-0.1264,0.06901,-0.24211,-0.05943,0.17735,-0.14257,-0.0253,0.09172,-0.13911,0.16692],[0.23441,-0.11151,-0.18052,0.02823,0.19925,-0.1346,-0.03775,0.19149,-0.35067,0.01168,0.17058,-0.33776,0.21018,-0.15226,0.10202,0.07433],[0.21962,-0.08648,-0.17158,0.2788,0.03943,-0.01062,0.04791,-0.10907,-0.02849,0.23978,0.09104,-0.09842,-0.1422,0.13247,-0.22626,-0.02403],[0.09029,-0.0819,0.02543,-0.01516,0.06518,0.09696,-0.1332,-0.06778,0.23093,-0.28737,-0.0178,-0.07476,-0.13332,-0.19883,0.02722,-0.02102],[0.02266,0.21268,0.026,0.0353,0.222,0.01805,-0.12697,-0.15255,-0.02517,0.15004,0.25176,0.22845,-0.0399,0.11108,-0.05105,-0.05021],[-0.21951,-0.26201,0.07713,-0.12715,-0.02232,0.31601,-0.11732,0.05607,0.19989,0.19981,0.05273,-0.00395,-0.19371,-0.17777,0.14144,0.00388],[0.14659,-0.04827,-0.16029,0.01753,-0.0582,-0.03653,-0.06429,-0.13292,-0.14165,0.2438,0.11105,0.23071,-0.02149,-0.0707,-0.09296,0.01519],[0.2177,0.05491,0.19776,-0.1041,-0.19069,0.01686,-0.26358,0.18335,0.0149,-0.26791,0.03234,-0.08388,0.22318,0.17261,-0.18616,-0.15699],[0.01289,0.18045,-0.03713,0.02252,-0.09748,-0.10652,0.11688,0.11727,0.09849,-0.15781,0.06497,0.14961,0.00372,0.01107,0.2546,-0.05348],[-0.06459,0.09089,-0.12482,0.25052,0.03858,0.08779,0.00959,0.14333,0.12207,0.13417,-0.14689,-0.18119,0.00719,0.24935,0.19992,-0.23034],[-0.22427,0.17791,-0.21036,0.21697,0.2482,-0.018,0.02394,0.03688,-0.13057,0.09965,0.10742,0.00753,-0.06887,0.11735,0.09877,-0.22746],[-0.2837,0.09394,-0.15218,0.03398,0.21156,0.0096,0.22984,0.14814,0.1514,0.02959,-0.21768,0.23429,0.03945,0.14035,-0.24156,0.2639],[-0.10317,-0.34557,0.07363,-0.07461,-0.00602,0.10447,0.11801,0.03198,-0.11864,0.06088,0.00059,0.04341,0.15672,-0.02091,-0.09963,0.01626],[0.27649,0.02731,-0.12375,0.03644,0.24463,0.15401,0.06563,0.01388,-0.07576,0.14619,0.18001,0.13705,0.04063,-0.17442,-0.08478,0.11012],[-0.17884,0.11565,0.21404,0.13133,0.21152,0.00073,0.13034,0.05077,-0.07958,0.20916,0.28815,0.1134,0.2263,0.17936,-0.17249,-0.21975]],"blocks.0.attn.proj.bias":[0.02498,-0.06724,0.10943,0.21708,0.01444,0.03181,-0.08688,0.12817,-0.01839,-0.09818,0.00277,-0.21929,0.02546,0.11753,0.10856,-0.16536],"blocks.0.norm2.weight":[0.99822,1.00335,1.15716,0.98671,1.09631,1.08543,1.14081,1.07078,1.028,1.10817,1.11206,1.11779,0.96325,1.08151,1.13219,1.03142],"blocks.0.norm2.bias":[-0.0279,0.04226,-0.00565,-0.05885,0.00036,0.00252,-0.00889,-0.00664,0.01455,-0.01535,0.06128,0.04257,0.0406,-0.03809,-0.00522,0.00818],"blocks.0.mlp.0.weight":[[-0.12969,0.13794,0.07125,-0.05258,0.15726,0.0408,-0.14673,-0.12283,-0.01857,-0.01408,-0.3358,0.04054,-0.06248,0.21988,0.08839,-0.19012],[-0.14683,0.07863,0.27178,0.06445,0.07363,-0.29423,-0.049,-0.11053,0.27048,-0.11131,-0.03257,0.10713,0.00576,-0.15711,0.08666,-0.26189],[-0.18079,-0.14097,0.19774,-0.17445,0.08039,0.14134,-0.115,-0.11974,-0.07565,-0.32558,0.12303,-0.27467,0.1298,-0.36719,-0.00191,0.05583],[0.00406,-0.05181,0.07914,-0.05823,0.08795,-0.45243,0.10053,-0.4677,0.1816,-0.07588,-0.00306,-0.17936,0.00503,0.22092,0.1011,0.27974],[0.06345,0.01078,-0.01424,0.14882,-0.15526,0.11748,0.02778,0.01952,-0.0436,-0.02954,-0.13704,-0.33144,0.23714,-0.05834,0.16809,0.16951],[0.12964,0.11911,-0.23277,0.15464,0.30391,0.14233,0.31465,0.32356,0.10171,-0.225,0.04909,-0.01735,-0.04176,-0.12537,0.36202,0.16606],[-0.11499,-0.03868,-0.1122,-0.21226,0.07069,-0.12227,0.35409,-0.23417,-0.02335,0.0225,0.01421,0.07075,-0.11185,0.17737,0.30016,0.30305],[0.09622,-0.22458,0.21277,0.25258,0.16369,-0.13292,-0.12247,-0.10288,0.17476,0.00688,-0.17378,0.2362,0.09765,-0.07064,-0.31095,-0.07337],[0.01548,0.00555,0.13744,0.1149,0.09539,-0.00521,-0.07884,0.01305,-0.08445,-0.21647,-0.06865,0.20565,0.04089,0.10982,-0.29253,0.12308],[-0.07706,-0.10521,-0.29439,0.15683,-0.18181,0.09456,-0.15697,-0.21463,0.32194,-0.04548,0.00972,0.11095,0.00145,0.15854,-0.15036,-0.23763],[-0.00112,0.0996,-0.48141,0.21183,0.24058,-0.02597,0.06839,-0.0908,0.03059,-0.08323,0.09335,-0.3357,-0.11544,-0.20569,-0.25552,0.03331],[0.13913,0.05358,0.1716,0.20804,0.00675,-0.00605,-0.12291,-0.22717,-0.0487,0.01405,-0.00188,-0.08027,-0.20102,-0.14671,-0.05458,0.21121],[-0.2782,0.28611,0.00117,-0.17597,-0.11888,0.06444,0.36651,0.16423,-0.13057,-0.33526,0.30483,0.03638,-0.04629,0.12538,0.17782,0.13132],[-0.16302,-0.23829,-0.12496,-0.35959,-0.0142,0.21016,0.19315,-0.37524,0.22945,0.38583,0.27599,-0.00777,0.07423,0.21291,-0.01163,0.09302],[-0.11685,0.05359,0.29878,0.07049,-0.05645,0.24347,-0.01847,-0.26745,0.12699,-0.1876,-0.30743,-0.1099,8e-05,0.17622,-0.06224,-0.05787],[-0.19198,-0.15933,0.08326,-0.10194,-0.14492,-0.03626,0.19156,-0.19519,-0.19637,0.05375,0.27019,0.22893,0.18771,-0.06452,0.17623,0.18835],[-0.06304,0.13779,-0.25137,0.08934,-0.21907,-0.0812,0.11608,-0.13846,0.20201,0.4327,-0.46312,-0.20477,0.13716,-0.23419,-0.15694,0.47005],[0.13595,0.20743,-0.05939,-0.09979,0.25882,0.03521,-0.25856,0.16689,-0.14898,-0.11671,0.2605,-0.11796,0.1872,-0.04644,-0.10231,-0.08982],[0.05658,0.11363,0.05645,-0.13951,0.31082,0.17043,0.35887,-0.25011,-0.20251,0.32674,-0.0776,-0.02303,-0.04295,-0.12782,0.04386,0.29817],[-0.16425,-0.20473,-0.32106,-0.17432,-0.11639,-0.23086,-0.05934,-0.1023,0.10696,-0.17134,0.26916,-0.01746,0.10678,-0.08053,-0.12551,-0.13419],[0.10062,0.2014,-0.20439,-0.1255,0.19233,-0.09252,0.05063,0.10773,-0.15018,-0.11848,0.03047,-0.12425,0.09777,0.11477,0.0915,-0.16939],[0.21399,-0.02314,0.00873,0.09478,0.2398,0.0029,-0.07989,0.11261,-0.05418,0.21085,-0.00155,0.20405,-0.09829,0.10345,-0.21377,-0.06762],[0.03062,-0.1305,-0.11712,0.13405,0.25813,0.14989,0.0341,-0.03903,-0.20714,-0.03047,-0.2286,0.25106,-0.12069,0.22221,0.08378,-0.05732],[-0.08611,0.01474,-0.2007,0.10458,-0.02384,0.03865,-0.02736,-0.0607,-0.05893,-0.11746,0.2447,-0.20386,0.24709,-0.14872,0.29025,0.06951],[-0.15124,-0.01713,0.03796,-0.12813,0.09963,0.03288,0.0544,0.16192,0.00558,-0.05596,0.18588,-0.27164,-0.11114,-0.02505,0.22532,-0.16093],[-0.10005,0.04172,-0.40404,0.04245,-0.16213,-0.15556,0.25168,0.01343,0.08834,-0.22332,0.13783,0.09332,0.09658,-0.13142,0.30504,-0.14761],[0.23319,-0.18833,-0.07036,-0.00183,-0.05074,-0.00893,0.04455,-0.19664,0.2836,0.05888,0.01527,0.10846,-0.20692,-0.2005,-0.31151,0.0255],[-0.20454,0.24397,0.19562,-0.18091,-0.28139,-0.10888,-0.0034,-0.09626,-0.12768,0.19629,0.1657,0.02636,-0.01821,0.01115,-0.27111,0.27149],[0.02645,-0.06328,-0.11691,0.07395,-0.21874,-0.09617,0.06394,-0.12729,-0.14251,0.05965,-0.22426,0.01701,-0.06236,0.10391,0.18291,-0.168],[0.21488,0.03112,-0.15769,0.19366,0.13408,-0.32503,-0.28064,-0.22752,0.19961,-0.06952,0.07218,-0.00869,-0.09723,0.02766,0.09188,0.05374],[-0.14425,0.20182,-0.27914,-0.16253,-0.1991,-0.05289,0.29751,0.243,-0.19633,-0.0325,-0.21315,0.07142,-0.21307,0.13548,-0.1446,0.24192],[-0.27657,-0.13717,0.02932,-0.10826,-0.17244,0.07146,0.07703,-0.22572,0.24139,-0.09496,-0.28082,-0.21337,0.33237,-0.23292,-0.2319,-0.15206]],"blocks.0.mlp.0.bias":[0.12852,0.25745,0.03411,-0.11663,-0.04678,-0.02027,-0.01753,-0.22944,-0.25346,0.11434,-0.17639,-0.01387,0.06017,0.23875,0.12081,0.22339,-0.00793,-0.13655,0.00993,0.05275,-0.25967,0.06004,0.1123,-0.17463,0.12515,-0.08123,0.18894,0.12092,-0.1151,0.03557,0.16458,-0.00729],"blocks.0.mlp.2.weight":[[0.21162,-0.0574,-0.18112,-0.04907,-0.04657,0.1661,0.14368,-0.04526,-0.04787,-0.187,0.06405,0.11674,-0.06935,-0.20727,0.17967,-0.01318,-0.03593,-0.15737,-0.08366,0.0565,-0.09738,-0.128,-0.09285,0.04819,0.11108,-0.11452,-0.21648,-0.02281,0.22405,-0.0608,0.09116,-0.07133],[0.02747,-0.07656,0.14262,0.01481,-0.05747,0.17334,-0.22562,-0.12022,0.14975,0.03466,0.0436,0.00227,-0.20158,0.16224,0.10847,0.05308,-0.40662,-0.10145,-0.19035,0.02802,-0.18871,0.05497,0.14505,-0.03571,0.00438,0.00184,-0.13093,-0.19493,-0.03145,0.04998,-0.20881,-0.11318],[0.05785,-0.08118,-0.23328,0.02308,-0.05439,-0.1463,0.16001,0.03311,0.05751,0.083,0.19258,-0.00759,0.15805,-0.08387,-0.14733,0.00147,0.10731,-0.06941,0.13118,-0.12331,0.14281,0.11688,-0.15772,-0.03241,-0.11061,0.03846,0.01053,0.12583,0.1537,0.16589,0.01062,-0.17494],[-0.11383,-0.17073,-0.01518,0.04054,-0.2026,0.0214,-0.19134,0.23545,0.12246,0.20896,-0.12165,-0.0002,0.10741,0.17873,0.08216,0.13789,-0.14775,0.1046,-0.12387,0.06233,-0.18536,-0.11095,-0.01337,0.11967,0.01164,0.24279,-0.1207,0.11599,-0.1422,0.10095,-0.12989,0.03601],[0.03824,0.00524,0.03848,-0.1339,-0.02442,-0.21578,0.10039,-0.25195,-0.16646,-0.19389,-0.2241,0.0592,0.04217,-0.00663,0.07093,0.17209,0.18211,0.18914,0.00701,-0.1442,0.12051,-0.04713,-0.1684,-0.13788,-0.2055,-0.24349,-0.07836,-0.12849,0.08895,0.14927,0.00043,0.18115],[0.01436,-0.08397,-0.05615,0.15973,0.08291,-0.04319,0.12914,-0.08644,-0.15195,-0.1935,-0.11556,-0.03741,-0.01696,-0.14638,-0.01827,0.16084,0.08417,-0.17734,0.13416,0.06417,-0.15784,-0.00396,-0.07519,-0.03988,-0.03082,0.14586,-0.10992,-0.13357,0.03139,0.09849,0.17894,-0.06397],[-0.14139,0.12766,-0.06065,-0.15214,0.06171,-0.02933,-0.02114,0.06289,0.05258,-0.11814,-0.19954,-0.06317,0.29404,0.02417,0.08877,0.11124,0.04317,-0.25478,-0.15183,0.13399,0.15873,0.02444,0.09778,-0.15683,0.10047,0.12193,-0.0989,-0.12168,-0.11774,0.11345,0.02129,0.03974],[0.0641,-0.09456,-0.08934,0.13348,-0.13537,0.00435,0.10663,-0.04036,0.00118,-0.0452,-0.00548,0.15455,0.03542,0.12851,-0.07095,-0.05315,-0.08825,0.06933,0.01114,-0.16698,-0.09866,-0.11387,-0.11099,-0.15479,-0.06047,-0.13275,-0.02836,-0.17811,-0.15709,0.00997,-0.06266,-0.13878],[-0.05376,-0.04424,-0.08797,0.22321,0.07248,-0.16741,0.13394,-0.14928,0.00446,-0.02007,-0.05149,0.07244,0.05915,-0.02442,-0.01684,-0.11787,0.13008,0.11618,0.0847,0.02169,-0.04558,0.05587,-0.07561,0.09171,0.15729,-0.15728,-0.0093,-0.0952,0.00279,0.17932,-0.12109,-0.13682],[0.04478,-0.04326,0.21147,-0.17595,-0.10215,0.33462,-0.12162,0.11515,0.14143,0.15324,-0.04811,0.13037,0.16072,0.26103,0.22997,-0.16079,-0.07611,-0.11961,0.13568,0.0762,0.18601,-0.15037,-0.065,0.22651,-0.09067,-0.04117,-0.13356,-0.0215,0.07635,-0.04149,-0.07932,0.08255],[-0.06169,-0.14969,-0.07256,0.0445,0.02846,-0.16739,-0.14201,-0.27452,-0.06436,-0.00492,-0.10455,-0.14645,-0.22947,-0.11026,-0.06982,0.02478,0.13032,-0.00358,-0.03715,-0.20971,0.15698,-0.10485,-0.04058,0.16901,0.04561,-0.20458,-0.01324,0.23331,-0.15582,0.12598,-0.11538,0.03725],[-0.17914,0.04499,-0.18809,0.22611,0.07871,0.10353,0.25042,-0.00147,-0.13205,-0.23226,-0.109,-0.06544,-0.10779,0.0655,-0.15187,-0.01297,0.05146,0.10444,0.09107,0.07637,-0.1168,0.1068,0.14086,-0.08446,-0.04498,-0.10894,-0.06595,0.0631,-0.00206,-0.0093,-0.14558,0.19114],[-0.1557,-0.147,0.20439,-0.11448,0.12678,0.18833,-0.08482,0.05413,-0.00152,-0.04648,-0.01876,0.06415,0.13101,0.0998,0.10978,-0.12215,-0.2411,-0.01791,-0.19866,0.16356,-0.069,0.01029,-0.1136,0.2301,0.10524,0.19902,0.15253,0.26078,-0.16211,-0.07763,0.09749,-0.15123],[-0.09396,-0.10574,0.05222,-0.02921,0.0677,-0.0859,-0.02781,0.13897,-0.01548,-0.2103,-0.06803,0.0781,-0.05999,-0.22863,0.13243,-0.17399,-0.06983,0.16021,-0.01576,0.03561,-0.05513,0.05566,0.09927,0.18851,0.09165,0.11321,-0.16161,-0.26833,0.06982,0.13518,-0.04148,-0.12176],[-0.13084,0.17639,0.0328,0.04752,0.08208,-0.0491,0.08647,0.07796,-0.06309,0.17808,-0.0947,0.2235,-0.16224,-0.09031,0.02703,0.08134,0.19532,0.14354,0.24683,0.05139,-0.0649,-0.13811,-0.07746,-0.08662,-0.05733,-0.19918,0.11985,0.13151,-0.01433,0.21976,-0.14119,-0.08136],[0.00992,0.30946,-0.13332,-0.16385,-0.09584,-0.07954,-0.09181,-0.30396,-0.13691,0.02224,-0.08727,0.00232,0.07438,-0.05407,-0.0598,-0.18624,0.18008,-0.03965,-0.20344,0.09871,0.15386,-0.13241,0.13507,-0.28958,-0.13353,0.21961,-0.03713,-0.16422,-0.03499,-0.01464,-0.06385,0.23111]],"blocks.0.mlp.2.bias":[-0.09867,-0.11883,-0.13225,-0.07915,-0.09033,0.04217,-0.17715,-0.02655,-0.06755,-0.0912,-0.00798,0.0166,0.05572,0.03715,0.03165,-0.02139],"blocks.1.norm1.weight":[0.97691,1.13678,0.95699,1.04274,1.05892,1.05962,1.09979,1.00524,1.03676,1.14568,1.07252,1.07399,1.10035,1.02012,1.09462,1.12747],"blocks.1.norm1.bias":[0.01994,0.05745,-0.00105,-0.03488,0.0351,0.00728,0.00793,0.01452,-0.04127,-0.01435,-0.00814,0.05081,-0.05644,0.00122,-0.04784,0.04362],"blocks.1.attn.qkv.weight":[[-0.1181,-0.0353,-0.10327,0.28228,-0.03857,0.0881,-0.00391,-0.09948,-0.12118,-0.08013,0.13976,-0.13119,0.21987,-0.14372,0.23096,-0.09618],[-0.05828,0.14192,-0.01327,-0.17681,0.25591,-0.09468,-0.08986,0.14742,-0.08832,0.08708,-0.135,-0.06328,-0.20035,0.02923,0.37823,0.24778],[0.29547,0.15772,-0.03894,-0.05168,-0.00985,-0.17949,-0.12313,0.05896,-0.02456,-0.09287,0.01448,-0.01498,0.03484,0.15496,-0.09904,-0.11015],[-0.12768,-0.23419,0.02877,-0.09145,0.14137,-0.24687,-0.20093,-0.2145,-0.01746,0.13434,0.09793,0.09431,0.14981,-0.19194,0.29644,-0.20616],[-0.03561,-0.21237,0.25786,-0.26108,0.13872,-0.01721,0.17042,-0.08116,-0.14238,-0.08964,-0.05496,-0.19964,0.10368,-0.24792,-0.11234,0.0586],[0.26161,-0.10169,-0.13553,0.12384,0.17987,0.07069,0.24309,-0.23381,0.12174,0.14404,-0.18384,-0.00233,-0.1722,0.23425,-0.09636,-0.34462],[-0.0633,-0.14037,0.21047,-0.1479,0.21205,0.21123,0.04476,-0.17294,0.08313,0.05492,-0.01219,0.0882,-0.11204,-0.03334,-0.17864,0.2428],[-0.21466,0.07879,-0.08803,-0.0984,-0.09048,0.02055,0.00684,0.14325,0.33023,0.24606,-0.3741,-0.0428,-0.10307,-0.0011,-0.15048,0.22378],[-0.20782,-0.07926,-0.03541,0.11122,0.28717,0.05988,-0.09211,-0.01785,0.32269,0.2618,0.36425,-0.15956,0.15179,-0.30666,-0.12713,-0.11594],[-0.03975,0.05058,0.26531,0.01577,0.14878,0.02152,-0.03563,0.2133,0.25195,0.30471,-0.04106,0.09382,-0.15404,-0.1511,0.0786,0.17924],[-0.11457,0.1256,0.27028,-0.04684,0.18816,-0.01862,-0.14401,0.38292,-0.11063,0.03363,-0.27255,-0.26638,0.05403,0.16827,0.19498,0.11266],[-0.09666,0.32244,0.0293,0.20281,-0.05611,0.10474,0.27604,0.21631,-0.18587,-0.25749,0.02398,-0.06211,0.0773,-0.05282,-0.06354,0.20514],[-0.29106,0.39564,-0.25306,-0.02825,-0.2089,0.26746,-0.08412,0.01655,-0.09691,0.00423,0.0992,0.03428,-0.06405,-0.05353,-0.25299,0.25167],[0.02761,0.16707,0.27441,-0.13544,0.11895,-0.25688,-0.21053,0.13004,0.22755,0.18545,0.03168,0.04824,0.11374,0.11472,-0.03396,-0.23536],[0.16264,0.12015,-0.12989,-0.03293,0.12296,0.36001,0.12481,-0.00928,-0.09084,-0.1022,-0.20611,-0.11625,0.15601,0.07199,-0.07161,-0.11772],[0.04733,0.09844,0.16683,0.30136,0.14324,-0.12898,-0.05747,0.03893,0.26167,0.13491,0.04533,-0.28092,0.25769,-0.33795,-0.1477,0.13112],[-0.13723,-0.07471,0.19295,0.02239,-0.22155,-0.17811,0.02692,0.2228,-0.179,0.24574,-0.03056,0.25187,-0.01244,-0.18866,0.3638,0.09565],[0.11589,0.14564,0.05598,-0.08692,-0.23897,0.03146,-0.0062,0.54242,-0.08525,0.0024,-0.14115,-0.1263,-0.03627,-0.22557,-0.34214,0.15807],[-0.19172,-0.02533,-0.03616,0.11323,0.06092,-0.06552,0.30673,0.04012,-0.19307,0.23792,-0.18242,0.12672,0.12039,-0.04282,0.33724,0.0367],[0.04915,0.20455,-0.3118,-0.04738,0.21888,0.08716,-0.08169,0.05622,-0.16556,0.07367,-0.16954,0.3018,-0.02,0.12766,-0.15358,-0.24162],[-0.28264,-0.23297,0.31074,0.1624,0.34871,0.0048,0.00637,-0.09057,-0.0027,-0.14208,-0.14597,0.12067,-0.11458,-0.17001,0.13497,0.03519],[-0.19826,0.25794,-0.02379,-0.28499,-0.05643,0.11111,0.20965,-0.14008,0.17262,0.11293,-0.18767,0.00474,0.09477,-0.03866,0.25146,-0.02469],[0.17293,0.05824,0.05406,-0.05287,0.27856,0.04567,-0.20205,0.09292,0.16544,0.01479,0.08413,0.13106,0.02485,-0.23829,-0.10361,0.02431],[-0.08247,-0.158,-0.04838,-0.08719,0.19909,0.00846,0.02724,-0.01177,-0.09546,-0.51919,-0.10383,0.03664,-0.09654,-0.22663,-0.14514,-0.08875],[0.10192,0.25098,-0.17057,-0.10857,0.16892,0.03528,-0.09444,-0.21288,-0.11774,0.22271,0.08697,-0.28922,0.10962,0.26496,-0.03142,-0.05841],[-0.05041,0.26971,-0.16519,0.11513,0.19901,-0.10668,-0.29445,-0.03064,-0.08977,-0.21086,-0.14217,-0.11635,-0.11693,0.17158,-0.01456,0.23336],[0.27713,0.06445,-0.00113,-0.04615,0.09049,-0.16051,-0.00191,0.09121,0.14831,-0.12826,-0.17973,-0.30159,0.05568,0.14586,0.18849,0.12688],[-0.11445,-0.24154,0.16403,-0.05823,0.09092,0.18626,0.1169,0.22142,0.0388,-0.09097,-0.2702,-0.21592,-0.09594,-0.12468,-0.35091,-0.13118],[0.08524,0.35446,0.16397,-0.35952,0.1516,0.35839,0.08317,0.09149,0.15187,0.16943,-0.21223,-0.06233,0.33042,0.13549,0.06521,0.1132],[-0.06951,0.34563,-0.18098,0.06126,-0.1613,-0.2045,0.02629,0.00966,-0.21813,0.14961,0.07208,0.09629,-0.09625,0.25235,-0.01592,-0.02387],[0.06748,0.13104,-0.10554,-0.07696,0.14597,0.21475,-0.14398,0.22925,0.12482,0.03401,0.01015,0.13866,-0.05899,-0.04671,-0.08368,-0.20809],[0.15735,0.11463,-0.21304,-0.34221,0.04125,-0.03728,0.07463,0.18745,-0.24343,0.03293,-0.25531,0.00437,0.13778,-0.13946,0.03766,-0.02694],[-0.13565,0.04845,0.20734,0.34045,-0.17788,-0.2042,-0.05066,0.27405,-0.19626,0.07125,0.10157,-0.16035,0.03803,0.24233,-0.2321,-0.13894],[-0.09623,0.18374,0.1029,0.03043,-0.26658,0.04711,0.02549,-0.09789,0.19733,-0.06447,0.22344,-0.01797,-0.07496,-0.12694,-0.26456,0.11396],[0.01607,-0.23112,0.03858,0.36968,0.16111,-0.27439,-0.24672,-0.05207,-0.16741,0.06988,0.08871,-0.01741,-0.06712,-0.26783,0.12832,-0.12101],[0.00234,-0.1088,-0.04419,-0.22843,-0.00501,-0.08466,0.11665,0.16813,-0.13659,0.10743,0.20081,0.30519,-0.33415,-0.09353,-0.0783,-0.29673],[-0.10794,0.15096,-0.11743,-0.15983,-0.00304,-0.02561,-0.18757,-0.05551,-0.07557,0.21487,-0.03106,0.09379,-0.04016,-0.09365,-0.13983,0.05007],[-0.05821,-0.14928,0.14272,0.1183,-0.18652,0.18677,0.24661,0.13992,0.16417,-0.23251,-0.13107,0.30265,-0.018,0.2431,-0.03085,0.18847],[-0.27155,-0.12454,-0.37379,0.20781,-0.11156,0.2516,0.00696,0.04953,0.13663,0.1669,-0.21253,0.24277,0.22041,-0.1417,-0.32398,-0.08253],[-0.10737,-0.16104,-0.07619,0.35847,-0.21957,-0.21168,-0.1331,0.21726,0.25328,-0.04043,0.16909,0.03732,-0.00517,-0.12609,0.05496,-0.23025],[-0.23566,-0.17305,0.21206,-0.04607,0.29308,0.11541,-0.07191,0.20221,-0.0805,0.11182,0.06728,0.22859,-0.38871,-0.0649,-0.06858,0.20391],[0.06162,0.2341,-0.02548,0.10563,0.18729,-0.02483,-0.0769,0.21712,0.16602,0.1531,-0.02668,0.19968,-0.10151,0.18974,-0.23477,-0.06219],[0.12351,-0.07787,-0.062,0.16094,0.03579,-0.19502,0.14437,-0.08967,0.24768,0.10914,0.37181,-0.25689,0.01209,0.14895,0.10519,-0.17961],[-0.14014,-0.15675,-0.03469,-0.09193,0.07638,-0.18534,-0.24013,0.21901,0.24464,-0.37045,0.2894,-0.04019,0.04747,0.08691,0.13618,0.02231],[0.0206,-0.13967,-0.10498,0.22487,-0.1242,-0.1817,-0.27182,0.13012,-0.05723,0.07331,0.17412,-0.01047,-0.14088,-0.11347,0.12519,-0.18725],[-0.21383,-0.10293,-0.1,-0.07335,0.08218,-0.14899,-0.17953,-0.04299,0.1264,0.00062,0.16329,-0.02805,-0.13006,0.31671,0.13441,-0.08538],[-0.11545,0.05382,0.16535,0.18084,-0.0349,-0.12927,0.24637,-0.0874,0.09162,-0.00805,0.22903,-0.06606,0.40977,0.07292,0.03962,0.03175],[-0.11914,0.05078,0.04435,-0.0374,0.22404,-0.00752,-0.31654,-0.23236,0.0216,0.18399,-0.15989,0.0344,0.01054,-0.13851,0.29286,-0.2892]],"blocks.1.attn.qkv.bias":[0.21819,0.18519,0.23781,0.05074,-0.03805,-0.13778,-0.16941,0.168,-0.31351,-0.10226,-0.12755,0.151,-0.2874,-0.22723,-0.26372,0.09185,-0.0425,-0.11073,-0.22891,-0.06465,-0.16321,0.13385,-0.16301,-0.22598,-0.1094,0.16097,-0.00044,0.19372,-0.131,0.00143,0.2301,0.20218,-0.25245,0.08032,-0.18251,-0.06878,0.12317,-0.25508,0.19079,0.0248,-0.0854,-0.10548,-0.02818,0.05727,-0.05074,0.11941,0.00674,0.04911],"blocks.1.attn.proj.weight":[[0.31385,0.11062,0.16117,0.0482,0.12111,-0.17047,-0.28513,0.12752,-0.14674,-0.13534,-0.17091,-0.19456,-0.04199,-0.20376,0.01723,-0.16963],[0.33843,-0.0543,-0.01616,-0.17498,-0.22953,0.20727,-0.05457,0.20877,-0.10993,-0.02664,-0.22974,0.0387,-0.02346,0.16839,0.00733,0.22141],[-0.016,-0.08868,-0.122,-0.08855,-0.12473,0.27243,-0.10344,-0.11979,0.09116,-0.12909,-0.14857,0.02105,0.05365,0.20125,-0.10052,-0.10234],[0.16418,0.12682,-0.08793,-0.2108,0.21934,-0.11727,-0.28259,-0.07084,0.16885,0.05179,0.00415,0.0731,-0.03452,-0.20721,0.02182,0.04175],[-0.12159,-0.04104,-0.15218,-0.30748,0.19187,0.29825,-0.12119,-0.23455,0.02487,-0.17392,-0.12751,-0.29994,-0.03352,-0.16306,-0.05471,0.05344],[0.01997,0.08808,-0.16249,-0.0822,-0.19853,-0.14518,-0.02048,-0.00919,-0.03846,0.21215,0.07987,0.05389,-0.28816,0.14997,-0.0798,-0.21782],[-0.04138,0.0743,0.23252,-0.37393,-0.15723,0.23985,-0.20147,0.16899,-0.04766,-0.06884,0.00319,-0.24932,0.15615,0.11237,-0.04623,0.23569],[-0.24308,-0.16954,0.20397,0.07958,0.13147,0.2201,0.29225,-0.14903,-0.2231,-0.06325,0.0429,-0.20279,-0.13233,-0.03603,0.01099,-0.07872],[-0.31147,0.08466,-0.23646,-0.23815,-0.22517,-0.22238,-0.22982,0.0968,0.20151,-0.079,-0.2206,-0.1125,-0.06969,0.0436,0.09447,0.17823],[0.22104,0.23151,-0.12553,-0.17721,0.1465,0.05113,0.33574,0.18596,0.19083,-0.16904,0.15926,-0.12408,-0.1505,-0.12895,0.28036,0.07252],[-0.20576,0.09159,0.07246,-0.21656,0.20805,-0.42321,0.24956,0.05367,0.04586,-0.0211,0.25558,0.20339,-0.0474,-0.27318,0.0732,-0.22191],[-0.20283,-0.04616,-0.0452,-0.05873,0.08013,-0.19215,-0.09888,-0.22523,-0.00533,0.09535,0.04198,-0.19241,-0.18657,0.12499,0.14814,0.0195],[0.1183,0.05303,0.01801,0.0265,-0.21717,-0.14066,-0.06244,0.23645,-0.30337,0.16034,0.03853,0.02015,-0.18344,-0.01528,0.3063,-0.07092],[0.10513,-0.05808,0.21943,0.1989,-0.13738,0.1178,0.11067,-0.00886,0.32111,0.02412,-0.15451,-0.16543,-0.2055,0.1853,-0.08527,-0.32758],[-0.09788,-0.14807,0.306,-0.25416,-0.08513,-0.38075,0.10678,0.24758,0.24951,0.0518,-0.19801,-0.17028,-0.00892,-0.21742,-0.19468,-0.0081],[-0.0472,0.16986,0.06281,-0.14387,0.1295,-0.18201,0.04904,0.135,-0.09924,-0.04054,-0.04377,0.19831,-0.11492,-0.0276,-0.29268,0.22087]],"blocks.1.attn.proj.bias":[-0.17851,0.1496,-0.05947,0.01593,0.0431,-0.07662,-0.10945,-0.01887,0.12527,-0.13661,-0.08235,-0.18827,-0.02271,-0.24611,0.00307,0.20174],"blocks.1.norm2.weight":[1.11721,1.09244,1.07439,1.08435,1.16791,1.11112,1.1131,1.1094,1.01087,1.16789,1.15298,0.96751,0.97665,1.05876,1.15797,1.02558],"blocks.1.norm2.bias":[0.00255,-0.00184,0.06194,0.03881,-0.01307,-0.01154,-0.05354,-0.00186,0.02957,0.04226,0.02468,0.02641,0.01942,0.03792,0.01967,-0.03587],"blocks.1.mlp.0.weight":[[0.11534,0.23958,0.13296,0.19757,-0.14906,-0.0938,0.21884,-0.0253,-0.16948,0.03458,0.12777,0.12437,-0.13626,0.07425,0.05686,-0.02155],[-0.1025,-0.18586,-0.05147,0.10369,0.18174,0.22735,-0.20861,0.26025,-0.05487,0.10952,0.06721,-0.11857,0.18156,-0.05821,0.06814,0.28471],[-0.30322,0.1406,0.22481,-0.15173,-0.18702,0.13276,-0.20985,-0.27972,0.09022,-0.24712,0.02366,-0.14795,0.32979,-0.04198,-0.14153,0.38842],[0.20429,-0.49117,-0.0561,-0.16289,-0.12495,-0.09997,0.09244,-0.05168,-0.08377,-0.24543,0.0741,-0.08355,0.11678,0.00396,0.20578,-0.19033],[-0.2636,-0.06487,-0.25975,0.16568,0.04692,-0.0604,0.10081,0.03779,-0.05495,0.42627,0.1107,-0.16747,0.01033,-0.01542,0.07225,-0.12761],[-0.01292,0.08394,0.01675,-0.23063,-0.07167,-0.17456,0.03282,-0.24078,0.29989,0.10111,0.30661,0.08038,-0.18573,0.02166,0.07718,-0.01201],[-0.24871,-0.09473,-0.00185,-0.18142,0.04506,0.08828,0.18541,0.21867,-0.03445,-0.15426,0.01169,-0.07669,-0.21368,-0.10111,-0.40193,-0.17365],[0.10353,-0.15318,-0.17271,-0.11948,-0.10942,0.04814,0.05245,-0.16637,0.08292,-0.10887,-0.13159,-0.17569,-0.11883,0.32972,-0.00138,-0.07416],[-0.31101,-0.22761,-0.06692,-0.39694,0.18545,0.1174,-0.07248,-0.17822,0.31152,0.09731,-0.09423,0.20944,-0.16886,-0.24233,-0.10158,-0.20999],[-0.19003,-0.1144,0.3308,-0.24237,-0.11774,0.17068,-0.1527,-0.06205,0.22526,0.27084,-0.26152,-0.18772,-0.22286,0.37911,-0.114,0.00235],[0.05692,-0.23708,0.13871,-0.46803,0.0366,-0.08854,-0.19529,0.35597,0.23952,0.29378,-0.03558,0.17587,0.03059,-0.12855,0.1502,-0.18705],[0.02107,-0.19081,-0.23213,-0.05491,-0.098,0.46427,0.35985,-0.08315,-0.16042,-0.04962,-0.11179,0.06905,-0.19796,0.1358,0.1066,0.14569],[0.12821,0.03549,-0.19428,0.06045,-0.42599,0.17123,0.17618,-0.23162,-0.17795,-0.10563,0.05275,0.04692,0.21143,0.09973,0.06766,-0.09341],[-0.23113,0.03798,0.08733,-0.16452,0.25351,-0.14517,0.091,-0.0542,0.09442,-0.34195,0.18724,-0.09552,-0.07034,-0.08568,-0.05733,-0.10068],[-0.03942,-0.2397,-0.41937,-0.04972,-0.00447,-0.03903,-0.01532,-0.20225,-0.02211,0.09975,0.24086,0.19109,-0.00848,0.30915,0.04524,0.1135],[-0.27463,0.05675,-0.13094,-0.00995,0.10717,0.28105,-0.02466,-0.08963,-0.01,-0.10637,-0.17637,-0.04636,-0.26979,-0.43056,-0.33714,0.26201],[0.16036,0.08567,-0.03576,-0.26123,-0.14553,-0.13273,0.02193,0.29067,0.08053,-0.17092,-0.21365,-0.32616,0.2509,-0.16229,0.18033,-0.38054],[-0.26017,0.12855,0.07603,0.07425,0.05587,-0.26087,0.46304,-0.07748,0.0716,0.44833,-0.01677,-0.04773,-0.14183,0.01763,-0.20424,0.04186],[-0.14051,-0.02866,-0.00802,-0.16742,-0.16411,0.03385,-0.31386,0.11792,0.11001,-0.0892,0.05796,0.09286,-0.31473,-0.1864,0.15794,0.14216],[0.09651,0.26534,-0.0884,-0.1503,-0.18339,-0.28872,0.02699,0.15437,-0.04395,-0.18732,-0.1504,0.05855,0.04078,-0.14844,-0.26406,0.08871],[0.10922,0.25355,0.04489,-0.08208,-0.23918,0.00255,0.00774,-0.28731,-0.01226,-0.07663,-0.33589,-0.10711,0.18775,-0.01315,-0.03631,0.00979],[-0.40297,0.03952,0.38167,0.16436,0.08802,0.11898,-0.06514,-0.05487,0.33349,-0.02584,-0.01693,0.1444,-0.03033,-0.00374,0.07401,-0.00451],[0.02554,-0.31989,-0.11352,-0.11408,0.13651,-0.18842,0.43358,0.05294,-0.1061,-0.26829,-0.14469,-0.20777,-0.03023,-0.33881,0.22191,0.104],[0.3799,0.10954,-0.2314,-0.14831,-0.15605,0.20969,0.06969,0.18917,0.30023,-0.23824,-0.34804,0.05642,-0.15272,-0.10385,-0.2566,-0.0449],[0.14776,0.05565,-0.02187,0.0918,0.38317,0.24639,0.17995,-0.18928,-0.12917,0.0729,-0.31396,0.00181,0.08135,0.01129,-0.16912,-0.03632],[-0.19599,-0.29833,0.0363,0.19163,-0.19509,0.31515,-0.05524,0.18366,0.05483,-0.1757,-0.1965,-0.2843,-0.00588,-0.04254,0.28646,0.17599],[0.24331,-0.12855,0.14332,0.33959,-0.35638,0.32778,-0.02217,-0.01353,-0.18593,0.16851,-0.07426,0.03697,0.22686,-0.09886,-0.41811,0.0753],[-0.13918,3e-05,-0.10663,0.30674,0.09471,0.11299,-0.17133,0.06581,0.1861,0.23391,0.21049,-0.07209,0.09302,0.05913,-0.05166,-0.12327],[0.12378,0.08323,0.3163,-0.12621,0.21441,-0.0485,0.02972,0.40698,-0.04891,0.10279,-0.09502,-0.21492,0.13591,0.06021,-0.22023,0.21596],[-0.10671,0.10449,0.25994,-0.02335,0.04765,-0.03182,-0.02829,0.03991,-0.08963,0.18387,-0.03921,0.20416,-0.16164,0.05193,-0.13565,-0.14494],[-0.15529,0.17203,-0.1171,-0.13284,-0.30782,0.05312,-0.10917,0.14058,0.22476,-0.00142,0.28376,-0.09628,0.10881,-0.18866,-0.18953,0.03503],[0.18522,-0.14903,-0.12785,0.01193,-0.17971,0.01198,-0.0119,-0.08015,-0.1018,-0.02227,-0.02412,0.22364,-0.03954,0.12198,-0.34776,-0.2136]],"blocks.1.mlp.0.bias":[-0.05538,0.01775,0.06514,0.16749,0.06773,-0.24314,0.18252,-0.08432,0.18299,0.03992,-0.19195,0.04005,0.00143,0.17165,-0.18904,-0.13818,-0.14524,-0.15215,0.16371,-0.14492,-0.08579,-0.15252,-0.21066,0.09554,-0.05086,0.1455,0.01621,0.02509,0.08961,0.06537,0.04425,0.10311],"blocks.1.mlp.2.weight":[[0.22798,-0.00949,-0.15137,-0.10815,-0.13218,0.1941,-0.16316,-0.1252,-0.11797,0.07034,0.328,0.10422,-0.07928,0.12081,0.02038,0.10168,0.20322,-0.04773,0.0527,0.18275,-0.22061,-0.03526,-0.00762,0.28716,0.15208,0.08738,-0.15208,-0.04322,0.12632,-0.08704,-0.1003,-0.09376],[0.01708,-0.04179,0.07957,-0.05426,0.13989,-0.20258,-0.14957,-0.00065,0.25275,0.33692,-0.14034,0.07583,0.12683,0.08953,-0.24094,0.00434,0.23,0.02959,0.20625,0.07296,-0.02128,-0.02712,0.23976,0.01171,-0.26326,-0.24047,-0.07601,0.11884,-0.03488,-0.06924,-0.14247,-0.19449],[0.04856,0.10071,0.049,0.19972,-0.02428,-0.0564,0.00414,0.03913,-0.05393,-0.11502,-0.0098,-0.1574,-0.03309,0.03815,0.13136,-0.02594,-0.12945,0.06306,0.1923,-0.10708,0.14574,-0.17548,-0.04165,0.05802,-0.10462,0.33545,0.09279,-0.07908,0.11576,0.03735,-0.05259,0.07409],[0.12975,-0.08493,0.00592,0.01515,-0.18342,0.15506,-0.00556,-0.17649,0.13259,0.02268,0.08497,0.07115,-0.17245,-0.27203,0.10008,0.15871,0.08615,-0.22833,0.1734,0.18115,-0.27865,-0.06202,-0.00801,0.18791,-0.30122,-0.01146,0.05563,-0.14451,0.08694,-0.07154,0.00998,0.12647],[0.0309,0.24076,0.22941,0.07463,0.0139,-0.02701,-0.04527,-0.0851,0.01393,0.02648,-0.09471,-0.23851,0.05261,-0.11475,-0.0513,-0.14486,0.01919,0.07248,-0.03289,-0.03131,0.09518,0.2113,0.13381,0.08986,-0.10456,0.20541,0.00045,-0.03019,0.02252,0.04252,0.0293,0.14457],[0.16413,0.12071,0.19729,0.02133,-0.08808,-0.01218,-0.10868,-0.06651,-0.05715,0.07756,-0.01184,0.10692,0.13691,0.01115,0.05657,-0.30215,-0.20486,0.15624,-0.07274,-0.13654,0.0339,0.14685,0.07688,-0.0498,-0.08625,-0.35919,0.11329,0.06254,-0.07267,0.14639,0.05529,0.2186],[-0.11577,-0.11179,-0.06241,-0.08891,0.18999,0.17838,-0.16586,0.00143,0.11135,0.03837,-0.07193,0.06066,-0.1985,0.17026,0.16287,-0.10348,0.04049,-0.02736,0.17122,-0.01138,-0.16434,-0.01898,-0.06412,-0.22676,0.08429,0.06575,0.17712,0.08177,0.02838,0.09287,0.16599,0.02724],[-0.05461,0.17398,-0.07546,-0.18829,-0.07735,-0.31115,0.15603,-0.11006,0.10702,-0.13725,-0.00914,0.15389,0.14842,0.25669,0.18713,-0.14666,0.14379,0.06383,0.03983,0.03518,-0.02215,-0.23626,-0.19488,0.05335,-0.11568,-0.02437,-0.12573,-0.11926,0.16384,0.14841,-0.13847,-0.10422],[0.2551,-0.21947,-0.23199,-0.10564,0.12227,0.10844,0.10661,-0.07984,-0.07142,-0.29237,-0.21405,-0.01008,0.08137,0.05939,-0.08885,0.04638,0.06033,-0.05986,-0.16527,0.09221,0.00234,0.15631,-0.09802,-0.05303,0.06163,0.02838,-0.01614,-0.10186,-0.29919,-0.15854,-0.03515,0.04659],[0.19246,-0.09047,0.16104,0.21625,-0.09101,0.19649,-0.12443,0.13825,-0.02352,0.10214,0.04568,0.11877,-0.15052,0.05532,-0.08345,0.19498,-0.22898,0.13585,-0.10459,0.18148,0.11025,-0.27818,-0.08542,-0.11384,-0.1878,-0.04554,0.22046,-0.00718,0.12871,-0.08051,0.06762,-0.11851],[-0.01028,0.22134,-0.06624,0.1152,-0.15355,0.11187,-0.01512,-0.10034,-0.19701,-0.14608,0.1195,0.02215,-0.14692,-0.24848,-0.1969,0.11941,-0.0687,-0.08873,0.02014,-0.03416,-0.0115,0.05804,0.00893,-0.08742,-0.07978,0.29649,0.17317,-0.01928,0.1231,0.16546,-0.07846,0.13941],[-0.04783,-0.09459,-0.13277,0.09965,-0.05146,-0.04313,-0.00879,0.09681,0.22915,-0.16409,-0.11384,0.09632,0.02995,0.04055,-0.23997,0.03389,0.1442,-0.21259,-0.11464,0.0979,-0.10549,0.15057,-0.26595,-0.06528,0.10296,-0.18321,-0.02323,0.21033,-0.07873,-0.00639,0.05156,-0.14282],[0.02557,-0.06955,-0.13457,-0.09882,-0.08881,0.16722,0.05469,0.18621,0.02876,-0.22431,0.30091,0.17097,-0.09728,0.08599,0.0189,0.06298,0.05939,0.08454,-0.03395,0.15187,0.02643,-0.28484,-0.30933,0.00633,-0.21682,0.02655,0.15635,0.0442,-0.00757,-0.00163,-0.18987,0.16606],[-0.05744,-0.05102,0.12531,-0.12656,-0.0687,0.00342,-0.32718,0.09745,0.02255,0.25327,0.05788,-0.14234,-0.00967,0.0425,0.18496,0.01825,0.15858,-0.09461,0.10963,-0.11117,0.09934,0.06404,-0.01828,0.09944,0.26916,0.09447,-0.02363,-0.16548,0.01156,-0.06878,0.08352,-0.01654],[-0.06763,-0.01191,0.07682,-0.07472,-0.06856,0.11295,0.05452,0.13166,0.06458,-0.02756,0.27916,-0.09433,0.1408,-0.22263,0.05633,0.00105,-0.00042,0.08032,-0.13164,-0.02508,0.05689,0.20559,0.11319,0.25818,0.03497,-0.22414,0.14204,-0.14601,0.04576,-0.21317,0.10251,-0.02631],[0.08886,0.00774,0.14653,-0.15596,-0.00621,0.08921,-0.00574,-0.01568,-0.27178,0.05125,-0.00393,0.01485,-0.292,-0.0402,-0.04972,-0.2743,0.22231,0.21795,-0.06258,-0.03306,-0.07201,-0.10229,0.26248,0.09097,0.02808,-0.18049,-0.11802,-0.09561,-0.03252,0.01854,-0.15396,0.10453]],"blocks.1.mlp.2.bias":[-0.13789,-0.04988,0.0051,-0.05623,-0.12871,-0.04311,0.00866,-0.12698,0.09625,-0.03451,0.09259,-0.05485,0.06814,0.00309,-0.08933,0.08345],"norm.weight":[1.79966,1.7625,1.68569,1.65821,1.51671,1.5732,1.8847,1.9864,1.60413,1.68369,1.86269,1.77862,1.76845,1.79621,1.88396,1.6285],"norm.bias":[-0.04471,0.14541,0.0064,0.03184,0.0446,0.00936,0.07626,0.09326,-0.06509,-0.02214,0.00602,-0.01347,-0.15688,-0.0011,-0.15058,0.09367],"head.weight":[[0.55516,-0.76619,0.35534,0.30266,0.15856,-0.50953,-0.2709,-0.63221,0.42965,0.23531,0.32954,-0.15484,0.33471,0.2916,0.78911,-0.1466],[0.66892,-0.55693,-0.68698,-0.10167,-0.34588,0.52375,-0.04268,0.51438,-0.21409,-0.51945,-0.63359,0.42547,0.12683,0.44655,0.1361,0.23266],[0.2581,0.10588,0.59748,-0.26813,0.05743,-0.5419,0.21441,0.5141,-0.53648,0.2106,-0.06705,-0.5009,0.58139,0.38252,-0.49908,-0.23788],[-0.61701,0.08892,0.35676,-0.51995,0.29079,0.10861,0.35524,0.60432,0.46902,-0.34513,-0.01176,0.58633,0.32446,-0.48548,-0.28454,-0.56486],[0.48284,0.65194,-0.53565,0.53693,-0.21292,-0.52765,-0.68254,0.1852,0.37397,0.02004,-0.3874,0.13712,0.27293,-0.13824,0.16779,0.20825],[-0.42231,0.51894,0.3169,0.02747,0.44836,0.12599,0.59672,-0.22149,0.27371,-0.26307,-0.25445,0.23643,-0.78986,0.43296,0.02439,-0.13675],[-0.39447,0.24626,-0.10724,-0.28918,-0.16661,0.48636,-0.52405,-0.60194,-0.2135,0.44782,-0.45487,-0.46959,0.1739,0.69578,0.80253,-0.25279],[-0.01361,-0.26,0.05445,0.40674,0.53147,0.12513,-0.4304,0.64197,-0.57778,-0.38473,0.65891,-0.13446,-0.41209,-0.43265,-0.31778,0.08178],[-0.24534,-0.20134,-0.1933,-0.50425,-0.28219,0.07583,0.33069,-0.22597,0.29119,0.35499,-0.19562,-0.59614,-0.13195,-0.49026,-0.27075,0.65169],[-0.17304,0.23328,-0.47049,0.57061,-0.40162,0.09911,0.01415,-0.25494,-0.07152,0.56432,0.44252,0.46491,0.09293,-0.59291,-0.50774,-0.39792]],"head.bias":[0.1042,-0.19647,0.00149,0.12158,0.00711,-0.03442,-0.1015,-0.17268,0.1153,0.13581]}