{"cls_token":[[[-0.01944,0.05465,-0.0474,-0.06096,-0.00862,0.00804,-0.03195,0.01661,0.0233,-0.01219,0.03347,0.00048,0.00679,0.00806,0.03357,-0.06962]]],"pos_embed":[[[0.01269,0.01219,-0.04731,-0.08615,0.03787,-0.00381,-0.03223,0.02043,0.01755,-0.02132,0.04999,0.01317,-0.02057,-0.00658,0.02784,-0.07593],[-0.0121,-0.03705,0.09181,0.01571,-0.05394,-0.23327,-0.12211,-0.00455,-0.02162,0.04882,0.08028,0.02209,0.22976,0.01958,-0.00038,-0.09267],[0.0009,0.05668,-0.0237,-0.09538,-0.03067,0.08582,0.05431,-0.17578,0.25921,-0.04439,-0.15237,-0.23149,-0.05762,-0.0358,0.31595,-0.10326],[-0.27619,0.05434,-0.32594,0.43774,-0.00019,0.11221,0.0176,0.09789,0.22805,-0.05684,-0.11444,-0.05625,-0.29659,-0.06513,0.22035,-0.0428],[-0.09841,-0.0856,0.07204,0.16712,-0.04777,0.06471,0.00383,0.22782,0.06589,-0.1259,-0.03089,-0.1396,0.07699,-0.25527,0.23976,-0.06834],[-0.05191,-0.06008,-0.1273,-0.05103,-0.05541,-0.30668,-0.14618,0.07414,-0.05429,0.18016,0.50136,0.21559,-0.0214,0.19255,-0.05076,-0.14466],[-0.29001,-0.25146,-0.1418,0.17552,0.35404,0.06241,0.42657,0.27685,-0.36018,0.2921,0.13283,0.35037,-0.03622,-0.7579,-0.47746,0.24127],[0.01029,-0.76642,-0.15182,-0.27235,0.47794,-0.58071,0.31118,-0.20747,0.54271,0.37533,0.23807,0.66897,-0.21707,0.2102,-0.8337,-0.32498],[0.01943,-0.01321,0.07431,-0.1812,-0.0081,-0.41588,-0.12064,0.06806,-0.32951,0.20594,0.72078,0.12176,0.19329,0.09674,-0.45346,0.17685],[0.12622,0.07302,0.12395,-0.01684,-0.00973,0.10335,-0.04227,0.05251,-0.12399,-0.04698,-0.32724,-0.20434,0.39062,-0.16383,0.31253,-0.00651],[-0.12782,0.44754,-0.37589,0.46055,-0.60996,0.25265,-0.59218,-0.45192,-0.32526,0.39497,-0.28182,0.18269,-0.16961,0.64751,-0.00133,0.63394],[0.43019,0.64417,0.18475,-0.52012,0.08628,0.80564,0.24008,0.22105,-0.3889,-0.31299,-0.34619,-0.60395,-0.3759,-0.75405,0.11392,0.82974],[-0.36084,0.03318,0.00566,0.27908,-0.03235,0.12075,0.15908,-0.1399,0.13079,-0.21564,-0.3058,0.05837,-0.09116,0.0131,0.05202,0.06357],[-0.06532,-0.06157,-0.01683,0.11767,-0.04635,-0.231,0.01014,0.02471,0.08425,0.01078,0.15543,0.0027,0.20093,0.05174,0.01546,-0.15119],[0.56203,0.01379,-0.07309,0.03407,0.12593,-0.21405,0.14191,-0.24905,0.06333,-0.09604,-0.02316,-0.40946,-0.1813,0.15674,0.1074,-0.29261],[0.25076,0.11248,-0.01965,-0.28024,0.00737,0.03807,-0.03751,0.1192,0.08389,-0.28834,0.0105,-0.13197,-0.13379,0.34744,-0.15021,-0.07592],[0.12904,-0.06697,0.17369,-0.13837,0.03228,-0.18911,0.01855,0.03383,-0.0722,0.13186,-0.09937,-0.01458,0.12149,-0.26184,0.07588,-0.01358]]],"patch_embed.proj.weight":[[-0.0101,0.01614,-0.01845,0.09538,0.00534,0.01763,-0.03081,-0.04063,-0.03651,0.0332,-0.04503,-0.01361,-0.0821,-0.00084,0.04835,0.00458,0.04376,-0.00089,-0.00403,0.11538,0.00791,0.02949,-0.1119,-0.04608,0.01442,0.0324,0.03135,0.05456,-0.03726,0.06061,0.04643,0.07058,-0.01307,-0.06379,0.03591,0.10881,0.06698,-0.04554,0.05797,0.08227,0.02727,0.0752,0.00933,-0.00868,0.08442,0.08127,0.07253,-0.02025,0.02781,-0.06496,0.0219,0.0081,-0.08661,-0.00239,-0.08525,0.07424,-0.09377,-0.04269,-0.06876,-0.07293,0.01922,-0.0663,-0.00103,-0.07985],[-0.03178,-0.08621,-0.10524,0.00034,-0.14782,0.02877,0.03635,0.01733,0.05187,-0.08591,-0.01427,0.00802,0.03639,-0.0455,-0.00532,0.05066,0.02542,-0.0332,-0.04405,-0.08566,0.0328,0.01212,-0.00686,0.03923,-0.06741,-0.06729,0.07437,-0.08395,0.00147,0.09331,0.05953,0.02061,-0.0295,-0.05802,-0.10119,0.07209,0.05958,0.03093,-0.08624,0.0912,-0.01076,0.01908,-0.00734,-0.02024,-0.0479,0.00456,0.11878,-0.10675,0.1197,-0.02796,0.08253,0.0655,0.06108,0.02001,0.01827,-0.00739,-0.03003,0.03858,0.0206,0.07543,-0.05847,0.11888,-0.03393,0.04397],[0.03106,-0.03668,0.09219,-0.11425,0.10671,-0.07397,-0.0142,0.01346,0.07475,-0.04149,0.01217,0.08512,-0.01649,-0.03819,0.0279,-0.04078,-0.04077,-0.00502,-0.10091,0.02653,-0.08761,0.05328,-0.01448,0.12646,0.03343,0.05081,-0.14514,0.10396,0.00684,0.01148,0.04573,-0.02709,-0.11744,-0.14887,0.05621,-0.02177,-0.05846,-0.05019,0.02214,0.05707,0.13248,-0.01398,-0.0399,0.09036,-0.08644,0.07585,-0.0401,0.08837,0.00402,0.02838,0.10378,-0.04998,-0.02701,0.06397,-0.11632,0.029,0.04926,0.01737,-0.05741,-0.04184,0.03304,-0.03523,0.01999,-0.01375],[-0.02395,-0.04547,-0.04999,-0.08982,0.00648,-0.14849,-0.06262,-0.00557,0.01286,0.01595,0.10601,-0.03699,0.06055,-0.00411,0.01506,0.0812,0.08891,0.02103,-0.00638,0.00051,-0.06521,0.00835,-0.10297,0.06854,0.06887,-0.00938,0.07289,-0.03245,0.10289,-0.03724,0.09528,0.05006,0.04374,-0.01661,-0.01224,0.13271,-0.04727,0.05237,-0.01083,0.02887,0.00612,0.0266,-0.07275,0.09405,-0.02116,0.0649,-0.03936,0.13129,0.03706,0.03395,0.09275,-0.10301,0.00704,-0.02647,-0.02188,-0.02257,0.08932,-0.0449,-0.05664,-0.11447,-0.04126,-0.09538,-0.02869,-0.08237],[0.02648,-0.01068,-0.07303,0.02847,-0.11298,-0.06183,-0.00532,-0.0474,0.01494,-0.04727,0.1015,-0.05003,0.02867,0.05803,0.0156,-0.03459,-0.09485,0.07444,0.02575,-0.05356,-0.06656,-0.05468,-0.02432,0.04361,0.05603,0.03735,-0.03026,-0.00957,-0.03718,0.00152,0.02909,-0.17867,0.02543,-0.09537,0.04517,-0.01676,0.06776,0.03473,0.06604,0.01078,0.11736,0.02578,0.13128,-0.062,-0.07683,-0.10956,-0.03526,-0.14095,0.06621,0.0939,0.04448,0.07767,0.04168,-0.00958,0.14584,-0.03145,0.0553,0.01265,0.04981,0.02538,0.05734,-0.02678,0.04121,-0.04505],[0.06539,0.08392,-0.05908,0.02682,-0.13165,-0.0351,0.00784,-0.12577,0.02038,0.01911,0.10757,0.00177,-0.00745,-0.00292,-0.00416,0.03092,0.02026,0.00588,0.09586,-0.07276,0.08462,0.01384,0.02209,-0.15238,0.04528,0.02842,0.03816,0.00479,-0.06065,-0.06474,0.06446,0.09099,0.10137,-0.11049,-0.00436,0.01086,-0.03274,0.04456,-0.05304,-0.06639,0.08355,0.04902,0.06581,0.01854,-0.02738,0.0266,-0.10559,0.07233,-0.05712,0.01465,-0.01132,-0.00761,-0.05881,0.03853,-0.00821,-0.0032,-0.02112,-0.0636,0.00817,0.06338,0.03011,-0.02642,0.06245,0.07559],[-0.09014,0.04225,0.05724,-0.0405,0.07872,-0.01661,0.02613,0.1167,-0.00542,0.00132,-0.04831,0.07177,0.03077,-0.03202,0.05567,-0.00037,-0.07174,0.0282,0.08863,-0.01876,-0.00723,0.0673,0.05225,0.07782,-0.06899,-0.03693,-0.05294,0.04078,-0.02097,0.04414,-0.00091,0.05849,0.00941,-0.0672,0.01255,0.08605,-0.01273,-0.08174,-0.04221,-0.00043,-0.01542,-0.09691,-0.00197,-0.0797,-0.07247,-0.01422,0.05732,-0.0541,0.06886,0.01791,0.00774,0.00904,0.03131,-0.00807,-0.03157,-0.01448,-0.09619,0.04908,0.00286,-0.04954,0.07203,-0.06018,-0.00796,-0.00969],[-0.15399,-0.0259,-0.06374,-0.03202,0.03967,-0.10613,0.11091,-0.08611,-0.06315,0.09028,-0.02703,0.04455,0.01982,0.03472,-0.02681,-0.04844,-0.03474,0.05264,0.10492,0.03818,0.08666,0.08488,0.07563,-0.03152,-0.11897,-0.0805,0.09481,0.09133,0.03459,0.15509,-0.0579,0.02988,0.00616,0.02336,0.02979,0.03294,-0.03044,0.13324,0.11709,0.05856,-0.0096,0.04996,0.04557,0.06728,0.07929,-0.01873,-0.03546,-0.07059,0.01694,-0.11372,0.019,-0.09575,0.0442,-0.04164,0.08268,-0.0534,-0.0344,0.00876,-0.03636,0.05028,-0.13706,0.02075,-0.01735,-0.16176],[0.04072,0.00782,-0.01494,-0.11276,-0.10078,0.00155,0.07912,-0.05302,0.02791,-0.03647,0.00339,-0.02087,-0.00011,0.00758,-0.00033,-0.00783,0.03423,0.13625,0.0035,0.06344,0.08019,0.03357,0.04863,-0.01283,-0.01856,0.02895,0.0241,-0.09015,0.00821,0.10458,0.08813,0.06145,-0.05429,-0.10285,-0.10695,0.04006,0.05808,-0.11845,0.00152,-0.03848,0.05528,0.03016,-0.0405,-0.04563,-0.10491,0.03889,-0.07406,0.00686,-0.02244,-0.04887,0.00074,-0.04261,-0.03874,-0.03316,-0.04634,-0.09798,-0.06552,0.06588,-0.0704,-0.04409,0.06189,-0.04297,0.03234,-0.04164],[-0.0011,0.1173,-0.03048,0.04309,-0.07841,0.04249,-0.05566,0.11305,-0.06087,0.00096,0.03056,-0.04993,-0.0973,0.01881,0.01987,0.00422,-0.1143,0.11086,-0.02891,0.05363,-0.10708,0.08389,0.02749,-0.01882,0.04157,-0.07934,-0.1173,-0.01943,-0.03654,-0.13155,0.03163,0.07389,-0.11847,0.02513,0.03314,-0.13617,0.06719,0.05608,0.00785,0.11373,0.02237,0.01874,-0.07701,0.01329,0.02246,0.00785,-0.01422,0.06116,-0.0996,0.04161,-0.03821,-0.02308,0.04327,-0.00491,0.1048,-0.01075,-0.08229,-0.03663,0.07765,-0.03053,-0.00642,0.01009,-0.07763,-0.01159],[0.01794,0.03128,0.02271,-0.07232,-0.08733,0.00352,0.00112,0.06394,0.08855,-0.06362,0.02412,0.0663,-0.05898,0.04691,0.02679,0.01014,0.05129,-0.00357,0.00012,-0.04078,-0.04648,0.09381,0.01477,0.04487,0.07192,0.05685,0.05646,0.04594,-0.08353,-0.06044,-0.03545,0.07898,-0.0395,-0.08372,-0.12857,-0.00714,0.02191,0.07564,0.02794,-0.04317,-0.0397,-0.00483,-0.02334,0.02585,-0.10629,-0.08744,-0.09375,0.02463,-0.113,0.01659,-0.07072,-0.12393,-0.03983,0.02029,-0.02887,-0.10539,-0.04578,-0.02003,-0.07776,-0.02574,-0.07306,-0.07052,-0.00035,-0.04248],[0.04769,-0.04286,-0.01389,-0.06739,0.04508,0.00326,-0.05404,0.0507,0.09816,-0.05898,-0.04102,0.01778,0.05504,-0.09291,0.03182,-0.03781,0.03935,0.03157,0.09956,-0.03794,0.00903,0.07166,-0.08539,0.073,-0.06483,-0.11249,-0.03128,0.09251,0.06498,0.01135,0.06317,-0.00172,0.08451,-0.04794,0.01419,-0.06707,-0.04272,-0.09553,-0.02333,-0.0404,-0.02982,0.02984,-0.07964,-0.07424,-0.1099,0.06685,-0.09851,0.08557,0.10523,-0.11874,0.02257,-0.02454,-0.028,-0.10268,-0.06216,-0.03332,-0.04609,-0.00539,0.04391,-0.01754,0.11739,0.08562,0.04413,0.1182],[-0.06746,-0.06521,-0.10405,-0.03568,-0.00734,-0.10526,-0.01063,-0.05794,-0.06223,0.06311,0.0082,0.02251,0.0412,-0.08039,-0.03114,-0.03828,-0.10436,0.00204,-0.00955,-0.01721,-0.07285,-0.08586,-0.01369,-0.02262,0.02492,0.00293,0.02239,0.03168,-0.04803,0.03424,0.07072,-0.10649,-0.0803,-0.11122,-0.0543,0.03487,-0.00913,-0.05945,-0.05458,-0.04397,0.09084,0.11759,-0.0138,-0.07762,-0.04367,-0.01645,-0.09861,0.01578,-0.04281,-0.06959,-0.04563,-0.03106,0.0353,-0.02005,-0.05533,-0.05604,0.0373,0.00556,0.03699,0.00753,-0.01585,0.02981,-0.02577,0.04379],[0.04404,-0.0112,0.07091,0.05921,0.0013,-0.07362,-0.02089,-0.01252,-0.07064,0.04713,0.07983,-0.00882,0.01952,0.01847,0.06145,-0.00095,0.02105,0.06718,0.01974,0.09951,-0.00382,0.05913,-0.04721,0.00781,-0.05312,0.05581,-0.02354,0.12009,-0.08958,0.07391,0.0259,0.03642,0.05769,-0.0456,0.0657,-0.00622,-0.04854,0.00899,0.01465,-0.00975,-0.04636,0.03707,-0.06683,0.01792,-0.02404,-0.06616,-0.08072,-0.09485,-0.03004,0.06569,-0.02739,-0.04984,-0.04691,-0.07251,0.03034,-0.03936,0.00408,0.01648,0.01286,0.10167,-0.01171,0.04113,-0.02351,0.02338],[0.0132,0.10168,-0.07759,0.00908,-0.05027,-0.07647,-0.02705,-0.06264,0.01158,-0.00365,-0.05113,0.04785,-0.11301,0.09695,-0.03259,-0.02468,-0.04336,0.09758,0.04357,-0.01371,-0.03752,0.0389,-0.01295,-0.09231,0.01467,-0.02637,-0.04834,0.1163,-0.11283,-0.05474,-0.05051,0.00234,-0.0157,-0.07786,0.06256,-0.03786,0.01676,0.10409,-0.03768,0.07435,0.04887,0.06752,-0.11019,-0.01936,-0.05785,-0.02674,-0.00182,0.10266,0.05373,0.05656,-0.02018,0.07542,-0.03668,0.03154,0.07374,0.026,-0.07432,-0.01919,-0.02308,0.01994,-0.0002,0.04669,-0.01188,0.01668],[-0.03178,0.04892,0.10142,0.07498,-0.05972,0.08046,0.03962,0.01116,-0.013,0.02358,0.05695,0.05968,-0.08432,0.08262,0.0205,-0.04032,-0.01975,0.02191,0.001,0.0845,-0.11931,0.06684,0.03043,-0.04715,-0.06984,-0.04652,0.03603,0.00595,0.00567,-0.02979,0.01986,0.01428,-0.02885,-0.06105,0.0055,-0.02133,-0.08382,-0.04071,-0.05377,-0.06272,0.02607,0.00599,-0.07734,0.02213,-0.09824,0.05885,-0.04976,0.03776,-0.03445,0.08322,-0.01706,-0.07386,0.08969,-0.08833,0.08814,-0.07627,-0.01178,0.07968,-0.04155,-0.04027,0.02219,-0.02964,-0.02573,-0.02876]],"patch_embed.proj.bias":[0.0078,-0.02238,-0.12185,0.09689,0.04917,-0.01432,0.09704,-0.01688,-0.04738,0.07557,0.01108,0.12731,-0.09702,-0.10439,0.01347,0.02055],"blocks.0.norm1.weight":[1.06196,1.0569,0.98243,1.06465,1.14242,1.06802,1.00908,0.97955,1.00717,1.01684,1.02704,1.08745,1.07961,1.10225,1.04267,1.13573],"blocks.0.norm1.bias":[0.01691,-0.01056,0.01302,-0.01944,0.00724,0.01019,-0.01487,0.01165,-0.00114,-0.02533,0.02383,-0.01908,0.01002,0.00425,-0.0018,-0.0176],"blocks.0.attn.qkv.weight":[[-0.34079,0.04207,-0.22925,-0.02046,-0.02566,-0.02082,-0.09313,-0.27453,0.13938,-0.16983,0.06654,0.19169,0.28986,-0.08559,0.07817,-0.09142],[0.30299,0.06797,-0.21899,-0.08053,0.07171,-0.07613,-0.01535,0.33417,0.10452,0.095,0.2485,0.144,-0.36262,-0.09634,0.09385,-0.07476],[0.09903,0.21163,-0.00387,-0.1853,0.14952,-0.07339,-0.2456,-0.02977,0.14101,0.12037,-0.04892,-0.15892,-0.27089,-0.21333,0.08644,-0.26528],[-0.18515,-0.31857,0.20249,-0.21198,-0.05755,-0.12149,0.19444,-0.03322,0.05781,-0.15083,0.10256,0.04318,0.35403,-0.24857,-0.00098,0.02025],[0.1047,0.23345,-0.32765,-0.32526,0.39426,0.26262,-0.24779,0.07065,0.09296,-0.29981,0.04161,0.33493,0.11564,0.03828,0.19228,-0.3189],[0.18766,-0.06668,0.04894,-0.07388,0.14034,-0.03167,0.1201,0.05484,-0.14311,-0.08638,-0.26512,-0.19535,0.24932,0.11147,0.15284,0.2866],[-0.18662,0.0144,0.03196,0.03479,0.0646,0.34834,-0.17729,0.22117,-0.07354,-0.13626,-0.2419,0.07676,-0.26185,0.20785,-0.03382,0.08642],[0.18497,0.17967,-0.03475,0.1657,-0.07424,0.30529,0.14013,0.43077,-0.16769,0.07018,0.17337,-0.31848,-0.38652,0.41615,-0.2094,0.19402],[0.0303,0.21687,-0.20414,0.14744,-0.0109,0.06167,0.01444,0.02622,0.06757,-0.20299,0.23777,-0.04463,0.38239,-0.20806,-0.07084,0.1468],[-0.22304,0.39184,0.15972,-0.25228,-0.24287,0.15115,-0.26148,0.13939,-0.14072,0.0307,-0.08349,0.11669,0.26191,0.10791,0.19745,-0.25128],[-0.06909,-0.29277,0.07032,0.02469,0.08461,-0.0002,0.1958,-0.18494,-0.23495,-0.01508,0.06309,0.16681,0.01108,0.00151,-0.23932,-0.0426],[0.25151,0.09062,0.09648,0.1978,0.24634,0.15449,-0.10241,0.26657,-0.25362,-0.14936,0.15042,-0.06361,-0.20528,0.19946,0.04352,0.01372],[-0.10603,0.05885,0.20286,-0.1287,-0.16406,0.09519,-0.08402,0.18934,-0.00701,-0.2437,-0.28678,-0.21866,0.11898,-0.12739,-0.22973,-0.12233],[0.19569,-0.24062,-0.06768,0.25809,0.23428,-0.1586,-0.00966,0.04508,0.0547,-0.15187,-0.18801,-0.09146,0.09554,0.25117,-0.15769,-0.00836],[-0.01053,-0.24944,0.19099,0.042,0.00106,0.23636,-0.04032,-0.02076,0.04252,-0.00146,-0.17072,0.17475,0.17852,-0.1094,-0.15301,0.19575],[0.11489,0.13194,-0.18572,-0.18075,0.14432,0.32483,0.0493,-0.15629,-0.06018,-0.04162,0.00822,-0.23886,-0.27009,0.2326,-0.1093,-0.04924],[-0.19501,0.15193,0.15224,-0.00985,0.31026,0.03721,0.14919,-0.07302,0.24363,0.12732,-0.17068,0.17256,0.0932,-0.10166,-0.04558,0.33226],[-0.2206,-0.12237,-0.15606,-0.08087,-0.21442,0.02024,0.09906,-0.12843,-0.14087,0.21814,0.18919,0.18665,-0.29253,-0.10899,-0.01352,0.2034],[0.12091,-0.13886,-0.245,-0.15295,-0.17454,-0.09977,0.22765,-0.19684,0.19078,0.09693,-0.15328,0.11888,-0.01333,0.2386,-0.19272,-0.10193],[-0.13554,-0.30351,-0.07826,0.24988,0.31611,0.21,0.21035,-0.0559,0.13717,-0.19172,0.1024,0.3636,0.04488,0.11959,-0.03577,-0.14631],[0.0283,0.26591,-0.26331,-0.08087,0.01918,0.1025,-0.30111,-0.09531,0.1184,-0.26297,-0.06528,-0.1255,0.08138,0.15514,0.3414,0.07873],[-0.24121,-0.21744,-0.18638,0.04089,0.12245,0.02828,-0.08805,0.18839,-0.08766,0.16365,0.19918,-0.02728,0.0792,-0.33064,-0.18159,-0.35318],[0.1187,-0.30797,0.12517,-0.13049,-0.10265,-0.0132,-0.07079,0.17223,-0.07529,-0.05783,0.09454,0.04152,0.22809,0.04409,0.02157,-0.21965],[0.10184,-0.29706,0.25724,-0.1469,0.0021,0.00147,0.2182,0.11467,0.15036,-0.26517,0.24268,-0.2777,0.17741,0.12325,0.01111,0.21519],[0.17994,-0.2731,0.07733,0.18382,-0.15523,0.2017,0.21325,-0.12305,0.19129,-0.00466,-0.19194,-0.28435,-0.19707,-0.1088,0.10275,-0.07505],[-0.18422,0.13021,0.10328,0.1524,-0.03271,0.12942,0.18495,-0.1522,0.18021,-0.02412,-0.15962,-0.16446,-0.01963,-0.20731,0.01779,-0.02032],[-0.11434,-0.33003,0.04045,0.17903,0.09793,0.07359,-0.23178,0.07132,0.21408,-0.17035,0.18492,0.23286,-0.1729,0.14255,-0.03561,-0.20051],[-0.10513,0.11023,0.03531,-0.2683,0.0201,-0.10262,0.037,-0.05994,0.11396,0.11603,-0.02771,0.20366,0.04574,0.24632,-0.14632,-0.21844],[-0.01341,-0.06471,0.09561,0.05508,-0.18714,0.02617,0.12695,-0.04839,0.24693,-0.35654,-0.12575,-0.45027,-0.0607,-0.09113,0.22429,-0.22878],[-0.03033,0.05501,0.18978,0.00759,0.13278,-0.15971,-0.11227,-0.18546,0.07382,0.02065,-0.16971,-0.02514,0.07347,0.12135,0.31521,0.02271],[-0.07893,-0.03899,0.10374,-0.28076,-0.13904,0.00651,-0.13511,-0.10918,-0.1827,-0.14487,0.19775,-0.36,0.24511,-0.08095,0.26954,-0.17154],[0.23767,-0.12344,0.43805,0.18092,0.03912,0.22707,-0.23794,-0.18453,-0.27003,0.05393,0.12465,-0.15303,-0.07344,-0.18428,0.19693,-0.18974],[-0.23601,0.31924,-0.01767,-0.17541,0.11027,-0.04987,-0.23705,-0.06794,-0.2743,-0.10279,0.26418,-0.06593,0.16705,0.19115,0.07808,0.23795],[-0.16671,-0.01273,0.1111,-0.28524,0.17936,-0.19395,0.15444,-0.17474,0.02644,-0.12166,-0.03392,-0.09601,0.00956,0.16439,-0.0289,-0.03137],[-0.22547,0.27658,-0.03642,0.2494,-0.32971,-0.1137,-0.01339,-0.1466,0.18463,-0.06761,-0.24214,-0.07105,0.00437,0.18704,0.14432,0.08603],[-0.18687,-0.02415,-0.19643,0.04413,-0.03682,-0.03574,-0.13939,0.15229,-0.20038,-0.0408,-0.25034,0.05481,-0.21858,-0.03963,-0.03343,0.31005],[0.17012,0.09692,-0.01115,0.04104,-0.19041,0.14487,0.03779,0.10144,0.1784,-0.08376,0.09661,0.08,-0.12106,0.21733,0.13179,0.1347],[0.06253,-0.10687,-0.08326,-0.0382,0.07523,-0.12197,0.09565,0.04745,-0.15411,-0.38673,-0.20628,-0.13559,-0.10232,-0.11757,-0.11294,0.0479],[0.06127,0.12531,0.15829,0.00334,0.03139,0.21425,0.00558,0.06228,-0.31873,-0.08209,-0.04319,-0.0387,0.25448,0.1102,-0.15004,0.2793],[-0.18458,-0.1317,-0.12256,-0.08778,0.00499,0.28653,0.24393,0.086,-0.03513,-0.07714,0.05155,-0.01243,-0.25877,-0.33305,-0.03439,0.14081],[-0.17241,-0.24174,-0.17709,-0.20302,0.20989,-0.29015,0.19331,-0.07853,0.08748,-0.14019,0.20368,0.07368,-0.12257,0.17375,0.04966,-0.05395],[-0.16881,-0.04339,-0.00949,0.2792,0.10182,0.02883,0.07163,0.04427,-0.0501,0.06725,-0.23117,0.21497,-0.0151,0.20489,0.13756,-0.04239],[0.32151,-0.12533,0.16909,-0.10543,0.15915,-0.18623,-0.16834,0.17617,-0.22036,0.25379,-0.16352,-0.13361,0.00826,-0.00616,0.06133,-0.05922],[0.00799,-0.00324,0.087,-0.18889,0.13005,0.31516,0.12979,0.16011,-0.2183,-0.10707,-0.11596,0.23835,-0.16334,-0.06733,-0.06296,0.51995],[0.10748,0.2069,0.19974,-0.18786,0.02113,0.03651,-0.00315,-0.05325,-0.08355,0.00472,-0.18842,-0.10858,0.2098,-0.1454,0.12575,0.24419],[0.16767,-0.03072,-0.15571,-0.16286,0.408,0.00985,0.0853,0.14185,-0.15446,0.08262,0.18357,0.16167,-0.16861,-0.15218,0.18573,0.27504],[0.19716,0.02032,-0.03778,0.26087,0.2418,0.13929,-0.10044,0.26455,-0.1054,0.2401,-0.20627,-0.12273,-0.24488,0.01923,-0.02718,-0.13001],[0.29525,-0.05321,0.09283,-0.312,-0.09818,0.08977,-0.07945,0.18489,0.18642,-0.06955,0.23078,-0.19134,0.16019,0.25589,0.0849,-0.17282]],"blocks.0.attn.qkv.bias":[0.26545,0.24231,0.15193,0.16169,0.10382,0.17503,-0.16622,-0.25564,0.11439,0.17774,-0.07371,-0.18319,-0.28125,-0.13084,-0.11023,-0.25255,-0.21365,-0.19971,-0.02145,-0.04116,-0.09641,-0.25161,0.09146,-0.18183,0.08897,0.16037,0.03588,-0.16292,-0.02919,0.2232,-0.12773,0.24359,-0.12121,0.16238,0.08849,0.15729,0.06334,-0.02987,-0.01143,-0.14891,-0.05667,0.13044,0.10595,-0.08661,-0.03278,-0.21049,-0.05579,0.15987],"blocks.0.attn.proj.weight":[[0.17322,-0.06495,-0.21827,0.08507,-0.17632,0.2544,-0.08731,0.32848,-0.16161,0.27662,-0.1903,0.21439,-0.11575,0.14635,0.18734,-0.19831],[0.19595,0.03026,-0.15436,-0.08287,-0.23712,-0.15815,0.07031,0.27142,0.03869,0.1534,-0.02228,-0.14934,-0.25002,0.13983,-0.25202,0.35528],[-0.04199,-0.25017,0.20941,-0.06668,-0.05025,0.03366,-0.02546,0.01313,0.05764,0.37705,0.01776,-0.09329,-0.04193,-0.13754,-0.17187,-0.05232],[0.14009,-0.15344,0.10148,-0.18227,0.24534,0.18051,-0.05848,-0.30011,0.06755,-0.2761,-0.14392,0.25242,-0.03981,0.05529,0.02695,0.06642],[0.05467,-0.22247,-0.02421,-0.09298,0.20206,-0.23758,-0.25877,0.00817,0.11836,0.00679,-0.12659,-0.0874,0.21516,0.01637,0.0884,0.27691],[-0.00175,-0.21099,-0.11092,0.26918,0.13099,-0.19387,-0.09697,0.03052,-0.03927,-0.13893,0.03221,0.14617,-0.1556,-0.0228,0.09874,0.10032],[0.26437,-0.03282,-0.08038,0.14295,0.09104,0.23392,-0.16383,-0.11645,0.14689,0.16817,0.10712,0.04193,-0.08358,0.00474,-0.12616,0.16107],[-0.18688,0.1506,-0.27492,-0.19835,0.13855,-0.11493,-0.17844,0.19034,0.20654,-0.0415,-0.16484,-0.28946,-0.0146,0.12615,0.14248,-0.0227],[0.20905,0.08266,0.27131,-0.00705,-0.16964,-0.19803,-0.15058,0.05827,0.14995,0.20821,-0.30306,0.17887,0.2894,0.16135,-0.07331,0.05868],[0.17343,-0.06377,-0.03104,0.09575,-0.03856,-0.18041,0.10853,-0.21389,0.1202,-0.22867,0.16146,0.03897,0.0349,-0.21996,0.11392,-0.03491],[-0.17333,0.02535,0.07019,0.00512,0.20538,0.14854,-0.09339,0.12049,0.05845,-0.22295,-0.22518,0.06095,0.12069,-0.08657,-0.06774,0.15698],[0.0037,-0.16989,0.18327,0.16446,0.0915,-0.12319,0.2739,-0.01759,0.08927,-0.35218,0.22765,-0.21297,0.10686,0.22262,0.15035,-0.01288],[-0.13625,0.12634,-0.08438,-0.22365,-0.13167,0.00027,-0.12126,-0.00622,-0.14326,0.27962,0.0221,0.27428,-0.00813,0.21575,0.05737,0.11513],[0.28229,-0.12126,-0.14869,-0.09045,0.08044,-0.12577,-0.00604,-0.25713,0.06337,-0.19567,0.25876,-0.06171,0.02098,0.00207,-0.10403,-0.17815],[0.29913,-0.09392,-0.21035,-0.28084,0.28985,0.08137,0.03011,0.3077,-0.15807,0.14734,0.06808,0.08917,0.27153,-0.05241,-0.2515,0.16841],[-0.07805,0.22647,-0.20442,-0.15778,0.24279,0.04917,0.1615,0.13675,-0.24345,0.04852,-0.02595,0.16198,-0.30651,0.05802,-0.05587,-0.14206]],"blocks.0.attn.proj.bias":[-0.17008,-0.23311,0.21808,0.13918,-0.02775,0.03811,0.07049,0.02098,0.21984,-0.08216,-0.17199,0.0329,0.17333,0.05528,0.18302,0.01547],"blocks.0.norm2.weight":[1.01096,1.19612,0.96655,1.06792,1.12141,1.13019,1.13132,1.13625,0.95103,0.97802,1.04173,1.0653,1.00407,1.10051,0.92785,1.1146],"blocks.0.norm2.bias":[0.01261,-0.00524,-0.03956,-0.03824,0.00595,-0.01967,-0.0189,0.03111,-0.04916,0.01634,-0.01083,0.02864,-0.02837,0.00372,-0.03637,-0.02433],"blocks.0.mlp.0.weight":[[-0.05212,0.21684,0.13591,-0.10415,0.25786,-0.15651,-0.03746,0.11722,-0.03436,0.01418,-0.09981,0.00583,-0.25025,0.03794,-0.21395,0.23086],[-0.0971,-0.24892,-0.16827,0.14684,-0.24154,-0.16376,-0.01912,0.28247,-0.14909,-0.084,-0.03059,0.11428,0.19641,-0.00053,-0.10333,0.17207],[0.32423,0.18492,-0.01667,-0.11661,-0.00822,0.31386,-0.45386,-0.26955,-0.20924,-0.0515,0.09754,-0.27961,-0.07645,-0.00397,0.19334,0.54266],[-0.08402,-0.06162,0.09784,0.03495,0.05985,0.15598,0.1677,0.17576,0.22552,0.19931,0.13445,-0.07831,-0.26203,-0.09012,0.12036,0.10937],[0.16858,-0.14876,-0.2207,0.30033,0.10316,0.30944,0.1677,-0.32775,-0.0988,-0.02863,0.2031,0.19921,0.12944,0.17359,0.13159,0.05844],[-0.17606,0.06705,-0.0376,0.01746,0.18836,0.03569,0.13678,-0.09207,0.04739,-0.20454,0.09349,-0.23731,0.11211,-0.2192,-0.209,-0.05346],[0.11393,0.06122,-0.12363,0.12379,0.02037,-0.12739,0.13379,-0.24701,-0.01994,-0.0924,0.01144,0.14482,-0.09852,0.08112,0.16032,0.07035],[0.16383,0.05183,-0.05856,0.28651,0.05564,0.17671,-0.09745,0.24445,0.02661,0.15521,0.1455,0.03524,-0.24263,0.17217,-0.17992,-0.12388],[0.12289,-0.10356,-0.31139,-0.00131,0.01085,-0.01743,-0.22034,-0.02714,-0.04275,0.05536,-0.26631,0.20361,0.13737,0.38211,-0.08729,0.34044],[0.20274,-0.17285,0.19362,0.3067,0.11233,0.11744,0.09433,0.0725,-0.07893,0.34308,0.19137,-0.12663,0.08493,-0.11155,0.22193,0.1841],[-0.19722,0.5758,0.09814,0.15734,0.11164,0.1412,-0.06724,-0.10825,-0.12912,-0.11474,0.10264,-0.19142,-0.09252,-0.40814,0.10194,0.07012],[0.12089,-0.18747,0.23185,0.04795,0.16035,-0.00389,0.10132,-0.07056,0.06209,-0.18855,0.25666,-0.18112,0.14233,-0.0414,0.08345,-0.11774],[-0.06197,-0.19922,-0.01259,-0.11608,-0.22188,-0.08296,-0.2779,0.07417,-0.19698,-0.05502,0.19253,-0.07572,-0.17989,0.219,0.12326,-0.2001],[0.01419,0.43561,0.19713,0.08743,0.06482,-0.12283,-0.1018,-0.04082,-0.07223,0.16471,0.14796,0.58344,0.11058,-0.12668,0.02869,-0.08698],[-0.20876,-0.02959,0.01126,-0.17586,0.37285,0.2533,0.15193,-0.1873,-0.09098,0.30882,-0.11428,0.15996,-0.25243,-0.03306,0.07339,0.2694],[-0.05173,0.16844,0.13954,-0.08671,0.09777,0.1726,0.36233,0.21234,-0.11846,0.11867,-0.1918,-0.03285,-0.06533,0.22338,-0.16221,0.16637],[-0.02744,-0.38672,-0.11042,0.3826,0.04228,0.25354,0.10195,0.05935,-0.2069,-0.02342,0.04291,0.2386,-0.02994,-0.03074,0.04111,-0.11744],[0.21456,0.11189,0.05215,0.18697,-0.22616,-0.13643,-0.45693,-0.37268,0.1965,0.31769,-0.1072,0.17365,0.00497,0.19205,0.12619,-0.10329],[-0.08475,0.34699,-0.00152,-0.22314,0.0423,0.12931,-0.1251,0.02143,0.1441,0.12082,-0.12955,0.09518,0.09835,0.09594,0.02927,0.06519],[0.1316,-0.00736,-0.26776,-0.00899,-0.23415,0.04936,-0.00848,-0.14826,0.02396,0.19248,-0.16387,-0.01317,0.17995,-0.0203,0.10216,0.03903],[-0.2852,-0.1392,-0.17215,-0.12167,0.22952,0.16277,-0.26883,-0.23298,0.06417,0.00877,-0.0937,-0.13983,-0.2371,0.0315,0.07968,-0.21807],[-0.16456,-0.02062,0.04025,0.001,-0.12905,-0.16022,0.13641,-0.0363,-0.07248,-0.00633,0.07264,0.0359,0.06172,0.18823,-0.09107,-0.04891],[0.02343,0.02558,-0.16039,0.14368,-0.1516,-0.1629,0.1314,-0.10019,-0.00058,0.05877,-0.04039,-0.0161,0.18107,-0.08,-0.06124,-0.03149],[0.17801,0.40159,0.15916,-0.21122,-0.04731,0.05941,0.11892,0.09189,0.22057,0.31194,0.19474,0.24307,0.10152,-0.07893,0.11099,-0.10174],[0.24919,0.0947,-0.08227,0.13568,0.23046,-0.13653,-0.01384,0.19378,0.00124,0.20832,-0.15237,-0.01619,-0.13713,0.05555,-0.19396,-0.07835],[0.09971,0.16424,0.10204,0.05703,0.69236,0.23768,0.22511,-0.19162,-0.32637,0.32177,-0.21579,-0.08191,-0.19772,-0.58286,0.14431,-0.09929],[0.22015,-0.18545,-0.06153,0.14598,-0.17559,0.27969,-0.27181,0.1877,0.21997,-0.11844,-0.23457,-0.2896,0.13772,-0.22663,-0.03789,0.07174],[0.06879,0.15896,-0.06761,-0.048,-0.05259,-0.01863,0.01514,0.09218,-0.18133,0.0554,-0.05131,-0.20725,0.20181,0.08239,0.22651,0.1646],[0.24858,0.04977,0.00031,-0.30271,0.14087,-0.19739,-0.46791,0.02816,0.02223,0.04284,-0.2622,0.00679,-0.13778,0.04042,-0.09286,0.06022],[-0.17425,0.13295,0.18393,0.10975,0.14328,0.13601,-0.15378,0.1371,-0.10367,-0.10535,-0.00442,0.09253,0.16751,-0.19059,0.18677,0.23567],[-0.17124,0.11429,0.21179,-0.28027,0.07247,0.00117,0.38856,-0.33373,-0.09918,-0.08315,-0.11339,-0.04583,-0.06286,0.16945,0.00952,0.23479],[-0.06956,0.37985,-0.32972,0.03513,-0.07656,-0.14966,-0.11695,-0.00316,0.10798,0.00739,0.32729,0.10063,-0.26029,-0.04902,-0.37239,-0.26134]],"blocks.0.mlp.0.bias":[-0.01857,-0.12053,-0.14013,0.07791,0.00259,-0.00579,0.13092,0.05987,-0.25866,-0.12772,-0.04676,0.02171,0.09249,-0.21568,-0.1422,-0.09123,-0.10362,-0.20613,-0.20454,-0.2338,-0.18365,0.124,0.0333,0.02862,0.25124,-0.22211,-0.24742,0.14989,-0.15032,0.16176,-0.02686,-0.22473],"blocks.0.mlp.2.weight":[[0.14131,-0.19881,-0.02811,0.20754,0.03312,0.00938,-0.02121,0.00745,0.05826,-0.20269,0.13759,0.10401,-0.11733,0.13599,-0.1814,0.16609,-0.00707,-0.04657,-0.06542,-0.0508,-0.03838,0.15903,0.08729,0.16878,0.09907,0.08038,0.09251,0.15076,-0.02754,0.03602,0.19703,-0.09763],[-0.03892,0.07521,0.08274,0.03801,0.08019,0.17767,-0.1212,-0.08204,0.23195,-0.05661,-0.15115,0.13981,-0.07117,-0.10181,-0.16544,0.09654,0.15012,0.20443,-0.01025,0.04717,-0.02144,-0.00993,-0.04856,0.06209,-0.18776,-0.18042,-0.01072,-0.12086,-0.10132,0.05078,0.03866,-0.17287],[0.07913,-0.01151,-0.03353,-0.09453,0.10293,-0.17631,0.02772,-0.02925,0.05776,-0.02735,-0.12509,0.14318,-0.14938,0.12768,-0.0285,-0.23732,0.01812,-0.25949,-0.0119,-0.09248,0.20083,-0.13265,-0.05497,-0.13853,0.0277,-0.02431,0.06312,-0.11539,0.24573,0.11122,-0.07585,-0.11904],[0.14446,0.12743,0.24943,-0.13383,0.17183,0.12698,-0.03742,-0.20612,0.11107,-0.03942,-0.16543,0.05327,0.00422,0.14301,-0.06005,0.22497,-0.13176,-0.11006,0.12027,-0.1181,0.10621,0.15635,-0.10274,0.10031,-0.06255,-0.00733,0.10072,0.01155,0.08546,0.10187,-0.15254,0.1649],[-0.08096,0.08868,0.09082,0.00348,-0.00941,0.02207,-0.00374,-0.24779,-0.01784,-0.09107,-0.08788,0.07583,0.21557,0.0714,0.12456,-0.0338,0.0198,-0.15322,0.01118,0.14031,-0.09413,0.07803,-0.13806,0.12503,0.02593,0.05399,-0.01556,0.10246,-0.09696,-0.08086,-0.11077,0.24829],[0.06032,0.22555,0.1046,-0.15621,-0.20052,-0.05183,0.1053,0.27211,0.0962,0.08479,-0.26812,-0.0025,-0.12908,-0.17482,0.15133,-0.08971,0.02842,0.19136,-0.1029,-0.16167,0.05284,0.06554,0.13437,0.0481,0.00634,-0.14225,0.0154,-0.13195,0.10273,-0.0643,-0.01852,0.11535],[0.01852,-0.11709,-0.19159,0.16643,0.28113,-0.06306,0.00613,0.06823,-0.01514,0.13973,0.22344,-0.15963,0.09135,-0.08009,-0.03849,0.18387,0.19292,0.18722,-0.15556,0.04745,0.02109,-0.06024,0.04003,0.1056,-0.04252,0.04448,-0.138,-0.0446,0.0402,-0.08828,-0.06448,-0.04223],[0.02272,-0.09158,0.0389,0.14386,-0.11853,-0.03145,0.05012,-0.12628,-0.2524,0.026,-0.1526,0.10056,0.15656,0.13897,0.20073,0.01896,-0.22255,0.16141,-0.1129,-0.01925,-0.01728,-0.1167,0.12548,0.15689,-0.03037,0.18277,0.09294,0.10116,-0.1041,-0.03355,0.11268,0.09374],[-0.08662,0.09478,-0.1465,0.14984,-0.08587,-0.00317,-0.2155,-0.1163,0.13147,0.04459,0.11323,0.01295,0.31541,0.02515,-0.11319,-0.13903,0.12396,0.02395,0.09056,0.06673,0.11979,-0.08808,-0.02438,-0.01573,-0.14544,0.1848,-0.04507,-0.10882,0.01034,0.04213,-0.136,-0.17978],[0.01595,-0.15088,0.09304,-0.0684,-0.22428,-0.11921,0.12519,0.09991,0.02602,0.04861,0.18728,-0.05712,0.07451,0.08019,0.02735,-0.0064,0.07303,0.12001,0.14616,-0.10152,0.18875,0.18837,0.08459,-0.08857,-0.02614,-0.19979,0.19429,-0.17972,0.06629,0.02697,-0.08592,0.20248],[-0.07045,-0.01838,0.10836,-0.04904,-0.08583,0.15577,-0.06752,0.06949,-0.0822,-0.02447,-0.17375,-0.17727,0.05791,-0.13134,0.26217,-0.27182,0.07511,-0.01473,0.12646,-0.01289,-0.09542,-0.08948,-0.03517,0.12225,0.15925,0.33674,0.13883,-0.18247,-0.05071,0.04091,0.14298,-0.09242],[-0.16959,-0.03719,-0.12264,0.11816,-0.16946,0.09816,-0.18273,0.07694,-0.1863,0.14973,-0.03097,-0.00064,0.08221,0.01446,0.05095,-0.03551,0.06999,-0.07049,0.09806,-0.15628,-0.08586,0.13329,0.08379,-0.11639,0.02887,0.25516,0.02994,0.16205,0.09617,0.13534,0.15724,-0.01763],[0.21125,-0.04631,-0.23314,0.01631,0.1019,0.09346,-0.09926,0.06623,-0.12833,-0.04932,-0.14291,0.04873,-0.03444,-0.20117,-0.02662,0.07446,0.08268,0.14014,-0.06718,-0.20219,0.21982,-0.17726,-0.07023,-0.14638,0.17481,0.08036,-0.19806,0.07404,-0.09248,-0.03126,-0.24247,0.08552],[0.04086,0.05913,-0.0656,0.07849,-0.27819,-0.15999,-0.08533,0.01634,0.08812,-0.13318,0.03238,0.16663,0.11006,-0.15888,-0.14768,-0.17775,-0.15983,0.17634,-0.00656,0.06438,-0.13124,-0.1378,-0.11377,0.12135,0.17597,0.20028,-0.01114,-0.17461,0.03538,-0.11018,-0.10586,-0.17888],[-0.27983,0.15792,0.02445,0.05557,0.1082,-0.05969,-0.1535,-0.05299,0.0092,-0.09612,0.21139,0.02971,-0.07468,0.16751,-0.12937,-0.04557,-0.08605,-0.03036,-0.17562,-0.18991,-0.03682,-0.02324,0.07889,0.0142,0.02455,0.01726,-0.10592,-0.02671,-0.22509,-0.04629,0.07455,0.02672],[0.0277,-0.05639,0.00406,-0.01557,-0.08091,-0.13364,0.04139,0.15452,-0.08468,0.04809,0.08409,-0.06424,0.18909,0.04525,-0.20964,-0.06064,0.13155,-0.01295,0.10641,-0.12627,-0.15223,-0.09573,-0.13209,-0.04133,-0.06303,0.10732,0.12626,-0.0093,0.01323,0.04677,0.00365,0.01999]],"blocks.0.mlp.2.bias":[0.05009,-0.13232,-0.11559,-0.04437,0.0317,0.01292,-0.08371,-0.08826,-0.12511,-0.10004,-0.13724,0.066,-0.06162,-0.14342,-0.10659,0.06823],"blocks.1.norm1.weight":[1.0451,1.13079,1.07187,1.11981,1.16985,1.05188,1.05038,1.04139,1.08445,1.00676,1.14422,1.0621,1.03886,1.19832,1.13884,1.06906],"blocks.1.norm1.bias":[0.00345,0.07786,0.03026,0.00101,-0.00473,0.00221,-0.02835,0.01137,0.04329,0.00494,-0.01798,-0.05616,-0.07054,0.00313,0.00271,-0.02415],"blocks.1.attn.qkv.weight":[[0.03466,-0.01281,-0.12408,0.06906,-0.0572,0.08879,-0.18783,-0.11944,0.288,-0.1603,0.00066,0.10707,0.15621,-0.32421,-0.34045,-0.08137],[-0.22525,-0.20549,0.0193,0.22064,0.05699,-0.14374,0.28496,-0.05161,-0.14826,-0.08243,0.24993,0.31514,0.28573,-0.21487,-0.16885,0.01378],[-0.24596,-0.06897,0.27585,-0.06614,0.17874,-0.13671,0.10605,-0.19152,-0.33138,0.30739,0.2655,-0.19964,-0.14252,0.04652,-0.03704,-0.0119],[-0.21861,-0.20752,-0.0033,-0.1677,-0.02779,0.22724,0.13705,-0.28595,-0.15626,0.25384,0.14549,0.08924,0.25328,-0.02084,0.28213,0.19251],[-0.31756,0.0384,0.16459,-0.12483,0.20311,0.12206,-0.16273,-0.0135,-0.04024,0.32071,0.26777,-0.33195,0.18498,0.2808,0.24237,-0.20549],[-0.08835,-0.17879,0.12896,-0.16262,0.01736,-0.18659,-0.03643,-0.15621,0.23387,-0.17849,-0.08552,-0.17436,-0.02904,0.12623,-0.0831,-0.02893],[-0.4086,-0.0273,-0.19463,-0.10557,-0.0028,0.03187,0.21494,0.24528,0.28602,-0.01476,-0.06235,-0.00036,0.30258,-0.20208,-0.09638,0.07196],[0.01142,0.00624,0.11247,-0.00144,0.13543,0.10051,-0.26506,0.30873,0.09233,0.05411,0.10555,-0.06189,0.25921,-0.384,-0.03293,0.156],[0.13605,0.39366,-0.03906,-0.0921,-0.27932,-0.1035,-0.17912,-0.07652,0.14529,-0.09789,0.29165,0.12148,-0.00584,-0.28391,0.16378,0.14603],[-0.18435,-0.20071,0.12069,0.00532,-0.11728,-0.01551,-0.01444,-0.07537,-0.27094,-0.00058,0.1929,-0.28407,-0.16218,0.04321,-0.03605,0.01868],[-0.28295,-0.24493,0.20719,0.11594,-0.24747,0.02636,0.0914,-0.09863,-0.22378,0.18905,0.2354,0.11755,-0.24846,0.04985,-0.08581,-0.08095],[-0.0497,0.02829,-0.09504,0.22112,-0.33596,-0.13123,-0.16875,-0.20562,-0.21237,0.00134,-0.2177,0.05369,-0.24438,-0.13634,-0.06085,0.37376],[-0.05693,-0.29255,-0.19189,0.01751,0.05926,-0.17782,0.39532,-0.07886,-0.2448,-0.01735,0.04022,-0.12167,0.09015,0.09609,0.11195,-0.04146],[-0.09172,-0.02719,0.33595,-0.42303,0.09238,-0.37464,-0.01256,-0.15175,0.25347,-0.0873,0.26609,-0.00157,-0.49595,0.20008,0.17769,-0.05396],[0.30317,-0.03675,0.04165,-0.07555,-0.21946,0.14533,0.13381,0.20386,0.29888,-0.00118,0.08401,-0.10642,-0.32909,-0.34947,0.06332,0.30879],[-0.14009,-0.24041,0.06317,-0.10599,0.29073,-0.09177,-0.12855,-0.02467,0.1992,0.13686,-0.32148,0.35113,0.04179,0.00767,-0.20541,0.03521],[-0.16812,0.01439,0.21339,0.02219,-0.00071,0.04273,-0.14346,0.28289,-0.25885,-0.00622,0.19091,0.47664,-0.20432,0.27197,-0.22261,-0.2261],[-0.41742,-0.12346,-0.45003,0.23215,-0.37972,-0.05925,-0.04609,-0.043,0.14215,-0.05526,0.27789,-0.17594,0.05374,0.21812,-0.14035,-0.17111],[-0.07941,0.20127,0.08748,0.09621,-0.20395,0.14157,-0.06838,-0.03603,-0.0459,-0.25829,-0.31731,-0.40829,-0.24931,0.19531,0.32433,-0.20688],[0.21254,0.03529,0.20436,0.11937,0.01227,-0.2008,-0.08729,-0.12712,0.06992,0.06845,-0.29013,-0.17706,0.10174,-0.06303,0.16286,-0.11155],[-0.11504,0.03672,-0.12568,-0.04475,-0.14749,0.07882,-0.03189,-0.05006,0.09668,0.00868,0.17004,0.25192,0.1947,-0.25914,-0.23877,-0.11687],[0.08035,-0.01607,-0.24601,0.00099,0.01702,-0.05194,0.21165,0.13142,-0.05665,0.1198,0.26871,-0.08786,0.00034,-0.32004,-0.06351,0.06067],[0.04901,-0.19045,-0.10687,-0.2299,-0.09626,-0.13789,-0.06883,-0.32903,0.09184,-0.045,0.346,-0.15068,-0.02533,-0.11717,0.1771,0.45062],[0.0461,0.1096,-0.22705,0.08792,-0.31135,0.06518,-0.03425,-0.05945,-0.06276,0.13297,0.25205,0.04468,-0.1981,0.20188,0.16517,-0.14406],[0.13295,-0.19683,-0.07409,-0.32805,-0.12078,0.03754,0.2782,0.08496,-0.00034,-0.23566,-0.03933,0.0732,0.2606,0.068,0.09387,0.09966],[-0.03104,-0.30924,0.06629,0.0693,-0.08844,0.17426,-0.06652,-0.19847,0.18928,0.1641,0.24044,-0.08637,-0.16904,0.2684,-0.08902,-0.10671],[0.35206,-0.19871,0.10467,0.23769,-0.01795,0.27828,-0.01063,0.11797,0.27563,0.14456,-0.00186,-0.17622,-0.09374,0.24975,0.22539,0.11561],[0.0345,-0.20905,0.12528,0.16603,-0.04098,-0.19376,0.13015,0.10683,-0.06068,0.08828,0.15652,-0.16881,0.24911,0.13746,0.0776,0.22642],[0.09772,-0.17816,0.26781,-0.1011,0.08751,0.12728,0.07579,0.07284,-0.26842,0.14348,-0.24771,-0.01243,-0.1372,-0.2083,0.31128,0.06673],[0.07625,0.03921,0.24432,-0.00722,0.24387,0.35857,0.06505,-0.11462,0.20294,-0.08085,0.05402,0.18595,-0.03821,0.02003,0.04867,-0.23229],[0.02491,-0.14727,-0.00115,0.28224,-0.01612,0.10831,-0.09069,-0.00606,-0.04466,0.25114,0.23663,-0.04613,0.13209,0.36522,-0.23881,-0.0936],[-0.10326,-0.04927,-0.22351,-0.21129,0.15836,-0.05388,0.32003,0.01981,0.22155,-0.00721,-0.14017,-0.11179,0.13072,-0.14833,-0.1785,-0.03837],[-0.15284,-0.03276,-0.13216,0.06913,-0.14304,-0.12905,0.12231,0.24386,0.10886,0.07224,-0.10571,-0.00246,0.16892,-0.20666,0.2911,0.13529],[-0.01398,0.16788,0.09681,-0.07635,0.18836,0.11413,0.17237,0.13207,-0.14608,-0.07117,-0.03417,-0.10996,-0.13316,-0.26576,0.1906,-0.22735],[0.25391,-0.40376,-0.01833,-0.04068,0.28873,-0.01919,-0.2179,-0.20905,0.14721,-0.25134,-0.08357,0.11779,0.24987,0.2942,0.03667,0.07525],[0.12923,0.19905,0.08052,-0.12789,-0.06212,-0.01084,0.19426,-0.1289,0.06617,0.0626,-0.06924,0.19236,0.20233,-0.13415,-0.11188,-0.13465],[0.09025,-0.27576,0.08308,0.29101,-0.08897,0.24469,0.0842,0.04739,-0.13256,0.28179,-0.25968,0.00074,0.24313,-0.05486,-0.04576,-0.12454],[0.08293,-0.17309,-0.12576,0.03438,-0.24262,-0.05219,-0.18403,0.03495,0.22617,0.08473,0.10989,0.14376,0.20833,0.13311,0.16401,-0.10048],[-0.09475,-0.35285,0.12305,-0.14835,0.25381,0.20745,0.24121,-0.07608,0.09563,-0.13878,0.21302,0.14055,0.0332,-0.09059,-0.31629,0.16329],[-0.21646,0.06199,0.14809,0.14801,0.16495,0.16726,-0.04834,-0.29685,0.05496,0.01998,-0.05874,-0.27257,-0.11707,0.16241,0.27189,-0.20066],[-0.00748,-0.20006,-0.2515,0.07515,0.15668,-0.21875,-0.11343,-0.01126,-0.26338,-0.10436,0.00267,-0.16613,0.16709,0.19992,-0.18781,-0.0724],[-0.02355,0.1044,0.29639,-0.04451,-0.17649,-0.12355,-0.28241,0.21711,0.20318,0.15752,0.05488,-0.02731,-0.22211,-0.00473,0.04258,0.14903],[-0.29069,0.02469,-0.02696,-0.04241,-0.2137,-0.15416,-0.2842,-0.237,-0.11011,0.20913,0.24017,-0.13838,0.23936,-0.19975,0.06598,0.12422],[0.29449,0.14471,0.04945,-0.03223,0.02688,-0.03667,-0.11969,-0.06637,0.19784,-0.01369,-0.08943,-0.26862,0.08549,-0.01118,0.06961,-0.22259],[-0.17555,-0.00436,-0.10186,0.30545,-0.46605,0.17963,-0.28154,0.07782,0.00107,-0.14675,-0.118,-0.02203,-0.08582,-0.00752,-0.2464,-0.17045],[-0.19661,-0.02584,0.02884,0.20965,0.07653,-0.0122,0.13719,-0.11209,0.13114,0.06902,-0.21821,-0.13105,0.138,-0.1925,0.2153,0.09617],[-0.18522,-0.31115,-0.17246,0.11132,0.01269,0.24149,-0.17511,-0.04732,0.237,-0.12485,0.0732,-0.08062,-0.03461,0.22478,-0.14311,0.0997],[0.12585,0.15975,-0.05938,-0.0385,0.42379,-0.0059,0.04294,0.07668,0.08739,-0.08882,-0.31457,-0.21207,0.08462,-0.22415,-0.16888,-0.20573]],"blocks.1.attn.qkv.bias":[0.30012,0.27187,-0.2206,-0.11501,0.11044,-0.08871,-0.13629,0.23215,0.07049,0.08591,0.01289,0.07406,-0.19529,-0.28739,0.15411,0.23102,0.03176,-0.15354,0.16919,-0.13883,-0.17552,0.24732,0.03898,-0.05066,-0.07039,-0.20551,-0.04482,-0.0423,-0.08107,0.06132,0.21037,-0.16686,0.01992,-0.24846,-0.02369,0.00215,-0.04096,0.01672,0.10903,-0.12573,0.07714,-0.10145,-0.10325,-0.03432,0.21445,-0.07846,0.03945,-0.23147],"blocks.1.attn.proj.weight":[[0.0878,-0.12976,-0.25185,0.04841,-0.27203,0.18598,-0.06034,-0.23869,-0.1428,-0.16799,0.24792,-0.36018,-0.07598,-0.17571,-0.31033,-0.29332],[0.07205,-0.14402,-0.08824,-0.04859,-0.19285,-0.06632,0.04526,0.17633,-0.1077,0.10505,-0.13044,0.06604,-0.17604,-0.08322,-0.17891,0.02653],[0.06232,-0.06111,-0.12916,-0.11759,0.16952,-0.12644,0.14398,0.00159,-0.18069,-0.2493,0.09225,0.21793,0.02315,0.08203,0.15818,0.15394],[-0.17024,0.24742,0.02225,-0.16063,0.33347,0.12555,-0.02774,0.16361,0.14892,0.00293,-0.06843,-0.01826,-0.19478,0.19704,0.1209,-0.11116],[-0.24841,-0.14703,-0.09807,0.09194,-0.24764,0.02746,-0.17296,-0.02196,-0.04485,-0.00731,-0.15641,0.11743,-0.16427,0.12278,-0.07266,-0.02796],[-0.15861,0.20782,-0.14133,-0.0128,0.12964,0.22098,0.1684,-0.28519,-0.17021,0.03003,-0.21719,-0.05237,0.12548,0.07747,0.0259,-0.0343],[-0.13411,0.17919,-0.02232,-0.08606,0.2031,0.08812,-0.15406,-0.08601,0.00216,0.06633,0.28093,-0.03051,0.22096,-0.08582,0.15443,-0.16903],[-0.12787,0.0114,-0.24165,0.16377,0.04164,-0.27034,0.16391,-0.26737,0.31999,-0.20578,0.13807,-0.00066,-0.20336,-0.05903,0.06702,0.15699],[-0.19701,-0.02596,0.31682,0.16364,0.29685,0.14163,0.05163,-0.17076,0.08332,0.08496,-0.15842,0.24658,0.12381,-0.23082,-0.30845,0.28943],[0.0147,0.02484,-0.18259,-0.034,-0.22514,-0.38673,0.00214,0.18754,-0.15683,0.23093,0.01936,0.01893,-0.12135,0.15829,-0.06224,-0.05127],[-0.08221,-0.22208,-0.0196,0.01742,-0.10327,-0.20278,-0.05415,0.10507,-0.30532,-0.14209,0.13557,-0.08191,0.052,0.13278,0.12676,-0.21013],[0.20891,0.2056,-0.167,0.07424,0.12179,-0.10452,0.01851,0.26444,-0.05695,-0.15161,0.14395,-0.24421,0.08749,0.16254,0.14467,0.00448],[-0.34926,-0.26555,-0.03211,-0.12733,0.09558,0.07329,-0.01584,0.00788,0.10962,-0.0635,-0.02157,0.34379,0.00274,-0.27882,0.04975,-0.2255],[-0.1705,-0.20834,-0.07847,-0.08565,-0.10684,0.12391,0.26495,0.12201,-0.10381,-0.05112,0.23938,0.32174,0.23212,0.06678,0.1293,-0.24527],[-0.21939,0.08375,0.38289,-0.19871,-0.04767,0.00264,0.20849,-0.21914,0.19261,0.1979,0.20884,0.01639,-0.15347,-0.03721,0.12815,-0.35237],[-0.12869,0.08528,0.2275,-0.08313,-0.225,0.12561,-0.07493,-0.0594,0.06242,-0.228,-0.13912,0.00449,0.11027,0.23985,-0.14968,-0.25718]],"blocks.1.attn.proj.bias":[-0.22827,0.11645,-0.07665,0.01522,-0.06715,-0.22606,0.23644,-0.13106,-0.22887,0.059,-0.19807,-0.12865,-0.04556,-0.20766,0.12192,-0.07598],"blocks.1.norm2.weight":[1.05555,1.07279,0.95276,1.11168,0.94043,1.07472,1.05394,1.14372,1.11522,1.09006,1.09631,1.00383,1.09523,1.13293,1.10894,1.08459],"blocks.1.norm2.bias":[-0.01137,0.01092,-0.03825,-0.03638,0.0263,-0.02984,-0.00122,0.07246,-0.04315,0.0137,-0.00961,-0.03012,0.05125,-0.00273,-0.02427,-0.04224],"blocks.1.mlp.0.weight":[[-0.08986,0.05207,-0.0016,0.17289,0.30796,0.08907,0.04837,0.27607,-0.33819,0.2027,0.14155,0.24735,-0.1977,-0.18788,-0.04388,-0.06095],[0.12381,-0.12088,-0.0084,-0.40978,-0.13035,0.13511,-0.07315,-0.22268,-0.01168,0.41853,0.12652,0.05095,0.13346,0.22921,0.19919,-0.29817],[-0.44108,0.37947,0.0393,0.06942,0.09771,-0.29874,0.04795,-0.27703,0.28726,-0.16567,0.43432,-0.07651,0.09951,-0.01845,-0.08852,-0.06701],[-0.19405,0.24886,-0.08046,-0.36719,-0.0127,-0.00409,0.20444,-0.18243,0.07386,-0.21024,0.07624,-0.01543,-0.06627,0.27849,-0.18506,0.12747],[-0.10442,-0.0483,-0.04921,0.02357,-0.10616,-0.16191,0.2432,-0.01488,-0.29045,-0.02221,0.14531,-0.04111,0.27034,-0.15976,0.1761,0.28399],[0.02846,0.13538,-0.02093,0.14768,-0.15411,-0.23278,-0.0583,-0.38863,0.22311,-0.13063,0.08083,0.21302,0.11288,-0.19708,-0.14198,0.12885],[0.03115,0.00298,0.04219,-0.13614,0.20199,0.18797,-0.06137,-0.11025,-0.08406,-0.22795,-0.20404,-0.02241,-0.19915,0.07594,-0.06668,0.29521],[0.15556,0.01711,0.24551,-0.09684,0.01854,0.02094,-0.07684,0.1737,-0.08011,0.02303,-0.22536,0.10152,0.02896,-0.31259,0.08609,0.00742],[0.00648,-0.23799,0.07763,-0.16472,-0.11169,-0.11562,-0.18165,0.27152,-0.22285,-0.17637,0.21812,-0.12585,0.13609,-0.21548,0.20078,-0.00414],[-0.29793,-0.05173,0.03001,0.07184,-0.04494,0.10492,-0.06848,-0.30591,0.10949,0.27417,0.06596,-0.1614,0.17322,-0.3598,0.02539,-0.0135],[0.02974,0.22992,0.14656,-0.12527,0.28612,0.17052,-0.17482,0.20088,0.20614,-0.13729,-0.18689,-0.14249,-0.00207,-0.12891,0.37759,0.03879],[0.20752,-0.27876,0.09551,0.36565,-0.06524,-0.12698,0.01787,-0.41397,0.0295,0.38516,-0.02355,0.35676,-0.18563,0.03642,0.18967,0.02984],[0.15881,0.20159,-0.23443,0.16622,-0.22855,-0.07577,-0.22101,0.28938,-0.12402,0.23312,0.11714,0.1751,-0.28752,-0.23132,0.01646,0.15865],[-0.15163,0.29992,0.11218,0.17993,-0.14677,-0.37677,-0.32733,0.02482,-0.08814,0.22803,0.12111,0.05774,-0.24843,0.07918,0.09894,0.09339],[0.30959,0.12955,0.19906,0.0389,-0.06826,0.2169,0.20658,-0.23886,-0.2267,-0.03319,0.02511,0.03055,-0.10819,-0.04339,0.13258,0.08308],[0.01754,0.16851,0.08891,0.03367,-0.12108,0.30035,-0.20099,0.0316,0.17181,-0.2415,0.19098,0.09026,-0.17993,-0.00423,0.16617,0.10096],[-0.11584,0.05612,0.17018,-0.12939,-0.00177,0.11526,0.22518,-0.00567,0.12547,-0.19169,0.27489,0.2529,0.11797,0.16359,-0.05091,-0.13553],[-0.17741,-0.21607,-0.24713,0.21827,0.07246,-0.09145,-0.00649,-0.04595,0.20836,0.25767,-0.25025,0.03233,-0.1961,0.06653,0.31353,0.0826],[0.17718,-0.1321,0.2241,0.2097,-0.27345,-0.08307,0.1999,0.153,-0.0013,-0.18164,0.0008,-0.10955,0.10863,0.21797,-0.08724,0.22176],[-0.15693,-0.0562,0.07073,0.014,-0.1564,0.02354,-0.43527,0.09641,-0.04628,0.2342,0.2305,-0.10147,-0.35338,-0.233,-0.09473,0.12714],[-0.03507,-0.26391,-0.1312,-0.15116,0.06108,0.27059,0.11286,0.13653,0.06065,-0.04138,-0.12821,-0.02026,-0.17361,-0.14562,-0.0136,0.25009],[-0.3188,-0.26639,-0.0862,0.10596,-0.05897,-0.11116,0.2599,0.02344,0.05085,-0.04209,-0.31158,-0.01308,-0.09979,0.36695,-0.24083,-0.2698],[0.13984,0.05391,0.04028,0.03587,0.04936,0.32989,0.03681,0.01601,0.0984,0.22243,0.43099,-0.26091,0.10536,0.2131,-0.0415,-0.07313],[0.06618,0.15955,-0.11245,-0.10272,-0.1693,-0.05259,0.07879,-0.09825,-0.24803,-0.08491,0.04412,0.17248,-0.23351,-0.00918,-0.3189,0.01217],[-0.17711,-0.12394,-0.27599,-0.0669,-0.28037,-0.04996,0.18887,-0.05113,0.39096,-0.10403,-0.08184,-0.08499,-0.0687,-0.16204,0.16968,-0.12738],[-0.42102,0.03037,0.15406,0.15271,-0.15355,0.23532,0.02235,0.09155,0.3489,0.05499,-0.00579,0.1441,0.00172,-0.10397,-0.09474,-0.10155],[0.18124,-0.08553,0.14974,-0.00799,-0.16799,0.36376,0.24466,-0.04241,-0.28346,0.07521,0.01422,0.14801,-0.35193,-0.00434,-0.06614,-0.38255],[0.08869,0.13146,-0.29899,0.2068,-0.09459,0.12795,0.25285,-0.39958,0.00428,0.09798,0.35434,-0.28705,0.03404,0.01962,0.17409,-0.05075],[-0.26326,-0.1488,0.1672,-0.06771,0.01132,-0.07876,-0.0457,0.03125,-0.04784,-0.15212,-0.05526,0.17358,0.02485,0.16494,0.05936,0.10784],[0.14245,0.09891,0.07024,-0.21026,0.16391,-0.1226,-0.19441,0.13345,0.12795,0.29675,-0.0755,-0.20196,-0.21933,0.1091,0.22455,0.26485],[-0.06865,-0.10654,0.19149,0.3482,0.02029,-0.07862,-0.14588,0.02938,0.02692,-0.26637,-0.30331,-0.20361,-0.08378,-0.03952,-0.00069,-0.09368],[-0.05143,-0.2459,0.07746,0.04495,-0.1193,-0.07318,0.0107,0.00862,0.10501,-0.19462,0.25648,0.03566,0.10206,-0.03578,-0.24416,0.08788]],"blocks.1.mlp.0.bias":[-0.10693,-0.11131,-0.14881,-0.17368,0.05285,0.27601,-0.02535,-0.06751,0.08018,0.29486,-0.10951,-0.21562,-0.23434,-0.23007,-0.23323,-0.05942,-0.08983,0.06995,0.08465,-0.21096,0.09916,-0.06186,-0.06279,0.14145,0.22346,-0.25321,-0.06986,0.13195,-0.08961,-0.14,0.12052,0.06127],"blocks.1.mlp.2.weight":[[0.04675,0.25584,0.09329,-0.02265,0.0308,0.02563,0.15253,-0.05561,-0.19415,-0.09924,-0.00747,0.26097,0.05242,-0.22994,0.04695,-0.03539,0.00616,-0.03231,-0.10246,0.04584,-0.0569,-0.07396,0.09724,0.05258,-0.00111,0.00357,-0.32091,0.13655,0.07637,-0.04852,0.11169,0.02066],[-0.26612,0.13041,-0.05958,-0.08402,-0.28803,-0.17678,0.08569,-0.02788,-0.08423,0.05573,0.07802,-0.16399,-0.07496,0.27928,-0.0011,-0.05818,-0.15601,-0.1482,-0.13975,0.08989,-0.14066,0.27859,0.10423,0.05541,-0.17138,-0.04315,-0.02285,-0.0456,0.08463,-0.10197,0.23818,-0.11378],[-0.18475,-0.12871,0.25776,-0.21228,-0.03901,-0.2244,-0.13878,-0.08926,0.04116,-0.28544,-0.06227,0.18539,0.22201,0.02537,0.01983,0.15152,0.13673,-0.26683,-0.1404,-0.15942,0.02851,-0.19484,-0.21584,-0.16035,0.10597,-0.12966,0.0194,0.18015,0.07843,0.05825,-0.00643,-0.10457],[0.10817,-0.29245,0.11635,0.07169,0.14186,0.07509,0.11545,-0.11671,0.27966,0.08161,0.10391,-0.29789,0.01543,0.00386,-0.13852,0.1156,-0.10042,0.01432,-0.04702,-0.13205,0.10268,-0.12531,-0.07165,0.16543,-0.02214,-0.0951,-0.12338,-0.16484,0.09341,0.09629,-0.22106,-0.14861],[0.03027,-0.07284,-0.18858,0.13147,0.07153,-0.03638,-0.20665,0.16868,-0.08447,-0.03295,0.01957,0.04076,0.17295,0.12764,-0.19157,-0.02105,0.02116,-0.20539,-0.09829,-0.01698,-0.09442,0.30075,0.09794,0.15176,0.05523,0.06962,-0.18168,-0.1678,-0.06433,-0.04798,0.08098,-0.05864],[-0.04113,0.23772,-0.04264,0.06764,-0.14097,0.08877,0.01769,-0.08688,-0.11219,-0.00243,0.19243,0.04041,-0.18587,-0.02155,0.14456,0.06715,0.19903,-0.01073,0.18519,0.08323,-0.10735,-0.03318,-0.16852,0.01332,-0.17317,-0.17237,0.20567,-0.1312,0.01837,-0.04236,-0.06208,0.13112],[-0.04742,0.21881,-0.09694,0.08378,-0.10623,0.12722,-0.08839,-0.12409,0.08309,0.19033,-0.0202,0.04179,-0.14176,-0.03509,0.01947,-0.1001,0.03219,-0.19275,0.01912,0.02124,-0.07877,-0.23427,-0.06853,0.1444,0.08442,0.09867,-0.13913,0.22004,0.17158,0.33484,-0.02485,0.07078],[0.10341,0.10336,0.17863,0.02876,0.19534,-0.05609,-0.12,0.15762,-0.02674,-0.02189,0.01572,-0.00662,-0.07164,-0.36354,0.23653,-0.17022,-0.18281,0.24099,-0.18274,-0.1042,0.04556,0.03209,0.15756,-0.0191,-0.01338,0.23618,0.0234,-0.01541,0.11628,0.02629,-0.00278,0.03505],[-0.05777,0.10429,0.0011,0.14963,0.00558,-0.20876,0.17119,0.07677,0.02795,-0.28567,-0.12842,0.25123,-0.00715,0.02923,-0.01386,-0.02878,-0.03553,-0.08371,0.05228,-0.02215,0.05406,0.01836,-0.06487,-0.04593,-0.14161,-0.09991,0.08067,-0.18465,0.20119,-0.11702,0.16705,0.12963],[0.07419,-0.14769,0.15926,0.01644,-0.02334,0.25418,0.06646,0.02855,0.14386,-0.12347,-0.05944,-0.11473,-0.2096,-0.11763,0.21634,0.00365,-0.01129,0.08819,0.14616,-0.09248,-0.0072,-0.14,-0.09201,0.20141,-0.1004,-0.19537,-0.07208,-0.20452,0.07961,0.03347,-0.01845,-0.01744],[0.05544,-0.14964,-0.02376,-0.09201,-0.06799,-0.09385,-0.15505,0.16431,-0.04599,0.25902,0.11114,0.0477,-0.09553,-0.26956,-0.07419,-0.05948,0.14045,0.06162,-0.02955,-0.19363,-0.12224,-0.08322,-0.16967,-0.07004,0.04888,-0.0382,0.13809,-0.1024,0.16429,-0.10906,0.22659,-0.05534],[-0.09254,0.04036,0.03106,-0.11097,-0.28797,-0.05908,-0.17847,-0.09323,0.03022,0.06472,-0.05083,-0.14376,-0.06158,0.03382,-0.05305,-0.05949,-0.0901,0.09073,-0.02034,0.12821,-0.07003,0.16266,0.05111,0.11452,-0.03758,0.03598,0.08067,0.00532,0.03582,0.25588,0.03717,-0.00555],[0.08981,0.04554,-0.06902,0.10604,-0.03476,0.24751,0.0418,-0.1378,-0.1054,0.04413,0.17632,0.10766,0.02277,-0.05673,-0.0406,0.07311,0.03568,-0.09088,-0.13831,0.23091,-0.04364,-0.00914,0.11386,-0.20283,0.03327,-0.08622,0.06897,0.12251,0.08038,-0.13074,-0.09969,-0.1319],[0.12142,0.00211,-0.18207,-0.10208,-0.03693,0.06198,-0.23171,-0.10628,0.22636,-0.02551,0.13191,-0.04503,-0.14633,0.05892,-0.00085,-0.05798,0.0951,0.12144,0.02151,-0.00206,-0.0411,-0.12361,0.14497,-0.16867,0.15609,0.36877,-0.11536,0.17952,-0.09734,0.10771,-0.10123,-0.02089],[-0.2171,0.08212,-0.28918,-0.12095,-0.01412,-0.06112,-0.06277,-0.11106,0.03613,-0.0808,0.09954,-0.02621,-0.11982,0.23452,0.12814,0.02013,0.10261,0.08066,-0.03743,-0.05893,0.01035,0.02588,0.14254,-0.01179,-0.17759,0.27272,0.15149,0.14647,-0.1155,0.04382,0.04564,0.22057],[0.1952,0.08723,-0.02164,0.11984,-0.1119,-0.12967,0.04444,-0.02106,-0.13313,-0.03744,-0.16388,-0.03662,0.12784,0.05025,0.0217,0.15544,0.17149,-0.23322,-0.01928,0.01702,0.21767,-0.11822,0.02048,0.03228,0.01852,-0.04223,-0.19266,0.2727,-0.08247,-0.01847,-0.157,0.0306]],"blocks.1.mlp.2.bias":[0.07169,0.03802,0.09004,-0.02936,0.09032,-0.15916,0.05691,0.03349,0.04567,0.0972,0.05157,0.00111,0.08508,0.10408,-0.01447,-0.04169],"norm.weight":[1.60626,1.83923,1.71597,1.83442,1.80728,1.77901,1.76577,1.78675,1.68269,1.59337,1.31606,1.65563,1.86317,1.61819,1.82117,1.73582],"norm.bias":[0.0346,-0.01278,-0.00797,-0.04232,-0.03142,0.01114,0.04407,0.0508,-0.00574,0.04722,-0.01167,0.03366,-0.05827,-0.01539,-0.00974,-0.00475],"head.weight":[[-0.24265,0.68154,0.0309,0.60851,-0.08337,0.26675,-0.50261,-0.58379,-0.49797,0.00316,0.30495,0.0669,0.54013,-0.14661,0.3188,0.27406],[-0.23201,0.61797,0.48618,-0.18234,0.48576,-0.58865,0.36802,-0.4871,-0.01495,0.31959,-0.11876,0.45391,-0.69658,0.06261,0.10466,0.04172],[0.49131,-0.36754,-0.13801,0.39488,0.11189,-0.17212,-0.45911,0.48203,-0.33559,0.39773,-0.03661,0.05335,-0.45062,-0.65951,-0.11849,0.58383],[0.57368,0.00023,-0.36882,-0.58514,-0.65363,0.57353,0.29006,0.33205,-0.29161,0.2854,-0.23593,0.06517,-0.38089,-0.1551,0.42797,-0.03961],[0.05651,0.62014,0.28371,-0.34436,0.5738,-0.05168,-0.41368,0.55431,0.33962,-0.50201,0.27525,-0.21952,0.37647,0.03413,-0.15212,-0.68383],[0.46419,-0.39091,-0.13477,-0.06278,-0.28594,-0.4476,0.38676,-0.0582,-0.49707,-0.31001,-0.20145,-0.5335,0.50403,0.59854,0.53603,0.34728],[-0.39682,-0.05554,-0.57569,0.61863,0.17446,-0.47965,-0.60673,0.39197,0.02053,-0.22683,-0.01686,0.06719,-0.21159,0.5228,0.7988,-0.57286],[-0.41068,-0.05591,-0.39559,0.02664,0.41819,0.28556,0.41492,0.34147,-0.34541,0.49254,0.33981,0.76328,0.14683,-0.00476,-0.56768,-0.32927],[-0.27131,-0.61156,0.65135,0.31925,-0.48301,0.36916,-0.21002,0.0376,0.41064,0.06655,0.45243,-0.41619,-0.39901,0.1556,0.27446,0.06657],[-0.05256,-0.36786,-0.25272,-0.55226,0.38764,0.50981,0.10762,-0.36725,0.62667,-0.36089,-0.21023,-0.19716,0.29069,-0.1848,-0.46573,0.15615]],"head.bias":[0.00572,-0.11292,-0.06846,0.11379,0.1185,0.21241,0.02949,0.24526,0.05671,-0.02749]}