{"cls_token":[[[-0.02132,0.06653,-0.01594,-0.02409,0.04608,0.01726,-0.04701,0.01889,0.04528,-0.01475,-0.01922,0.03136,-0.01721,-0.02235,-0.00407,0.027]]],"pos_embed":[[[0.00131,0.04221,-0.02662,-0.04138,0.06107,0.04429,-0.07869,0.04936,-0.01144,-0.05006,-0.03242,-0.00965,0.00992,-0.02136,0.0002,0.00503],[-0.03883,0.06573,-0.1171,-0.01227,0.09643,-0.05243,-0.1577,0.18591,-0.00978,-0.00059,-0.1248,-0.0405,-0.07613,0.16169,0.09839,0.10194],[-0.12419,-0.16062,0.21937,-0.31128,-0.12352,0.23024,0.04584,0.21151,0.19599,-0.23561,0.15329,0.19989,-0.13948,-0.14848,0.0665,0.22232],[0.23243,-0.17974,-0.02161,-0.13266,0.11334,0.20369,0.12993,-0.03802,0.31648,-0.21905,0.13271,-0.0579,0.07401,-0.3504,-0.20259,0.38153],[-0.04952,0.01683,-0.08002,0.01932,0.22189,0.0382,-0.00618,0.03556,-0.0217,0.04111,-0.06961,-0.23247,0.07781,0.1104,-0.04324,0.046],[0.05769,0.28709,0.06353,0.22689,-0.09811,-0.19046,-0.08184,-0.01634,-0.05717,0.09492,-0.06036,-0.25481,-0.21296,-0.01221,0.1177,0.07726],[0.13618,-0.11328,-0.3135,0.00758,-0.33411,0.10985,0.41812,0.06931,-0.22983,0.43979,-0.21874,-0.63572,0.55172,-0.28574,0.06034,0.16135],[0.20352,0.12981,-0.35333,-0.08984,-0.12432,-0.03509,-0.41549,-0.1757,-0.03246,0.29557,-0.25246,1.20326,-0.47693,-0.01386,-0.73985,0.53555],[0.18259,0.26281,0.17224,0.31883,-0.2623,-0.51928,0.27839,-0.18105,-0.47358,0.0434,0.15475,-0.09674,-0.02418,0.24124,-0.1855,-0.14277],[-0.26177,-0.01842,0.05597,0.08093,0.23213,-0.01639,-0.33644,-0.01705,0.36244,-9e-05,-0.11481,0.03831,-0.11266,0.10635,0.15545,-0.04736],[0.29468,-0.71896,0.60158,-0.35209,-0.02072,-0.21697,-0.12406,-0.1739,0.28012,-0.28565,0.23866,-0.08766,0.58006,0.83332,0.04625,-0.6099],[0.12349,0.18002,0.35849,-0.27974,0.19379,0.17719,-0.29209,-0.1086,0.36155,0.04544,0.04314,-0.14246,-0.03384,-0.53203,0.46956,-0.41559],[-0.26369,-0.23708,-0.19796,-0.00594,0.70077,0.09644,-0.17085,-0.02805,0.13985,-0.08461,-0.03331,-0.02554,0.24111,0.15122,0.09896,-0.05659],[0.04102,0.17126,-0.23809,-0.10969,-0.13964,0.09962,-0.10386,0.01356,-0.20508,0.02556,0.10747,0.08963,-0.12076,-0.02282,0.00295,0.11676],[0.04436,0.04895,-0.03297,0.59096,-0.20047,0.03701,0.19145,-0.17288,-0.21524,-0.0712,0.33392,0.26392,-0.16864,-0.34365,-0.16206,-0.02041],[0.1724,0.03246,-0.13573,0.2126,-0.27825,-0.0421,0.54243,0.08197,-0.1718,-0.01825,0.15784,0.01262,-0.26372,-0.27361,0.04418,-0.26059],[0.10759,0.07287,-0.14296,-0.0091,-0.0222,-0.07388,-0.10468,0.1404,0.04588,-0.06921,0.02907,-0.20847,-0.0278,0.14242,0.22535,0.02567]]],"patch_embed.proj.weight":[[-0.03184,-0.05895,0.0593,-0.05343,-0.0469,-0.07011,-0.00017,0.01782,0.06114,-0.00075,-0.05503,0.05106,-0.09519,0.09094,-0.11412,0.00638,-0.03881,-0.01602,-0.04332,0.03045,0.03027,0.00858,-0.00544,0.06871,0.14142,0.0192,0.02572,0.05957,-0.00785,0.11222,-0.05778,0.04997,0.00776,0.07039,-0.01235,0.08007,-0.04302,0.12362,0.01638,-0.03976,0.09318,0.06504,0.02258,0.0646,0.03486,0.0005,0.04133,0.01417,-0.07731,-0.02561,0.0415,-0.07588,0.04202,-0.08909,0.03038,-0.10378,0.04436,-0.07282,0.00933,-0.07002,-0.02569,-0.0045,-0.04233,-0.00834],[0.0461,-0.04501,0.09538,0.01348,0.03017,-0.00042,0.07308,0.07981,0.00366,0.02424,0.07125,-0.05097,0.17468,-0.06677,0.05378,-0.05205,0.03212,0.11571,-0.06397,0.03975,0.12454,0.01159,0.05214,0.12501,-0.03255,-0.14606,0.01665,-0.03447,-0.02188,0.14237,-0.04632,0.13151,0.00608,-0.01253,-0.10406,-0.1072,-0.0259,-0.09165,-0.05868,-0.04697,-0.10533,0.03407,-0.08263,0.00398,-0.05782,0.03972,-0.07309,-0.07891,-0.01352,-0.07849,0.1531,-0.07807,0.07965,0.0452,0.01275,0.02382,0.11581,-0.02295,0.04361,-0.04837,0.0418,-0.05076,-0.00325,-0.0526],[0.03197,-0.03163,-0.03117,-0.07799,0.02572,-0.07386,0.02014,-0.01975,0.04807,0.01268,0.03625,-0.08285,-0.00079,-0.0936,-0.01852,-0.00602,-0.02978,-0.0049,0.02055,-0.02093,-0.05614,0.06909,-0.06565,-0.01968,-0.08091,-0.00682,-0.16778,-0.02975,0.00048,0.09427,-0.02705,0.05413,-0.09863,-0.00218,-0.16533,0.02589,-0.1467,-0.10322,-0.04272,-0.11016,-0.04428,-0.03678,0.07869,0.02739,0.09027,0.10055,0.02858,0.15026,0.09005,0.12753,-0.04576,-0.03062,-0.00491,0.01329,0.11235,0.02634,0.09378,-0.04375,0.04946,0.12192,-0.00883,0.10561,-0.03246,0.02378],[-0.03058,0.00969,0.03543,-0.09903,0.0877,-0.12087,0.05098,-0.05403,0.03636,0.01228,0.06441,-0.07164,-0.11709,-0.07605,-0.03321,-0.06514,0.07547,0.01816,-0.02859,0.05717,0.09076,-0.017,0.05514,-0.03613,-0.08699,-0.01063,0.05436,-0.05726,0.08244,0.06988,0.01132,-0.09343,-0.0942,0.06976,-0.06129,-0.01492,-0.00575,-0.06418,-0.04821,0.08169,0.0466,-0.04802,-0.00153,-0.04934,0.17566,-0.08733,0.06748,0.07746,0.05965,0.06018,0.0837,0.01022,-0.0305,0.08661,0.05725,-0.03366,-0.01281,0.02692,-0.0741,-0.02644,-0.02677,-0.02173,-0.08624,-0.02358],[0.03635,0.01998,0.11293,0.01,0.01405,-0.02122,0.01932,0.0103,0.03295,-0.05587,-0.08556,-0.08009,-0.05971,0.00907,-0.07942,-0.0412,-0.12787,0.00359,0.04526,-0.05221,0.07485,0.02445,-0.02821,0.06099,-0.08915,0.08322,-0.08925,-0.04841,-0.00351,-0.01532,0.02292,-0.07231,0.01362,-0.10514,-0.03997,-0.02885,0.00152,-0.02168,0.04226,-0.11364,0.05242,0.02639,0.02332,0.06783,-0.03004,0.04286,-0.09133,-0.0271,-0.01092,0.07578,-0.01938,0.01857,-0.03985,-0.01544,0.10611,-0.13092,0.06795,0.01022,-0.03357,0.10461,-0.09566,0.05804,-0.05317,0.00384],[-0.02509,-0.0267,-0.0143,-0.05526,0.01961,0.00021,0.06006,0.10505,-0.03484,-0.04229,0.05706,-0.06516,0.02584,-0.05573,-0.04745,-0.03178,0.04822,-0.12832,-0.07532,-0.15731,-0.0717,-0.05659,-0.06092,-0.01627,0.10795,0.04482,-0.07159,0.05654,-0.06291,0.01809,-0.05604,0.04056,0.05004,-0.07336,0.11805,-0.10839,0.07962,0.02371,-0.01663,-0.0497,0.03704,0.09891,0.00073,0.09273,-0.0129,0.00232,0.07704,0.1297,0.01007,-0.02026,0.0219,0.01223,0.01628,0.0963,-0.00426,-0.0206,-0.01247,-0.07444,0.01797,-0.02654,-0.03709,0.02351,-0.04557,-0.01485],[0.07545,0.03992,0.03334,0.04348,-0.02035,0.05059,-0.06477,-0.00272,-0.01429,0.00777,0.03842,0.04462,0.05741,0.04941,-0.01971,-0.04335,0.00802,-0.01058,0.00663,-0.01369,-0.03005,-0.03682,-0.06719,0.01361,-0.05795,0.0537,-0.08495,-0.01978,0.0283,-0.01475,0.07412,-0.00125,0.08983,0.01603,-0.08074,-0.06498,-0.08098,0.00751,-0.12264,-0.02311,0.01788,-0.07507,0.05192,0.03445,0.01666,0.03929,0.04049,-0.04653,-0.08274,0.06276,-0.01014,-0.07405,-0.01172,-0.06411,0.00754,-0.04537,0.02253,0.0086,-0.00202,0.11859,-0.01058,0.07658,0.03833,0.02471],[0.1269,0.01551,0.06542,-0.05095,0.04705,-0.04923,-0.06855,-0.01808,0.06741,-0.05198,-0.06389,0.04655,-0.08385,-0.06072,0.08868,0.00891,0.0283,0.03799,0.135,-0.06069,0.16802,0.03453,-0.01266,-0.04159,-0.02612,0.09434,0.02929,0.00976,0.02684,0.00659,0.1039,0.12126,-0.03917,-0.06288,0.00033,-0.07898,0.0862,-0.04014,-0.06449,-0.00241,-0.01631,-0.07558,-0.16832,-0.01115,-0.03087,-0.1116,-0.02561,-0.01559,-0.05465,0.02428,0.00791,0.00509,-0.0701,-0.0132,0.0626,-0.07768,0.02865,0.02387,0.00402,-0.04137,0.01446,0.06948,-0.02534,0.08192],[-0.04547,-0.05405,-0.05531,-0.10599,0.02222,-0.11395,-0.065,-0.09379,0.02361,0.09243,0.06067,0.09501,-0.03711,-0.0436,0.10395,-0.02397,0.09263,0.02618,0.00529,0.08729,0.05066,0.08482,0.01561,0.03261,-0.00996,0.02915,0.00898,0.13635,0.02103,0.09993,-0.00726,-0.00733,0.0549,0.01552,0.01104,-0.00857,-0.04026,0.02363,-0.10363,0.18764,0.02505,-0.02734,-0.02334,-0.0239,0.05195,-0.04092,0.07637,-0.04244,-0.02605,0.04523,0.06133,-0.03479,0.02302,0.02312,-0.07291,0.00691,0.03601,-0.02766,0.01368,0.0662,-0.03462,0.11892,0.00888,0.02611],[0.04479,0.04529,0.06901,0.0865,0.04844,0.06742,0.03774,0.01953,-0.07707,-0.05723,-0.1164,0.10865,-0.10657,-0.04114,-0.04231,-0.0219,-0.05682,0.00715,-0.03057,-0.09676,0.10321,-0.11463,0.0507,-0.03326,-0.0951,0.07198,0.03757,-0.009,0.08629,0.12839,0.07908,-0.04586,0.08393,0.02419,-0.08869,0.10649,0.10969,0.00392,0.00503,0.02282,-0.08297,0.04055,0.01775,0.10589,-0.10025,0.12576,-0.00361,0.05138,-0.0024,0.02928,-0.01686,-0.08542,0.00063,-0.03088,0.0667,-0.07989,-0.00716,-0.09064,0.00407,0.04306,-0.0181,0.05383,-0.02405,0.0457],[0.03079,-0.1237,-0.02119,-0.05313,-0.04004,0.07087,-0.05599,0.06484,-0.0691,-0.01097,-0.02984,-0.12104,0.08469,-0.03783,0.05957,0.04541,0.02688,-0.02852,-0.07551,0.03318,-0.08257,-0.01561,-0.11258,-0.00912,0.04596,0.04853,0.09016,0.02999,0.00799,0.0208,0.03139,-0.00431,0.08779,0.03532,-0.01838,0.04365,-0.05762,0.08031,0.06179,0.05502,0.07487,-0.05411,0.01991,0.10968,-0.02365,-0.02584,-0.06274,0.01228,0.03026,0.00322,0.02224,-0.03733,-0.05214,-0.04886,0.0827,-0.09964,-0.00849,0.01076,0.10838,-0.00882,0.13975,0.0675,0.04697,0.06113],[0.05366,-0.01238,0.09449,0.02464,0.03756,0.01237,0.01058,0.02008,0.01668,0.02063,-0.07837,0.00954,-0.02224,-0.03215,-0.02524,-0.02635,-0.06409,-0.02142,0.0223,0.00852,-0.02654,-0.08137,0.00015,-0.01615,-0.02123,-0.05276,-0.06027,-0.03511,-0.07277,0.00212,-0.0811,-0.03691,0.13089,0.05835,0.03349,0.02824,-0.04122,0.06704,-0.01701,0.0152,0.11509,-0.06443,0.0278,0.05521,-0.03937,0.05035,-0.01321,0.03177,0.05455,0.12481,-0.00244,0.03338,0.05019,-0.00833,0.07106,-0.03487,-0.05931,-0.02917,0.0446,0.01656,-0.04783,0.10467,-0.00568,0.03767],[0.02785,-0.00278,0.15281,0.01844,0.05107,-0.02243,0.09648,0.08131,-0.01573,-0.02719,-0.03307,-0.05051,0.07691,0.00267,-0.0003,0.08264,-0.00022,0.02704,-0.04236,0.05804,0.00259,0.02789,0.02729,-0.08076,-0.02477,0.03616,-0.11922,0.02421,-0.12105,0.033,-0.06492,0.03804,-0.02072,-0.1116,0.06901,0.05206,-0.08567,0.01048,-0.06725,-0.16371,0.14237,-0.00332,-0.10367,-0.04934,0.00632,-0.00554,-0.01021,-0.04972,0.01528,0.10389,0.09285,0.05724,0.0498,0.00504,0.11562,0.05165,0.03015,0.08691,0.02784,0.09885,-0.02933,0.08944,-0.01401,-0.00582],[0.01242,-0.05762,0.00908,-0.05821,0.05896,-0.01864,0.00261,0.03684,0.04392,-0.01635,0.02176,0.07768,-0.04718,0.04078,0.01051,-0.05746,0.00403,-0.08022,-0.07708,-0.03433,-0.05121,-0.09945,-0.03408,0.06058,0.06246,0.13359,-0.06392,0.03952,-0.04703,0.0824,-0.09366,-0.05163,0.02988,0.025,-0.05598,0.02704,0.03994,0.03758,0.00295,0.05123,-0.07849,0.00587,-0.00716,0.04123,-0.11502,-0.02323,0.00444,-0.03767,-0.06885,-0.04777,-0.12008,-0.07474,-0.08405,0.03657,-0.09231,0.00536,-0.03632,-0.05465,0.04468,-0.00691,-0.02908,0.04831,0.00826,0.0033],[0.01053,-0.01948,0.05006,0.10706,0.00375,0.04978,0.0809,-0.04574,-0.02021,0.02174,0.03767,-0.00093,0.05429,-0.03353,-0.03329,-0.03262,-0.11041,-0.07506,-0.06739,-0.07569,0.04916,-0.06271,0.03111,-0.03696,-0.04631,0.08674,-0.11558,0.00172,0.06334,-0.1216,-0.02084,-0.07246,-0.05793,-0.01277,-0.03262,0.08403,0.00514,0.09671,-0.05148,-0.02371,0.17351,0.07257,0.09747,-0.03857,-0.0526,0.06222,-0.04373,0.0188,0.01234,0.06665,-0.00105,-0.01142,0.03522,0.0221,0.05381,-0.01139,-0.05015,-0.01761,-0.04657,0.08716,-0.03024,0.00556,0.00718,0.02106],[-0.05222,-0.08368,-0.03173,0.02642,-0.14936,-0.07801,-0.03171,0.00769,-5e-05,0.06788,7e-05,-0.06055,0.09234,0.00652,0.06955,0.04865,-0.01714,-0.04058,-0.02902,0.00336,-0.01748,0.00823,-0.03333,-0.00619,-0.07134,0.0534,-0.08224,0.02568,0.10495,-0.01989,-0.03075,-0.04718,-0.0602,-0.00832,0.03069,-0.09705,0.00866,-0.06528,-0.06553,-0.08251,0.03854,0.02104,-0.02669,-0.02757,-0.05073,-0.03563,-0.02634,-0.07152,0.04605,-0.01927,-0.05381,-0.09545,-0.06275,-0.06248,-0.01631,0.01711,0.02967,0.07221,0.07101,0.11736,0.08273,0.07975,0.06906,-0.02987]],"patch_embed.proj.bias":[0.04757,0.02402,-0.04394,0.07596,-0.0692,0.02601,-0.05029,-0.00326,-0.106,0.10939,0.02209,0.04249,0.08345,-0.08731,-0.10237,-0.07567],"blocks.0.norm1.weight":[1.0144,1.03845,0.95166,0.98227,0.98398,0.99719,0.97481,0.97093,1.00273,1.0143,0.96776,1.10746,1.04652,1.04465,1.0329,0.99002],"blocks.0.norm1.bias":[0.02636,-0.00124,-0.00218,0.00219,-0.01846,0.00158,0.0035,-0.0029,0.01686,0.01232,0.00433,0.00502,0.00252,0.00376,0.02941,-0.00307],"blocks.0.attn.qkv.weight":[[0.13662,-0.00479,-0.10145,0.22554,-0.21442,0.05051,0.06795,0.0786,0.26869,-0.03393,0.18891,0.18739,0.29053,-0.16726,-0.01182,-0.28321],[-0.21763,-0.12329,-0.19452,0.09004,-0.05554,0.09034,-0.02443,0.17223,0.00961,-0.01268,-0.01594,-0.14155,-0.12446,-0.01874,0.2177,0.18241],[0.20297,0.0129,0.08781,0.1473,0.212,-0.19814,-0.23544,0.13204,-0.11937,0.127,0.07367,0.32862,-0.08693,0.18213,-0.25375,-0.05619],[0.05641,0.22395,-0.18463,-0.11734,0.15807,-0.05052,-0.10658,0.24879,0.02758,-0.14919,0.13134,-0.00207,-0.1464,-0.01677,0.09839,0.21248],[-0.01759,-0.06101,0.07063,-0.19807,-0.01542,0.12775,0.09904,0.20829,0.27654,-0.20522,0.18661,-0.21473,0.06044,0.07061,-0.12359,-0.02091],[-0.06569,-0.04686,0.07146,-0.20479,-0.174,-0.25444,0.02837,-0.0572,0.05463,-0.21139,-0.00799,0.07297,-0.21029,-0.23969,-0.177,-0.17474],[0.15272,-0.18781,-0.02741,-0.14464,-0.05608,-0.25514,-0.00962,-0.06989,-0.25492,-0.15424,-0.21055,-0.06778,-0.05441,0.01332,-0.14376,-0.16133],[-0.0819,-0.24918,0.14754,0.08174,-0.09169,-0.16135,0.1876,0.20076,-0.21707,-0.1276,-0.20163,0.12393,-0.32925,-0.00865,-0.12159,0.03808],[0.16272,0.20441,-0.19594,0.13776,-0.00124,0.09937,-0.10724,0.26003,-0.0644,0.13435,-0.1889,-0.13147,-0.18803,0.08622,-0.14499,0.20543],[0.22226,0.00077,0.19235,0.18277,-0.20271,-0.11196,-0.08082,-0.18106,0.11118,-0.27425,-0.0182,0.27708,-0.17462,-0.23394,0.08369,0.10292],[-0.02969,0.07913,-0.37202,-0.10656,-0.14076,-0.07242,-0.10357,0.13847,0.2138,0.05931,0.21125,0.09734,0.02801,-0.03351,0.02444,-0.34976],[-0.14037,0.06639,-0.26768,-0.09289,-0.1993,-0.09864,0.15537,0.08423,0.09418,-0.22403,-0.07728,0.01314,0.02432,-0.25681,-0.21208,-0.22445],[-0.16887,0.04477,-0.17722,0.02968,-0.13653,0.12563,-0.01084,0.05254,-0.1633,0.24266,-0.11912,-0.16731,0.54661,-0.15328,-0.11784,-0.23243],[0.22847,-0.04616,0.09523,-0.07932,0.07927,-0.26341,0.11563,0.25297,-0.02535,0.17093,-0.11002,-0.20569,0.20168,-0.07283,-0.21253,-0.18968],[0.03005,-0.10454,0.22975,-0.12726,0.0279,0.22447,-0.06359,-0.11769,0.07959,0.03647,0.02008,-0.01234,0.25492,-0.16002,0.21987,-0.1352],[-0.19602,-0.0631,-0.25935,0.20696,-0.04644,-0.17367,0.05537,0.09752,-0.03955,0.20788,-0.08345,0.16405,0.26972,0.0843,-0.23739,-0.06867],[0.22505,0.30214,-0.07404,0.3311,0.19598,-0.08734,-0.29882,-0.00285,0.00208,0.19761,-0.28451,-0.19793,0.21465,-0.02442,-0.17384,-0.08994],[-0.01494,-0.20449,0.14725,0.18368,-0.18359,0.24111,0.15887,-0.08433,-0.15831,-0.12845,-0.11214,-0.22932,-0.12258,-0.0276,-0.14203,0.00354],[-0.35693,0.11093,-0.1312,-0.0164,-0.13216,-0.16358,0.20375,0.22852,-0.08999,-0.19132,-0.22893,-0.1602,0.15628,-0.2859,-0.02081,-0.15967],[0.00341,-0.18935,0.16127,0.18184,0.07651,0.01202,-0.15019,-0.12011,-0.00513,-0.10107,0.22609,-0.17183,0.0783,-0.20032,-0.11933,0.01619],[-0.20723,0.14873,-0.08599,0.23737,0.23394,0.15833,-0.13467,-0.24324,0.14156,-0.05668,0.12815,-0.25091,-0.10391,0.15026,-0.19434,-0.02435],[0.17887,0.09392,-0.2738,0.18666,0.07755,-0.16508,-0.10553,0.21838,0.13092,-0.16567,0.02176,-0.26824,-0.18965,-0.13504,0.05132,0.07833],[0.02979,0.25364,-0.08946,-0.21101,-0.07657,0.05391,-0.1106,0.0487,-0.00226,-0.13241,0.14603,-0.17944,-0.13998,-0.12849,0.07302,0.20417],[-0.16248,-0.09965,0.07254,0.02652,0.12653,-0.01879,-0.17398,0.06031,-0.10089,-0.03052,0.2131,-0.22332,-0.11354,-0.08321,0.21444,0.09004],[-0.10238,-0.2618,-0.06852,-0.15976,0.23905,0.10602,-0.01036,-0.20914,-0.00197,-0.18658,-0.06024,0.08873,0.04461,-0.16307,-0.21233,0.02104],[0.01943,0.07467,0.01107,0.07195,-0.23087,0.17379,0.30173,-0.18194,-0.03178,0.18339,-0.11199,-0.23843,0.26555,0.04682,-0.03189,-0.02874],[0.13979,0.0427,0.13675,-0.14712,0.07855,-0.11465,-0.03185,-0.03325,-0.01643,-0.06308,-0.15178,0.31178,0.00754,-0.21136,-0.07158,-0.12805],[0.02198,-0.02199,0.00073,0.05403,0.1327,0.1821,0.22058,0.02391,0.18044,0.15308,0.15744,0.22466,-0.13568,-0.24235,-0.19323,-0.1089],[0.15891,0.28671,0.01604,0.05718,0.12371,0.15301,-0.12838,-0.04195,-0.02568,0.20573,-0.39837,0.51556,0.2388,0.02995,-0.2196,0.27872],[0.13428,-0.14227,-0.07379,0.2712,-0.04009,-0.1586,-0.18767,0.21677,0.19504,-0.05461,0.1255,0.15768,-0.06958,-0.19723,0.15149,0.0921],[0.16672,-0.05729,-0.03619,0.27327,-0.14642,-0.01941,0.15382,-0.15331,-0.2342,-0.11582,0.0576,0.15507,0.09789,-0.18722,-0.33289,-0.09274],[-0.19651,0.17751,-0.08555,-0.10972,-0.17157,-0.10178,-0.03719,-0.25772,0.2323,0.2186,-0.07793,0.28059,-0.01821,-0.14656,-0.05031,-0.1807],[0.1321,0.22373,0.09163,0.04225,0.03401,-0.1866,0.26943,0.06803,0.05679,-0.00734,0.13025,-0.18563,0.19035,-0.28753,0.23985,0.1202],[-0.02465,-0.0928,0.00563,-0.07955,-0.00692,-0.0805,-0.0003,0.01892,0.11946,-0.13575,0.14219,-0.13519,-0.17576,-0.22199,0.22184,0.02004],[-0.06662,-0.04635,-0.18889,-0.16213,0.02297,-0.10125,-0.15231,0.08761,-0.00164,0.15971,0.20133,0.18667,-0.12226,-0.31616,-0.23095,0.14156],[-0.04806,-0.00552,-0.07188,-0.12902,0.0811,0.26981,0.01559,0.16454,0.1534,-0.00874,0.1853,0.057,0.17213,-0.20752,-0.20099,0.09793],[-0.07992,0.13343,0.16967,-0.0799,0.08894,0.17331,-0.11851,0.16159,0.01679,0.04038,-0.15028,0.26141,0.0867,-0.17164,0.15746,0.11232],[-0.08865,0.21552,0.16938,0.04198,-0.20167,-0.11073,-0.12072,-0.22125,-0.10072,0.0876,-0.14666,-0.15344,0.11059,0.1791,-0.0965,-0.16303],[0.2747,0.07464,-0.17185,0.15101,-0.22927,-0.11774,-0.10923,-0.05181,-0.24734,-0.16548,0.17748,0.09084,-0.05368,0.18754,-0.19392,-0.00644],[-0.23937,-0.04488,-0.20711,-0.02069,0.19028,-0.21932,-0.30542,-0.12573,0.15989,0.25389,-0.13051,0.08625,0.09432,0.19661,-0.15688,-0.22067],[-0.20552,-0.29515,-0.2474,-0.00478,0.09009,0.16297,-0.01271,0.16489,-0.19406,-0.1893,-0.12731,0.18538,0.18934,0.09727,0.01338,-0.11737],[-0.14123,-0.02969,0.16676,0.05261,-0.007,0.2347,0.21145,-0.00423,0.097,0.15025,-0.15694,0.08763,-0.12847,-0.16602,0.01402,0.17304],[-0.03475,-0.113,0.22916,-0.16618,-0.11788,-0.09061,0.25822,0.03654,-0.22577,0.06003,0.04752,0.17369,-0.05106,-0.14172,-0.14255,-0.2027],[0.29314,-0.08097,0.08502,-0.14755,0.15777,-0.01845,0.32958,0.05793,-0.10094,-0.21112,-0.06834,0.03808,0.03479,0.27143,0.15988,0.16711],[-0.05878,0.0573,-0.18407,0.18947,-0.11807,-0.15623,0.3544,-0.01526,-0.25432,-0.16318,0.16173,-0.01902,-0.21475,-0.22084,-0.18821,-0.13585],[0.14774,-0.09903,-0.01823,-0.05658,-0.06179,-0.13747,0.06814,-0.00586,-0.01973,-0.01792,0.25337,-0.0855,-0.11845,-0.13816,-0.01061,-0.21404],[0.08126,0.1073,-0.08438,-0.00222,0.02077,-0.09279,-0.01732,-0.11064,-0.03307,0.21688,0.22848,-0.0704,0.22485,0.16541,0.04874,-0.10604],[0.24059,0.15564,0.00803,-0.04695,-0.16302,0.13768,0.14424,-0.21042,-0.11098,0.14511,-0.03474,0.15931,0.01554,-0.20714,0.02706,0.02781]],"blocks.0.attn.qkv.bias":[-0.14289,-0.03737,0.2345,-0.10756,-0.06048,-0.29208,0.13426,0.1051,0.10345,0.1947,0.13558,0.18869,-0.03714,-0.1724,0.08999,0.14091,0.24003,-0.23935,0.0538,0.12618,-0.03938,0.03476,0.18753,-0.16927,0.15376,0.14002,-0.24143,0.09245,0.10181,0.17275,-0.02932,-0.08216,0.1716,-0.04341,0.21272,-0.11338,-0.18828,0.19157,-0.09122,0.04971,0.04503,-0.16787,-0.0193,-0.03248,-0.01013,0.1733,-0.13685,0.11242],"blocks.0.attn.proj.weight":[[0.09835,-0.03291,0.06681,-0.23286,0.1947,0.18331,-0.26361,0.26089,0.06576,-0.17108,-0.07038,-0.03353,-0.07477,0.21544,-0.11869,0.13325],[0.25372,0.22377,-0.26993,0.0956,-0.0996,0.08959,0.19535,0.12055,0.10342,0.08067,0.03942,0.13281,0.03222,0.10323,-0.15332,-0.08255],[0.20923,0.23405,-0.16877,0.1637,-0.2919,0.03161,0.10152,0.09498,0.00325,-0.18541,0.20506,-0.18034,-0.08,0.20393,-0.16128,0.05113],[-0.05054,-0.07518,0.13793,0.159,-0.11076,0.07084,-0.05413,0.00141,0.0913,0.09195,-0.14257,-0.24981,0.01647,0.06987,0.19853,0.1415],[-0.06433,-0.27724,-0.10858,-0.18232,-0.27266,0.29949,-0.11071,0.02052,0.0932,-0.09634,0.00689,0.13681,-0.07811,0.22144,-0.2101,-0.1596],[-0.07475,0.17429,0.12681,0.17717,0.04844,-0.05998,0.13341,-0.10961,0.20355,0.03013,0.02836,0.27927,-0.0741,-0.15513,-0.25049,0.17984],[0.20156,-0.0802,-0.15403,0.02694,0.05318,-0.03443,0.08662,-0.14431,0.0433,-0.14389,-0.23499,-0.23828,0.0243,-0.06386,0.06388,0.08772],[0.16269,0.09916,-0.14918,0.22463,0.0981,-0.20694,-0.21189,-0.19056,-0.20979,-0.05699,0.14398,0.16925,0.14038,-0.09458,-0.1961,-0.12508],[-0.21553,0.04198,0.18932,0.21826,0.00048,-0.03844,0.0308,0.05594,-0.07956,0.09426,-0.17625,0.1511,-0.24497,-0.17408,-0.06069,-0.13812],[-0.07729,-0.12148,0.02408,-0.04417,0.01931,0.01599,-0.08331,-0.15399,-0.08646,-0.19806,-0.10651,0.04045,-0.06591,0.01073,0.19205,-0.13349],[0.03134,0.16976,0.01379,0.05929,-0.14514,0.26702,0.15817,0.30964,-0.06817,0.07884,0.04969,-0.18851,-0.21517,-0.13933,-0.21405,-0.08075],[0.18703,0.16108,-0.08014,0.29426,-0.13594,-0.07994,-0.03512,-0.10863,-0.01062,0.15341,-0.14618,-0.11349,-0.25589,-0.1265,0.13392,-0.04436],[0.09832,-0.10172,-0.07204,-0.02398,0.06583,-0.19579,0.20722,-0.25661,-0.19091,0.24613,-0.10017,0.14705,0.31212,-0.09873,-0.1338,0.14086],[0.27952,-0.05602,0.22067,-0.1532,-0.13409,0.20722,0.22129,0.07472,0.00701,0.10558,0.0654,-0.20651,0.3024,-0.1439,0.10712,-0.08799],[0.13426,-0.1773,0.11411,0.14914,0.07577,-0.14558,-0.29549,-0.20918,-0.15033,0.09245,0.21858,-0.14511,0.05631,-0.23875,-0.17587,-0.05236],[0.18078,-0.15247,-0.13775,0.19837,0.17969,0.07136,-0.08473,-0.04775,-0.18374,-0.05698,0.04194,-0.20438,0.126,0.18157,0.19505,0.22058]],"blocks.0.attn.proj.bias":[0.23205,-0.07579,0.18479,0.15963,0.09474,0.24905,0.05387,0.05812,0.14098,-0.2258,-0.19729,0.21194,-0.19473,-0.01015,0.14205,0.08866],"blocks.0.norm2.weight":[1.04079,1.31438,1.16937,1.10289,1.05093,1.01865,1.079,1.21818,1.13657,0.98038,1.05008,1.40035,1.08525,1.17293,1.07487,1.09602],"blocks.0.norm2.bias":[-0.02104,-0.03465,0.00741,-0.04116,0.02822,-0.04313,0.03137,-0.06903,0.00196,0.03305,-0.00709,0.0301,0.0115,-0.00642,-0.02501,-0.00875],"blocks.0.mlp.0.weight":[[-0.00206,-0.00942,-0.2511,0.18582,-0.13474,0.21141,0.024,0.04057,0.02547,-0.03024,0.14983,0.2131,-0.21578,-0.2794,-0.01154,0.13907],[-0.22492,0.28137,0.24553,-0.2266,-0.2693,0.14614,-0.04285,0.16656,-0.15607,0.23885,0.18988,-0.47492,-0.05246,0.29963,0.30106,-0.16854],[0.20762,0.05197,0.12296,0.12638,-0.06795,-0.14627,-0.01186,0.22013,-0.28355,0.01865,0.01784,0.52212,0.24375,0.13574,-0.02527,-0.28543],[-0.52195,0.42719,0.17087,-0.08413,-0.19823,-0.12911,0.04528,-0.05856,0.31809,-0.20115,0.01722,0.00815,0.32769,0.01025,-0.11955,0.27507],[-0.3902,0.16629,0.18604,-0.22219,0.21919,-0.17773,0.31348,0.17692,-0.35823,0.10167,-0.17755,-0.28194,0.01003,0.03972,0.00165,0.07531],[-0.03355,0.19969,0.29628,0.27121,0.08539,-0.07335,0.1532,0.25263,0.21111,0.16515,-0.23003,-0.16306,-0.27867,-0.29758,0.11728,-0.22671],[-0.11207,0.22436,-0.11524,-0.18335,0.14326,-0.13191,-0.02181,-0.17753,0.01323,0.26724,0.03745,-0.25466,-0.24089,-0.15581,0.30108,0.10427],[0.0483,0.21368,-0.29065,0.17915,0.10921,-0.1515,-0.01609,0.09942,-0.16007,0.31812,-0.131,0.1031,0.07736,0.15456,-0.07851,0.17481],[-0.10123,-0.01068,-0.31454,0.05095,0.23152,0.2465,0.0223,0.15253,-0.12746,0.20036,-0.00295,-0.0933,0.09396,0.31424,0.00767,0.16769],[-0.00504,0.26732,0.07499,0.04593,0.02424,0.10486,-0.03805,-0.1177,-0.20771,-0.16436,0.1925,-0.15144,0.30492,0.03915,-0.0554,0.14628],[-0.19306,0.10875,-0.14272,-0.05251,-0.21413,0.07473,-0.03297,0.37501,-0.15308,0.26208,-0.29508,0.24483,-0.1169,0.01701,-0.32722,0.13743],[-0.11785,-0.16618,0.11995,-0.26453,0.03153,0.03505,0.02773,0.1866,0.07441,-0.19128,0.04633,-0.16986,0.06716,0.22908,0.02201,-0.05591],[0.06265,-0.07912,0.01548,0.14475,0.00956,-0.02132,0.36947,0.08343,-0.25021,-0.06056,0.02547,-0.15773,0.19118,0.27927,-0.03724,-0.01033],[0.15459,0.00046,0.06302,-0.14535,-0.03814,-0.12292,-0.15385,-0.02517,-0.04434,-0.19632,-0.2113,0.19017,-0.05425,-0.03557,-0.23967,-0.10269],[-0.27445,0.12793,0.12145,-0.1987,0.0007,0.07697,0.184,0.27595,0.16841,0.01296,0.03879,-0.1174,0.15556,-0.16516,0.22551,-0.14881],[0.16377,0.21559,-0.42117,0.19126,0.10637,-0.20107,0.0223,0.19125,-0.13322,-0.144,0.21404,0.09208,-0.19806,0.02442,0.11337,0.12236],[0.02896,-0.015,-0.16818,-0.00859,-0.15599,0.01899,-0.16843,0.21001,-0.05123,0.0816,-0.04408,-0.32491,0.12736,-0.10477,0.21904,0.15217],[-0.32681,-0.09792,0.04016,-0.42747,0.22834,-0.08064,-0.29773,-0.15786,0.04678,0.1991,0.09297,0.56691,-0.18812,-0.04682,-0.10699,0.56091],[0.18378,0.31637,-0.16989,0.18882,-0.11068,0.16256,-0.15668,0.03291,-0.06595,-0.11863,0.2435,0.20104,0.10111,-0.13783,0.10258,0.15364],[0.03856,0.05312,-0.11354,-0.47983,-0.15787,-0.32922,0.09431,0.25657,-0.19715,0.07291,0.00213,-0.46141,-0.11542,0.32712,-0.23838,0.46407],[0.20506,0.1641,0.02888,-0.03656,0.08473,0.17775,0.01796,-0.17047,-0.08545,-0.01446,0.17672,-0.03121,-0.11206,-0.11165,-0.23411,-0.04154],[-0.05776,0.4014,0.382,-0.18553,-0.20011,0.19577,-0.14945,-0.05128,-0.25819,-0.00951,0.20833,-0.1982,-0.22913,-0.31881,-0.01299,0.18087],[0.20401,0.23766,0.01284,-0.04456,-0.26099,0.16888,0.26169,-0.00541,-0.15904,-0.21168,0.18906,0.12962,-0.16926,0.15106,0.04522,-0.31166],[-0.09279,-0.19915,0.02245,0.07425,0.29839,-0.15364,0.29635,-0.37005,0.01769,0.3904,0.29527,-0.1598,0.3386,-0.1095,-0.06697,-0.01632],[-0.20332,0.31745,0.37715,-0.25711,-0.17314,0.27964,-0.05508,-0.01797,-0.06613,0.20861,0.18528,0.02226,-0.27812,-0.08945,-0.26118,0.19785],[0.01153,-0.1959,-0.30284,-0.00066,0.00577,-0.22538,0.30533,0.01241,-0.15006,-0.12675,-0.23792,0.02954,-0.0056,0.05329,0.15106,0.11993],[-0.05705,-0.32325,0.23491,0.14356,-0.16659,-0.02819,0.09803,0.06653,0.23952,-0.24393,0.07473,0.21296,0.07455,0.29134,-0.03485,0.18027],[-0.10121,0.10054,0.14171,-0.03255,-0.10674,0.21335,0.16502,-0.41385,-0.0145,0.22634,-0.22719,0.16604,0.24895,0.08533,0.0127,-0.209],[-0.01764,-0.06978,0.23229,0.32848,0.21136,0.01659,-0.1075,0.12343,0.09741,-0.09232,0.12403,-0.21975,0.18987,0.26927,0.24927,-0.05119],[-0.17454,0.19643,-0.00487,-0.08061,-0.1183,0.11914,0.20776,-0.29892,-0.18947,-0.13997,0.04805,0.1428,-0.01875,0.045,0.18009,-0.11197],[0.21615,-0.2642,-0.33235,0.09288,-0.22311,-0.20262,-0.10455,0.10568,-0.25511,0.14128,-0.11912,-0.25761,0.19322,-0.1515,-0.02956,0.26304],[0.16094,-0.13498,0.00838,-0.0158,-0.13533,0.14154,-0.15372,0.0356,0.30147,0.00252,0.15456,-0.14906,-0.26695,-0.19396,0.12063,-0.20238]],"blocks.0.mlp.0.bias":[-0.20999,0.14268,-0.24511,0.06853,-0.18764,-0.0223,0.14218,-0.02527,0.09024,0.1268,0.06655,-0.24803,-0.17365,0.17204,0.06377,0.01815,0.06629,-0.1928,0.1382,-0.0226,-0.17707,-0.05222,0.00196,0.01201,-0.00548,0.1873,0.01704,-0.16896,-0.16148,-0.03926,0.02317,-0.25992],"blocks.0.mlp.2.weight":[[0.02481,0.06318,0.08658,0.17745,-0.23237,0.09344,-0.146,-0.05194,-0.03541,-0.25311,-0.16987,-0.12552,0.0669,0.03423,-0.04198,-0.20533,0.14337,0.01932,0.09347,0.25323,-0.05248,-0.16413,0.02848,-0.10153,-0.18599,-0.03959,0.06622,0.11303,0.12058,0.02422,0.18486,-0.05204],[-0.00213,-0.13381,0.18298,0.04137,0.12498,-0.08381,-0.1168,0.11746,0.13653,-0.12487,-0.16919,0.12884,0.09221,-0.11297,0.17813,0.13625,-0.13496,-0.09351,0.15725,-0.0485,-0.16614,-0.03325,0.04249,0.04481,0.09551,0.24272,-0.0678,-0.09127,-0.17837,-0.08562,-0.19515,-0.00343],[-0.01467,-0.10235,-0.09166,-0.04418,-0.07532,-0.13454,0.01683,0.09123,0.12321,0.09811,0.05789,0.07738,0.06988,0.15182,0.0936,0.04673,-0.04701,0.17947,0.10032,-0.0521,0.01279,-0.00166,-0.03828,-0.09922,-0.19621,0.03528,-0.23815,-0.15288,-0.2052,-0.07323,-0.06048,-0.19974],[0.06763,0.10399,0.10822,0.13257,-0.00656,-0.06297,0.37307,-0.13886,0.0106,0.18474,-0.20651,0.21404,-0.0464,-0.15856,0.13136,0.13544,-0.10643,-0.2082,0.01602,0.10042,0.1517,0.12347,-0.02078,-0.02886,0.21182,0.00562,0.04026,-0.1294,0.17221,0.04352,-0.06471,-0.20155],[-0.08495,0.02251,-0.05081,-0.14379,0.00395,-0.01396,0.07636,0.06521,0.16344,-0.07012,0.06314,0.03872,0.18442,-0.13147,-0.01562,0.07898,-0.2755,-0.02615,0.06691,-0.10408,-0.08647,-0.0596,-0.04657,0.10435,-0.04632,-0.03618,0.24252,-0.08332,-0.14613,-0.0757,-0.06556,-0.00406],[0.00644,-0.05163,-0.26027,0.03563,0.30082,-0.04651,0.05498,0.05095,0.19505,-0.15706,-0.13767,0.03065,0.05953,-0.05665,0.04244,0.08594,-0.11008,0.03844,-0.11991,0.16352,-0.22903,0.0882,-0.08416,-0.03384,-0.09477,0.08845,-0.00654,0.01124,0.03316,0.0705,-0.14819,0.11112],[0.18185,-0.00826,0.02898,-0.216,-0.16358,0.12458,-0.04557,-0.19446,-0.19473,0.02903,-0.18811,-0.1552,-0.22523,0.01951,0.01925,-0.152,0.05143,-0.0225,0.1584,-0.25543,0.00437,0.02854,-0.01724,0.17073,0.12927,-0.10361,-0.07996,-0.0336,0.06428,-0.07863,0.15969,-0.02879],[-0.09458,0.15925,-0.2233,0.25034,0.18242,0.16458,-0.09738,-0.29572,0.02936,0.07344,-0.23267,-0.05851,-0.15445,0.00192,0.1625,-0.01496,-0.00069,0.01639,0.04309,0.25251,-0.05425,-0.15222,-0.05338,0.17563,-0.18378,-0.13754,-0.16659,0.03498,-0.03832,0.17932,-0.16736,0.0559],[-0.0731,0.11421,0.03751,-0.04827,-0.01823,-0.23617,0.06215,0.10683,-0.02607,-0.10569,0.23939,0.07133,0.16249,0.00158,0.14013,-0.20799,0.01693,-0.10228,-0.10231,-0.20343,0.13036,0.02896,-0.17321,0.07104,0.11325,0.23422,0.21536,-0.30248,-0.07236,-0.21392,0.03443,-0.07966],[0.17951,-0.15764,0.13993,-0.02627,-0.1542,0.12232,0.143,-0.00287,-0.21929,-0.11564,0.16559,-0.01589,0.0804,0.12294,0.12321,0.00383,-0.03896,0.02885,0.02118,-0.056,-0.03756,0.129,0.06805,0.04726,-0.00811,-0.02002,0.04935,-0.08788,-0.02503,-0.05809,0.10802,0.14034],[0.18704,-0.01446,-0.01614,-0.06949,-0.21843,0.13019,-0.00419,0.01019,-0.02777,0.02596,0.17672,0.02292,0.04347,0.21157,-0.0527,-0.27058,-0.06915,-0.21218,0.12787,-0.22457,0.13902,-0.01779,-0.12902,0.16606,0.05149,0.02388,0.08403,-0.0614,0.00916,0.0461,-0.07738,-0.14574],[0.06518,0.13857,-0.06491,-0.05875,-0.09188,0.02043,0.01764,-0.00737,0.12848,0.03095,0.07155,0.08563,0.05035,0.13178,0.1707,-0.0288,0.11411,0.05518,0.08434,-0.05682,-0.00268,-0.05625,-0.03328,-0.21221,-0.17305,-0.07684,-0.05915,0.04603,0.16916,0.0358,-0.15332,-0.16491],[-0.136,0.3096,-0.13155,-0.09781,-0.06719,0.08569,0.11084,0.16357,0.05266,0.01194,0.00784,0.08735,-0.10996,-0.06467,-0.04421,-0.03067,-0.02399,0.12226,-0.06129,-0.23499,0.01871,0.19099,0.12722,-0.02257,0.22704,0.07068,0.05658,-0.00077,0.05928,-0.1752,0.13145,-0.13954],[0.08288,-0.2145,0.09239,0.07317,-0.17428,0.10018,0.03915,0.04662,-0.08669,0.09473,0.09184,-0.04369,-6e-05,0.04898,0.09367,0.10454,-0.1209,0.03018,0.21661,-0.017,0.08199,-0.00664,0.16739,0.09482,-0.02096,0.02807,-0.15571,0.14101,0.21396,-0.01135,0.07644,0.19689],[0.03787,-0.2228,0.12429,0.03056,-0.03758,0.10772,-0.16713,-0.16195,0.23425,0.00929,0.01153,-0.20895,-0.01289,0.03421,-0.10044,-0.13541,0.01165,-0.24111,-0.10055,0.25202,-0.00349,0.01697,-0.08221,-0.06756,0.11247,-0.05352,0.17876,-0.06834,0.00533,0.17215,-0.1991,0.12181],[-0.03097,-0.12445,0.04468,0.06692,0.22353,-0.02558,-0.11405,0.01567,-0.10836,0.08624,0.16721,-0.05509,0.23362,-0.13835,0.02866,0.11117,0.00638,0.14629,-0.14339,0.14083,0.05961,-0.19389,0.15211,-0.10067,-0.01047,-0.07913,-0.13279,0.02066,-0.18269,0.01144,-0.08103,0.15359]],"blocks.0.mlp.2.bias":[0.00948,0.07734,0.11285,-0.11331,-0.11486,-0.06252,0.10391,-0.13769,-0.01486,-0.09898,0.00332,-0.04284,0.13001,-0.09401,-0.08383,0.06035],"blocks.1.norm1.weight":[1.0009,1.09693,0.99094,1.06343,1.05049,1.01309,1.1032,1.01378,1.05079,1.02803,0.95286,1.05405,1.01501,1.13759,1.04136,1.03737],"blocks.1.norm1.bias":[-0.05552,0.02421,-0.06608,-0.00682,0.02139,0.02343,-0.03823,0.02985,-0.00069,-0.0247,-0.03839,-0.0069,-0.03838,-0.01342,0.01438,0.03388],"blocks.1.attn.qkv.weight":[[-0.13673,-0.1646,0.15159,0.09393,0.1632,0.07351,-0.2386,-0.01655,0.23186,0.08476,-0.14915,0.03497,0.16543,0.22746,0.02166,-0.2194],[0.14268,-0.12197,-0.06946,0.01077,-0.14257,0.246,0.07656,-0.25053,0.11866,0.12826,-0.17668,-0.15167,-0.18917,0.21912,-0.20777,-0.03241],[0.21633,-0.13384,-0.14446,-0.02875,-0.07589,-0.22654,0.29219,0.1405,-0.13756,-0.186,-0.24271,0.0843,0.10396,-0.20613,0.10047,-0.14841],[0.1927,0.24824,0.00526,0.26252,-0.18264,-0.09122,-0.00797,-0.04509,-0.01344,0.23587,-0.14739,-0.07814,0.20869,-0.3424,-0.19188,-0.05106],[-0.0308,0.2942,0.0608,-0.10902,0.03372,-0.20181,-0.11923,0.23046,-0.22464,0.07206,0.1126,-0.18288,-0.21874,-0.20042,0.14515,-0.12587],[-0.03555,0.27149,0.22436,-0.24385,-0.08545,0.13501,0.00888,-0.22275,0.15861,0.15062,-0.02195,0.0005,-0.09997,-0.00049,0.01882,-0.17897],[0.27874,0.02863,0.05771,-0.25063,-0.03803,0.00373,0.01397,-0.01783,0.12046,-0.23768,0.1673,0.03437,-0.06251,0.17376,-0.0414,-0.125],[-0.16144,0.18351,0.12768,0.18483,-0.23463,0.03475,0.04076,-0.0929,0.02278,-0.23789,0.07277,-0.17009,-0.07455,-0.02109,-0.1359,-0.24021],[0.16319,0.16494,0.15283,0.10418,0.12849,-0.26519,0.20483,-0.16383,-0.08811,0.16403,-0.04588,0.12846,-0.18204,-0.27266,0.22404,-0.05823],[0.18845,0.08806,0.16778,0.20035,-0.24365,0.27903,0.07213,-0.35629,-0.03794,-0.03052,-0.16423,-0.06751,0.04963,-0.12084,-0.18347,-0.20853],[0.19002,-0.27682,-0.08488,0.16724,-0.13358,-0.22162,-0.14534,-0.10195,-0.16433,-0.11914,-0.0297,-0.06772,-0.00743,0.1326,0.10405,-0.132],[0.04339,-0.19503,-0.29803,0.00987,0.16116,0.09215,-0.07864,-0.04322,0.21624,-0.25031,0.09248,-0.0385,0.19458,-0.40321,-0.07309,-0.21411],[0.21349,-0.1027,0.03097,-0.06729,-0.21783,0.20516,-0.15985,-0.09029,-0.18069,-0.16376,-0.16811,0.02297,-0.08928,0.16325,0.00152,0.15789],[0.07956,0.08216,-0.20229,0.0016,-0.28814,-0.18834,-0.11113,0.05732,0.17724,0.05985,-0.06323,-0.19903,0.23132,-0.24262,-0.06913,0.12639],[0.11154,-0.18086,0.06731,0.11893,-0.16077,0.10123,0.09302,0.00639,-0.12684,-0.11506,0.00239,-0.05294,0.02999,-0.09351,0.0335,-0.17869],[0.08215,0.23522,0.04067,0.06972,-0.12572,0.10475,0.10081,-0.04256,0.12091,-0.14606,-0.04068,-0.17671,0.01313,-0.31234,0.01263,-0.02433],[-0.01553,-0.11522,-0.04637,-0.17822,-0.08813,-0.01202,-0.21445,0.0789,-0.27436,0.05943,0.01838,-0.15713,0.23326,-0.08928,0.05813,0.1236],[0.20502,0.20257,0.0362,-0.09049,-0.09992,0.02627,0.15311,-0.00633,-0.14709,0.10461,0.2058,0.13531,0.12512,-0.07745,0.11196,-0.01054],[0.16055,-0.16258,0.27702,-0.09537,-0.15702,0.04443,-0.01854,-0.25192,0.10793,-0.16412,0.03716,0.01257,0.22681,0.13899,-0.03958,0.25273],[0.122,0.08819,-0.16809,0.0294,0.16876,0.22428,-0.08369,0.20178,-0.00626,-0.08813,0.09492,-0.17982,-0.06565,-0.125,-0.07842,0.25168],[-0.15836,-0.2177,-0.09834,0.19307,-0.1495,0.1626,0.0211,-0.01415,0.0815,-0.17673,-0.05763,-0.01542,-0.1542,-0.12769,-0.0117,0.00448],[0.14197,-0.09477,-0.07052,-0.12948,-0.12363,0.05626,0.20845,-0.25513,0.10598,0.20038,0.24567,-0.12794,0.13742,-0.15938,-0.24878,0.13668],[0.24713,0.12153,-0.09514,0.08975,0.17765,-0.173,0.25474,-0.01005,-0.10166,0.26764,0.22,0.16623,0.14452,-0.18745,-0.07194,0.12482],[0.06196,-0.11371,-0.28411,0.25854,-0.13642,-0.11852,0.26799,0.21771,-0.22782,0.18267,-0.07259,0.05774,-0.122,0.09201,0.14524,-0.10667],[0.24015,0.04621,-0.05197,0.34066,-0.08905,-0.27268,-0.12616,0.02624,0.03691,-0.09979,-0.14379,-0.11425,-0.12972,-0.04554,0.1622,-0.05999],[-0.12364,0.26072,0.11355,-0.07208,-0.27345,-0.17353,0.1174,-0.24107,-0.08924,-0.21464,0.151,0.12222,-0.17474,0.13613,-0.10001,0.02859],[-0.09839,0.21663,-0.30176,-0.04288,-0.01291,-0.20467,-0.08304,0.10313,0.28576,0.24244,0.1647,-0.16445,-0.14462,0.00815,-0.10324,-0.02319],[0.09146,-0.12575,0.13626,0.10651,0.12903,0.17547,0.22597,-0.01432,0.15535,0.23306,-0.36142,-0.09546,0.18544,0.23942,-0.08609,0.18869],[0.10665,0.00243,0.22997,0.29701,-0.19362,-0.20992,-0.1301,0.07394,0.15955,0.22259,0.26665,0.01745,0.22204,-0.18025,0.18614,0.17316],[-0.18678,0.21215,-0.0721,0.08869,0.24174,-0.16577,-0.19967,0.27307,-0.21434,-0.2099,0.06822,0.14557,0.04803,-0.16483,0.10988,0.22665],[0.02785,0.18682,-0.02994,0.02403,0.11637,-0.00497,0.01733,0.02218,-0.08108,-0.1893,-0.20079,-0.18638,0.20865,-0.0109,0.10119,-0.02214],[0.19636,0.06086,-0.18542,0.10742,-0.16829,0.22383,0.0029,-0.11174,0.04828,-0.17095,-0.00589,-0.0113,-0.06805,-0.14628,-0.25286,0.15854],[0.0339,-0.21584,0.12298,-0.26283,0.19991,0.09362,-0.17065,0.16398,0.24177,-0.15955,0.14524,-0.19982,0.03394,0.34886,0.18166,-0.23231],[-0.22179,-0.01705,-0.17356,0.14291,-0.04868,0.27619,0.38008,0.03034,0.06248,0.16718,-0.15936,-0.3609,0.12592,-0.21372,0.05188,0.24435],[0.1919,-0.10301,0.04552,0.04007,-0.1208,-0.14817,0.17939,0.20814,-0.38282,0.03489,0.13072,0.06134,-0.16904,0.15569,-0.11666,0.08939],[0.01602,-0.0377,0.10774,-0.39845,-0.09715,-0.20608,-0.27299,-0.08748,0.22628,-0.2068,0.01288,-0.00091,-0.10993,0.20991,-0.13669,-0.05143],[0.00306,0.38219,0.08778,-0.11289,0.11967,0.26354,-0.22795,-0.01265,-0.1175,-0.1658,0.08051,-0.0728,-0.26278,0.09103,0.14322,-0.27074],[-0.14842,0.19318,-0.02719,-0.14521,-0.13489,0.19737,-0.03863,0.18745,0.02866,0.11278,-0.1862,0.18012,-0.00316,-0.06287,-0.22341,0.07401],[-0.08204,-0.24824,0.18408,-0.21916,0.18577,-0.20877,-0.04328,-0.16425,-0.04962,-0.1019,-0.27062,-0.01996,0.00725,-0.06804,-0.29571,-0.02908],[0.04502,-0.20367,-0.09824,-0.04236,-0.1519,-0.04695,-0.0125,0.15434,-0.23688,-0.06256,-0.07913,-0.03838,-0.05807,-0.01555,0.18648,-0.20726],[-0.05967,0.17157,-0.19144,0.01471,-0.06941,-0.06784,-0.25063,0.16717,-0.10441,-0.14052,0.0635,-0.12119,-0.21394,-0.2118,-0.0673,0.26093],[-0.07296,0.0403,-0.00033,-0.09657,-0.24134,-0.05838,-0.1958,0.08752,-0.04572,-0.13206,-0.15721,-0.04984,0.16914,0.16275,0.23096,0.0515],[-0.12687,-0.10078,0.14797,0.13017,0.0033,0.08368,-0.17349,-0.18063,-0.16095,0.02612,0.13451,0.24826,-0.07499,0.02059,-0.21234,-0.12393],[0.0307,0.04692,-0.13215,-0.06222,-0.04609,0.13653,-0.19877,0.26595,0.03773,-0.01152,-0.22984,-0.14051,0.16804,-0.30506,0.20079,-0.1597],[-0.05339,0.07018,-0.1125,-0.19446,-0.03827,0.03816,0.17009,0.20941,0.01953,-0.19005,0.1498,0.06505,0.04735,-0.07831,-0.2356,-0.30131],[0.11104,-0.16036,-0.08016,0.13102,0.18873,-0.15837,-0.00129,-0.0796,-0.00499,-0.28706,0.01704,-0.22612,0.09096,0.15708,0.02145,-0.23807],[0.24515,-0.18613,0.02536,-0.26888,-0.07871,0.25223,-0.00392,0.17057,-0.23144,-0.22928,-0.10735,-0.1097,-0.15147,-0.23693,-0.16496,0.1419],[-0.02148,0.02278,0.02914,-0.16941,-0.24384,-0.22607,0.24977,0.00248,0.06358,-0.09929,0.22455,-0.37977,0.26033,-0.00202,0.01945,-0.03177]],"blocks.1.attn.qkv.bias":[0.15888,0.06045,0.10624,-0.13163,-0.21525,0.29463,-0.13354,0.06116,0.14275,-0.16656,0.21127,0.01864,0.19608,0.07864,0.15058,0.15424,-0.09325,-0.15266,-0.02447,0.23594,-0.01523,0.07847,0.19656,0.22115,-0.09953,0.16291,-0.16098,-0.14633,0.21335,0.06933,-0.10679,-0.02936,-0.23478,-0.02379,0.07965,-0.07387,0.07867,-0.02763,0.1297,0.23209,0.26291,-0.16665,0.05578,-0.17932,-0.0165,0.15498,-0.04427,-0.18693],"blocks.1.attn.proj.weight":[[0.28757,-0.14559,-0.23687,0.10924,0.23279,0.27805,-0.12181,0.01751,-0.20919,-0.20161,-0.17615,0.27236,0.25133,-0.07188,0.14214,-0.21928],[-0.00738,-0.27682,0.01729,0.22445,0.04491,0.02334,0.23068,-0.26465,-0.25367,0.21593,-0.1738,-0.16371,0.13427,-0.14281,-0.15446,-0.24128],[0.17403,-0.08875,-0.17722,-0.13933,0.08957,-0.17785,0.12265,0.12789,0.15846,0.21108,0.01109,0.15807,-0.03995,-0.04073,-0.30846,-0.03391],[-0.03894,-0.11922,-0.00852,-0.04157,-0.19639,0.08225,0.28241,-0.15185,-0.11148,-0.12082,-0.19057,0.05891,-0.12203,0.00312,0.00781,-0.18692],[-0.14688,-0.16347,0.2995,-0.11014,-0.07799,-0.06422,-0.11755,0.24609,-0.02555,0.05066,0.07926,0.10534,0.01085,-0.17207,0.05346,0.03527],[0.19668,0.20997,-0.10872,-0.30085,0.01036,-0.08901,-0.14624,-0.04259,-0.26702,0.02855,-0.06575,-0.01033,-0.16651,0.07798,-0.29198,0.16244],[-0.08475,0.1324,-0.08972,-0.08275,-0.11686,-0.15756,0.10092,0.23586,-0.19261,0.2052,0.18248,0.22142,0.27059,0.24875,0.11854,0.24699],[0.09356,-0.08151,-0.21872,-0.09455,-0.15612,0.19807,0.12806,-0.30634,0.13206,-0.06658,0.15533,-0.26158,0.03064,-0.0067,-0.2233,0.17278],[0.24244,0.18522,0.30586,0.12419,0.04062,-0.16336,-0.15179,0.13788,-0.0221,0.10406,-0.12985,-0.1686,0.13488,0.12994,-0.22722,0.29461],[-0.11157,0.28676,0.19215,-0.38397,0.11676,-0.03942,-0.0254,0.20393,0.2401,-0.01641,-0.17756,0.03739,0.1568,0.24928,-0.11048,-0.31005],[0.13374,0.30695,-0.2446,0.02443,0.06831,-0.04158,0.09562,-0.26037,0.10003,-0.30435,0.08132,-0.15837,0.24982,0.06705,-0.23381,-0.16761],[0.21185,0.12948,0.06726,-0.15354,-0.1268,0.21237,0.00907,0.06064,0.0499,-0.10411,-0.11916,-0.11026,-0.09506,-0.13958,0.1573,0.18464],[-0.27695,-0.15215,-0.0214,0.06811,0.03074,-0.20548,-0.19224,0.2249,-0.17678,-0.1351,0.0223,-0.12117,-0.1348,-0.04627,-0.02496,-0.07807],[0.01291,0.17034,0.02368,0.13902,0.26609,-0.03103,-0.06369,-0.06583,0.26738,0.23829,-0.22413,-0.10651,-0.14873,-0.16382,0.0214,-0.1913],[-0.00561,0.17606,-0.16715,-0.18054,0.00152,0.23287,0.15757,-0.19831,-0.13629,-0.07809,0.13549,0.06915,0.10745,-0.29774,-0.19289,-0.09103],[0.18629,-0.27844,0.17693,0.22166,-0.12067,-0.07075,0.04497,0.09436,0.18383,-0.06729,0.07447,-0.17793,-0.32817,0.04023,-0.13823,-0.0646]],"blocks.1.attn.proj.bias":[0.19869,-0.02728,-0.05755,0.15164,-0.17686,-0.27757,-0.2189,0.10618,0.15335,0.12042,0.05693,0.02477,0.13613,0.211,0.09186,0.21393],"blocks.1.norm2.weight":[1.08877,0.98418,1.10753,1.05059,1.07777,1.12659,1.02475,1.16422,1.06586,1.14252,1.05538,1.05344,1.15908,1.15266,1.0824,1.09292],"blocks.1.norm2.bias":[0.00268,0.03636,0.00349,0.0396,-0.01121,0.00076,-0.00994,-0.01591,0.02516,0.00614,-0.00191,-0.00054,-0.0587,0.02763,0.01186,-0.06845],"blocks.1.mlp.0.weight":[[-0.1398,0.11194,-0.17743,0.02759,0.33393,-0.33921,-0.23566,0.24859,-0.13872,0.15386,-0.12407,0.04092,0.04508,0.26779,-0.05004,-0.10668],[0.06824,-0.00112,-0.17933,0.06261,-0.00765,-0.21141,-0.16077,-0.23057,0.18595,0.20595,0.15519,-0.15973,0.01478,0.23278,-0.31926,0.06818],[0.29796,0.05553,0.16883,0.07363,-0.23841,0.24822,0.32594,-0.37129,0.01406,-0.19406,-0.17979,0.05457,-0.42656,0.19799,0.01573,-0.22405],[0.00937,-0.07745,0.15506,-0.23436,-0.24029,-0.23643,-0.24289,-0.11243,0.18108,-0.07956,0.15272,-0.26348,0.07451,0.11305,-0.19316,-0.07646],[-0.22612,-0.27047,-0.01981,0.08477,-0.24918,0.07445,-0.05561,-0.07981,0.06823,-0.00963,-0.10219,-0.07987,0.01646,0.34672,0.01658,0.13496],[-0.10681,0.0733,-0.13285,0.17131,0.25802,0.3451,0.10821,0.0235,-0.16496,-0.26468,-0.195,-0.08731,0.24549,-0.1016,-0.1297,-0.05534],[-0.13245,-0.04798,0.14468,-0.26458,-0.07209,-0.07252,0.2403,-0.21359,0.15314,-0.0056,-0.24882,-0.11657,-0.26864,-0.19402,-0.32188,0.11222],[-0.09155,0.17485,-0.1648,-0.01388,-0.3657,-0.21088,-0.01737,0.22511,-0.30423,0.05885,0.22666,-0.07253,-0.15647,-0.1499,-0.08823,0.38168],[0.21246,-0.00062,-0.16649,0.03182,0.09877,-0.07064,0.13667,-0.06272,0.03789,0.11829,-0.02245,0.22837,0.32227,0.0263,0.14202,0.40777],[0.01672,0.11405,-0.03013,-0.06368,-0.1361,-0.2339,0.08876,0.09857,-0.20537,0.12442,0.21927,0.03742,0.09811,-0.00393,0.14105,0.10067],[0.00484,-0.03752,0.2045,0.01421,-0.15196,0.29679,0.17041,-0.12258,0.08471,0.02966,0.24245,-0.10291,0.19367,-0.24926,0.138,-0.08761],[0.08453,-0.28089,-0.14133,-0.19653,0.12339,-0.18329,0.14947,-0.07227,0.00391,0.30393,0.12074,0.18924,0.09611,0.07864,-0.07904,-0.04256],[-0.23757,0.0326,0.47735,-0.21176,-0.23344,0.05473,-0.03079,-0.0724,0.00333,-0.09276,0.04717,-0.27728,-0.16041,-0.27549,0.03619,0.28246],[0.1495,-0.14942,0.13876,0.097,-0.33908,0.10962,0.06207,-0.20175,-0.0515,-0.37422,0.09328,-0.04478,-0.08026,0.1969,-0.13387,-0.10574],[0.24003,-0.00191,0.09515,-0.13655,0.08312,-0.06606,0.03613,0.2187,-0.05435,-0.08544,-0.12994,-0.19496,0.17848,-0.05254,-0.08087,-0.15951],[0.08698,-0.03011,0.10187,0.14692,-0.15991,-0.16977,-0.06463,0.0319,-0.29338,-0.08365,0.15002,-0.18096,-0.28775,-0.14633,0.12735,0.00595],[-0.09741,-0.26851,-0.24799,-0.00022,-0.09123,0.19004,-0.08206,0.00572,0.08488,-0.25745,-0.14927,0.10006,0.08471,0.09794,0.10943,-0.01695],[-0.21092,-0.08731,0.0214,0.02182,0.17296,-0.11584,-0.24821,0.09615,-0.12525,0.06112,0.10701,0.31179,0.02823,0.00448,0.02451,-0.18929],[-0.10938,-0.10997,-0.02503,0.31076,-0.1692,0.00492,-0.30966,-0.04909,-0.18684,0.06624,0.16131,0.18379,-0.12125,0.10007,-0.05273,0.18584],[-0.26825,0.18764,-0.28307,0.0388,-0.19469,0.00659,-0.22502,0.08752,0.00148,-0.05242,0.17212,0.26562,0.04575,-0.17458,0.18742,-0.25017],[-0.10944,-0.1269,-0.25268,-0.06467,0.38391,-0.2978,0.09292,-0.34814,-0.06848,0.15096,0.06427,-0.1695,-0.14866,0.2586,-0.20153,0.13864],[0.1929,-0.0409,0.16709,-0.11369,-0.2668,0.23819,0.11806,-0.12586,0.06043,0.27405,-0.26178,0.13243,0.22168,0.17503,-0.02949,-0.20003],[-0.07229,0.06838,-0.10762,0.36204,-0.02144,0.26595,0.28352,-0.07791,-0.33313,0.13515,-0.15205,-0.29004,0.13683,-0.10129,0.08358,0.0686],[-0.00302,-0.10732,0.29747,-0.10405,0.21911,-0.19462,-0.00062,-0.29188,-0.29647,0.35514,0.25006,0.25249,-0.27806,0.01722,0.18394,0.05516],[-0.12934,0.25835,-0.11888,-0.12389,-0.11933,-0.21511,-0.20367,0.13071,-0.14258,-0.08116,0.13477,0.15315,0.21725,-0.22624,0.10368,0.18209],[-0.33949,0.1309,0.04668,0.01799,-0.05416,-0.06048,0.06339,-0.15827,0.20211,-0.13271,0.1561,-0.03482,0.04187,-0.07383,-0.31746,0.07507],[-0.17886,-0.11697,-0.13119,-0.14967,0.33219,0.18271,-0.11719,0.0253,-0.1794,0.08944,0.11233,-0.1547,0.19691,-0.17765,-0.18532,-0.10171],[0.06855,0.21972,0.18276,0.00081,-0.27792,0.12103,-0.19082,-0.13452,-0.22699,-0.23746,-0.13126,0.08561,0.1383,0.01123,-0.04152,0.04583],[-0.09101,-0.18378,-0.07554,-0.1422,-0.16196,-0.16063,-0.20184,-0.04779,-0.25564,-0.25715,-0.11407,-0.11279,0.01635,0.28745,0.06114,0.17495],[-0.13813,-0.13627,-0.0428,0.06936,0.22515,0.08293,0.2914,-0.11434,0.21204,-0.06543,-0.10561,0.01086,0.12229,0.01578,-0.13231,-0.03532],[0.016,0.03222,-0.0428,0.01808,-0.38159,0.00664,-0.14958,-0.48956,0.03265,0.36657,-0.10095,0.03783,-0.22159,-0.05673,-0.0413,-0.02613],[-0.04792,0.12104,0.07535,-0.01643,-0.00461,0.21024,0.053,0.33995,0.28633,0.12111,-0.04546,0.06078,0.00565,-0.24981,-0.23563,-0.02512]],"blocks.1.mlp.0.bias":[-0.0294,0.06714,0.01001,0.20542,0.1491,-0.12325,0.16295,-0.24038,0.08805,0.07238,-0.02842,-0.26641,-0.12668,-0.16241,-0.03203,-0.07197,-0.15479,0.22559,0.14925,-0.14185,-0.00141,0.18792,-0.00414,0.09458,-0.1321,0.10058,0.04698,0.13954,-0.07948,0.2187,-0.08189,-0.1872],"blocks.1.mlp.2.weight":[[-0.11986,-0.01798,0.18724,0.03469,0.08127,0.0534,0.06741,0.02715,0.0889,-0.06189,-0.05126,-0.07083,-0.18131,-0.02238,-0.14081,0.03923,-0.01083,0.01183,0.23223,0.28331,-0.07421,-0.21669,0.15556,-0.15992,0.1005,-0.06975,0.05883,0.07666,0.13049,-0.05827,0.13549,0.19268],[0.02046,-0.12975,-0.22153,-0.1443,0.13344,-0.13968,-0.18763,-0.10334,0.1955,0.12015,-0.00483,-0.05718,-0.02522,-0.15223,0.1914,0.17529,0.22644,-0.01789,0.19151,0.13316,0.20194,-0.15142,-0.05465,-0.0184,-0.26482,0.15693,-0.03182,-0.17938,-0.02414,0.15559,-0.23356,-0.00619],[-0.22021,0.01141,-0.235,-0.11654,0.1437,0.0224,0.04321,0.16942,0.16226,-0.07792,-0.05223,0.00584,0.28214,0.02429,0.10141,-0.01509,0.10109,0.15943,0.12679,-0.12876,-0.11275,0.26437,-0.25618,0.00401,-0.15215,-0.00676,0.003,0.21228,0.12684,-0.13503,-0.05286,0.09416],[0.11038,-0.02746,0.00855,0.17147,-0.08618,-0.08112,-0.2002,-0.06982,-0.14487,0.19358,0.0536,0.0925,0.09613,-0.01389,-0.11081,-0.08181,0.03168,0.19532,0.18407,0.07104,-0.01655,-0.2016,0.08638,-0.1463,-0.04698,0.04565,0.06555,0.04015,0.0689,0.19258,-0.17752,-0.05141],[0.08511,-0.13194,0.02381,0.27084,0.25458,-0.02066,-0.17682,0.1534,-0.05334,-0.16324,-0.00655,0.161,0.1736,-0.0614,-0.03502,0.07693,0.10512,-0.09523,0.06867,-0.11542,-0.06285,0.05999,-0.05158,0.20803,0.10106,-0.05435,0.07864,0.09398,-0.11482,-0.01981,-0.05537,-0.02475],[0.07073,-0.1205,-0.02422,0.14105,-0.11599,0.03635,-0.08668,-0.0835,0.12435,0.17462,0.03275,0.05866,0.10877,-0.03507,-0.09638,-0.19607,-0.03688,0.10951,0.05833,-0.03862,-0.13522,-0.15428,0.09825,-0.20914,0.07264,-0.10146,0.11269,0.00373,0.03517,-0.18757,0.04439,-0.10207],[-0.17688,0.10777,0.05109,-0.11328,0.11538,-0.02484,-0.0117,0.24674,-0.09216,-0.03007,-0.03928,0.17467,-0.14845,0.26182,-0.10904,0.01738,0.09177,0.05897,0.16382,-0.0632,0.11543,-0.05812,-0.20441,-0.16995,0.00633,0.21087,-0.11385,0.22334,0.02261,-0.03283,0.11208,-0.10427],[-0.26735,-0.21359,-0.0687,-0.0572,0.17636,-0.21319,-0.08444,-0.08451,-0.09471,-0.06859,-0.2058,0.1059,0.16475,0.04198,0.02511,0.10052,-0.06255,0.13986,0.20054,0.04406,0.16797,0.13489,0.06017,-0.1199,0.23771,0.13105,0.15443,-0.05519,-0.20429,0.08633,0.44047,-0.29272],[0.05167,-0.0647,0.16157,-0.10277,0.00558,-0.18064,-0.05722,-0.05614,0.07762,-0.01609,0.02175,-0.00539,-0.2587,-0.02462,-0.07243,-0.09587,0.14218,0.02494,-0.17031,0.02975,0.01172,0.12175,0.22433,-0.01122,0.31851,-0.06569,0.06903,0.03034,0.08309,-0.04046,-0.08263,-0.09449],[0.10768,0.21277,-0.14386,-0.08909,0.01656,-0.24803,0.09374,-0.05841,-0.02716,0.12332,0.17658,-0.11469,-0.05797,-0.12246,0.23699,-0.00786,0.04945,-0.04628,0.04324,-0.07251,-0.01745,-0.09724,-0.14697,0.16365,0.04413,0.06254,-0.03495,-0.00788,-0.06581,-0.00585,-0.18824,0.18707],[0.24251,0.09929,0.13042,-0.18633,0.00488,0.04646,0.09303,0.08871,-0.0245,-0.02844,0.29022,-0.23423,-0.17557,-0.21643,0.19942,0.10694,-0.01766,-0.19359,0.0405,-0.2584,-0.02027,0.01413,-0.04306,-0.08838,0.13942,0.16453,-0.15057,-0.01157,-0.21977,0.07219,0.20868,0.01405],[-0.01511,-0.09681,0.14363,-0.01358,0.12418,0.19473,0.13039,0.20798,0.20407,-0.02004,-0.16823,0.03265,0.00715,0.19888,-0.09414,0.06967,0.04422,-0.08926,-0.08712,-0.11072,0.20808,-0.06861,0.09627,-0.09895,-0.08309,0.01846,-0.14027,0.00087,-0.00278,0.13453,-0.17279,-0.02019],[0.13487,-0.01717,0.15329,0.13257,0.13206,-0.08283,0.05567,0.24949,-0.22694,0.00984,-0.01338,-0.14533,-0.04288,-0.01653,-0.10262,0.04496,-0.06889,0.08846,-0.07016,0.04364,0.00822,-0.1513,-0.11361,-0.01887,-0.07146,0.12724,0.10636,0.12939,-0.15186,0.10036,-0.10753,-0.11704],[-0.1113,0.18109,-0.00854,0.15103,0.07915,0.14237,-0.02205,0.1114,-0.01607,-0.05094,0.01184,0.02902,-0.14883,-0.2418,0.05586,0.24138,-0.27159,-0.02729,-0.01664,0.03076,-0.24796,-0.05835,0.09738,0.10501,-0.1239,-0.10461,0.16966,-0.04302,0.18788,0.02541,0.05341,0.19903],[-0.07448,0.21013,-0.09631,0.0465,-0.15891,0.16326,-0.07423,-0.15463,0.03226,0.01583,0.00539,-0.02917,0.08092,0.1169,-0.20649,-0.05494,-0.05593,0.17686,0.07496,0.30434,-0.05667,-0.0137,-0.02209,0.25945,0.05709,0.12148,-0.19303,-0.03169,-0.16531,0.04632,0.14976,-0.08457],[-0.06107,0.01878,0.0563,0.05043,-0.16674,-0.21315,0.13425,0.07785,0.0367,-0.12581,-0.15584,-0.31125,-0.02175,-0.1264,0.00716,-0.26826,-0.1753,-0.00771,-0.03115,0.05751,0.06406,0.02545,0.07325,-0.21773,-0.0141,-0.08779,-0.14464,0.04188,0.01842,0.04561,-0.15521,0.26542]],"blocks.1.mlp.2.bias":[-0.14059,0.05926,-0.10713,0.12138,-0.03725,0.15959,0.07222,0.08203,-0.11029,-0.03284,0.05427,-0.15518,-0.02499,0.08529,0.04086,0.03982],"norm.weight":[1.60322,1.85831,1.68294,1.61571,1.95785,1.71784,1.61632,1.81539,1.60238,1.64107,1.75579,1.82913,1.54641,1.72493,1.74993,1.69738],"norm.bias":[-0.0585,-0.04223,-0.10236,-0.01016,0.06727,0.00589,-0.09335,0.00734,0.14726,0.06116,-0.04514,0.03526,-0.03432,0.00313,0.02781,-0.04453],"head.weight":[[-0.56781,-0.42847,0.76895,0.04412,-0.12962,0.40956,0.3124,0.08443,-0.61246,0.41853,0.50911,-0.05097,0.21021,-0.59233,0.05718,0.38736],[0.52167,0.65084,-0.15525,-0.21544,-0.64467,-0.32035,0.33597,0.59534,-0.63366,0.03318,0.49213,-0.36114,-0.11013,-0.03416,-0.15029,-0.44059],[0.51301,-0.01576,0.58075,0.26489,0.00783,0.05883,0.30604,-0.39941,-0.36076,-0.47178,-0.36317,0.03269,0.24004,0.31071,-0.46272,0.45044],[-0.216,0.26267,-0.09449,-0.0142,0.3135,-0.42002,-0.15952,-0.72381,-0.29655,0.60426,-0.4027,0.03025,-0.38118,0.54003,0.29039,-0.10637],[0.18673,0.23191,-0.21678,0.34586,-0.19032,0.44193,-0.28441,0.38752,0.2819,-0.40839,-0.48008,-0.4736,0.0617,-0.61235,0.65371,-0.36921],[0.22322,-0.70204,-0.016,-0.57241,0.42024,-0.31647,0.48561,0.41155,0.09468,0.24661,-0.03106,-0.00904,-0.38089,0.38748,0.41369,-0.34348],[0.10082,-0.59706,-0.63925,0.22129,-0.17462,0.07524,0.62727,-0.51069,0.35987,-0.37262,0.61136,0.42203,0.24929,-0.44245,-0.01818,-0.29705],[0.22724,-0.20442,-0.00246,0.15682,0.38375,0.4246,-0.54647,0.12324,0.32953,0.43798,0.21665,-0.75738,0.46037,0.55875,-0.5171,0.09796],[-0.0485,0.07812,-0.2645,-0.58527,-0.29306,-0.26494,0.122,0.23093,0.31254,0.26606,-0.30742,0.57046,-0.33099,-0.28177,-0.41162,0.70123],[-0.59652,0.42071,-0.01844,0.18227,0.68238,0.17633,-0.14219,0.65934,0.39347,0.12949,-0.39525,0.24756,0.36241,-0.09983,-0.46133,-0.46662]],"head.bias":[-0.17602,-0.0466,0.16391,-0.0825,-0.1573,0.23408,-0.11459,-0.1033,-0.22182,-0.20076]}