{"cls_token":[[[0.02302,0.06755,-0.04725,-0.00363,-0.07281,0.01704,0.00171,0.05862,-0.01755,0.04216,0.00462,0.01127,-0.0624,0.03163,0.02614,-0.01237]]],"pos_embed":[[[-0.01204,0.03982,-0.05609,-0.01486,-0.0499,-0.03089,0.00691,0.0593,-0.03881,0.01479,0.01055,-0.02595,-0.08845,0.00447,0.00079,0.02123],[-0.25859,-0.03085,0.11734,0.04574,-0.06803,-0.06381,0.07314,0.0816,0.08007,-0.26399,-0.06349,-0.04,-0.05046,-0.02784,0.21692,0.01884],[-0.12918,-0.06243,-0.12773,0.10511,0.00942,0.10607,-0.05614,-0.09353,0.26926,0.02903,0.35602,-0.00204,0.0049,-0.26169,-0.21486,0.04486],[0.26128,0.09253,-0.25774,0.12919,0.1187,-0.14899,-0.0458,-0.16675,0.09678,0.17667,-0.0168,0.07424,0.00635,0.07076,-0.09319,-0.16206],[0.11422,-0.05395,-0.01582,-0.2548,-0.01269,0.07332,0.03369,0.22724,-0.25029,0.13285,-0.09086,-0.16076,0.09494,-0.01367,0.1636,0.12846]]],"patch_embed.proj.weight":[[0.20689,0.0455,0.06414,0.02026,0.03699,0.12373,0.16364,0.16191,0.00021,0.01587,0.05069,0.02719,0.01647,-0.06454,0.06714,0.07058,0.08134,0.00067,0.03238,-0.06568,0.04711,0.08162,0.01086,0.00646,-0.01238,0.01034,0.00304,0.04816,0.01677,0.10595,-0.00192,0.10495,-0.01854,-0.0392,-0.01896,-0.00334,0.05595,0.01194,0.0399,0.05683,-0.0706,0.08788,-0.0212,0.05331,0.03091,0.02045,0.01202,0.12606,0.04723,-0.00861,-0.08267,-0.03281,-0.00243,-0.00522,-0.06497,-0.08305,-0.0895,-0.0218,-0.00639,-0.10826,0.01361,-0.05164,-0.00108,0.05414,0.11814,0.00207,0.01963,-0.05231,0.04086,0.03467,0.01225,-0.09344,-0.11121,-0.12417,-0.08747,-0.09341,-0.04673,0.06408,-0.02181,0.13775,0.05728,0.08239,-0.0298,-0.03203,-0.07915,0.02194,-0.06202,-0.03947,0.02846,0.02002,-0.06082,-0.04555,-0.00084,0.08055,0.03786,0.0198,0.01834,-0.00574,-0.03755,-0.06036,-0.03661,-0.12187,-0.02294,-0.04556,-0.05253,0.04622,0.05564,0.00304,0.03576,0.06362,-0.00762,0.00841,0.03938,-0.06261,-0.01908,0.00098,-0.03435,-0.03883,0.08842,-0.00025,0.03076,0.04871,0.03325,0.0712,0.06831,0.03148,0.04407,-0.06138,0.02515,0.00023,-0.05216,0.00568,-0.10863,0.02028,0.00711,0.05925,0.04105,0.00587,0.07945,0.06347,0.04085,-0.01462,-0.0555,-0.00385,-0.00571,-0.01966,-0.03456,-0.11707,0.00448,0.03538,0.09646,-0.0142,-0.0418,0.07817,0.00479,0.05722,0.01309,0.02128,-0.03954,-0.07862,0.05866,-0.02763,-0.03788,-0.0245,0.07298,-0.00981,0.0077,0.01864,0.04061,0.10052,0.07384,0.08621,0.0011,-0.02866,-0.02864,-0.00561,0.1143,-0.04937,-0.08841,0.02579,-0.00578,0.07941,0.03032,0.01722,0.04545,0.04246,-0.05916,-0.08557,-0.09739,-0.06075,0.02266,-0.00867,0.09338,-0.0056,-0.03646,0.05861,0.02329,-0.038,0.08094,-0.02408,-0.01807,-0.0251,-0.10372,-0.02215,-0.04563,0.02542,-0.00888,-0.06678,0.0366,0.00531,0.05033,-0.02652,-0.02299,-0.00825,0.00302,0.0429,-0.05603,-0.09109,-0.03756,-0.00723,0.03559,0.08226,-0.03201,-0.03042,0.11316,0.11265,0.06324,0.03157,-0.0097,0.00447,-0.10605,-0.11128,0.01396,-0.02887,-0.04526,-0.00017,0.08879,0.03592,0.0265,-0.01278,0.11435,0.08784,0.08122,0.06845,-0.04072,-0.00086,-0.02855,-0.00156,-0.01117,-0.04698,-0.09085,-0.03003,0.03208,-0.01552,-0.01053,0.01258],[0.05751,0.11284,0.09243,0.00514,0.0242,-0.00952,0.02838,0.06811,0.06453,0.05097,0.0658,0.01421,0.01424,-0.01623,-0.03831,-0.03864,-0.10375,-0.07359,-0.08561,0.03999,0.01549,0.10638,0.0504,0.07368,0.04556,0.066,-0.0316,-0.0493,-0.07487,-0.08386,-0.01875,-0.10392,0.00875,-0.06956,-0.00426,-0.01909,0.06161,0.07888,0.0579,0.07248,0.04497,0.06104,0.05995,0.01369,-0.01247,-0.06473,-0.05919,-0.04164,0.01232,-0.07424,-0.0449,-0.00064,0.05636,0.02138,0.07177,0.01309,0.0706,0.04782,0.10977,0.13948,0.14104,0.11719,0.10076,0.08971,-0.04906,-0.04615,-0.05088,0.02537,0.049,-0.0231,0.02671,-0.026,0.04244,0.00103,0.09369,0.14547,0.12068,0.1141,0.08486,0.10763,0.01726,-0.08097,-0.03808,-0.02879,-0.03413,-0.01074,-0.06484,0.02827,0.04479,0.00064,0.03947,-0.01609,-0.02593,0.01633,0.09683,0.09356,0.04782,-0.00134,0.00816,-0.05348,-0.05292,-0.0739,-0.06395,-0.01411,-0.07283,-0.07021,-0.0024,-0.07444,-0.05752,-0.05537,-0.04684,0.00229,0.04431,0.05609,-0.0155,-0.0037,-0.06888,-0.07245,-0.04703,-0.06205,-0.0176,-0.08117,-0.0148,-0.11459,-0.05384,-0.08119,-0.0091,-0.02742,0.02217,0.05064,0.06356,-0.01231,-0.0544,-0.06353,-0.06695,-0.08819,-0.02947,-0.03927,-0.01909,-0.00956,-0.07683,0.03499,-0.01303,-0.0386,0.06776,0.09069,-0.00918,-0.08045,-0.0706,-0.03593,-0.00472,0.02061,0.02386,0.00058,0.03774,0.07242,0.00588,-0.01948,-0.00599,-0.0285,0.13354,0.00834,-0.09477,-0.10252,-0.06151,0.01695,-0.06008,0.06822,-0.00407,-0.06737,0.02865,0.02015,-0.01193,-0.07554,-0.03994,-0.09572,0.06104,-0.04949,-0.15101,-0.19648,-0.06077,-0.13295,-0.03715,-0.07286,-0.06536,-0.00364,-0.04652,-0.01609,-0.0487,-0.05365,0.02312,0.0786,0.04773,-0.02154,-0.01832,-0.02533,-0.09238,0.01769,-0.00915,-0.02428,-0.0202,-0.0124,-0.00975,0.08858,0.11886,0.07445,0.05622,0.14258,-0.00225,0.06117,0.06805,0.06553,0.08948,0.04615,-0.02995,0.04471,0.02355,-0.04529,0.02325,0.04318,0.07627,0.16056,0.0675,0.07832,0.01903,-0.0555,-0.01729,-0.02434,0.01359,0.03734,0.04868,0.01318,0.02853,0.04908,0.06468,0.07015,0.08488,0.014,-0.07636,-0.03177,-0.09054,-0.11205,0.01527,-0.01571,0.00189,-0.00985,-0.02436,0.0155,-0.03514,0.015,0.00183,-0.09674,-0.10157,-0.10229,-0.11921,-0.03853],[0.0784,-0.06555,0.02252,-0.02041,0.0253,-0.05337,-0.08252,-0.02335,-0.01072,0.00787,-0.07372,-0.02732,0.02284,-0.00514,0.061,-0.03236,0.08389,0.06326,-0.05608,0.04725,0.07039,0.01494,-0.07351,-0.07483,-0.09254,-0.05805,-0.06185,-0.05352,-0.02424,-0.04889,-0.07051,-0.0529,-0.00363,0.07678,0.10437,0.01346,-0.01662,0.06107,-0.04336,-0.03446,-0.06584,-0.11375,-0.02074,-0.05032,-0.02287,-0.05178,-0.00573,-0.04155,-0.02682,0.05302,0.04379,-0.02269,-0.00131,-0.06194,-0.02755,-0.01744,-0.01635,-0.04378,-0.03627,-0.02675,-0.13583,-0.13212,-0.08819,-0.16137,0.03236,-0.09705,-0.09423,-0.05882,-0.00675,-0.10994,0.01623,-0.03814,0.0305,-0.07636,-0.05739,-0.04147,-0.02712,-0.03643,-0.08454,-0.13493,0.0593,-0.03738,-0.07688,0.0288,0.00641,-0.0477,0.028,0.03006,-0.00305,0.07532,0.00301,-0.06195,-0.02078,0.03065,-0.02552,-0.04832,-0.08053,-0.0506,-0.06251,-0.08617,-0.05095,-0.00516,0.10186,-0.0342,0.01746,0.14083,0.0411,0.03003,0.00426,0.0414,0.0237,-0.08161,0.01124,-0.04795,-0.09575,-0.06401,0.0452,0.00666,0.01001,0.07652,-0.01547,0.07317,-0.00898,-0.02761,0.08019,0.04105,0.04062,0.04739,-0.00802,0.02186,-0.09949,-0.01045,0.03508,0.05504,0.00084,-0.04242,0.05905,-0.03443,-0.00174,-0.01346,0.06845,-0.0581,0.04106,-0.01172,-0.03383,-0.09687,-0.0755,-0.02703,0.03511,-0.00487,0.03516,-0.00725,-0.00792,0.00522,0.04897,0.02678,0.0158,-0.02878,0.04202,0.04851,0.05553,0.05111,0.02,0.00448,0.08162,0.04011,0.03011,-0.00304,-0.10545,-0.05478,0.05131,-0.03939,0.03058,-0.00544,-0.06602,0.0837,0.05354,0.00897,-0.02227,-0.02283,0.00334,0.01214,-0.02772,-0.01397,0.02005,-0.02252,0.04376,0.03066,0.01816,-0.02569,-0.05072,0.00291,0.04146,-0.02275,-0.05108,-0.01685,-0.043,-0.05048,-0.00226,-0.04336,-0.06473,0.03982,0.01039,0.00734,0.02922,0.02288,0.07973,0.0563,0.10983,-0.0575,-0.02202,0.00876,-0.0236,-0.06305,-0.04786,-0.03802,-0.01786,0.06429,-0.01145,0.00079,0.00385,0.01696,0.11573,0.13663,0.06406,-0.06706,-0.06802,-0.01377,0.0875,0.0207,0.02553,0.0347,0.02087,0.00794,0.05099,0.07137,0.01887,0.06272,0.0978,0.03258,0.00989,-0.00441,-0.08414,-0.1306,0.02271,0.03893,0.02317,0.07102,0.11884,0.09426,0.06227,0.0619,-0.0106,-0.03373,-0.06536,-0.06939],[-0.0376,-0.05473,-0.03417,-0.10598,-0.11883,-0.08738,-0.16805,-0.0266,-0.06106,0.05484,5e-05,0.00442,0.07437,0.02893,0.02668,0.03165,0.03166,0.00483,-0.0032,-0.03078,-0.00718,-0.01858,-0.0346,-0.03323,0.06449,0.12867,0.01418,0.07558,0.09018,0.09975,-0.03768,0.10157,0.0769,0.09372,0.00792,0.02022,-0.07414,-0.03704,-0.07852,-0.04463,0.02726,0.02076,0.09302,0.08286,0.06507,0.09154,0.04891,0.04802,-0.03346,0.11145,0.04029,-0.04003,-0.09643,-0.1427,-0.08121,-0.02995,0.03653,-0.02863,0.11149,0.03109,0.04143,0.09182,0.02821,0.15874,0.0292,0.06925,0.12389,-0.04452,-0.10508,-0.11946,-0.01002,-0.0171,0.03721,-0.00975,0.00338,0.0396,0.0212,0.1032,0.08711,0.08992,-0.04358,0.06982,0.01058,-0.01877,0.01159,-0.06895,-0.03458,-0.04457,-0.02788,-0.06149,0.0632,0.11879,0.0523,0.05352,0.01766,-0.00451,-0.04025,-0.0519,0.02454,-0.06618,-0.11613,0.01034,0.01435,0.03582,0.00111,0.01146,0.01003,-0.02812,-0.07128,-0.03422,-0.06311,-0.04252,-0.01977,-0.00521,-0.0326,-0.05559,-0.03643,-0.00824,-0.02641,0.03895,0.00145,-0.07407,0.00115,-0.04376,-0.11924,-0.03304,-0.02959,-0.097,-0.03812,-0.08956,-0.09366,-0.0706,-0.12595,0.02928,0.05809,-0.07296,0.00655,-0.01643,-0.01188,0.01825,0.00042,-0.05973,-0.08196,-0.08837,-0.04554,-0.11434,-0.13017,-0.12133,0.01847,-0.0076,0.02982,0.04517,-0.00687,0.00803,-0.01183,0.00179,-0.06972,-0.03882,-0.01078,-0.04877,-0.02866,-0.19983,-0.13037,-0.0925,-0.01984,-0.06402,-0.02311,-0.03024,0.09319,-0.00558,-0.02903,0.0058,-0.04923,0.00028,-0.0171,-0.07501,-0.07545,-0.13,-0.03984,0.00329,-0.03888,-0.00316,-0.08276,0.00186,-0.00453,0.01125,0.06611,0.05225,-0.02392,-0.02298,-0.00328,-0.01609,0.0348,-0.03456,-0.01985,0.08315,0.00415,0.07257,0.02748,-0.01749,0.04606,-0.02473,0.07869,0.05094,0.10569,0.08689,0.03093,-0.05178,0.08316,0.08475,0.0756,0.09971,-0.0379,0.00258,0.1051,0.06232,0.05303,0.0552,0.07568,0.02517,0.0152,0.07497,-0.0672,-0.13493,0.13268,0.03537,0.06776,0.02616,0.05164,0.04539,0.07156,0.00691,0.08677,-0.03857,0.0025,-0.10147,-0.05078,0.01396,0.00037,-0.00175,0.03904,0.02894,-0.02116,0.0251,0.02272,0.07278,0.02634,-2e-05,-0.03277,-0.00661,-0.05104,-0.03236,-0.07218,0.0087,0.11571,0.04882],[0.04477,0.09888,0.06101,0.10611,0.13685,0.0195,0.04624,0.05445,-0.06835,-0.08124,-0.03857,-0.07285,-0.00239,0.05363,-0.01742,0.03764,0.00238,-0.01239,0.02448,0.00405,0.05718,0.00072,-0.02258,-0.00568,0.00276,-0.04591,-0.06964,-0.05677,-0.04149,-0.02144,-0.05349,-0.02518,-0.06868,0.06497,-8e-05,0.00377,0.0506,-0.05224,-0.01115,-0.00549,-0.04337,0.02599,0.00123,-0.03116,-0.0129,-0.04297,0.00144,0.03113,-0.00594,0.01207,0.01571,0.03221,-0.02262,-0.02749,-0.03519,-0.112,-0.10286,-0.041,0.00421,0.03207,0.09018,0.08286,-0.03448,0.1314,-0.03168,-0.02192,-0.00809,-0.00394,0.0173,-0.063,-0.03488,-0.08823,-0.01913,0.03725,0.04708,-0.06993,-0.01186,0.02972,-0.02221,0.07142,-0.08254,-0.0958,-0.01541,-0.00625,-0.00272,0.08251,0.1179,-0.00566,-0.02641,-0.09398,-0.00992,-0.10551,-0.09006,-0.03388,-0.00358,0.05968,-0.075,-0.04731,-0.08917,0.02035,-0.00693,-0.01724,0.05965,0.01174,0.03539,0.00833,-0.01912,-0.03662,0.00249,-0.07014,-0.05281,0.00217,-0.07439,0.03807,-0.02272,0.04539,-0.01074,0.00416,-0.04182,0.03124,0.0392,0.00202,0.05978,0.05006,0.01905,-0.00051,-0.01195,0.10192,-0.1002,0.00794,-0.05214,0.04985,-0.00091,0.0511,0.0553,0.01257,-0.02504,-0.00034,-0.04552,0.00418,0.01752,0.00868,0.04126,0.06481,0.05978,-0.00889,0.01955,0.05078,0.03419,0.09749,-0.02171,-0.01371,0.06444,0.06157,0.04922,0.03277,0.0448,0.0593,0.05436,-0.0215,0.02355,-0.01199,0.05438,0.12412,0.0796,0.1338,0.03793,0.0335,0.01051,0.05717,0.07978,0.04635,0.02663,0.02134,0.04396,0.05547,-0.04317,-0.06555,0.02525,0.10054,0.08091,0.06424,0.02798,0.0821,0.02845,0.06621,0.01622,-0.03443,0.01761,-0.02208,-0.02408,0.02972,-0.08111,0.01745,0.0287,0.08178,0.02668,0.01293,0.00762,0.07368,0.06812,0.06457,0.02798,-0.0113,0.00436,-0.05054,-0.11862,-0.00233,-0.09204,-0.00425,0.02984,-0.0081,-0.00577,0.05297,-0.01816,0.06417,0.00863,-0.03438,-0.03418,-0.08879,-0.12752,-0.119,-0.08883,-0.03287,-0.0913,-0.0111,0.04651,0.01844,-0.01942,0.00356,0.00592,0.00989,-0.05002,-0.06935,0.01629,-0.07884,-0.14641,-0.09136,-0.0,0.02361,-0.12361,-0.08942,-0.03581,-0.06538,-0.10144,-0.07244,-0.10989,-0.11444,-0.06769,-0.06839,-0.03578,-0.08139,0.0011,-0.05254,-0.05157,-0.03595],[-0.02649,-0.01076,-0.041,-0.00543,0.04224,0.00535,0.05467,0.08148,0.10593,-0.01427,0.0173,-0.11462,-0.08639,-0.11055,-0.07521,-0.00172,0.07144,0.01229,-0.02462,-0.04113,-0.04796,-0.05805,-0.03366,-0.02705,-0.01245,0.03587,-0.03075,0.04347,-0.02957,-0.05436,-0.03038,-0.04481,-0.00964,-0.05872,-0.12222,-0.08036,-0.11795,-0.08785,-0.10471,-0.02392,-0.02658,-0.02688,0.05506,0.04511,0.00698,0.06188,0.02108,-0.00339,-0.05212,-0.08993,-0.03196,-0.05184,-0.14797,-0.05057,-0.09688,-0.053,-0.03832,-0.05728,0.01492,0.0255,0.07997,0.00286,0.0068,-0.00943,0.01081,-0.05671,-0.00804,-0.03749,-0.06879,-0.06433,-0.00782,-0.07696,-0.09176,-0.09277,-0.00079,-0.00596,0.0475,-0.01658,0.0383,-0.02992,0.09115,0.03524,-0.00035,-0.03174,-0.08345,-0.05381,-0.0756,-0.01055,-0.02974,-0.07878,-0.12831,-0.10729,-0.02028,-0.03855,0.02492,-0.11344,0.04517,0.00034,0.01263,-0.04691,-0.0176,-0.10713,-0.02679,-0.02696,0.0095,-0.02919,-0.04398,-0.10065,-0.09368,-0.02712,-0.00467,-0.085,0.02932,0.02684,0.04177,-0.01267,-0.06823,-0.00234,-0.03633,0.00704,-0.04373,0.01927,0.026,0.00946,-0.05498,-0.08444,0.02025,-0.06959,0.00924,-0.01374,0.01193,-0.03822,-0.02527,-0.02667,-0.00123,-0.03917,0.04432,0.12621,0.03564,0.04165,0.00652,0.01917,-0.04289,-0.01188,0.04924,0.0305,-0.0386,-0.08239,-0.01973,-0.04442,-0.05701,0.04578,-0.01898,0.10143,0.08985,0.06033,0.01185,-0.04177,0.0348,-0.04724,-0.00193,0.05889,0.10214,0.06327,0.04174,0.02282,-0.00955,-0.02111,0.05636,0.09873,0.03764,-0.02067,0.02671,0.03726,-0.02807,0.03747,0.09154,0.04454,0.04873,0.04076,0.10918,0.06324,0.06318,0.06418,0.03481,0.02419,0.02491,0.04077,-0.01255,0.0456,0.03494,-0.0085,0.07149,0.09663,0.10561,0.08397,0.04281,0.08812,0.05617,0.04334,0.07118,0.01045,-0.05049,0.02084,0.01519,-0.05085,0.0452,-0.06635,0.04818,0.09223,0.06349,-0.04302,-0.02781,-0.07981,0.05531,0.04882,0.06359,-0.04292,0.02761,-0.01285,0.02056,0.03971,0.03393,0.02984,0.02803,0.05694,-0.07304,-0.00961,-0.00655,-0.01461,-0.07084,0.02735,-0.03445,0.05306,-0.02648,0.02387,0.02983,0.00658,0.00801,0.03149,0.05444,0.02877,0.0164,-0.03059,-0.02992,-0.08361,-0.09469,0.00766,0.01624,-0.02546,0.02838,-0.04152,0.00026,0.02585,0.0859,0.03591],[-0.07017,0.00235,0.00939,-0.00909,-0.0387,0.00671,0.0438,0.00415,0.047,-0.00494,0.06412,0.0043,-0.03837,0.0421,0.07714,0.02076,-0.02822,-0.01238,-0.09651,-0.02924,-0.00684,-0.02425,0.08739,0.08657,-0.01417,0.11511,0.01171,0.02331,0.07526,0.06251,0.02285,0.03353,0.03663,0.02748,0.01871,-0.08221,-0.09161,0.00555,0.03991,0.0411,0.025,0.08704,0.01051,0.01164,0.03085,0.01006,0.06718,-0.01046,0.00433,0.10453,0.09955,0.02986,-0.04712,-0.00371,0.0334,0.02957,0.03727,-0.02234,0.00714,-0.02988,0.0402,0.02676,-0.01211,-0.02199,-0.02764,0.06299,0.09827,0.09225,-0.01122,-0.05601,0.04673,-0.05753,0.00482,-0.02027,0.07878,0.05111,-0.02429,-0.06211,-0.00614,-0.01177,-0.00746,0.08927,0.03154,0.00253,0.06165,-0.01038,-0.03954,-0.02365,-0.01022,0.00458,-0.01187,-0.10142,-0.08604,-0.08446,-0.04738,0.01865,-0.02097,0.08601,0.10514,0.06228,0.01425,-0.00823,-0.01507,-0.10637,-0.03075,-0.1055,-0.11274,-0.11013,0.03192,0.03046,0.01659,0.13205,-0.06233,0.01621,0.11119,-0.00356,-0.01952,-0.02554,-0.0281,-0.0546,-0.08581,-0.04085,-0.09964,-0.06274,0.0177,0.07615,0.08228,0.04914,-0.02453,-0.03091,-0.02171,0.07432,0.043,-0.04239,-0.03622,-0.07206,-0.01558,-0.10375,-0.0119,0.01925,0.06003,-0.01756,0.01236,0.0588,-0.02752,0.03922,-0.02955,-0.0158,-0.03126,-0.07179,-0.1081,-0.07743,-0.07442,6e-05,0.07108,-0.01331,-0.00187,0.0003,-0.02752,0.05923,0.10304,0.03972,0.04529,-0.02987,0.00545,-0.04898,-0.0233,-0.07539,-0.02301,0.0441,0.03672,0.05092,0.02754,0.06091,0.06696,-0.03356,0.09139,0.10807,0.09565,0.06217,0.0703,0.07305,-0.03189,0.04414,0.07599,0.00263,0.03555,0.03539,0.07202,-0.04839,-0.03834,-0.07457,-0.0128,0.0889,0.02619,0.06595,-0.013,0.02775,0.09462,-0.0387,0.01546,-0.00341,-0.09666,-0.13732,-0.09682,-0.11421,-0.03766,-0.01903,0.01133,-0.06256,-0.08214,-0.03963,-0.01836,-0.02096,-0.03868,0.03583,-0.01088,0.02124,-0.06152,-0.11256,-0.04935,-0.09991,0.0317,0.08436,0.00599,0.03712,0.02087,-0.00094,-0.06188,-0.02632,-0.02765,0.04652,-0.00746,-0.04537,0.0358,0.02576,0.02444,0.11896,0.05926,0.08901,-0.04804,-0.01194,-0.02015,-0.01162,0.00974,0.06824,0.06783,0.06348,0.01087,0.03329,0.06201,0.12552,0.12918,0.05819,0.00464,0.00566],[0.0282,0.06837,0.08714,0.02536,0.06,-0.05574,-0.00766,-0.03453,-0.04046,-0.07114,-0.0431,-0.05369,-0.09207,-0.03095,-0.00811,-0.04184,-0.05927,0.0962,0.09343,0.05755,0.11766,-0.00887,-0.00734,-0.04763,-0.05443,-0.027,0.00775,-0.05287,0.02094,-0.10111,0.05509,-0.0287,-0.01672,-0.03119,-0.06166,0.06942,0.10798,0.00673,0.05397,0.00435,-0.06886,-0.05767,-0.02701,-0.06821,-0.00169,0.01646,0.03517,-0.05644,-0.01885,-0.03379,0.04901,0.07063,0.1557,0.00801,0.00841,0.03175,-0.02673,0.03436,-0.08534,-0.03547,-0.06859,-0.02176,-0.07335,-0.04757,-0.02601,0.06123,0.05391,0.11436,0.06316,0.01643,0.03656,-0.02956,0.00585,-0.00179,-0.01884,-0.05701,0.01027,-0.006,-0.07767,-0.09827,-0.08124,0.03467,0.05957,0.09162,0.05628,-0.02708,0.02763,-0.00074,-0.03203,0.00906,0.03246,-0.03116,0.00266,0.08209,0.06007,0.0931,0.0308,0.02599,-0.00931,0.02906,-0.05412,0.02141,-0.06058,-0.03001,-0.08385,0.04365,-0.05684,0.07623,0.02908,0.04772,0.05435,0.1087,0.03063,-0.04461,-0.00598,-0.01524,0.01712,0.00571,0.01795,-0.04926,-0.01422,-0.06743,-0.03685,-0.0163,-0.03963,-0.02909,-0.09035,-0.0286,0.0018,0.03408,0.01805,-0.03094,0.03038,-0.03229,0.01118,-0.04687,-0.03289,-0.01619,-0.04579,-0.03023,-0.03194,-0.00301,0.02258,-0.04843,0.04164,0.01834,-0.0608,0.00293,-0.03695,-0.02941,-0.03175,0.05276,-0.04687,0.01659,0.02753,-0.01569,-0.06313,-0.06043,-0.01751,-0.02204,-0.03726,0.0133,0.00406,-0.06108,-0.05242,-0.0497,0.0182,-0.02185,0.00467,-0.03465,-0.12738,-0.02128,-0.01566,0.01018,0.00126,-0.03504,-0.08475,-0.05385,0.0664,0.02768,0.01382,-0.03169,0.05709,0.07713,-0.01622,-0.01364,-0.02597,-0.07168,0.00824,0.00782,0.01386,-0.06673,-0.20659,-0.03422,-0.01214,0.05621,0.03962,-0.0117,0.00282,0.05928,0.00052,0.05618,0.01775,0.09583,0.02947,0.06056,0.01226,-0.0972,-0.07823,-0.08322,-0.00335,0.08215,0.00359,0.08443,0.08472,0.07245,0.13069,0.06807,0.14092,0.16629,0.0542,0.0663,0.1204,-0.00762,-0.08148,0.00107,0.02701,0.01066,0.05978,-0.00857,0.08595,0.08019,0.04904,0.06299,0.10188,0.06309,0.10974,0.00204,0.04082,-0.00502,-0.08324,-0.03522,0.06823,0.01544,-0.01616,0.05913,0.00353,-0.03555,0.04538,-0.04969,0.01918,-0.0491,0.03284,-0.01517,0.01776,-0.08176],[-0.10524,-0.08614,-0.01462,-0.0375,-0.04061,0.05893,-0.0284,-0.06389,-0.03643,-0.08246,-0.0532,-0.04889,0.0337,0.04598,0.07303,0.07771,0.09324,-0.02506,-0.04293,-0.0789,-0.03078,-0.05559,0.04597,-0.0131,0.01652,-0.04086,0.02588,-0.04797,0.02461,0.06454,0.03857,0.07835,0.0276,-0.08524,-0.03204,-0.14002,-0.0778,0.00046,-0.01367,-0.02923,-0.02614,0.04331,0.00453,-0.00073,-0.04913,-0.00029,0.0249,0.02727,0.0328,-0.07237,-0.10274,-0.07289,-0.07411,0.07783,0.05844,0.09263,0.02542,0.02734,-0.01168,-0.03651,-0.0376,-0.04505,-0.02877,-0.06562,0.01406,-0.0548,-0.01023,0.01452,0.05935,0.04147,0.10122,0.08581,0.06315,0.0115,0.06928,0.0047,-0.00558,-0.01913,-0.03279,-0.00808,0.04997,0.07388,0.02525,0.07623,0.00037,0.04058,0.03323,0.04904,0.03241,0.07663,0.11002,0.04626,0.05045,0.05647,0.061,-0.01731,0.03906,0.00183,-0.02671,0.07922,0.11271,0.06876,0.07711,0.07009,-0.0041,0.08239,0.05575,0.02305,0.04303,-0.00094,0.04281,0.01887,-0.03938,-0.00971,0.02066,0.0097,0.04151,0.02995,0.02322,0.04317,0.06022,-0.03792,-0.00402,0.02287,0.08709,0.0203,0.07119,0.05486,-0.01333,0.05017,0.04089,-0.03843,0.09207,0.08246,-0.00521,0.06526,0.03766,-0.02297,-0.00631,0.0039,-0.00805,-0.02052,-0.00648,0.06341,-0.12776,-0.04911,0.08949,0.09155,0.05818,0.00675,0.03291,-0.03545,-0.02196,-0.01868,-0.01168,-0.07374,-0.06941,0.08344,-0.00141,0.07914,-0.0402,0.01351,0.05139,-0.00381,0.01511,0.01114,0.04078,-0.01455,0.00525,-0.01193,-0.0351,0.00468,0.00533,0.00669,0.05306,0.05944,0.03055,0.04187,-0.0144,0.03685,-0.08149,-0.06201,0.01336,-0.0191,-0.04763,-0.02502,-0.00901,0.00035,-0.03815,0.01534,0.02967,-0.00238,0.07929,-0.01604,0.00257,-0.03632,0.02107,-0.07437,-0.06346,0.00418,-0.07401,0.03395,-0.04266,0.0134,-0.03347,0.02667,0.07364,0.0519,0.00447,0.0592,0.06776,0.01809,0.08124,0.0497,0.00264,-0.01419,-0.04361,-0.09423,0.05657,0.0511,0.04063,-0.05254,0.02907,-0.07072,0.00398,0.02051,-0.02967,0.0439,0.01221,0.00697,0.03803,-0.01886,-3e-05,0.02295,0.00985,0.00347,-0.03027,-0.0461,-0.0141,0.03124,0.11134,0.12829,0.01257,-0.05056,-0.05387,-0.02532,0.06378,-0.03256,0.01427,0.00769,-0.03414,-0.02454,-0.08441,-0.08202,-0.04554,-0.05125],[0.03277,-0.03307,-0.05246,0.00696,-0.03911,-0.03187,-0.00323,0.04356,-0.03318,-0.03639,0.05476,0.01444,0.00178,-0.07221,-0.0702,-0.09529,-0.01071,0.06849,0.06403,-0.00832,0.07398,0.03464,-0.05142,0.05232,0.02322,-0.00411,0.06338,0.1099,0.04644,0.03901,0.03038,-0.03643,0.01978,0.02905,0.05707,-0.02244,0.01058,-0.02529,0.03735,0.04366,0.0458,-0.00152,0.04676,0.04132,0.00784,0.12347,0.06631,-0.00373,-0.06858,0.0232,0.0463,-0.00633,0.068,0.02544,0.02194,0.02351,-0.03056,0.01487,-0.00802,-0.02266,0.02761,0.08113,0.08858,-0.02342,-0.06251,-0.02762,0.02159,0.04284,0.05783,0.06243,0.07381,0.07942,-0.05891,-0.03866,-0.10483,-0.12556,-0.10929,-0.06398,-0.09148,-0.06345,-0.15785,-0.11054,-0.01233,-0.0017,0.02293,0.05354,0.0387,-0.02215,0.01127,-0.04605,-0.09706,-0.1108,-0.14971,-0.0876,-0.04242,-0.05776,-0.04582,-0.04134,-0.05158,-0.00491,0.06097,0.01032,-0.07473,-0.00162,-0.01614,-0.04905,-0.06624,-0.05552,-0.00972,-0.01833,-0.0826,-0.10941,-0.05954,-0.01945,0.12774,0.1344,0.14201,-0.0305,0.04431,-0.03115,-0.0257,0.07297,-0.06192,0.02945,0.01526,-0.0328,-0.08399,-0.03365,-0.05302,0.01772,0.14434,0.07259,-0.014,-0.02771,0.04488,0.02309,0.09163,-0.00969,0.00558,0.06456,-0.02676,-0.07116,0.02567,0.05435,-0.00583,0.07984,0.15546,0.11786,0.01252,0.07244,-0.00975,0.03463,0.04378,0.02161,0.07628,-0.01173,-0.00381,0.01473,-0.06336,-0.08371,0.02488,0.14579,0.14312,0.04086,0.03175,0.02328,0.08486,0.0145,-0.04779,0.06402,0.04418,0.01821,0.07238,-0.00327,0.0051,0.0267,0.06983,-0.00935,-0.013,0.01736,0.05631,0.03484,-0.03298,0.02536,0.04664,0.05931,-0.00629,0.06396,0.01143,0.04322,0.04126,-0.00751,0.01179,0.00352,-0.03378,0.03302,0.05534,0.06349,-0.01306,0.05807,0.00618,-0.03424,0.07755,-0.03111,0.02026,0.08386,-0.00043,0.00747,-0.04746,-0.03051,-0.01442,0.00503,-0.02157,0.09171,0.03646,0.03651,-0.04929,-0.0203,0.01743,0.01622,-0.05727,-0.00703,-0.08807,-0.12998,-0.02128,-0.07149,-0.07073,0.00178,0.04197,0.02019,0.05075,0.03531,0.01009,0.01755,-0.01133,-0.06265,-0.00396,-0.07662,-0.01907,-0.04849,-0.09696,-0.10918,0.0109,0.00938,0.01545,0.02578,-0.03601,-0.04801,-0.03592,-0.07896,-0.05176,-0.03724,-0.00726,0.01605,0.00027,0.07166],[0.02183,0.06258,0.04144,-0.06041,-0.04825,0.00397,-0.01609,0.01268,0.00955,-0.01373,-0.01104,-0.01301,0.03213,0.0324,0.07016,0.09356,0.07276,-0.03363,0.03328,0.02017,-0.01141,0.05471,0.03236,-0.02123,-0.02228,0.0461,-0.01714,0.08627,0.128,0.10788,0.07991,0.10796,-0.03318,-0.09523,-0.01438,0.03916,0.06488,0.10099,0.03506,0.01914,-0.00844,-0.06918,0.04022,0.08472,0.03164,0.08598,0.04496,0.10791,-0.09015,-0.01747,0.02448,0.05254,0.02063,0.03637,0.06265,-0.00676,-0.04533,-0.04446,-0.02886,-0.07022,-0.09,-0.05804,0.03727,0.01336,-0.07081,-0.06407,0.01969,0.09053,-0.01415,0.0473,-0.06947,0.04762,-0.01591,-0.03142,-0.05323,-0.04915,-0.0409,-0.0634,0.02049,-0.08323,-0.08445,-0.02976,0.10374,0.04263,0.00384,0.01044,0.00811,0.0747,0.02969,-0.07887,-0.07778,-0.02574,-0.01226,-0.007,-0.00831,-0.08774,-0.00756,0.03914,0.01617,0.12797,0.02539,0.01858,-0.05699,0.02466,-0.02494,-0.03383,-0.05806,0.00622,-0.03693,0.04079,0.02141,0.00475,-0.00407,0.02026,0.09725,-0.05799,0.02316,-0.0327,-0.04369,-0.00691,-0.03803,0.03752,0.08707,-0.00647,-0.01643,-0.00166,-0.00272,0.0318,0.05704,0.04145,0.03856,0.01637,-0.06341,-0.03022,0.02074,-0.11524,0.07149,0.11587,0.09327,0.07559,0.05586,0.03631,0.01166,-0.08409,0.05114,0.07784,0.08111,-0.03916,-0.03,0.0084,0.00284,0.00084,0.0319,0.04994,0.01395,0.08124,0.08178,0.05323,-0.03979,-0.08727,0.07999,-0.05998,-0.08915,-0.10975,-0.03451,0.04812,0.05298,0.04885,0.03511,0.03783,0.06496,0.03958,0.04647,-0.00943,-0.07782,-0.00164,0.05973,-0.05504,-0.16277,-0.15401,-0.03285,-0.02,-0.01809,0.0128,0.01976,0.06742,0.05826,0.05178,-0.01084,-0.06033,-0.07763,-0.11241,0.02133,-0.13594,-0.14132,-0.09054,-0.12522,0.01306,-0.03912,-0.04199,0.00174,-0.01944,0.02028,-0.06411,-0.11407,-0.13148,-0.00075,-0.13501,0.09256,-0.15802,-0.0682,-0.03147,-0.04672,-0.01448,-0.00209,-0.01168,-0.08002,0.01594,-0.01129,0.03381,-0.02967,-0.03896,-0.01738,-0.03003,0.09027,-0.00424,-0.07488,0.03677,-0.045,0.02649,0.10216,0.02997,0.01031,-0.02686,-0.1288,0.0454,-0.00126,0.07357,0.05263,0.11768,0.02673,0.02232,0.09711,0.03607,-0.00302,0.03127,0.14889,0.03932,0.01025,0.02473,-0.03485,-0.04398,-0.00227,-0.0069,0.09715,0.04013],[0.13395,0.05635,0.03741,0.06533,0.00708,-0.05153,-0.06367,-0.12412,-0.01947,0.01109,-0.02728,-0.09644,-0.00857,-0.03583,0.02651,0.06806,0.05647,0.0648,0.11864,0.07189,0.02964,-0.12015,-0.11861,-0.06377,-0.10336,0.0353,-0.04787,-0.07885,0.00154,0.00304,0.02662,0.09572,0.04531,0.14635,0.08563,0.02979,0.03878,-0.01568,-0.03205,-0.05957,-0.07968,-5e-05,-0.02814,-0.1023,0.03338,-0.03724,0.02067,0.02653,0.16259,0.07602,0.14488,0.04361,0.06985,-0.05934,-0.05473,0.02419,-0.01825,0.00666,0.00036,-0.00787,0.01828,0.00386,0.01152,0.07212,0.04247,0.02954,0.00128,0.01628,-0.03818,0.0424,-0.03689,0.02075,-0.04624,-0.06033,0.02372,-0.01494,0.07036,0.03307,-0.06638,0.07767,-0.05463,0.0355,0.00289,-0.03863,0.04178,-0.02582,0.04795,0.01477,0.07483,-0.01927,-0.03953,-0.03376,-0.04618,-0.04958,-0.11935,0.0716,-0.02855,0.07408,-0.00389,0.07304,-0.0103,-0.01423,0.01203,0.06719,-0.03062,0.04376,-0.07382,-0.04042,-0.0762,-0.05551,-0.07901,0.03659,-0.0041,0.00915,-0.00525,-0.01333,0.02774,0.02059,-0.0135,-0.01969,-0.0006,0.00133,-0.03686,-0.03952,-0.08602,-0.03175,-0.05295,-0.02047,-0.03089,-0.01353,-0.02391,-1e-05,-0.00169,-0.06452,-0.03261,0.0483,-0.00344,-0.05897,-0.04932,-0.05966,0.00628,-0.0249,-0.00665,0.0323,-0.00825,-0.05656,0.00073,0.04617,0.03783,-0.01136,0.02659,-0.02419,-0.036,-0.01911,-0.00136,-0.06217,-0.00946,-0.00824,-0.01668,-0.00201,-0.10621,-0.04692,-0.04541,-0.04128,-0.027,-0.05515,-0.06508,-0.04438,-0.03116,-0.02724,-0.0643,-0.03984,-0.08355,-0.01251,0.05513,0.05347,-0.08618,0.06992,0.01858,-0.00296,-0.06831,-0.03997,-0.02582,-0.05245,-0.10203,-0.04705,-0.05891,0.02006,0.05859,0.04787,0.01277,0.10499,-0.01522,0.11137,0.07519,0.04583,-0.07428,-0.06007,-0.11463,-0.07109,-0.0694,-0.02701,0.01226,-0.08684,-0.00209,0.03477,0.05312,0.08229,0.09268,0.10381,0.03359,0.05188,-0.00851,0.04891,-0.01595,0.00973,-0.07035,0.0062,-0.06966,-0.00746,-0.08832,-0.0323,-0.01107,0.09924,0.04326,0.01896,0.02672,-0.03101,-0.07453,0.03836,-0.02709,-0.00061,-0.00376,0.01475,-0.04472,-0.04973,0.04194,-0.0207,0.01452,0.02797,0.08417,0.08463,-0.00597,-0.05027,-0.00672,-0.02483,-0.00971,0.05282,0.02137,-0.00248,-0.07024,0.01811,-0.00124,0.04549,0.05921,0.09006],[0.06238,-0.00224,0.01254,0.01006,0.05445,-0.03638,0.03707,0.14388,0.07547,0.075,0.08292,0.01281,-0.09067,-0.13509,-0.10766,-0.15151,0.04843,-0.08758,0.03092,-0.03331,-0.13298,-0.00441,-0.0063,0.07311,0.07186,0.01312,-0.00706,-0.04474,-0.0069,-0.0375,-0.09909,0.00457,0.10349,0.0107,0.00746,-0.02908,-0.09744,-0.11321,0.02097,0.04334,-0.00386,-0.03418,-0.01104,-0.03975,-0.06072,0.00364,-0.01646,-0.04992,-0.02315,0.06237,-0.00074,-0.06025,-0.12261,-0.02817,-0.05289,-0.01315,0.03362,-0.02002,0.0145,0.03418,0.04169,-0.0177,-0.05074,-0.06261,-0.01259,0.01923,0.00803,-0.02772,-0.00714,-0.00122,-0.04782,-0.04559,-0.06189,0.1032,0.09955,0.0702,0.10962,0.0585,-0.03277,0.04416,0.07115,0.05001,0.05391,0.01287,-0.00393,0.05737,0.02862,0.01186,0.0491,0.02444,0.09804,0.04342,0.03385,0.01218,0.08405,-0.06362,0.04163,0.1122,-0.00087,-0.03009,0.05851,-0.04208,-0.02467,0.07279,0.01896,0.03994,0.07748,0.01844,0.08578,0.02793,0.03586,0.071,0.08852,0.06331,0.04412,0.00148,0.03192,0.04974,0.03155,-0.0012,-0.05754,-0.00511,-0.03253,0.06692,0.01224,0.08475,0.05391,0.03694,0.10062,0.00325,0.03005,0.00632,0.05336,0.04366,0.01064,0.0053,0.05226,0.0426,0.03704,-0.0097,0.0472,0.0077,-0.0131,-0.0241,0.03222,0.06415,0.06673,0.09216,-0.01442,0.03714,-0.02055,0.0256,0.00779,0.02821,0.05304,-0.01929,0.02303,0.00247,-0.04839,0.01573,0.00706,0.05938,0.02461,-0.01689,-0.0148,-0.0081,-0.00841,-0.01128,-0.04367,-0.0537,0.03688,-0.03825,-0.03385,-0.07438,-0.05567,-0.06791,0.02893,-0.04059,-0.01555,-0.04667,-0.05778,-0.00338,-0.03597,-0.0551,-0.04294,-0.04675,0.01213,0.03192,-0.06621,-0.01258,-3e-05,-0.00047,0.05283,-0.01902,-0.04628,-0.00692,-0.08982,-0.07058,-0.07627,-0.03108,-0.08439,-0.04962,0.00906,-0.01913,-0.04392,0.00157,-0.0059,-0.14837,-0.02924,-0.02628,0.01285,-0.03588,-0.13719,-0.05604,-0.04981,-0.06262,-0.03453,-0.08376,-0.06345,-0.03996,-0.06578,-0.04834,-0.039,-0.14151,0.01864,-0.11754,-0.13095,-0.05143,-0.05282,-0.07836,-0.02688,0.01488,-0.00128,-0.01328,-0.10127,-0.0095,-0.05917,-0.0654,0.01962,-0.07182,-0.02131,-0.10832,0.02605,-0.00842,-0.02848,-0.0063,0.02891,0.02679,0.02721,0.0919,-0.00482,0.03495,0.04328,0.02973,0.10673,0.00688],[-0.0661,-0.07897,-0.07908,-0.03748,-0.1542,-0.11744,-0.08005,-0.05511,-0.05135,-0.02226,0.04623,0.07912,0.08886,0.11006,0.10421,0.04107,-0.06948,-0.02871,-0.08153,-0.0835,-0.08335,-0.03903,-0.02168,0.00167,-0.07313,0.04907,0.02662,0.097,0.14643,0.06366,0.0259,-0.04566,-0.01639,-0.02149,0.01129,0.03068,0.04442,0.01925,0.01307,-0.01854,-0.05347,-0.00682,0.01574,-0.00043,0.03096,0.05733,0.03703,0.03122,-0.00436,-0.04303,-0.05797,0.006,-0.00972,0.04039,-0.05206,0.03653,-0.01699,-0.03224,-0.09478,-0.09223,-0.0759,-0.05992,-0.03589,-0.00117,0.10263,0.02729,0.02153,-0.06045,0.01014,0.0224,-0.08572,0.02657,-0.04471,-0.09498,-0.0913,-0.09509,-0.13984,-0.07624,-0.02418,-0.01203,0.02563,-0.04447,0.02349,0.02208,0.02844,-0.08279,-0.02128,0.02135,-0.01676,0.02336,0.01083,-0.05997,-0.03312,-0.04141,-0.05186,-0.09117,-0.01165,0.02867,-0.01122,-0.00891,0.00423,0.01537,0.00904,-0.01051,-0.02594,0.03871,0.08563,-0.02509,0.01901,-0.03616,0.02828,-0.0062,0.00624,0.02045,-0.03058,-0.0457,0.00429,-0.00933,0.01162,-0.02002,0.02661,0.01529,0.02408,0.01246,0.03153,0.01982,-0.0125,-0.0317,0.00128,-0.00308,-0.07094,-0.02775,-0.03612,-0.02213,0.06987,-0.001,-0.04143,-0.03797,0.05715,0.03436,0.00135,-0.0128,0.04061,-0.03446,-0.02843,0.01408,-0.02797,-0.00606,-0.00615,0.03188,-0.01097,0.03705,0.01484,0.07293,0.04594,0.09224,0.08679,0.06655,0.03706,0.04116,-0.03334,-0.08429,-0.11168,-0.08357,-0.02178,-0.02622,-0.0615,0.04283,-0.04234,-0.02694,-0.04785,-0.03311,0.0811,0.01361,0.05953,0.04905,-0.0252,0.00562,-0.01837,-0.0806,-0.06548,0.0154,-0.00953,0.01228,-0.03344,0.02909,-0.01043,0.14146,0.04762,0.02302,0.01833,0.13971,-0.06946,0.05127,-0.01819,0.03799,0.03852,-0.00112,-0.01438,-0.01538,0.07036,0.03899,0.11683,0.13378,0.13796,0.01823,0.09718,0.05754,-0.06915,-0.01914,0.04112,-0.01359,-0.03906,-0.0317,0.02443,0.06018,-0.03312,0.04193,0.10486,-0.016,0.00185,0.00637,-0.0356,0.03065,-0.11908,0.00342,0.04177,-0.06641,-0.05355,0.01705,0.04279,-0.04158,0.01778,-0.02211,-0.10609,-0.07591,-0.09115,-0.07984,0.0067,-0.0103,-0.13853,0.02197,-0.04704,-0.06272,0.00155,-0.0329,-0.06561,-0.03047,-0.12808,-0.12301,-0.06731,-0.09583,-0.00579,0.01503,-0.02064,0.01637],[-0.05538,-0.1316,-0.07764,-0.01577,-0.00293,-0.02007,0.03527,-0.08593,-0.02713,-0.04857,-0.09683,-0.09958,-0.08683,-0.02372,0.00186,-0.0637,0.04709,-0.0102,0.07046,0.035,0.02862,0.01664,0.01776,-0.00163,-0.08966,-0.06764,-0.09505,-0.11859,-0.03983,-0.08028,-0.05419,-0.07401,0.03872,-0.07281,0.00272,0.05636,0.08169,0.10969,0.06042,0.00971,-0.03593,0.01277,-0.05366,-0.03215,-0.06055,-0.09124,-0.01198,-0.03439,-0.03833,-0.09038,-0.02655,0.00127,0.09956,0.06655,0.1353,0.06509,0.08817,-0.00667,-0.01192,-0.01105,0.0206,-0.0306,0.03675,-0.0484,-0.10969,-0.15814,-0.04979,-0.0053,0.05605,0.04883,0.11166,0.10001,0.09598,0.12074,0.13341,0.05574,0.1035,0.01752,0.03713,0.09827,-0.00242,-0.02586,0.01725,-0.00072,-0.05441,0.01335,0.02673,-0.01492,0.11939,0.08065,0.06858,0.05348,0.04493,0.0681,0.01895,0.04773,0.04858,-0.03202,-0.0701,0.02562,-0.01782,0.12363,0.07246,-0.0001,0.0337,0.03311,0.12715,0.10171,0.09081,0.02882,-0.05332,0.01037,0.03855,-0.13268,-0.07355,-0.06644,-0.00608,0.03328,0.07737,0.09404,0.08029,-0.01307,0.01951,0.04638,-0.04271,-0.02317,-0.05195,-0.07147,-0.00486,-0.04026,-0.07989,-0.03556,0.01942,0.04297,0.04466,-0.00359,0.01606,0.06868,-0.01116,-0.02544,-0.02511,0.00327,-0.09796,-0.05389,-0.04081,-0.0738,-0.06556,0.02153,0.07506,0.00563,0.01783,-0.01227,0.09117,-0.00175,0.03647,0.03702,-0.02765,-0.02884,0.00513,-0.07725,-0.06686,-0.03764,-0.00194,0.07182,0.04646,0.0772,0.03474,-0.01294,-0.02186,-0.09402,0.0127,-0.01055,-0.01107,-0.07265,-0.03806,0.0022,-0.05067,-0.0714,-0.00225,0.10373,0.12782,0.02911,0.07452,0.02094,-0.01114,-0.00133,-0.06052,-0.16069,-0.02826,0.01291,0.04522,0.04131,-0.08958,-0.0211,0.02107,0.09086,0.09609,-0.04563,0.02159,-0.04863,0.01427,-0.10389,-0.14798,-0.14615,-0.13065,-0.03795,0.03366,0.02536,-0.04144,-0.09342,0.09318,0.06554,0.02894,-0.04238,-0.03283,-0.11567,-0.0867,-0.02577,-0.10406,0.02464,-0.03812,0.04566,0.01074,0.06239,-0.04846,-0.10063,0.03461,-0.00015,-0.06083,-0.05313,-0.07282,-0.10849,-0.0361,-0.04696,0.00347,0.04082,0.02677,0.08252,0.01914,5e-05,-0.02008,-0.10282,-0.13277,-0.05604,-0.02191,-0.01714,-0.03303,0.05186,0.00596,0.09237,0.09746,-0.00844,0.02592,-0.02244,-0.04056,-0.0707],[-0.13133,0.02706,0.05796,0.01934,0.0563,0.1622,0.0883,0.08201,0.12604,0.11344,0.07598,0.08548,0.11884,0.02569,-0.03153,-0.04268,-0.06926,-0.14502,-0.1515,-0.01208,0.09427,0.08092,0.06228,0.08452,0.03739,0.02375,0.01856,-0.0134,0.01193,-0.01861,-0.02264,-0.04065,-0.10048,-0.06229,-0.06081,-0.05332,-0.02496,0.03519,-0.03103,0.05698,0.07461,0.02522,-0.08094,-0.03642,-0.09079,-0.01074,0.00745,-0.11334,-0.02101,-0.00691,-0.10306,-0.03147,0.00379,0.06189,-0.02071,0.11507,0.06633,-0.03591,0.0345,-0.04618,-0.03675,-0.10783,-0.10184,-0.1111,0.09019,-0.07439,-0.04261,-0.03892,-0.0786,0.00656,-0.0151,0.01104,0.02,-0.03839,0.09887,-0.00195,-0.01416,0.00236,-0.05196,-0.07104,-0.02349,-0.06953,-0.05053,-0.11545,-0.12531,0.0228,0.00573,0.04057,0.00271,-0.01607,0.08482,0.08627,0.08602,0.01648,0.04078,-0.09416,-0.06117,-0.01453,-0.09055,-0.02253,0.02157,0.00021,0.08816,0.02329,-0.05382,0.02507,0.09871,0.07733,0.00689,-0.0214,-0.03781,-0.15002,-0.04249,-0.09382,0.00438,-0.0054,-0.03295,0.0194,0.05116,0.047,0.05704,-0.0982,0.00669,-0.04278,-0.0179,0.06151,0.00422,-0.04779,-0.09173,-0.14319,-0.09468,-0.0123,0.10372,0.04588,0.01031,0.04686,0.02171,0.0058,-0.0249,-0.01004,-0.03231,-0.01048,-0.01411,0.002,-0.06824,-0.06528,0.04345,0.04139,0.04436,0.06679,-0.09294,-0.00108,0.00652,-0.00889,-0.12297,-0.04948,-0.00081,-0.01391,-0.02797,0.03004,-0.05147,0.04953,0.08214,0.15235,0.10319,0.0453,-0.01989,-0.05713,0.00764,-0.04514,-0.08163,-0.10712,-0.05999,0.02651,-0.00307,-0.0358,-0.05254,0.03141,0.04092,0.12794,0.02785,0.03067,-0.01413,0.02901,-0.00216,-0.0498,-0.0482,-0.05318,-0.00618,-0.02203,0.03549,-0.01727,-0.13365,0.04349,0.03684,-0.03274,-0.07539,0.01953,-0.02018,0.04547,-0.05208,-0.06296,0.02474,-0.06733,0.0032,-0.05946,-0.01985,-0.08301,-0.06057,-0.02691,0.02401,-0.04212,-0.04759,-0.04643,-0.08689,-0.0407,0.00222,-0.0092,0.08919,-0.04254,0.01813,0.00361,-0.07091,-0.00381,-0.04326,0.04772,0.00557,-0.02043,-0.10734,-0.11831,-0.0795,-0.0093,0.01141,0.05382,0.02447,0.00751,0.00162,0.03348,-0.03077,0.00586,-0.02993,0.16367,0.14764,0.07598,-0.03752,0.05036,0.09474,0.08714,-0.00167,0.03826,0.03446,0.05832,0.07044,0.00545,0.05423,-0.00157]],"patch_embed.proj.bias":[-0.02573,-0.04593,-0.13574,-0.01732,0.04458,0.02762,-0.04974,0.05279,0.07889,0.00326,0.05196,-0.00077,0.01941,-0.12383,0.03206,0.0465],"blocks.0.norm1.weight":[0.97287,0.99447,1.07744,1.01525,1.00387,1.02232,1.03027,0.99272,1.06285,0.9271,1.01082,0.96829,1.06289,1.05032,0.96423,0.98834],"blocks.0.norm1.bias":[0.02172,0.0063,-0.0177,0.06491,-0.02931,-0.00554,-0.00501,-0.0079,-0.01088,0.00843,0.00965,0.04867,-0.0325,-0.03005,0.04031,0.07271],"blocks.0.attn.qkv.weight":[[0.11081,-0.05355,0.10076,-0.05648,0.00823,-0.00749,-0.0315,0.00359,-0.15672,0.06007,0.03713,-0.138,0.27711,-0.0988,0.03446,0.2173],[0.20063,0.11143,0.21331,-0.15327,0.01788,0.10065,-0.16897,-0.00169,-0.18734,-0.07075,-0.14287,-0.11659,0.15741,0.1695,0.13024,-0.04613],[0.2675,-0.06926,-0.15513,0.00591,-0.13778,-0.25832,0.28912,-0.12983,0.09841,0.00038,0.06157,0.1556,0.17986,-0.06662,0.21655,0.02659],[-0.22664,0.09118,0.08312,0.14247,-0.06943,-0.15356,0.09351,0.00015,-0.05454,-0.1621,-0.15339,0.11258,0.02527,0.16924,0.00125,0.24339],[-0.06028,0.04042,0.10014,-0.10999,0.14949,0.15257,0.07384,-0.1734,-0.36966,0.12582,0.11984,0.05084,-0.10539,0.12242,-0.11194,0.21961],[-0.05477,0.01211,-0.29338,-0.23803,0.02013,-0.09912,0.06694,0.11622,-0.16803,0.07482,0.10956,0.02741,-0.13509,0.01675,0.13602,0.07681],[0.3445,-0.20116,0.11001,0.03283,-0.00293,0.24875,-0.18632,-0.21822,0.12002,0.06421,0.05532,-0.11868,-0.00646,-0.11302,-0.1057,-0.32474],[0.03675,0.1764,0.15435,0.14769,0.0639,0.28009,-0.07581,0.00826,-0.23023,-0.26792,0.13059,0.12548,-0.23923,-0.22808,0.06016,-0.19504],[-0.0362,0.25387,-0.12256,-0.25971,-0.00286,-0.02655,0.24533,0.1395,0.17647,0.02734,0.24235,-0.14818,0.12093,0.15313,0.04297,-0.06661],[0.0945,0.00297,-0.16851,0.05871,0.05141,-0.0606,0.17121,0.17492,0.19854,0.02223,-0.03601,0.08812,0.03029,-0.13906,0.16871,-0.20529],[-0.1586,-0.16633,0.1103,0.01342,0.17157,0.33015,0.09242,0.09104,-0.18707,-0.0485,-0.19551,-0.14222,0.24798,-0.13013,-0.12339,0.26671],[-0.15023,-0.16182,-0.03419,-0.44218,-0.12914,0.14341,0.31967,0.16964,-0.02899,0.0677,-0.00166,-0.42349,0.19241,0.12982,-0.19057,0.29632],[0.05312,-0.14075,-0.09737,-0.17783,0.12182,0.07651,-0.06937,-0.01699,-0.09396,-0.03161,0.10096,-0.29865,-0.21806,0.17843,0.03404,-0.26838],[0.03119,-0.06589,0.08004,-0.05036,0.01052,0.09306,-0.04112,-0.05017,-0.23606,-0.16204,-0.16047,-0.27977,-0.09967,0.0512,-0.18633,-0.13054],[0.01343,-0.03447,-0.14568,-0.02066,-0.08764,0.07524,-0.1492,-0.13501,-0.08285,-0.01976,0.12379,0.13756,-0.04676,-0.11805,0.17085,0.09164],[-0.00167,0.27159,-0.28331,0.23333,-0.13462,-0.08385,0.14838,-0.16499,-0.19381,-0.06665,0.03643,-0.02169,-0.28868,-0.08016,-0.14633,0.01965],[-0.10008,0.14502,-0.1502,-0.01072,-0.06685,-0.12875,0.06847,-0.09817,-0.00782,0.15522,-0.14656,0.07742,0.07342,-0.20381,0.02593,-0.15437],[-0.05068,0.25203,-0.01124,0.11727,-0.07077,0.09212,-0.10121,0.10963,0.1783,0.22006,-0.09013,0.1049,-0.12229,0.10227,0.1693,0.3173],[0.04117,0.30572,0.10505,0.21351,0.2489,0.18385,0.27737,-0.02991,-0.06544,-0.1414,-0.00934,-0.00507,-0.06741,-0.17665,0.25745,0.01145],[0.28237,0.02872,0.16357,-0.25969,0.11627,0.12683,-0.05891,-0.04425,-0.20714,-0.05985,-0.06676,-0.07396,0.08763,-0.21424,-0.09772,0.27947],[0.08569,0.26213,-0.15297,-0.17951,0.16638,0.15253,-0.12174,0.21762,-0.15182,0.11916,0.0418,0.18309,0.19905,0.21543,0.00766,-0.07324],[-0.26687,-0.28127,0.15188,-0.19529,0.22376,0.21305,0.12689,-0.01925,-0.1231,0.164,0.02633,-0.11833,-0.0474,0.04126,-0.05554,0.10921],[-0.16449,0.1959,-0.25687,-0.16979,-0.01301,-0.2227,0.03767,-0.13088,0.12617,0.0885,-0.19742,-0.0843,-0.0484,0.22621,0.20858,-0.01363],[0.21442,0.10622,-0.26097,-0.11516,-0.0997,-0.0287,0.27062,0.25446,-0.30009,0.2009,0.07629,-0.29231,-0.14681,-0.18241,-0.17582,0.16814],[0.1751,-0.0843,-0.28981,-0.21573,0.12628,-0.00701,0.11607,-0.01255,-0.05567,0.0484,0.22321,-0.18428,-0.11724,-0.0211,-0.08982,-0.02387],[-0.11577,0.16242,-0.18968,0.11573,-0.21126,0.15748,-0.15412,-0.19153,0.27714,-0.14198,0.07913,-0.17753,0.07313,-0.08267,-0.14839,-0.31278],[-0.16372,0.06972,0.16448,0.04204,-0.13398,0.16753,-0.0644,0.13056,-0.25103,0.0148,0.10877,-0.23465,-0.07776,0.20875,0.19442,0.04355],[0.24485,-0.29373,0.37004,-0.24152,-0.19152,-0.21911,0.04028,0.27677,0.19753,-0.17976,-0.06014,-0.20878,-0.1702,0.02325,0.02793,-0.04249],[-0.03341,0.23946,-0.02593,-0.14251,0.16631,-0.23064,-0.21198,0.22914,0.33555,-0.16569,-0.00569,0.00617,-0.09251,-0.05917,0.01849,-0.20205],[0.00406,0.25052,0.29824,-0.19698,-0.15682,0.22357,0.16265,-0.01051,-0.0921,-0.1586,0.02169,0.22675,0.054,-0.14689,-0.17085,0.04346],[0.10825,-0.22482,-0.22173,-0.05813,0.11572,0.31246,0.03425,-0.17754,-0.13607,0.20553,-0.06738,0.00787,0.03259,0.01688,-0.26885,0.25473],[0.25932,0.09796,-0.29043,0.0172,-0.13444,-0.23526,-0.28288,-0.19954,0.1546,0.1736,-0.15042,0.20334,0.20315,-0.07153,0.08517,-0.15065],[0.12026,0.28032,0.08332,-0.01613,0.22991,-0.01461,-0.16855,-0.14674,-0.20573,0.14479,-0.25116,0.10536,0.11795,0.05989,0.00497,0.13586],[-0.01292,0.1001,0.15227,-0.06702,-0.10755,0.0486,-0.26692,-0.0387,0.10585,-0.08793,-0.15635,0.08699,-0.09058,-0.17577,-0.15751,-0.18628],[0.16621,-0.1175,-0.05839,-0.1967,0.13226,0.23812,-0.0556,-0.02401,0.1306,0.23888,-0.11717,-0.29428,0.22125,0.2002,-0.18009,0.12073],[0.1543,0.20259,0.13996,-0.16142,-0.14106,-0.05545,-0.00842,-0.2302,-0.25491,-0.09085,-0.23158,-0.10904,-0.1847,0.1057,0.03802,0.00817],[-0.04647,-0.07336,0.2748,-0.17026,0.09045,-0.04187,0.1342,0.24212,0.10583,-0.04676,0.26241,-0.1497,0.05906,-0.10068,0.07759,-0.01462],[-0.23078,0.04493,0.0465,0.07938,0.14695,-0.04781,-0.08578,0.03375,0.13772,0.14551,-0.05292,0.12901,-0.24434,-0.13769,-0.14269,-0.07173],[0.10704,-0.10654,0.11629,0.07982,0.24402,0.20773,-0.0643,-0.22842,0.16056,0.06697,-0.08632,0.15609,0.07597,-0.02895,-0.07554,-0.1205],[0.04144,-0.04786,-0.06604,-0.17959,-0.0357,0.10516,0.11007,-0.19634,0.31613,-0.37273,0.13907,-0.11595,-0.20566,-0.00198,0.23488,-0.06159],[0.05433,-0.02631,-0.16911,0.04642,-0.09264,-0.26251,0.0568,0.02413,-0.2899,-0.18906,-0.03166,-0.21051,-0.06171,0.25501,0.20992,-0.14048],[-0.17239,-0.14173,-0.11307,0.03154,0.15857,0.00299,-0.29003,-0.27556,-0.02069,-0.15641,0.29241,0.02959,0.18898,-0.01081,-0.15206,-0.12029],[0.06049,0.16577,0.06206,0.35523,-0.29518,-0.11167,-0.1329,0.10128,-0.05729,0.21007,0.22024,0.26674,0.00976,-0.20466,0.14728,0.26757],[0.16874,0.12674,0.19391,0.02295,0.07502,-0.22152,-0.04758,-0.16626,0.27981,-0.23062,-0.00024,0.0412,-0.09324,0.03375,0.028,-0.23051],[0.16192,0.23173,0.01747,-0.03965,-0.24645,-0.21883,-0.01903,-0.19543,0.02754,0.06652,0.09832,0.20506,0.25056,0.25324,-0.18579,0.04358],[0.08323,0.09282,-0.00696,-0.26819,-0.05727,0.00313,0.20973,-0.05256,0.20367,-0.09842,0.09021,-0.21128,0.00723,0.07727,-0.17868,0.17499],[-0.13878,0.12905,0.24148,0.06555,-0.10584,0.25854,-0.21858,0.1299,0.27792,0.13099,0.14551,-0.13353,0.17945,0.23819,0.14561,0.06912],[-0.13368,-0.19264,0.16994,-0.16587,-0.06197,-0.12147,0.09672,0.25079,0.12236,-0.15372,0.17892,0.04773,0.3264,-0.19314,0.28871,-0.27315]],"blocks.0.attn.qkv.bias":[-0.24249,0.12493,-0.2646,0.12383,0.06092,0.06098,-0.0658,-0.21475,-0.21066,0.05043,0.03671,0.07691,0.14449,-0.21149,-0.20373,0.31353,-0.12882,-0.111,0.21604,0.15729,0.24337,0.10132,0.06566,-0.04156,-0.04555,0.09147,0.02142,-0.07474,-0.11574,-0.19839,-0.0056,0.01253,-0.17037,0.08109,-0.01601,-0.18465,-0.16246,-0.03978,-0.18533,-0.03826,0.14751,0.12444,-0.14684,0.20723,-0.1352,-0.01753,0.10262,0.22002],"blocks.0.attn.proj.weight":[[-0.28321,-0.08862,-0.21881,0.11685,-0.15691,-0.17787,-0.22828,0.16462,0.20296,-0.05671,0.22616,-0.14143,-0.17181,0.07048,-0.01576,-0.10857],[0.06071,-0.19247,-0.0112,-0.28002,-0.14299,-0.1502,-0.24321,-0.02316,0.14363,0.27333,-0.16182,0.25654,-0.04171,-0.22455,-0.24221,-0.05935],[0.27895,-0.02184,-0.1568,0.29146,-0.16062,-0.03382,-0.05293,0.11158,-0.08156,0.13533,-0.08725,0.01134,0.01964,0.20185,0.09143,0.20397],[0.27538,-0.07649,0.18798,-0.0318,0.12311,-0.12038,-0.1114,0.07769,0.06646,-0.19639,-0.14069,-0.28434,0.03344,-0.00871,0.03004,0.147],[0.01264,0.07422,-0.01403,-0.01024,0.05642,-0.0292,-0.12441,-0.13621,-0.17141,0.18503,0.1796,0.19881,0.12626,0.17326,-0.02147,-0.11306],[-0.11112,0.03947,0.15688,-0.3064,-0.08218,0.25728,-0.0175,0.08715,-0.17338,0.04877,0.15298,0.10464,-0.2128,0.0041,0.29258,0.18045],[-0.09055,0.0137,-0.17234,0.00747,-0.02288,0.04817,-0.1164,-0.25833,0.07684,0.12632,-0.12981,-0.10392,-0.10476,0.05708,0.18371,-0.27904],[-0.17632,0.13378,0.16393,0.16128,0.02469,0.00415,-0.10447,0.17156,-0.27316,0.10533,-0.10698,0.06198,0.08738,-0.09059,0.17982,-0.1897],[0.03692,0.10254,-0.16835,0.06742,0.08475,-0.18245,-0.1099,-0.10705,-0.25871,0.15695,-0.0127,-0.15059,-0.00387,0.01872,-0.19249,0.06606],[0.15343,-0.06521,0.02302,0.02063,-0.01235,-0.1519,0.21621,0.09699,0.03843,-0.05583,-0.28849,-0.02061,-0.00637,-0.0536,0.18829,0.21006],[0.21854,0.07017,0.15736,-0.04887,-0.28466,-0.16941,0.14001,0.05199,-0.12395,-0.22078,0.16704,0.10867,-0.21724,-0.21761,0.17589,-0.11431],[0.07187,0.1018,0.17717,0.09316,0.16562,-0.01661,0.15007,-0.24845,0.02623,0.20588,0.28693,0.08289,-0.04856,-0.11501,-0.05702,-0.0018],[0.18363,-0.13174,0.09511,-0.17175,-0.01985,0.13452,-0.02871,0.22594,0.27813,-0.13666,0.23181,-0.13302,0.30007,-0.10353,0.09224,0.31055],[-0.15722,0.20278,-0.00947,-0.17384,0.29359,0.05802,0.02018,0.09882,0.00195,-0.20686,0.17173,0.034,-0.15393,0.13746,0.22325,-0.21491],[-0.14432,0.28144,-0.10909,0.06436,-0.23651,0.30146,-0.06358,-0.04787,-0.04451,-0.29727,-0.09712,-0.00246,-0.19376,0.02256,-0.27553,-0.18603],[-0.02674,0.1368,0.05478,0.01459,0.09833,0.11009,-0.15822,-0.07804,-0.10957,0.10808,0.06418,0.15477,0.10336,0.0306,0.13561,-0.16958]],"blocks.0.attn.proj.bias":[0.17819,-0.18602,0.0688,-0.08135,-0.2235,-0.18032,0.01769,0.11801,0.00035,-0.21231,-0.04653,0.04173,-0.05655,-0.2226,-0.09017,-0.17935],"blocks.0.norm2.weight":[1.05405,1.14148,0.99878,1.04302,1.01516,1.12364,0.91343,0.99739,1.07014,1.14426,1.09434,1.09715,1.04498,1.12513,1.0124,0.97318],"blocks.0.norm2.bias":[-0.0063,-0.01924,-0.02466,-0.01991,0.03176,-0.02844,-0.05691,-0.08373,-0.00014,-0.04349,-0.03262,0.03783,0.03911,-0.0166,0.01241,0.06087],"blocks.0.mlp.0.weight":[[-0.04571,-0.053,0.17433,0.08785,0.26808,-0.17223,0.00106,-0.01631,0.28947,0.26406,0.26533,0.143,-0.2692,-0.06246,0.22239,-0.16928],[-0.24266,-0.17211,-0.06896,0.1866,-0.30214,-0.20308,0.10503,-0.24984,-0.09496,0.20145,-0.03052,-0.00539,-0.21913,-0.16791,0.04855,-0.12274],[0.05028,0.02837,0.3027,0.16873,0.16829,0.12502,-0.08972,0.1724,0.08168,0.08364,-0.06951,-0.15155,0.23893,-0.23762,0.16702,0.17651],[-0.2454,0.07604,-0.34771,-0.24238,0.00056,-0.03138,-0.2124,0.0792,-0.09873,0.20882,0.19911,-0.42333,0.0055,0.30996,-0.03723,0.02524],[-0.03956,-0.03765,0.00167,-0.13117,0.07577,0.25508,0.16625,0.15528,0.19865,-0.19068,-0.10831,0.12623,0.03129,-0.2216,0.17081,0.12512],[0.02405,-0.01275,-0.22402,0.14538,-0.06787,-0.37508,0.0655,-0.04729,-0.17322,-0.14263,-0.03628,-0.11587,-0.18142,0.27153,-0.18949,-0.02279],[0.06923,0.07051,-0.20309,0.14785,-0.09884,-0.17065,0.15592,-0.02565,0.03144,-0.26727,0.05682,-0.04692,-0.05535,-0.20308,-0.00313,0.00985],[-0.17653,0.08282,-0.15887,0.15173,-0.16402,0.12876,0.02628,0.01158,-0.28646,0.14217,0.16648,-0.08953,-0.02298,0.09634,0.04941,-0.28537],[-0.33436,0.29224,-0.23835,0.06981,-0.13414,0.05827,0.14041,-0.2097,-0.26356,-0.29423,-0.15874,0.17987,0.01764,-0.02248,-0.15009,0.11321],[-0.0159,-0.3572,0.0346,0.25018,0.19042,-0.11036,0.24866,0.13596,-0.15197,0.10534,0.02905,-0.03076,0.18776,-0.12898,-0.12279,-0.01206],[0.08622,0.06381,0.04107,-0.20416,0.14038,-0.37099,0.04635,-0.08221,-0.06316,0.01478,-0.2505,-0.05254,0.03219,-0.25668,0.03895,-0.07084],[0.12314,0.13721,0.21658,0.15392,0.02892,-0.14388,-0.12951,-0.18156,-0.23354,0.02852,-0.15645,-0.17445,-0.0202,-0.17526,-0.17101,-0.19811],[-0.21844,0.15167,0.01686,-0.19649,0.07101,0.03148,-0.05797,0.16658,0.14917,0.31026,0.05043,-0.24897,0.11522,0.1218,-0.16443,0.13676],[0.12609,-0.00332,0.19866,-0.16063,-0.04964,0.23616,0.15466,-0.12776,-0.12218,0.21256,-0.01391,-0.26201,-0.12558,0.19572,0.01442,-0.12862],[-0.09514,0.07972,-0.16931,0.15155,0.13315,-0.36728,0.09329,-0.27705,0.18596,0.1637,0.06753,-0.01686,-0.27079,0.39436,0.20247,0.19727],[-0.03391,-0.16575,0.03414,-0.13413,0.22125,-0.41594,0.10082,-0.31113,-0.02614,-0.09105,0.34255,0.08332,0.45044,0.05132,-0.01561,-0.0043],[-0.12037,-0.13095,-0.08772,0.12808,-0.10119,0.1375,0.25732,-0.16206,0.11429,0.08493,-0.15843,-0.16609,0.1907,-0.14796,-0.33901,-0.17608],[0.20601,-0.36185,-0.08998,0.32914,0.20359,-0.18265,0.28677,-0.11926,-0.0491,0.19621,0.04686,-0.29243,0.14581,0.12449,0.34883,0.06975],[-0.23039,-0.17648,0.08513,0.25234,0.1244,0.12802,0.20491,-0.07795,-0.21861,-0.13909,0.19732,-0.19034,0.08319,0.32728,-0.19364,-0.05255],[0.13454,0.03506,-0.11022,-0.02434,0.42638,0.2149,-0.17799,-0.15148,0.2201,-0.20995,-0.03786,-0.18498,-0.16187,-0.12379,-0.21036,0.03479],[0.07203,-0.2487,-0.0635,-0.14766,-0.02101,-0.0834,-0.12153,-0.04251,0.06177,0.07122,-0.03128,0.17656,-0.15178,0.17135,0.29605,-0.09905],[-0.22467,0.01831,-0.03728,0.1084,0.25142,-0.32812,-0.25786,0.14648,0.10028,0.31219,0.0123,-0.33047,-0.05053,-0.18207,0.19954,-0.09678],[0.06814,-0.17802,-0.19361,0.4295,-0.01669,0.16564,-0.19662,-0.13213,-0.06805,-0.26703,0.14592,-0.08553,0.09799,0.22046,-0.00094,-0.03449],[-0.01458,-0.23245,0.12852,-0.05773,-0.07974,-0.04804,0.07869,0.20684,-0.1353,0.01829,-0.1361,-0.15446,-0.08011,0.09374,-0.08855,0.05901],[-0.381,0.30261,0.22377,0.19047,-0.14809,0.11275,0.16452,-0.24036,-0.17245,0.20279,0.23162,0.09933,0.13793,-0.07137,-0.11735,-0.00839],[-0.0889,-0.09543,0.12931,0.11912,0.03718,-0.1213,0.03166,0.05949,0.04516,0.14449,0.02321,-0.02395,-0.23508,0.17158,-0.01516,0.0774],[0.08575,-0.03843,-0.06673,-0.01002,-0.20211,0.16944,-0.09742,0.06677,0.1311,0.15894,0.14637,0.03568,0.18611,0.21378,-0.29747,-0.02431],[-0.19397,-0.08578,-0.24998,0.34196,0.00214,-0.01768,0.06112,-0.1762,-0.00204,0.34635,-0.18049,-0.44447,-0.2593,0.18558,-0.03105,0.21831],[0.16906,-0.25366,0.25246,-0.02774,0.31154,-0.08025,0.19667,-0.2062,-0.07021,0.01487,-0.34456,0.04969,-0.08896,-0.01214,0.05108,-0.13646],[0.16902,-0.24551,-0.07047,0.02286,0.04681,0.14136,-0.06594,0.14848,0.27504,0.27676,0.10386,-0.25618,-0.16384,-0.24228,-0.073,-0.02523],[0.25942,0.22181,-0.10011,-0.09847,0.07444,-0.22294,0.1503,-0.20735,0.02542,-0.18611,0.03125,-0.08844,0.02924,0.08791,0.02863,-0.13062],[0.05178,0.19031,0.14502,0.02847,0.08879,0.08673,-0.19798,0.14512,0.28303,-0.00302,-0.13753,-0.20528,-0.00099,-0.07073,-0.20405,-0.2021]],"blocks.0.mlp.0.bias":[0.01028,-0.02407,-0.01533,0.23227,-0.15972,-0.25265,-0.01467,-0.0934,-0.17093,0.10604,0.0763,-0.13503,0.09798,0.20493,-0.14506,-0.14089,-0.06785,-0.22738,-0.22872,0.10485,0.12844,-0.02337,-0.13626,0.06807,-0.17684,0.04055,0.21545,0.20812,-0.06016,-0.05572,0.01325,-0.2244],"blocks.0.mlp.2.weight":[[0.10502,-0.17732,0.102,0.07143,-0.02558,0.00714,-0.11357,0.1982,0.01546,0.0883,-0.02585,0.06111,-0.02774,0.24205,0.08346,-0.01395,-0.15518,0.01732,0.03178,0.12354,0.13302,0.12805,-0.22083,0.02573,0.067,0.0516,0.00596,-0.19093,-0.00045,0.13117,-0.07038,-0.17266],[-0.18269,0.13521,-0.14321,0.1752,0.01705,0.04182,-0.15557,0.01948,-0.06195,0.04248,-0.07555,-0.24527,-0.04919,0.03471,-0.14243,0.1883,0.04845,0.07398,-0.02133,-0.07531,0.01498,0.14583,-0.1013,-0.05698,0.06617,0.04346,-0.12525,-0.08056,0.24034,-0.03848,-0.12805,-0.04439],[-0.15334,0.04607,0.12895,-0.13313,0.12201,0.2779,-0.03187,0.1626,-0.07121,-0.06269,0.12356,-0.05406,-0.04742,-0.2257,-0.06007,-0.04736,-0.03982,-0.05755,-0.07232,0.13517,0.03785,-0.08837,0.19164,-0.17324,-0.08635,0.10675,-0.05289,-0.06322,-0.17544,-0.03274,-0.08862,0.16715],[0.13745,-0.07132,-0.10472,0.3021,0.00924,0.12986,0.06346,-0.03937,-0.13301,-0.04853,-0.22669,-0.10749,0.13719,-0.01621,0.22075,-0.05706,0.01219,0.12875,-0.17974,0.10883,0.08355,-0.01322,-0.03461,0.05008,-0.03081,-0.13856,-0.09631,0.07045,-0.26001,-0.06442,0.06022,0.10264],[0.06097,-0.10294,-0.00405,0.1207,-0.15895,-0.03426,0.12308,-0.01255,-0.24171,-0.10934,0.00321,0.08558,0.13266,0.17807,0.00296,0.14749,0.01126,-0.14199,0.21877,-0.19459,-0.00915,-0.0085,-0.12937,-0.10224,0.06731,0.15342,-0.07962,-0.03852,0.09288,-0.23192,-0.00473,-0.09917],[-0.03586,-0.06076,0.24054,-0.04948,0.07549,-0.15344,-0.01853,0.07936,-0.09757,-0.2382,0.1934,0.16719,-0.09505,-0.12367,0.25398,0.25127,-0.00205,-0.12932,-0.15565,0.01162,-0.06574,0.12526,-0.06799,-0.03801,0.14496,0.17728,-0.01708,-0.1794,-0.1279,0.23355,0.13325,0.18117],[0.1495,0.07535,-0.20062,0.1869,0.06918,0.15462,-0.24213,-0.08528,-0.04109,-0.10035,-0.17025,-0.00981,-0.12553,-0.03333,-0.05725,0.17487,-0.04552,-0.04741,0.02081,0.25044,-0.09122,0.07211,0.19384,-0.0065,0.00699,-0.02717,-0.07597,0.18247,-0.02998,0.06415,0.00406,0.11242],[-0.16301,0.07556,-0.07855,0.08026,0.00792,-0.09177,0.07646,0.07301,0.07689,-0.05717,0.17636,0.07377,0.10494,-0.03107,-0.25172,0.00274,-0.10051,0.14096,-0.14782,0.18852,-0.02605,0.00398,0.02587,0.08317,0.00605,0.00539,-0.00393,-0.04057,0.09669,0.04482,-0.01515,0.02948],[-0.01554,-0.01456,0.08469,0.08276,0.00611,0.1352,-0.08842,-0.13403,-0.13083,-0.13935,0.04124,-0.19569,-0.03877,-0.02974,0.15203,-0.09428,-0.0973,0.07841,0.0571,-0.06514,-0.06576,0.22765,0.19609,-0.17897,-0.06457,0.08048,-0.11658,-0.01399,-0.25398,-0.0148,0.19526,-0.1651],[-0.08433,0.04065,-0.09798,-0.12334,-0.07473,0.04434,-0.16598,-0.16103,0.14302,0.11017,0.20866,-0.05429,-0.16698,-0.10171,0.03333,0.12642,-0.08141,0.01414,0.08577,-0.03899,0.12813,-0.12915,-0.16697,-0.10932,-0.20526,0.0451,0.13909,-0.05681,-0.07828,0.11742,-0.03051,0.1408],[0.11767,0.20655,0.32559,-0.14534,-0.11412,0.00999,0.1695,0.18604,-0.07698,0.10302,0.08603,-0.00607,0.07727,0.00328,-0.13693,-0.0667,0.08048,0.11443,0.0035,-0.14741,0.09742,-0.03102,-0.14725,-0.12996,0.15942,0.09742,-0.13145,0.22605,-0.01836,0.01578,-0.0124,0.08037],[0.03111,-0.02231,0.03206,-0.08468,0.0226,0.01159,0.11193,-0.05445,0.06896,-0.13374,-0.03009,0.1462,-0.13867,0.02938,-0.10094,0.24942,0.03538,0.01762,-0.26398,-0.18671,0.16863,-0.16472,-0.05413,-0.1548,0.22458,0.12561,0.1098,0.09104,-0.12682,-0.00596,-0.06491,0.17097],[0.06911,-0.01227,-0.01697,-0.22307,0.04379,-1e-05,0.04596,0.00834,-0.10547,0.08724,0.08783,0.04558,-0.13113,-0.23131,0.01039,0.14591,0.17438,0.07694,0.05377,0.04942,0.21198,0.25387,0.08783,0.01186,0.13119,0.12793,-0.0728,0.15992,0.04717,0.00359,0.04344,-0.0382],[0.11296,0.03838,-0.01997,-0.24918,0.08903,-0.17817,0.16589,0.18351,-0.08937,0.02675,0.14954,-0.10938,0.04016,-0.16367,-0.18805,-0.37629,0.24364,-0.04592,-0.1056,-0.09129,-0.00268,0.221,0.03806,-0.17963,0.0185,0.013,-0.02916,-0.25515,0.20546,0.07307,-0.11311,0.24382],[-0.19324,-0.12933,-0.1707,0.13375,0.23693,0.10229,-0.02392,0.01012,0.09525,0.04587,0.04088,-0.05433,-0.12901,0.02215,-0.10327,-0.03924,0.15388,-0.25511,0.24901,-0.12738,0.04599,-0.10063,0.03605,0.11926,-0.11051,-0.13052,0.01799,0.08326,0.01819,0.0419,0.01257,0.06665],[-0.12462,-0.13486,0.01835,-0.18407,-0.17253,0.21372,0.03197,0.07604,-0.00202,0.07866,-8e-05,0.17925,0.00799,0.01119,0.21017,0.28583,-0.09919,-0.27104,-0.05788,0.0018,0.04052,-0.18701,-0.14439,0.04625,-0.0475,0.04885,-0.12464,-0.22501,0.14923,-0.06042,-0.06321,0.09261]],"blocks.0.mlp.2.bias":[0.02719,0.08523,0.08584,-0.02516,0.02578,-0.07389,0.07014,0.04818,0.0294,0.0014,0.08624,-0.04348,-0.07623,-0.0144,0.08371,-0.17109],"blocks.1.norm1.weight":[1.03325,1.06898,1.04771,1.04783,1.06844,1.03138,1.14478,1.06228,1.17228,1.1254,1.10739,1.05778,1.04542,1.10876,1.00098,0.98458],"blocks.1.norm1.bias":[-0.00719,0.01145,-0.0249,-0.00419,-0.00018,0.02486,0.04658,-0.02915,-0.02572,0.00432,0.05684,0.04065,0.01359,-0.00279,-0.0067,0.01612],"blocks.1.attn.qkv.weight":[[-0.01398,-0.16566,0.19342,0.22715,-0.31388,-0.05611,0.14787,0.07806,0.05585,0.23001,-0.09023,-0.07324,0.16225,0.22378,-0.107,0.04163],[-0.18142,0.06836,0.01808,0.17405,0.07714,0.0701,-0.20469,0.21612,0.32439,-0.28088,-0.20266,0.0588,-0.16298,0.10528,-0.11412,-0.04995],[-0.36492,0.41463,-0.09863,0.19662,0.29951,0.0116,0.06664,-0.27576,0.13795,0.14129,-0.17836,-0.20827,0.25691,-0.39289,-0.1027,0.02708],[-0.13868,0.10299,0.16971,0.02304,0.10951,0.09153,-0.12299,0.20947,-0.03807,0.25511,-0.16547,-0.20618,0.2454,-0.06794,0.087,0.22825],[0.02839,0.09122,0.34685,-0.29132,0.16772,-0.0416,0.24311,-0.18935,0.01637,-0.26623,0.1044,-0.23065,-0.0199,-0.1544,0.07876,-0.24393],[0.11701,0.20933,-0.12313,-0.08836,-0.05808,-0.19332,-0.08833,0.16813,-0.0171,-0.1428,-0.05207,-0.20586,0.00585,-0.03098,-0.01194,0.21749],[0.24538,0.1049,0.20718,0.09639,0.10746,0.03628,0.28859,0.09436,-0.27077,0.2188,-0.13621,-0.17525,-0.26378,-0.18348,-0.11995,-0.19506],[0.07982,0.32732,0.19307,0.00681,-0.08833,0.02824,0.32909,0.07402,0.22162,0.05246,0.12486,-0.14423,0.13429,0.24448,-0.18322,0.25902],[-0.1499,0.16923,-0.06558,0.16893,0.09294,0.40753,0.07462,0.1564,-0.00144,-0.03156,0.06664,-0.20023,0.20626,0.45393,0.26275,0.00144],[-0.10968,-0.12925,0.2941,-0.14673,0.20746,-0.17018,-0.00517,-0.19228,-0.1049,-0.32277,0.12491,0.17192,0.00097,-0.27208,0.23146,-0.02436],[-0.28073,0.06024,-0.12036,0.22459,-0.08613,-0.12619,-0.25004,-0.03187,-0.10529,0.08644,-0.08185,0.05472,0.20709,0.45864,-0.01438,-0.05735],[0.28536,-0.17594,0.11065,0.03683,-0.33589,-0.0742,0.08854,0.39989,-0.43254,-0.04992,0.24724,0.22886,0.22063,0.13342,0.23253,-0.04289],[0.02401,0.3146,-0.15342,-0.23954,0.13508,0.073,0.19014,0.24608,-0.26165,-0.02477,0.18859,-0.09958,0.20006,-0.18239,-0.19197,-0.2088],[0.11268,-0.1762,-0.10979,0.31709,0.22282,-0.24064,-0.22014,-0.09137,-0.14123,-0.16849,-0.0087,0.10052,0.15371,0.07124,-0.12355,0.17938],[-0.05165,-0.18884,0.39194,0.16224,-0.17624,0.18478,-0.2531,0.10589,0.12004,0.17991,0.1814,0.06489,-0.10195,-0.19993,-0.04453,0.17369],[0.01118,-0.34531,0.31507,-0.13605,-0.14659,0.18598,0.05146,-0.2384,0.04369,0.20368,0.06958,0.06856,0.13511,-0.2078,-0.16736,-0.02009],[-0.15744,0.14383,-0.04944,-0.00331,0.20155,-0.1195,-0.07343,0.14677,0.25702,0.37965,-0.15942,-0.20239,0.0627,0.14028,-0.0964,0.00471],[0.13817,0.11992,0.07636,0.05097,-0.01185,-0.0117,0.22136,0.22942,-0.1514,-0.17505,-0.1969,0.16737,-0.15709,0.21078,0.27925,-0.35331],[-0.13997,0.1459,-0.17472,-0.3984,0.11358,-0.25583,0.02485,0.01321,0.00296,-0.15728,-0.16085,0.30503,0.21267,0.00267,0.02105,0.01564],[0.13112,0.16154,-0.21425,-0.00958,0.18641,-0.18522,0.27874,0.14931,0.06311,-0.00645,-0.15429,-0.23005,0.22417,-0.1092,-0.18635,0.09188],[0.10373,-0.0069,-0.14333,0.13073,0.1551,0.33332,-0.09581,0.22304,0.15354,0.00975,-0.2841,0.23869,-0.05601,0.15272,-0.31253,-0.09743],[-0.17204,-0.06369,0.01962,0.15847,-0.2346,-0.23501,-0.09638,0.13199,-0.0424,-0.06542,0.08963,0.17147,-0.10466,0.03441,0.11208,-0.09492],[-0.00841,0.10713,-0.03086,0.31414,-0.09939,-0.00105,0.30055,-0.23422,0.04142,0.28561,-0.02933,-0.2551,0.12392,0.09492,-0.17905,0.12394],[-0.28369,-0.21122,0.16494,-0.33313,-0.16805,-0.2707,0.12908,-0.1215,0.06145,-0.08997,0.06826,0.17153,0.07924,-0.03639,-0.07602,-0.02168],[0.17753,-0.44704,0.09102,-0.17456,-0.12135,-0.13326,-0.04829,-0.09022,0.36698,0.29072,-0.16269,0.11514,-0.18578,-0.00274,-0.07352,-0.01985],[-0.00098,-0.31512,0.02332,0.22419,-0.14278,0.1358,-0.04447,0.25761,0.19521,-0.0975,0.10406,-0.11622,0.14828,-0.2414,0.06399,0.3392],[-0.11492,-0.15688,0.00123,-0.15459,0.09021,0.09292,-0.10652,0.39003,-0.01066,0.3304,-0.16138,-0.18383,-0.13168,0.02265,-0.11687,0.14122],[-0.02076,-0.15394,0.1911,-0.0222,-0.15401,0.10225,0.42673,0.38628,0.10605,-0.17569,0.00898,0.26021,0.05045,-0.28099,-0.27207,-0.10035],[-0.05936,0.29806,-0.11557,-0.10371,-0.30185,0.09003,-0.03125,0.08478,-0.12031,0.07447,0.0776,0.12192,-0.2205,-0.0974,0.148,-0.08075],[-0.15992,-0.05205,-0.20962,0.28915,-0.03886,-0.08779,-0.34837,0.18129,0.13738,0.25058,0.22594,-0.21784,-0.10631,0.10669,-0.26389,-0.02946],[0.06824,0.03487,0.0285,0.05196,-0.08045,0.3402,-0.05141,-0.21572,0.13569,-0.13343,-0.12325,0.02039,-0.06883,0.06075,-0.1436,-0.26608],[-0.25318,0.07029,-0.06118,-0.01334,-0.08606,0.08904,0.18909,-0.41243,-0.09014,-0.00703,-0.0352,-0.04121,0.09119,0.10017,-0.26342,-0.0541],[-0.08386,0.23832,-0.24404,-0.0451,0.15212,0.13357,0.11494,0.10472,-0.07825,0.14395,-0.11368,0.27554,-0.23316,0.08412,-0.22336,0.06423],[-0.09202,-0.18165,-0.14929,-0.12427,-0.25409,-0.08496,-0.2521,0.27385,-0.05518,0.37419,0.16027,-0.10638,-0.1356,0.10108,-0.06613,-0.113],[-0.22693,0.13253,0.19849,-0.08702,-0.19616,0.25177,0.21024,-0.19617,0.28036,0.16972,0.01649,-0.35193,-0.01111,-0.04317,0.13051,-0.00755],[-0.21963,0.14715,-0.19864,0.22236,0.2896,-0.16114,-0.07506,0.12946,-0.07796,-0.10319,0.05763,-0.11627,-0.22553,-0.13233,-0.06444,0.16869],[0.08113,-0.05174,-0.04471,-0.11921,-0.0746,0.18294,-0.1021,0.03252,-0.29487,0.18165,0.03603,-0.1405,-0.02811,0.15707,0.05259,0.14805],[0.0403,0.17665,-0.25911,0.0087,-0.10287,0.01334,0.04413,-0.0837,0.34859,-0.12306,-0.02244,-0.09277,0.13158,-0.16096,0.06784,-0.12014],[0.09531,-0.0755,-0.07185,0.05497,-0.37935,0.11777,-0.19194,-0.20979,-0.15709,-0.17497,0.1135,0.11012,0.07873,0.17146,-0.19277,0.08153],[0.07022,-0.06848,-0.27251,-0.31125,-0.06844,-0.10408,-0.00163,-0.08849,-0.0242,0.27873,0.17928,0.15171,-0.0098,0.02997,0.07597,0.01964],[0.01254,0.20507,-0.14479,0.18954,-0.00677,-0.02395,0.1314,0.06338,-0.14957,-0.02067,-0.11819,0.06199,-0.27367,-0.21865,-0.1998,-0.09445],[-0.20365,0.00837,-0.13375,0.27085,-0.19343,-0.13684,-0.03096,0.0338,-0.23813,-0.13954,-0.27551,-0.16716,-0.25738,0.28332,0.05382,0.01769],[0.32787,0.14632,-0.00218,-0.04899,0.23973,0.30438,0.0782,-0.17785,-0.14222,-0.14233,-0.16865,-0.21364,0.05471,0.01599,0.11434,-0.0719],[-0.1328,-0.09863,-0.08318,-0.18783,-0.17919,0.24467,0.16771,-0.02912,0.00152,-0.06252,0.42077,-0.01987,-0.19724,0.37327,0.0279,-0.04981],[0.04949,0.0616,-0.23149,-0.15907,0.27539,-0.09492,-0.10416,0.05991,-0.19222,0.01876,-0.37962,-0.14483,-0.1269,0.2662,-0.2305,-0.19961],[-0.01077,-0.31065,0.24011,-0.00414,-0.09209,-0.06943,-0.18947,0.07657,0.15485,0.0407,-0.08423,0.16004,0.21174,0.33771,0.01929,-0.32252],[0.11597,0.31312,0.04803,-0.22846,-0.10101,0.06166,0.19454,-0.1686,-0.10432,-0.27583,0.20522,-0.07307,-0.12045,-0.22046,-0.14463,-0.02569],[-0.13242,0.05506,-0.07525,-0.22468,-0.19292,-0.24509,0.20386,-0.11921,0.10527,-0.06878,-0.05717,0.05715,-0.05847,0.2626,0.06682,-0.07615]],"blocks.1.attn.qkv.bias":[0.11318,0.12386,-0.27744,0.16307,0.01329,-0.13938,0.34263,-0.22844,-0.02277,0.18497,0.05075,0.06653,-0.0049,-0.36089,-0.14607,-0.02168,-0.23013,-0.00781,0.10112,-0.1323,0.16221,-0.20559,0.13562,-0.12738,0.06615,-0.09197,-0.14746,-0.10638,0.06055,0.15197,-0.14924,-0.06184,0.11042,0.01831,0.20061,0.09401,0.17084,-0.17969,-0.06556,0.15498,0.24571,0.08468,-0.16661,-0.12926,0.05118,0.07625,-0.09783,-0.08098],"blocks.1.attn.proj.weight":[[0.22488,0.22166,-0.17596,0.12858,0.11164,-0.11891,0.16568,0.27585,-0.13578,-0.31978,-0.26248,-0.28129,-0.19343,-0.03121,0.05603,-0.21061],[-0.15912,0.16082,0.28768,0.04078,-0.21868,0.10183,0.12043,-0.12833,-0.07097,-0.2372,0.1006,-0.14218,-0.11317,-0.27225,-0.11202,0.14128],[-0.06346,-0.05249,-0.14586,0.2424,0.15175,-0.20294,-0.0247,-0.28531,0.20155,0.08316,-0.26192,-0.10568,0.23412,-0.05388,-0.00647,0.11014],[0.06299,0.04399,0.26194,-0.19898,-0.08695,-0.17014,0.10705,-0.00468,0.01267,0.14869,0.03385,-0.30347,0.08112,0.04769,0.02506,0.24016],[-0.19727,-0.05152,0.16223,0.11041,0.2814,-0.22661,-0.06585,0.13741,0.23891,0.14018,-0.09454,0.0934,0.10305,-0.04868,-0.02485,0.00291],[-0.07905,-0.11372,-0.12996,0.0473,0.0844,0.22511,0.03306,-0.10427,-0.15845,0.02469,-0.1356,0.06493,-0.08074,-0.16031,-0.00209,-0.12251],[0.06207,-0.19973,-0.01557,-0.28058,0.12342,0.05776,0.08529,-0.00688,0.08657,0.12382,-0.16887,0.17384,0.03907,0.08083,-0.09741,-0.23816],[0.2048,-0.13247,-0.22498,0.2184,0.1963,-0.27386,0.18574,0.08439,-0.18924,0.10902,-0.0516,-0.00315,-0.2057,-0.08558,-0.19515,-0.12485],[-0.3002,0.04571,-0.1203,0.0291,0.1105,-0.15126,0.29049,-0.01797,-0.0525,-0.28522,-0.13385,0.06141,-0.06245,0.38003,-0.11866,0.14539],[0.29958,-0.05065,-0.00325,-0.12763,-0.08098,-0.04128,0.16237,0.20969,0.1436,-0.07641,-0.16826,0.17217,-0.20483,-0.03715,0.09752,0.07591],[-0.15702,0.10724,0.18104,0.0194,-0.07828,0.09547,-0.07973,-0.34887,0.12078,-0.07085,-0.15765,-0.0,0.01893,0.04953,0.0835,0.09033],[0.12457,0.10068,-0.05285,-0.12065,-0.15834,-0.00405,0.1595,0.2882,0.18139,-0.13726,0.23013,0.0386,0.12602,-0.20027,0.0427,-0.17481],[0.12746,-0.09416,0.11003,-0.03076,-0.20002,0.1501,-0.13351,0.01249,0.268,0.2084,-0.20456,-0.21024,-0.10488,-0.17082,-0.01572,-0.15313],[0.04853,-0.01995,-0.17239,0.13949,-0.14754,0.25462,0.01555,0.05333,0.19683,-0.19364,-0.16437,-0.02052,-0.08422,-0.147,0.15041,-0.19611],[-0.15534,0.05072,0.06374,-0.06016,0.13829,0.06255,-0.10906,0.19121,-0.00441,0.00255,0.20823,-0.22818,0.16355,-0.12959,0.12413,-0.19692],[0.09796,-0.12854,0.32736,0.02565,0.1289,0.24194,0.26947,0.0733,0.10813,0.00618,0.14767,0.00327,0.007,0.13707,-0.29177,-0.16161]],"blocks.1.attn.proj.bias":[-0.25763,0.10853,0.12598,0.0694,-0.05416,0.15989,0.23527,-0.1542,0.17603,0.06913,-0.13027,-0.18642,0.07085,0.09447,0.02548,0.19532],"blocks.1.norm2.weight":[1.11382,1.1217,1.09547,1.05433,1.08697,1.13933,1.09865,1.2025,1.14192,1.10717,1.15597,1.08974,1.12085,1.13755,1.14052,1.0935],"blocks.1.norm2.bias":[-0.00413,-0.0355,-0.02659,0.00315,-0.00268,0.02553,0.03185,0.02848,-0.05342,0.00556,0.03354,0.00114,-0.02684,0.0526,-0.00697,-0.04629],"blocks.1.mlp.0.weight":[[0.26536,-0.08299,-0.08683,-0.31096,-0.26317,-0.09651,-0.2649,0.24295,-0.20406,-0.02744,-0.293,-0.00109,-0.14262,0.21782,-0.11373,-0.28283],[0.13349,0.17224,0.14898,-0.16984,-0.05078,-0.38654,0.05055,-0.02552,-0.14419,0.19624,-0.0821,-0.06487,-0.19954,-0.06523,-0.18013,0.03794],[-0.1494,-0.04267,0.05558,-0.21103,-0.14034,-0.10489,0.19877,-0.19701,-0.17074,-0.18392,-0.14956,-0.22394,-0.17967,0.25568,0.23167,0.14002],[0.13762,0.04466,-0.14668,-0.0265,0.00602,0.20277,-0.1371,0.04087,-0.21468,0.2336,-0.06422,0.23162,0.01763,-0.16253,0.11716,0.01163],[0.30281,0.13651,-0.08068,0.06214,0.16415,0.09547,0.03052,0.02061,0.08407,0.25846,-0.15783,0.25334,-0.22798,0.10359,-0.01592,-0.02636],[-0.15514,-0.17262,0.15789,-0.02979,0.01766,0.08526,-0.23619,-0.02548,0.25594,-0.27864,0.10009,-0.14398,0.26912,0.16304,-0.27378,0.10632],[-0.17035,0.27016,-0.20252,-0.02726,0.38434,0.17064,0.12896,0.09054,-0.15134,0.2926,-0.11755,-0.10468,0.21183,0.02418,0.08833,0.04017],[-0.09077,-0.00536,-0.05402,0.25,0.27644,-0.00377,0.15556,0.08538,0.27515,0.01976,-0.09024,-0.17656,-0.10761,-0.08293,-0.12973,0.1933],[-0.19037,0.20296,0.04915,0.05188,0.17122,-0.17494,0.12081,-0.29781,-0.0043,0.24422,0.01967,-0.05827,0.15654,-0.15153,0.27642,0.22996],[0.22274,0.04414,0.10651,-0.11486,0.15171,-0.26864,-0.16851,0.0069,0.3534,-0.24785,0.19903,-0.37986,-0.03642,-0.09716,0.11973,0.13842],[-0.11022,-0.08447,-0.03551,-0.04647,-0.21214,0.30299,-0.04831,-0.30334,-0.2005,0.12983,-0.06007,-0.07394,0.11672,0.11563,0.16338,0.26954],[0.1043,-0.32938,-0.14779,0.17689,0.07129,-0.08068,-0.01572,0.19871,0.10868,-0.03516,0.09268,0.36728,-0.30174,-0.15352,0.15123,0.10992],[-0.06396,0.35959,-0.10893,0.21917,0.20828,-0.12477,0.19076,0.02878,-0.03043,0.16491,0.28608,0.19809,-0.17106,-0.22138,-0.06613,0.22264],[0.1864,0.03413,0.08465,-0.01402,0.02748,-0.26505,-0.34537,-0.1015,-0.03656,0.01784,0.34954,0.23303,0.18176,0.15698,0.01991,-0.21684],[-0.15775,0.21038,0.13768,-0.27887,-0.1071,0.05545,-0.12558,0.1292,0.00018,0.15913,-0.02292,0.12541,-0.11667,-0.15664,0.2221,0.38088],[0.24657,0.16283,-0.07918,-0.10392,0.11185,-0.13839,0.04753,0.12549,-0.20712,-0.04465,-0.16447,0.21851,-0.1765,-0.1584,0.06491,0.348],[0.02007,0.04144,0.15173,0.08603,0.2972,0.28684,0.20277,-0.16698,-0.06534,-0.13518,0.07655,-0.07084,0.38331,0.22444,0.05069,0.0837],[-0.18117,-0.01187,0.0896,0.25848,-0.05354,-0.1041,-0.043,0.00139,-0.24398,0.22333,-0.00598,-0.29769,0.05605,-0.06343,-0.10819,0.22383],[0.21599,0.35051,-0.24882,-0.27218,-0.26247,-0.14537,0.09158,-0.13645,-0.19637,-0.1719,-0.20729,0.02979,-0.19243,-0.07214,-0.20012,0.13735],[0.23292,-0.33376,0.11149,-0.01919,0.18987,-0.11724,0.18655,0.24472,0.31364,-0.09573,-0.12982,-0.09172,-0.03963,-0.36906,0.01755,0.0274],[0.14041,-0.15275,0.05252,-0.14225,0.09032,0.00048,-0.15924,0.10951,-0.24532,-0.15391,0.09081,-0.26672,-0.35833,0.13285,0.17733,0.54398],[-0.18218,-0.04029,0.07897,0.24504,0.38531,0.03243,-0.13414,-0.20567,0.03592,-0.22288,-0.13084,-0.23326,0.36725,-0.20128,0.09992,0.06578],[0.27562,0.21223,-0.34708,-0.12608,-0.0539,-0.07062,-0.01351,-0.12068,0.31002,0.05822,-0.19033,-0.13937,0.21937,0.17907,0.08212,0.04244],[0.20502,0.05911,-0.39956,-0.2839,-0.00846,0.04039,0.13977,-0.05638,0.0305,-0.02659,-0.41094,0.15879,0.2166,-0.17647,-0.21491,0.19607],[0.15711,-0.18226,0.19027,-0.14231,8e-05,-0.05095,-0.30759,-0.26587,0.17083,-0.15711,-0.21643,0.08553,0.17739,0.21971,0.23615,0.09974],[0.08308,-0.22937,0.14244,0.05596,0.19313,0.0647,0.14334,0.2431,0.13083,0.13378,-0.05785,0.0555,0.173,-0.18108,-0.53575,-0.03285],[-0.14122,-0.08802,-0.12171,0.039,0.04256,0.19668,-0.23541,-0.26508,0.41098,-0.25176,-0.06989,-0.07755,0.0893,-0.22803,0.18892,0.16943],[0.02064,0.12261,0.02828,-0.185,-0.07035,0.35473,-0.43413,0.04821,0.08508,-0.08096,-0.05117,-0.01585,0.24035,0.12351,-0.38066,-0.20784],[-0.15417,-0.11597,-0.2736,-0.11286,0.19799,-0.01783,-0.07099,-0.28043,0.32486,0.33,0.18655,0.12425,0.22486,0.04885,-0.07684,-0.00294],[-0.02962,-0.16589,0.13116,-0.02772,-0.14294,0.03564,0.23684,-0.23618,0.26601,-0.20874,0.01287,0.30331,-0.24686,-0.07351,-0.14696,-0.08723],[0.02423,0.18507,-0.0217,0.14728,-0.22668,0.24344,-0.25962,-0.31826,0.02208,0.26304,0.07853,0.00532,-0.11564,0.35857,-0.14563,0.05442],[0.14267,0.03896,-0.31456,-0.03043,-0.08095,-0.0126,0.27723,-0.40696,-0.19832,-0.08912,0.11046,0.15733,0.17295,-0.16096,0.26973,-0.01029]],"blocks.1.mlp.0.bias":[0.19574,0.14483,0.14164,0.01894,-0.2359,0.05841,-0.04387,0.17534,-0.15849,-0.02297,0.03832,0.04025,0.0013,-0.0495,-0.1631,-0.15312,-0.28811,-0.08483,0.14793,0.10447,-0.10752,-0.17998,0.19207,0.1889,0.13309,-0.04764,0.06672,-0.15261,0.18809,-0.2067,-0.11547,-0.16118],"blocks.1.mlp.2.weight":[[-0.11749,0.09453,0.21907,0.10903,0.0217,0.05808,0.11013,0.16924,0.06631,-0.11006,-0.05996,0.07697,-0.05226,-0.05636,-0.16085,-0.14433,0.04382,0.0902,0.01845,0.1383,-0.00968,-0.1443,-0.02451,-0.24035,-0.23029,0.3158,0.15194,-0.23101,0.19623,0.1053,-0.01827,0.17373],[-0.08994,-0.08419,0.00924,-0.20026,-0.08435,-0.02436,0.11661,0.06057,0.05202,0.05275,-0.16788,-0.03926,0.13436,0.04415,0.1681,0.05886,-0.00927,-0.02434,-0.06795,-0.07851,0.11385,0.01616,-0.02633,0.27624,-0.07063,-0.04601,-0.16329,0.24382,0.06511,0.11186,-0.14523,0.0119],[-0.16518,-0.01751,-0.04659,-0.18334,-0.02274,-0.12616,-0.21105,0.17951,-0.05641,-0.08618,-0.16996,0.09868,0.12961,0.11353,-0.03795,0.07024,-0.26366,-0.05576,0.22451,-0.17232,0.11898,-0.09134,0.19189,0.09093,-0.26226,0.19138,-0.27527,0.13869,-0.01659,-0.1453,0.16151,0.0334],[0.18904,0.19832,0.10678,-0.15248,-0.22514,0.10475,-0.38527,-0.05248,-0.09666,-0.0026,0.04929,-0.19866,-0.0159,0.10961,0.23336,0.02838,-0.24428,-0.22604,0.25352,0.07488,-0.10754,-0.21447,0.05916,-0.01675,-0.05519,-0.40363,0.13583,-0.01505,-0.25436,0.10343,-0.00012,-0.01464],[0.06751,0.06827,0.10243,-0.21769,0.15151,0.05746,-0.03402,-0.05239,0.26325,0.01623,-0.12998,-0.14341,-0.16027,0.17862,0.17232,-0.09409,0.17047,0.20728,-0.11824,0.05499,-0.07811,0.21157,0.10913,-0.13903,0.07073,-0.00283,0.16402,0.0572,0.13626,0.09781,0.10313,-0.03483],[-0.01566,0.15506,-0.22851,0.16229,0.0782,0.07375,0.06854,-0.05073,0.02774,-0.02201,0.09862,0.15525,0.3062,-0.05724,0.20056,-0.09474,0.0585,0.16071,0.14258,0.11072,0.23867,-0.01933,0.06961,0.21565,0.1193,-0.23069,0.18768,-0.01255,-0.15321,-0.23729,-0.19103,0.0303],[-0.01013,-0.14624,-0.18997,0.11144,-0.09711,0.10931,-0.02571,-0.09466,-0.30838,-0.20641,0.2666,0.31037,-0.19555,-0.14936,-0.00998,0.09924,0.04744,-0.10446,-0.15932,0.02597,0.0364,0.00863,0.00999,0.00804,0.26378,-0.04985,0.22745,0.057,0.20205,-0.1022,-0.09699,-0.09505],[0.00761,-0.03524,0.01221,0.05615,0.05698,0.07119,-0.20985,0.10119,0.02431,0.18178,0.18524,0.0803,0.01677,0.04683,0.21885,-0.05784,0.16297,0.02138,-0.1369,-0.05259,-0.03243,-0.06093,0.00816,0.14176,0.02361,-0.05191,0.1543,-0.00384,0.224,-0.0087,-0.04946,0.00089],[0.02037,0.19503,0.22235,0.03641,0.0642,0.26084,0.16184,-0.07923,-0.07154,-0.10283,-0.00436,0.07699,-0.07971,-0.17548,0.11152,0.26117,0.14517,0.0445,0.09642,-0.29888,0.20344,0.21808,-0.24219,-0.30638,0.01326,-0.16963,0.08581,-0.09854,0.08433,0.04375,-0.22224,-0.28285],[0.00241,0.04079,0.10277,0.11551,-0.01348,-0.0361,-0.21741,-0.11195,0.03272,-0.03551,0.13761,-0.00501,-0.00956,-0.29978,-0.19434,0.16289,-0.09626,0.01903,-0.09184,0.10114,0.27851,0.13394,0.09603,0.00194,-0.12646,0.25695,0.17696,0.04881,-0.01504,-0.08945,-0.01691,-0.16123],[0.29674,-0.12331,-0.02871,0.13143,0.28953,-0.16863,0.186,0.18109,0.16021,-0.01982,0.15,-0.10445,-0.28683,0.11655,0.08472,0.0427,-0.05416,0.19896,0.0574,0.06861,-0.07579,0.25235,0.33686,-0.13048,-0.10978,-0.2154,-0.13855,-0.05928,0.01445,-0.13869,0.20161,-0.23407],[-0.11441,-0.0606,-0.08939,-0.03996,-0.21035,-0.23581,-0.05173,0.20586,0.14359,0.16374,0.14731,-0.15623,0.05918,-0.29583,0.01961,0.03246,-0.2164,0.02008,-0.08842,0.2172,-0.0659,-0.09263,0.21477,0.10831,-0.09874,-0.14615,0.0965,0.03661,0.09684,0.12396,0.20063,0.12544],[-0.12238,0.06667,-0.04256,-0.27052,0.02904,0.02946,0.06386,-0.0333,-0.22756,-0.11195,0.10348,0.31472,0.09483,-0.10443,-0.10337,-0.21285,-0.12699,0.12363,0.13944,0.12097,-0.17417,-0.23702,-0.03233,0.00158,0.2139,-0.07188,-0.20328,0.1002,-0.15285,-0.01146,0.01742,-0.02269],[-0.18137,-0.14661,-0.07107,0.06684,-0.03592,0.07117,-0.08752,-0.07662,0.10557,-0.0367,-0.05476,0.13555,-0.17577,0.19031,-0.10333,-0.02502,-0.05407,0.09246,-0.06005,0.04681,0.02336,0.08681,0.10017,-0.05866,0.07783,-0.02778,-0.24883,0.35157,-0.02915,0.16388,0.02207,0.08722],[0.27148,-0.10388,0.07214,0.04297,0.26074,-0.20855,0.03505,-0.00885,-0.04836,-0.17616,-0.05535,0.05148,0.09004,0.00871,-0.22116,-0.14607,-0.03131,-0.0322,0.04164,-0.0117,-0.30707,0.28924,-0.21046,-0.05714,-0.01474,0.03865,-0.17287,-0.17415,0.03956,-0.00804,0.04646,0.11142],[-0.05251,0.05069,0.14373,-0.08652,0.02709,-0.10489,-0.06174,0.05879,-0.06959,-0.27588,-0.03929,0.06313,0.25087,-0.14453,0.07462,-0.13412,0.00639,0.14878,-0.05865,0.02494,-0.08493,-0.1642,-0.09148,-0.02937,0.17353,0.13233,-0.14473,0.12065,0.08935,0.14105,-0.24546,0.25186]],"blocks.1.mlp.2.bias":[0.09165,0.02669,0.06723,0.02121,0.10849,-0.05147,-0.07209,-0.1678,-0.10252,-0.07108,-0.11639,0.11617,0.19483,0.12786,-0.08788,0.04502],"norm.weight":[1.75156,1.57189,1.66217,1.78195,1.64829,1.64169,1.52541,1.42193,1.64359,1.40902,1.64034,1.6581,1.65391,1.5236,1.65532,1.71715],"norm.bias":[0.05303,-0.04005,-0.01798,0.20133,-0.14159,0.00166,-0.09194,0.0964,0.1272,0.0392,-0.094,0.12503,-0.12231,-0.08185,-0.02819,-0.1149],"head.weight":[[-0.34028,0.2033,-0.55228,-0.77178,0.7065,0.29217,-0.1395,-0.43631,-0.09528,-0.25304,0.52644,-0.39214,0.16988,-0.30886,0.56315,0.48723],[-0.2586,0.38015,0.44934,-0.63034,-0.34008,-0.67184,-0.06827,-0.24791,0.48991,0.41396,0.45693,0.44181,-0.53252,0.45077,-0.43355,-0.49821],[-0.7292,0.52368,0.09386,-0.02141,-0.4736,0.58414,-0.04971,-0.30374,-0.73738,-0.3128,0.33543,0.71025,0.39722,0.36543,-0.0024,-0.06554],[0.24937,-0.54032,0.00609,0.19469,-0.52943,0.46863,-0.1005,0.04949,0.12903,0.47595,0.39444,-0.37481,-0.40385,-0.3773,0.58612,-0.38286],[0.11023,-0.35148,-0.68524,0.16009,0.47483,-0.11765,0.04261,0.45085,0.37674,-0.44702,-0.33922,0.39072,-0.2232,-0.14159,-0.3937,-0.5307],[0.51699,-0.4301,0.50359,-0.62021,-0.00889,0.22707,-0.04322,0.32879,-0.61825,0.25146,-0.44521,-0.14879,0.14862,-0.41343,-0.42701,0.54928],[-0.70586,0.19796,-0.05831,-0.73263,0.1207,0.66275,0.43171,0.26118,0.41216,-0.14001,-0.40062,-0.8154,0.5222,0.50573,-0.60748,0.30808],[-0.06174,-0.32947,0.57805,0.40181,0.37788,-0.56974,-0.55713,0.00479,-0.25257,-0.59186,0.64676,-0.49626,0.16173,0.50067,0.26128,-0.38061],[-0.44184,0.45838,0.51641,0.45267,-0.30642,0.19009,-0.57421,-0.28328,0.4233,-0.12931,-0.45107,-0.00491,-0.31544,-0.59057,-0.15748,0.48239],[0.20619,-0.4109,-0.15514,0.25106,-0.18817,-0.63744,0.29965,-0.21649,0.20841,-0.32834,-0.58147,-0.04009,0.52033,0.39057,0.62211,0.59428]],"head.bias":[0.01177,-0.20718,0.14982,-0.03872,-0.15099,0.10373,-0.05144,-0.18263,-0.03928,-0.01375]}