{"cls_token":[[[-0.00116,-0.03508,-0.01967,-0.08497,0.10964,-0.06642,0.00573,0.04556,0.03487,-0.01281,-0.0082,0.02008,-0.05127,-0.01835,-0.00861,0.00587]]],"pos_embed":[[[0.04875,0.0034,0.02181,-0.05989,0.05888,-0.0459,-0.01983,0.01954,0.0093,-0.02125,-0.00495,0.03895,-0.02017,0.01109,-0.00599,-0.03302],[-0.25917,0.09036,-0.02196,0.07558,-0.12783,-0.10164,-0.01969,0.18128,-0.11555,-0.07639,0.04879,-0.01851,0.17408,-0.0273,-0.06718,0.06008],[-0.20608,0.13118,-0.04443,0.05019,-0.08497,-0.08918,0.01231,0.1639,-0.09562,-0.07494,0.04746,0.01634,0.19418,-0.04127,-0.03816,0.05872],[-0.14877,0.20565,-0.00977,0.12327,-0.14796,-0.13659,-0.06022,0.03779,-0.06071,-0.06829,0.07674,0.02111,0.10926,0.02301,0.00363,0.12297],[-0.07544,0.1827,0.03312,0.09182,-0.11542,-0.09163,-0.10075,-0.00462,-0.13931,-0.07727,0.08896,0.04732,0.02921,-0.00248,0.02917,-0.04012],[-0.09067,0.27394,-0.0361,0.18135,-0.08825,-0.02727,-0.08552,0.00723,-0.09452,-0.14787,0.03297,0.15668,-0.02771,0.02044,0.00824,-0.06604],[-0.04914,0.26977,-0.02984,0.19058,-0.13085,-0.06016,-0.0899,0.04945,-0.0922,-0.1808,-0.00012,0.07311,-0.01866,-0.00664,-0.09291,0.05018],[-0.28909,0.14675,-0.03818,0.12391,-0.11336,-0.05248,-0.11108,0.15785,-0.03916,-0.0057,0.07155,-0.04994,0.2892,-0.05037,-0.04624,0.10608],[-0.24632,0.11221,-0.02893,0.04414,-0.0763,-0.10116,0.00226,0.14504,-0.10338,-0.0002,0.04795,-0.00638,0.2172,-0.0574,-0.01072,0.07172],[-0.25599,0.09522,-0.0533,0.06768,-0.10225,-0.09967,0.01194,0.22197,-0.0636,-0.02305,0.05269,-0.01266,0.24512,-0.04559,-0.0394,0.02879],[-0.28353,0.08494,0.01486,0.09019,-0.0984,-0.11534,0.01042,0.06097,-0.02278,-0.01501,0.16016,-0.06269,0.29135,-0.08136,-0.044,-0.00178],[0.0381,0.11374,0.31231,-0.1291,0.09214,0.09371,-0.11808,0.22841,0.08487,-0.02371,0.08368,-0.3339,0.08072,-0.09738,0.0035,-0.34662],[0.13355,0.08676,0.13742,-0.09974,-0.0104,0.02251,0.11582,0.34295,0.02353,-0.17126,-0.17408,-0.21717,0.0063,0.07019,0.12044,-0.26632],[0.07411,-0.02566,0.03017,-0.03579,-0.1177,-0.04554,0.26895,0.0736,0.0423,-0.12535,-0.03269,0.01082,-0.0201,-0.11532,0.21247,-0.12973],[-0.05454,-0.03499,0.00283,-0.09056,-0.1773,-0.09957,0.33083,0.00346,0.02597,-0.00114,-0.04473,-0.38281,0.13841,0.14784,0.23164,-0.05857],[-0.11336,0.21618,-0.14325,0.30733,-0.2569,-0.06765,0.05518,-0.10261,-0.2265,-0.0662,0.09163,-0.26124,0.24991,0.14687,0.20668,-0.08066],[-0.06445,0.08349,-0.07461,-0.0857,-0.16109,0.14103,0.0459,0.17644,-0.14658,0.00271,0.12513,-0.03851,-0.01933,0.01806,-0.00297,0.14924],[-0.27954,0.12788,-0.05632,0.07696,-0.01246,-0.10349,-0.00907,0.21633,-0.05084,-0.07306,0.03967,-0.00382,0.21493,-0.06153,-0.03176,0.07119],[-0.26771,-0.05894,-0.15254,0.2023,0.20146,-0.20697,-0.05029,0.01965,0.20366,0.16417,0.04818,0.06032,0.03765,-0.17281,-0.09594,-0.08064],[-0.20253,-0.12769,-0.09068,0.27107,0.37177,-0.16852,-0.06613,-0.10938,0.32607,0.29294,-0.09417,0.13446,-0.1122,-0.04786,-0.10955,0.08962],[0.23829,-0.10561,0.14129,-0.0573,-0.20974,-0.13724,0.48264,0.38732,-0.34466,-0.7713,-0.12422,0.09825,0.16224,-0.24623,0.09355,0.33851],[0.19032,-0.00396,0.08211,0.42581,-0.31922,0.1849,0.57234,0.04165,-0.17633,-1.1958,-0.17512,0.24924,-0.18347,-0.12148,0.0663,-0.12606],[-0.03801,-0.55937,-0.21379,-0.13723,-0.25834,0.05903,-0.08156,0.29936,0.14317,0.21844,-0.02234,0.35147,-0.13588,0.04992,-0.01118,0.13371],[0.11542,0.05335,-0.13194,0.13052,-0.11247,-0.28505,0.10703,-0.15281,0.0168,-0.10725,-0.36038,0.01091,-0.07856,0.13491,0.12852,0.2578],[0.05356,0.11272,-0.05016,0.03181,-0.21795,-0.04545,0.0979,-0.06116,-0.20977,0.0485,0.01739,-0.23853,-0.08737,0.17274,0.09311,0.08059],[-0.2848,0.15336,-0.04644,0.09848,-0.05721,-0.11847,0.04165,0.21052,-0.06312,-0.05006,0.03408,0.02659,0.17492,-0.00445,-0.06156,0.1476],[-0.12617,0.03801,0.17921,0.14131,-0.08617,-0.26068,-0.11253,-0.05448,-0.00779,0.17517,0.09097,0.08742,-0.16649,0.35731,-0.21384,0.09111],[0.06494,0.26458,0.37008,-0.37869,-0.31327,0.47702,-0.14452,-0.08456,-0.34905,0.08783,0.0629,0.16139,-0.37693,0.20774,-0.07462,0.6709],[0.66792,0.38385,-0.17476,-0.34476,-0.2832,0.44312,0.09742,-0.26862,0.1968,-0.17891,-0.37629,-0.5365,-0.34135,0.18648,0.43187,-0.01912],[0.3175,0.53219,-0.19621,-0.23649,0.02265,0.36275,-0.01457,0.17413,0.13282,-0.76171,0.11268,-0.33851,-0.29304,0.0354,0.22496,-0.0525],[-0.21965,-0.37385,0.02224,0.07413,0.20617,0.08027,-0.3171,0.20422,0.33913,0.23125,0.12458,0.14406,-0.10211,0.17596,-0.36584,-0.15359],[-0.04836,-0.31915,0.08718,-0.21877,0.33659,-0.11862,0.19443,0.19534,0.00569,-0.16657,-0.25149,0.10058,0.0841,-0.05425,0.01372,-0.01527],[-0.05889,-0.04893,0.06298,-0.00586,-0.0647,-0.00207,0.0352,-0.04489,-0.22842,-0.0407,0.04894,-0.12065,0.12565,-0.07697,0.07953,0.012],[-0.24507,0.12415,-0.06476,0.06647,-0.07019,-0.0194,0.05458,0.12473,-0.11462,-0.02863,0.07287,0.00733,0.21517,-0.05151,-0.00488,0.06702],[0.06649,-0.15293,-0.1036,-0.26627,-0.22857,-0.04793,0.08809,-0.09378,-0.19042,0.07612,0.14911,0.22892,-0.08151,-0.00181,-0.02927,0.15636],[0.17198,-0.23178,0.30545,-0.10002,-0.48123,-0.25158,0.36874,-0.26947,-0.02154,0.16311,-0.03293,0.44253,-0.15218,-0.08008,-0.2377,0.32348],[0.34186,-0.50854,-0.21352,-0.31549,-0.31392,-0.30439,0.33029,-0.07752,-0.31184,-0.37101,0.31111,0.62403,0.24215,-0.30187,0.75925,-0.05564],[0.21135,0.26322,-0.28366,-0.05156,0.13631,-0.36649,0.07091,0.00526,-0.52428,-0.27061,0.05985,0.25935,-0.00972,-0.01732,0.56294,-0.27697],[-0.12785,-0.05556,-0.03452,0.07114,0.19951,0.22263,-0.0949,0.00072,-0.32734,0.15763,0.29413,0.22622,-0.22754,0.11979,-0.19323,0.0887],[0.1502,0.17197,-0.04507,0.09162,0.00561,-0.18718,0.12281,-0.29962,-0.12469,0.05289,0.02846,0.13244,-0.2695,0.09327,-0.15691,0.23948],[-0.10544,0.0099,-0.00255,-0.0109,-0.02007,-0.11862,0.06724,0.05705,-0.16145,-0.01004,-0.0244,0.04081,0.212,-0.13034,0.06518,-0.01804],[-0.11138,0.07594,0.06002,0.11449,-0.0586,-0.02152,-0.00697,0.12622,0.03155,-0.12695,0.05301,-0.09585,0.20612,0.0011,-0.02647,-0.05969],[0.10317,-0.14554,0.11523,-0.06477,-0.07304,0.07615,0.10174,-0.027,0.1037,0.08489,-0.03786,-0.05085,0.07965,-0.20037,-0.05078,-0.04409],[0.35125,-0.46561,0.40323,-0.42621,0.10309,0.11069,0.03323,-0.2756,-0.27694,0.14084,0.08065,-0.00478,0.0639,-0.46308,0.22522,-0.10912],[0.36743,-0.13327,0.34225,-0.49053,0.26958,0.11562,-0.22076,-0.35007,-0.49119,-0.27564,-0.03116,-0.2199,0.10914,-0.16412,0.42253,-0.20161],[0.1082,0.45715,0.00822,0.18736,-0.18765,0.0351,-0.28267,-0.19279,0.00774,0.15665,0.45113,0.0662,-0.13852,-0.05195,-0.1031,-0.26049],[0.18511,-0.10183,0.39038,0.12592,-0.1442,-0.09811,0.2646,-0.10759,0.1285,0.10451,-0.18102,-0.14352,-0.05958,-0.04946,-0.02273,-0.22416],[0.06809,-0.0029,0.29548,0.08521,-0.08303,-0.21757,0.08124,-0.08426,0.01419,-0.02163,0.00438,-0.04522,-0.00198,-0.15559,0.03752,-0.27749],[-0.2007,0.11217,0.07141,0.20219,-0.11094,-0.19722,-0.05219,0.05711,-0.09441,-0.05544,0.07201,-0.05626,0.28927,-0.07553,-0.04607,-0.02475],[-0.30678,0.1134,-0.00472,0.07211,-0.07832,-0.11972,0.01559,0.20777,-0.06122,-0.07816,0.06513,0.03756,0.24237,0.01005,-0.05502,0.04361],[-0.04445,0.08105,0.02147,0.11045,-0.02385,0.10153,0.21943,0.13484,0.06596,-0.27164,-0.06977,-0.12379,0.06759,0.1761,-0.01124,-0.14376],[0.12371,0.02263,0.09538,-0.06519,-0.00379,0.29413,0.19199,-0.07109,-0.01626,-0.13867,-0.35185,-0.28582,-0.05145,0.21218,0.09807,-0.17887],[0.05417,0.0018,0.13068,0.01162,0.05057,0.07066,0.15119,-0.07441,0.06259,-0.11809,-0.22441,-0.21733,-0.21568,0.1054,0.30968,-0.07661],[0.05651,-0.10202,-0.00269,0.08108,0.15796,0.0244,0.10653,-0.07077,0.18365,-0.06643,-0.25206,-0.203,-0.27781,0.06422,0.29269,-0.04554],[-0.1352,0.05612,0.21703,0.11226,0.02946,-0.09982,-0.08772,0.09178,0.40812,-0.04876,-0.14443,-0.05973,-0.09607,0.0319,-0.07856,-0.03528],[-0.1874,0.07736,0.07946,0.0812,0.00134,-0.21843,-0.02296,0.15081,-0.00852,-0.0698,0.07887,0.03888,0.31327,-0.12987,0.00265,0.0093],[-0.23849,0.14977,-0.04802,0.09544,-0.10896,-0.14223,-0.00369,0.11861,-0.00205,-0.02819,0.04379,0.02539,0.23151,-0.10429,-0.05098,0.07525],[-0.30522,0.12843,-0.05741,0.06713,-0.13553,-0.10995,0.00318,0.1829,-0.12207,-0.03752,0.04942,0.0175,0.18756,0.00972,-0.04753,0.07226],[-0.30954,0.21126,-0.11502,0.12255,-0.09116,-0.18329,0.05535,0.27839,-0.09037,-0.08821,0.03817,0.04601,0.20506,0.01211,-0.16087,0.09712],[-0.38256,-0.04056,-0.06066,0.13108,0.20317,0.04551,-0.24983,-0.00442,0.20657,0.11983,0.14121,-0.0511,-0.00654,-0.11232,-0.17512,0.22782],[-0.5171,0.05416,-0.0294,-0.0529,0.42175,0.20353,-0.1049,-0.02842,0.2867,0.12128,0.06298,-0.0321,-0.08086,0.11381,-0.17197,0.1012],[-0.41253,0.05871,-0.02424,0.11446,0.21267,-0.02201,-0.13979,0.15415,0.37763,0.05748,-0.05574,0.07491,-0.00797,0.06751,-0.09071,0.03252],[-0.3148,0.11192,-0.05894,0.17581,-0.10655,0.00724,-0.16653,0.14544,0.13841,0.10668,-0.003,-0.00646,-0.01328,0.09072,-0.13375,0.17115],[-0.25008,0.09086,-0.08879,0.0868,-0.11012,-0.07824,-0.00037,0.165,-0.12967,-0.03517,0.09604,0.019,0.20399,0.01798,-0.03258,0.09439],[-0.26238,0.14135,-0.01249,0.07793,-0.07925,-0.11911,5e-05,0.15443,-0.10678,-0.04721,0.03487,0.02464,0.22453,-0.02886,-0.02552,0.0302]]],"patch_embed.proj.weight":[[-0.0219,0.06696,-0.13455,-0.0617,0.17955,0.0817,-0.0065,-0.07845,0.03996,-0.29567,0.04407,-0.14017,-0.0189,-0.02288,0.14807,0.14574],[0.12686,-0.1414,0.1511,0.07552,0.06934,-0.08402,0.14577,-0.2267,0.00575,0.11415,0.09606,0.00511,-0.13415,-0.02552,0.12728,-0.14213],[-0.08165,-0.06261,-0.21598,-0.00341,0.18105,-0.03006,0.20448,0.15256,0.07254,-0.01834,0.13576,0.15798,0.08598,-0.16279,-0.08471,-0.05976],[-0.14751,-0.11102,-0.01675,-0.13438,0.1898,0.11719,0.2745,-0.03389,0.0404,0.12651,-0.00946,0.16684,-0.03662,0.09281,-0.11596,0.04583],[0.0049,0.07956,0.23651,-0.15077,0.0666,-0.02448,-0.07101,-0.03262,-0.0459,-0.13315,-0.03821,-0.18587,0.03711,-0.07865,0.13275,0.12936],[-0.1007,-0.19393,0.13459,-0.13788,-0.01575,-0.17288,-0.08112,0.04017,-0.17981,0.10878,0.12428,0.16164,-0.18075,0.21502,0.04096,-0.14623],[0.09906,0.12422,-0.01337,0.06211,-0.1165,0.05434,-0.12911,-0.06772,-0.19984,0.06122,-0.11246,-0.01344,0.17474,0.02554,0.19438,0.13882],[0.0288,-0.02002,0.20144,-0.04614,0.10495,-0.11839,0.05929,0.15578,-0.06379,-0.06038,-0.05745,-0.0035,-0.21972,0.14036,0.12412,-0.04669],[0.16953,0.15817,-0.11516,0.21104,-0.07707,-0.18663,-0.14948,0.11415,0.15733,0.09019,-0.08182,-0.09794,-0.1047,-0.13216,0.18186,0.04852],[-0.14988,-0.02533,-0.00062,-0.17969,0.16554,0.02949,-0.09248,0.09483,-0.10364,-0.16998,0.14738,0.09293,0.01667,0.02617,0.16514,-0.14805],[0.17147,0.0084,-0.23191,-0.07262,-0.25684,-0.06771,0.20448,0.02833,-0.12394,0.13832,-0.10845,0.16928,0.01026,0.08518,-0.09357,-0.06423],[-0.06441,0.1247,-0.19339,0.21418,-0.22608,0.20978,-0.01331,-0.08765,0.10304,-0.09765,-0.00734,0.0336,0.17486,-0.0706,-0.02954,-0.10196],[0.12324,-0.05389,-0.1503,0.02751,-0.14456,-0.01403,0.00224,0.05107,-0.09238,-0.13781,-0.0197,0.19753,0.12294,0.04371,0.10028,0.06834],[-0.04737,-0.08907,-0.24023,0.26041,0.21867,-0.1641,0.18864,0.20928,-0.18425,-0.10062,0.00323,0.09523,-0.11384,0.18486,0.08565,-0.0844],[0.05399,-0.15707,0.00038,-0.05615,-0.05319,0.0052,-0.07525,0.03315,0.11291,-0.05846,0.01636,-0.04106,-0.09296,0.03267,0.0338,0.15254],[0.08156,0.0516,-0.0444,-0.17967,-0.20062,0.18767,0.01078,-0.15938,0.03779,-0.22717,-0.12537,-0.01066,-0.04408,-0.13335,-0.07316,0.11973]],"patch_embed.proj.bias":[0.1754,-0.01006,-0.04711,0.10855,0.17877,0.0348,-0.06335,0.0778,0.12947,-0.0121,-0.08095,-0.04671,0.21187,0.05106,-0.10099,-0.13582],"blocks.0.norm1.weight":[1.12231,1.03017,0.98765,1.0026,1.01608,1.05654,1.02366,1.08267,1.14107,1.12012,0.97115,1.10801,1.01081,1.05312,1.04661,0.99844],"blocks.0.norm1.bias":[-0.04447,0.02249,0.01861,0.01294,-0.00505,0.00102,0.01911,0.01201,-0.01284,0.00496,0.03454,0.04685,-0.01917,-0.01694,0.01377,0.01145],"blocks.0.attn.qkv.weight":[[0.27726,0.20804,0.09686,0.06495,0.08909,-0.18286,-0.15481,0.09742,0.07128,0.09656,-0.08043,0.12329,-0.25508,0.05176,-0.00666,-0.14862],[-0.17554,0.38863,-0.06514,-0.0271,0.04788,-0.29671,0.25931,0.05299,0.11098,-0.04771,0.15996,-0.08211,-0.25546,-0.08965,0.10329,-0.08881],[-0.05999,0.21543,0.20289,0.23474,-0.10066,-0.2032,-0.24157,-0.08831,-0.14886,-0.15956,-0.12399,-0.2358,0.14498,0.20225,0.14719,-0.27045],[0.06759,-0.03446,-0.11165,0.1024,0.07835,-0.20262,-0.24589,-0.09244,-0.15489,0.11308,-0.06996,0.12567,-0.15971,0.07217,-0.25276,0.22921],[-0.10639,-0.21148,-0.19587,0.20454,0.24991,0.34575,-0.04299,-0.12175,0.04486,0.19648,-0.43642,-0.33,0.33598,-0.25431,-0.1962,-0.13533],[-0.10624,0.11269,-0.17002,0.01218,-0.14828,0.14116,-0.09393,-0.17254,-0.20198,0.0401,0.22538,-0.16433,-0.01723,0.08567,-0.21142,0.12706],[0.01259,0.22658,-0.04675,-0.09349,0.23113,-0.12914,0.00706,0.03189,0.20024,-0.09852,0.03707,-0.21303,0.17033,0.10934,0.12944,0.02633],[0.16355,-0.12562,-0.01855,0.02157,0.02152,-0.23075,0.1376,-0.02815,-0.12999,-0.23251,-0.27702,0.17698,-0.05548,-0.22513,0.12716,-0.1534],[-0.02413,-0.18915,0.25512,-0.2787,0.24243,0.16489,-0.19379,-0.22369,-0.04446,0.18761,0.09301,0.25087,-0.05345,-0.11473,-0.08342,-0.22709],[-0.36128,0.08668,-0.19208,-0.13558,0.03136,-0.10104,-0.16826,-0.18819,0.22205,0.06321,-0.02576,-0.13001,-0.26927,0.18729,-0.01083,-0.02403],[0.34663,-0.18396,0.04433,-0.15085,0.16548,0.19472,0.13577,0.01387,-0.03077,-0.01375,-0.08769,0.14397,0.18663,-0.15521,-0.00916,0.27545],[0.24195,-0.06767,-0.10566,-0.18448,0.12168,0.23825,-0.03941,0.26658,0.05947,-0.10837,-0.59085,-0.08859,0.30199,-0.38061,-0.22315,-0.00453],[0.06698,0.06719,-0.17939,-0.10828,-0.07465,0.08136,0.08703,0.12678,-0.39363,-0.30501,0.10848,-0.06613,-0.03261,0.11805,-0.10272,-0.21512],[-0.11632,0.08679,-0.21166,0.1367,-0.00798,0.03737,0.14013,-0.22599,0.00199,0.12076,0.12948,-0.16312,0.05792,0.01027,0.01407,0.13751],[0.1553,-0.17469,0.16706,-0.01092,-0.1692,-0.16777,0.2396,-0.15499,-0.22659,-0.15926,0.06058,0.09281,0.17101,0.05655,0.22486,-0.00456],[0.08429,0.00921,-0.07379,0.12688,-0.31635,0.31984,-0.03384,-0.30253,0.06212,0.26645,0.22961,0.03372,0.19949,0.16667,0.19187,0.18355],[0.35695,0.11392,-0.20436,-0.2595,-0.04169,-0.13855,0.03655,0.08998,-0.15591,0.04206,0.03752,0.2839,0.15766,0.11153,0.19135,0.24379],[-0.29411,-0.05252,-0.13626,0.1863,-0.16845,-0.26185,0.03931,0.24573,0.22078,-0.21834,-0.23757,0.35062,0.07565,-0.22913,-0.23215,0.14194],[-0.1452,-0.01673,-0.17614,0.17115,0.03654,0.09703,0.06006,-0.07942,0.02977,0.17458,-0.07316,0.29654,0.2632,-0.02847,-0.21945,0.10471],[0.34705,-0.19528,-0.20411,0.13086,-0.09927,0.08153,-0.09241,-0.2799,0.16807,-0.07742,-0.18888,0.1056,-0.04167,-0.10555,0.26998,0.11872],[0.02761,0.23778,-0.14469,0.09459,0.13568,0.15909,-0.20101,-0.0578,-0.20819,0.01896,0.02849,-0.12198,0.0621,-0.18424,0.23764,-0.21145],[-0.09835,0.02866,-0.02546,0.20865,-0.24331,-0.0114,-0.21271,-0.0387,0.23717,-0.01276,0.15622,-0.0643,0.30281,0.1154,-0.17815,0.0885],[0.11874,-0.14128,-0.00682,0.16569,0.02447,0.16661,0.26086,0.21104,-0.01976,-0.01796,-0.057,0.0315,-0.10885,-0.17024,-0.21358,0.15677],[-0.19217,0.20921,-0.06991,-0.0518,0.02234,-0.18871,0.24659,0.17693,-0.02869,-0.13573,-0.13675,0.09502,0.02054,-0.25709,0.16804,-0.2026],[0.19038,-0.25943,0.21282,-0.18075,-0.04817,-0.19704,-0.0766,-0.08167,0.041,-0.20313,-0.09054,-0.05543,-0.25583,-0.17197,0.21666,-0.00464],[0.23377,-0.10059,0.11171,0.06239,0.19921,-0.08094,0.17293,-0.12075,-0.20226,-0.1146,-0.10408,0.1578,0.28085,-0.15247,-0.02658,-0.12356],[0.16943,0.12427,0.05245,-0.18171,-0.25039,0.29284,0.21283,0.12398,0.07445,0.05833,0.10449,-0.25672,-0.31566,0.03207,0.16406,-0.02002],[0.17826,0.17803,-0.20993,0.00194,-0.2215,0.29761,0.02681,0.14081,-0.054,-0.31114,0.05158,-0.16619,-0.04118,0.25907,0.20096,0.02093],[-0.39838,0.01704,-0.07487,0.16562,0.05971,-0.11098,-0.00489,0.03835,0.15607,-0.20383,0.30288,0.19009,0.08632,-0.01394,-0.13722,0.18456],[-0.3456,0.27591,-0.05362,0.23305,-0.08368,0.07148,-0.04486,-0.11862,0.06978,0.25705,0.19258,-0.07115,0.1477,0.09856,0.10338,-0.18836],[-0.3453,0.15512,-0.19395,-0.26769,-0.08386,-0.16334,-0.1457,0.19118,0.2033,-0.19951,-0.07231,0.1392,-0.04339,-0.00252,0.09758,0.22719],[-0.224,-0.02088,0.10339,0.08,-0.15715,-0.18088,-0.28072,-0.00166,0.32593,0.16917,-0.13883,-0.29725,0.12375,0.142,-0.25375,0.00663],[-0.12151,0.18054,-0.16533,0.22071,-0.18103,-0.08298,0.17672,-0.16959,-0.17782,0.08643,0.16819,-0.16018,-0.23035,0.14269,0.06962,0.16029],[-0.20573,-0.01737,-0.08516,0.19157,-0.14754,0.21144,0.00447,-0.21728,-0.00482,-0.278,0.19382,0.16768,-0.0546,-0.21283,0.169,0.31859],[0.14064,0.35018,-0.14511,0.10491,-0.10812,-0.23085,-0.04315,0.13886,-0.06494,-0.08234,0.23871,-0.00247,-0.24974,0.09156,0.1553,-0.1988],[0.01731,-0.13424,-0.19195,0.21003,0.00985,-0.03685,-0.20053,0.01216,-0.30549,-0.16466,-0.1837,0.0442,-0.12214,0.28227,0.0011,0.0416],[0.12211,0.22363,0.23002,0.15776,0.22949,-0.05057,-0.21288,0.27418,0.16871,-0.20577,-0.2312,-0.28671,0.05361,-0.15445,-0.27926,-0.00487],[0.23184,-0.00164,-0.04026,0.24343,-0.26181,-0.03819,-0.271,0.09583,0.08384,-0.14657,0.26247,0.20087,0.15071,-0.12345,0.03011,-0.12891],[0.0209,-0.15805,-0.15479,0.02709,0.08518,0.11623,-0.21571,-0.10319,0.04221,-0.15035,-0.15116,-0.15817,-0.19645,-0.04555,-0.11594,-0.03585],[0.01557,-0.04423,-0.24677,-0.00468,0.0318,0.13433,0.22465,0.1104,0.29321,0.13256,-0.01563,-0.24231,0.07575,0.06333,-0.07234,-0.00622],[-0.05977,-0.13768,0.22434,-0.0711,0.24069,-0.14161,-0.0998,0.26182,-0.07889,-0.07928,0.27043,-0.08026,0.14945,-0.22465,0.02971,-0.19401],[-0.01953,-0.28221,0.24626,-0.17702,-0.15896,-0.11227,-0.26638,0.2078,-0.12747,0.24068,0.08561,0.08037,-0.01552,-0.06461,0.1201,0.23655],[0.03886,-0.18049,-0.17141,0.03529,0.23128,0.2485,-0.05325,0.04423,0.21786,0.0478,-0.04791,0.13157,-0.18561,0.1661,0.12978,0.07536],[0.05978,0.27967,-0.18825,0.05702,-0.01872,-0.20534,-0.08271,0.10798,0.03787,-0.19482,0.02203,0.10568,0.00815,0.26419,0.21579,-0.12069],[0.12585,-0.16104,-0.07097,0.22686,-0.14009,-0.25611,-0.22623,-0.2191,0.02983,0.1814,-0.08945,-0.12549,0.01917,-0.12667,0.23969,0.0301],[0.03495,0.04494,-0.05721,0.20222,0.1786,0.20489,0.08251,-0.23945,-0.20559,0.12737,0.01042,0.07323,0.00796,-0.1605,0.19962,-0.2669],[-0.00501,-0.1822,-0.01999,-0.24553,0.03175,-0.08713,-0.16872,-0.17752,-0.00417,-0.05192,0.06207,-0.03212,-0.23105,-0.08976,0.25312,-0.1005],[-0.05272,0.07592,-0.19385,-0.23841,0.17962,-0.15475,-0.20454,0.23731,-0.15502,0.12021,-0.11878,-0.04801,0.15266,0.16559,0.22312,0.27664]],"blocks.0.attn.qkv.bias":[-0.18993,-0.25357,0.13636,0.14405,-0.04139,0.04621,0.01024,-0.05419,-0.05515,-0.0005,0.31201,0.39149,-0.0723,-0.21633,-0.22264,-0.25659,-0.05156,-0.12124,0.21702,-0.22918,-0.21648,0.07599,0.10856,0.10262,-0.11942,0.01816,0.08882,-0.17051,0.04077,-0.04984,0.01545,-0.06215,-0.22369,0.0,0.05878,0.22987,-0.21202,0.06485,-0.01109,-0.14838,0.00677,0.10541,-0.14139,0.16811,0.02922,0.01111,0.24001,-0.22848],"blocks.0.attn.proj.weight":[[0.15146,-0.12889,-0.05483,0.1878,0.18749,0.22626,-0.11157,-0.15835,0.15997,-0.05103,-0.13164,-0.18934,0.24776,0.04036,0.21556,-0.15832],[0.18278,0.02914,0.14021,-0.10908,-0.1098,0.07456,-0.11138,-0.18249,-0.17732,0.18911,-0.129,-0.25656,-0.23114,-0.18342,0.13951,-0.28333],[0.21193,-0.11872,0.23422,-0.03727,0.1999,0.11489,0.05112,-0.19965,-0.2361,-0.28607,0.11293,0.1498,0.07525,-0.07818,0.21793,-0.18264],[-0.23282,0.04087,0.18484,-0.0355,0.06329,-0.15308,0.12178,-0.18001,0.256,-0.22085,-0.0478,0.206,0.20559,0.18817,0.26339,0.36994],[-0.21729,-0.20333,0.04571,-0.16902,0.00464,-0.31428,0.04315,-0.24174,-0.17762,0.01217,0.02368,0.13995,0.04135,-0.22652,-0.16838,-0.14692],[0.09936,0.15157,-0.05705,0.0436,-0.01013,0.08299,0.14696,0.07353,-0.12018,-0.14461,0.00592,0.12977,0.1872,-0.32467,-0.12601,0.07384],[-0.12699,-0.18892,0.04603,-0.16013,0.07702,-0.26075,-0.02057,0.1378,0.10049,0.28789,-0.03423,0.09757,0.02744,-0.08726,0.00969,0.0405],[-0.08467,0.07736,-0.13286,-0.15145,-0.01277,0.22604,-0.07371,0.17012,0.1315,0.14982,-0.05021,-0.11514,0.04635,-0.20891,0.26166,-0.11227],[-0.03744,-0.16298,0.18045,0.14591,-0.27729,0.16653,-0.01639,-0.12211,-0.09032,-0.14586,-0.2354,-0.03844,-0.19522,0.0926,0.19919,-0.11828],[0.09573,-0.00336,0.01272,0.13724,-0.03458,-0.23226,-0.05709,-0.22334,0.25772,0.05155,-0.17253,0.13307,-0.17245,0.09391,0.07611,-0.10449],[-0.04504,0.14152,0.11366,-0.06668,0.16853,0.01491,-0.07725,0.191,0.07966,-0.04212,-0.27897,0.13119,0.08513,-0.03496,0.10379,-0.33265],[-0.02662,-6e-05,0.25304,-0.1964,0.11462,0.27734,-0.01832,0.02466,-0.0153,-0.03193,0.10816,-0.07701,-0.17212,-0.16572,0.10694,0.07059],[-0.19921,0.25106,-0.12278,0.088,0.23961,-0.27633,0.2078,0.22542,0.13244,0.05799,0.17851,0.20511,-0.0133,-0.0991,0.19979,-0.21394],[0.1178,-0.11501,0.0608,-0.10082,0.00319,-0.15214,-0.1495,0.24532,-0.1436,-0.14632,0.14896,0.18675,0.29131,0.21603,0.18712,-0.01613],[0.08821,0.10756,0.04265,0.29628,0.23236,-0.0296,-0.18381,0.12275,-0.05216,-0.20533,-0.08829,-0.07354,-0.23915,-0.14328,0.04653,0.07431],[0.21762,0.15094,0.16747,0.08872,-0.22207,-0.07991,0.02791,0.06273,-0.00035,0.048,-0.20439,-0.09752,0.12322,-0.02371,-0.03919,0.35024]],"blocks.0.attn.proj.bias":[-0.09919,0.06449,0.18898,-0.11371,0.0338,0.07394,-0.05513,-0.17193,0.12157,-0.10335,0.01273,-0.18579,0.01219,-0.06391,-0.17701,0.04221],"blocks.0.norm2.weight":[1.05143,0.99348,1.18623,1.16792,0.9744,1.02018,1.01476,1.04088,0.99688,0.97459,1.0761,1.01931,0.97214,1.06424,0.97575,1.00777],"blocks.0.norm2.bias":[-0.02014,0.00446,0.00439,0.01625,-0.0503,-0.05098,-0.03431,-0.0021,-0.03249,0.02839,0.00471,-0.00446,-0.04674,0.00555,0.03345,-0.0377],"blocks.0.mlp.0.weight":[[-0.00289,0.13398,0.11056,0.06919,0.19872,0.13277,0.04061,0.09811,-0.04781,-0.13779,0.33725,0.19853,-0.12497,0.05286,0.07238,-0.0443],[-0.1001,-0.00633,-0.17529,-0.00079,0.19607,0.21993,0.00487,0.03788,0.17472,-0.18151,0.07525,0.05419,-0.27204,0.22181,-0.10268,0.31254],[0.01845,0.041,0.18666,-0.23151,0.10687,-0.16147,-0.02554,-0.17206,-0.07174,-0.25339,-0.21649,0.23569,0.10564,0.27033,-0.15755,0.11383],[0.15152,0.1913,0.05397,-0.01358,0.17416,-0.05675,0.18775,-0.05137,0.05767,-0.003,-0.02062,-0.21102,0.14533,-0.19968,0.1159,-0.01281],[-0.12334,0.10051,0.00478,0.02664,0.14419,-0.11309,0.21362,-0.05638,0.1477,-0.20029,-0.07682,0.23995,0.18952,0.20636,-0.17966,0.2232],[-0.16901,0.17517,-0.31819,0.08054,0.0256,0.20349,0.33286,0.16942,0.03192,-0.20975,0.11797,0.03633,-0.1681,-0.14258,-0.21742,0.02647],[-0.2434,0.10139,0.06454,0.25262,-0.02795,-0.24244,-0.1389,-0.07178,-0.12442,0.15581,-0.24844,0.23178,0.01809,0.31465,-0.13731,-0.01],[-0.09302,-0.00088,-0.12705,-0.1223,0.1871,0.08403,0.15624,0.12875,0.1449,0.04959,0.01559,-0.10587,0.14074,0.1693,0.08394,0.14049],[-0.03187,-0.073,0.14415,0.02492,-0.24097,-0.19712,-0.19777,-0.14021,0.11384,-0.06893,0.14372,0.02303,0.00345,0.08206,-0.19809,0.15859],[-0.24155,-0.12517,0.15307,0.04916,-0.25951,-0.20929,-0.06961,-0.16206,0.15147,0.12706,-0.05009,0.21909,0.11355,-0.04441,-0.13551,0.07159],[-0.13274,0.10672,-0.38345,0.22294,-0.16233,0.06502,0.00061,0.08093,-0.54874,-0.16935,-0.15775,-0.20399,-0.13495,-0.12388,0.20496,-0.19891],[-0.07593,-0.1739,0.07839,-0.32086,-0.03202,-0.02149,-0.14931,0.09923,-0.0413,0.25558,0.07178,0.32153,-0.23104,0.10618,-0.21865,-0.1836],[0.17746,-0.02801,0.05001,-0.0905,0.12849,0.01773,0.10751,-0.0039,-0.2305,-0.07688,-0.09338,-0.05692,0.21113,-0.1161,-0.07251,0.26766],[0.30445,-0.0581,-0.19259,-0.22397,0.1409,-0.0626,0.21466,-0.13602,-0.02138,0.09123,0.34414,0.16108,-0.03244,0.06145,-0.13717,-0.09151],[0.27346,-0.13742,0.26018,0.05357,0.17388,0.05767,0.14301,0.26704,-0.0506,-0.21197,0.08797,0.17225,-0.11949,-0.20627,-0.20643,0.20811],[-0.15031,0.21983,-0.18776,-0.21011,-0.14754,0.17933,0.14609,0.0486,-0.33584,0.06615,-0.05642,0.23008,-0.23716,0.19078,0.17377,-0.03361],[0.22962,0.15346,0.20485,-0.02932,-0.28695,0.06981,-0.14114,-0.23963,0.16938,-0.10952,0.17244,0.06846,-0.05397,-0.15198,-0.15263,0.10796],[0.09984,0.06493,0.17494,0.0039,0.17876,0.0627,0.20393,-0.04264,-0.22876,0.08299,-0.1415,-0.15111,0.02634,-0.00794,-0.08573,0.12927],[-0.11488,0.17408,0.1852,0.12462,0.24843,0.19698,-0.08988,0.01656,-0.18618,0.14428,-0.0871,0.2267,-0.04863,-0.00064,0.14077,0.04536],[-0.2208,-0.0676,-0.12978,0.24527,-0.18948,0.09954,-0.00073,0.05368,0.10557,0.28163,0.08273,0.00792,-0.06746,-0.17641,0.27469,-0.1567],[0.27699,0.41921,-0.22857,-0.17505,-0.05401,-0.35641,-0.07066,0.47362,0.09202,-0.1014,-0.0832,-0.05681,-0.38625,0.21977,0.08114,0.01668],[-0.20262,-0.07357,-0.14088,-0.27831,0.01938,0.21397,-0.15341,0.30675,-0.00664,0.10124,-0.17199,-0.042,0.11619,0.06581,0.14002,0.09569],[-0.27583,0.26327,0.19857,0.34772,0.05853,0.20099,-0.1952,-0.18353,-0.08081,-0.11575,0.11492,0.22684,0.0279,0.14887,0.16635,-0.00751],[0.11284,0.17492,-0.04718,-0.18639,0.12156,0.15253,0.01821,-0.07349,0.06539,-0.09802,0.12662,0.21036,0.07058,0.08343,0.11316,-0.11732],[0.32129,-0.09575,-0.13271,0.23984,0.0384,-0.00427,0.20391,-0.25544,0.01887,0.01499,0.08188,0.14234,-0.17813,-0.23529,-0.0848,0.15973],[-0.03377,0.16771,0.23326,-0.02819,-0.31177,-0.27548,-0.13824,0.01982,-0.24979,0.11881,0.09292,-0.00242,0.05986,0.05813,0.29246,-0.24663],[-0.13843,0.11531,0.29326,-0.06325,0.14268,-0.23972,-0.09838,0.06056,0.26424,0.20022,-0.10454,-0.20571,-0.27529,0.15824,-0.17132,-0.10914],[0.13775,0.03072,0.17086,0.01215,0.02966,-0.17251,0.13736,0.24863,0.05345,-0.04525,-0.48647,0.08667,-0.09566,0.12202,0.17788,0.28617],[-0.00881,0.19083,-0.26025,0.11272,-0.07187,-0.10647,-0.33516,-0.06247,-0.15704,-0.23374,0.14134,0.11462,0.14041,-0.22093,0.12621,-0.08646],[0.11126,0.14057,-0.14807,0.10788,-0.06429,0.2184,0.08825,-0.00412,-0.20667,-0.11541,0.08841,-0.26031,-0.21648,0.07588,0.14622,0.09695],[-0.08318,0.10392,-0.1972,-0.21396,-0.22635,0.30263,-0.23932,0.20834,-0.03366,0.31228,-0.2734,-0.21115,-0.09011,-0.03216,0.03782,0.41761],[-0.1995,0.14192,0.05833,-0.17955,-0.22065,0.26562,-0.06282,-0.15272,0.143,-0.11496,0.19568,0.19722,0.19465,-0.06487,-0.05884,-0.10472]],"blocks.0.mlp.0.bias":[-0.13206,0.12566,0.02952,0.05881,0.20333,0.08907,0.22409,-0.01467,-0.0684,-0.14594,0.03089,0.17215,0.19759,0.04341,0.10396,-0.22158,-0.23616,0.14019,0.22226,-0.00653,-0.0002,0.20626,-0.16499,0.12086,-0.25469,-0.2107,-0.02926,0.19075,-0.01138,-0.30969,0.08716,0.06359],"blocks.0.mlp.2.weight":[[-0.07538,-0.23344,-0.07113,0.11729,0.05669,0.13435,0.07838,-0.07768,0.01155,0.11778,-0.04676,-0.12009,-0.08409,0.04826,-0.04832,-0.09855,0.14115,-0.11053,0.12749,-0.12362,0.01523,-0.12328,-0.01764,0.02396,0.07987,-0.19771,-0.00152,-0.08714,0.09514,0.1117,0.16989,-0.16649],[-0.05016,0.23595,-0.03997,0.11844,0.1325,-0.05623,-0.15759,0.06068,0.11669,-0.1167,0.05311,-0.10346,0.05142,0.07358,0.12691,-0.12861,-0.18844,-0.07827,-0.04937,-0.06004,-0.17619,-0.00772,-0.12059,-0.06549,0.14207,0.05798,-0.05411,0.1251,0.17413,-0.05758,0.16448,0.06113],[0.05195,0.16489,-0.04622,-0.06194,-0.14657,0.14485,0.07723,-0.00783,0.08951,0.11023,0.07834,-0.0963,0.05294,0.03775,0.07065,0.01185,0.01115,-0.08363,0.1437,0.2012,0.26498,0.12847,0.05088,0.00066,-0.09177,0.14559,0.04939,0.19226,0.1173,0.04081,0.19286,-0.18324],[-0.14368,0.16156,-0.07805,0.12596,0.10171,0.04485,0.06595,-0.16354,0.21362,0.08217,0.02873,0.11959,0.14827,-0.07428,0.19299,0.05973,-0.05439,-0.05047,0.15386,0.05232,-0.20799,0.10606,0.02518,0.02782,0.03866,-0.21563,-0.12266,0.05724,0.20741,0.06746,-0.04275,0.03155],[0.07696,0.1296,0.08872,0.12849,-0.12664,-0.03473,0.0798,0.09184,-0.03317,-0.17288,-0.0225,-0.2454,-0.12051,0.02661,-0.11813,0.14653,-0.04962,0.11326,-0.06444,0.01069,0.10999,-0.14319,-0.10905,-0.00076,0.02581,0.10923,-0.21248,0.02503,-0.01518,-0.07695,-0.23633,-0.00536],[0.14602,0.24061,0.14712,-0.12567,-0.05529,-0.0475,-0.24066,0.09096,-0.18807,-0.08678,-0.03686,0.04213,-0.0871,0.15109,-0.09687,-0.14606,-0.00885,-0.09242,-0.08732,0.01719,0.24964,0.02174,0.17186,0.03588,-0.08486,-0.06392,-0.15948,0.09,-0.06419,0.12798,0.04748,-0.07155],[-0.06491,-0.08706,0.03665,-0.0159,-0.04429,0.04693,-0.02056,-0.06763,-0.12871,0.00158,0.17382,-0.00052,0.07808,-0.0886,-0.04646,-0.13149,-0.0334,0.0428,-0.1143,-0.10897,-0.11885,0.17704,-0.07222,0.09396,-0.07201,0.1086,0.13464,0.04135,-0.02059,0.0152,0.31854,0.17312],[-0.00646,0.05317,-0.10696,-0.10703,0.14235,-0.14429,0.02066,0.05605,0.06861,0.04939,-0.13912,0.05686,-0.06852,0.10501,-0.07346,0.14537,0.16086,0.07265,-0.08921,-0.08854,-0.06779,-0.02842,-0.20546,0.1561,-0.23928,-0.028,0.02405,-0.06963,0.09146,0.12931,-0.12899,-0.05271],[-0.07632,-0.03729,0.03278,0.01134,0.15879,0.15624,0.20336,0.133,-0.03834,-0.30722,-0.11443,-0.22219,-0.08586,-0.17406,-0.18849,0.07508,0.09676,-0.07084,0.1198,-0.01142,0.0989,0.09523,0.22832,0.09812,-0.0137,-0.08652,0.12119,0.14683,-0.06724,0.18829,-0.05114,-0.08324],[0.03208,0.13331,-0.0799,0.13301,0.17405,0.02431,0.01012,-0.05155,-0.18285,0.04673,-0.08677,0.093,-0.11562,0.09411,-0.12563,0.1189,0.00643,-0.12985,0.21337,-0.04928,0.12017,-0.15,-0.09586,-0.15496,-0.00392,0.11303,-0.14414,-0.03458,-0.1451,0.03542,0.06974,-0.08631],[0.01554,0.04075,0.00835,0.15882,-0.08364,-0.11191,-0.06362,-0.16767,0.14213,-0.06347,-0.19763,-0.12005,0.03131,0.11333,0.12709,0.07243,0.07494,-0.10965,-0.0026,0.11905,-0.12945,-0.05504,0.096,0.02176,0.10608,-0.04719,-0.21291,-0.0168,0.03769,0.09092,-0.01366,0.02859],[-0.14095,-0.02388,-0.15078,-0.15539,-0.10036,0.07735,-0.12697,0.03067,-0.00402,-0.06938,0.03882,0.10175,0.08998,0.07352,0.11594,-0.00254,0.17751,-0.10247,0.16551,0.01992,0.09964,-0.11608,-0.07649,0.08407,0.18224,-0.02017,-0.10928,-0.08925,0.09283,-0.04746,0.06041,-0.12184],[0.02641,0.07127,-0.13989,0.11741,-0.07839,-0.1412,-0.12707,-0.04342,-0.06035,-0.09663,0.22407,-0.14237,-0.09913,-0.22049,-0.00937,-0.17586,-0.1524,-0.04854,0.05112,-0.07696,0.04492,0.0484,-0.16451,-0.15824,-0.18492,-0.00382,0.13102,0.09238,-0.14573,-0.10944,-0.14003,0.00841],[0.0971,-0.06725,0.20623,0.21186,-0.02021,-0.0165,0.08863,-0.0085,-0.00563,-0.04778,-0.23489,0.15602,-0.08203,0.19194,0.16437,-0.17226,-0.00887,-0.05989,-0.22767,-0.13342,0.14476,-0.10733,-0.24809,-0.11322,0.15925,0.07157,0.02609,0.09052,-0.18971,0.03551,0.2028,0.03555],[0.05883,-0.21124,0.08833,0.12365,0.11191,0.02614,-0.10175,0.05954,-0.0187,-0.07714,0.17077,-0.01002,0.09951,0.04675,0.14088,0.12602,0.15305,0.10636,-0.07354,-0.12517,-0.08687,0.11932,0.09347,0.04595,0.10595,-0.15621,0.08048,-0.06266,-0.0455,-0.08637,-0.11852,-0.00404],[-0.13002,0.05367,-0.08713,-0.11259,-0.14734,-0.27566,0.14791,-0.08479,-0.04538,-0.03281,-0.12238,-0.04651,0.10769,-0.08441,0.01333,0.10166,-0.10283,-0.1176,0.09399,-0.1814,-0.1368,-0.04835,-0.11876,-0.06321,-0.12722,0.00777,-0.19137,-0.09053,-0.09485,-0.043,0.21552,-0.03079]],"blocks.0.mlp.2.bias":[0.11125,0.00846,0.06619,-0.17267,0.08257,-0.00805,-0.11362,-0.03358,-0.05663,0.04094,-0.16127,0.10641,-0.04304,0.11428,0.1391,0.03409],"blocks.1.norm1.weight":[1.00147,1.04103,1.05883,1.08412,1.01329,1.05161,0.99111,1.01751,1.02357,1.02155,1.02163,1.06118,1.02076,0.97325,1.11291,0.97491],"blocks.1.norm1.bias":[-0.02436,-0.00703,0.01,0.01855,-0.01666,0.03085,0.06375,0.01376,-0.04322,-0.00973,-0.0132,0.00141,-0.02255,-0.00563,0.02482,0.05251],"blocks.1.attn.qkv.weight":[[-0.01042,0.15956,-0.05553,-0.10572,-0.12668,-0.16103,-0.20166,0.03013,-0.09875,-0.02975,0.30262,-0.05681,-0.2443,0.23851,-0.09428,-0.01474],[-0.12956,-0.22917,0.38673,0.23752,0.03599,-0.14562,-0.06636,0.08631,-0.02971,-0.13237,-0.06559,-0.25046,-0.19986,-0.21836,0.24256,0.01288],[0.20185,0.04518,0.29287,-0.29128,-0.09397,-0.1365,-0.15621,-0.04305,-0.08552,0.30214,0.05039,0.25831,0.10058,-0.13144,-0.07273,0.22927],[-0.04187,0.18387,0.0388,0.09695,-0.16789,0.02314,0.19924,-0.09852,-0.27719,-0.28346,-0.24199,-0.17614,0.02041,-0.13989,0.29369,0.09775],[-0.09563,0.05457,0.06721,0.10633,-0.31599,0.0266,0.0387,0.03471,-0.04336,0.3216,0.26529,-0.15394,-0.32368,-0.19364,-0.3002,-0.07896],[-0.12045,0.28169,-0.26984,-0.137,-0.14694,-0.12121,0.02404,0.03275,-0.04986,-0.05464,0.07087,0.27515,-0.05438,0.08135,-0.27177,-0.05858],[0.21729,-0.08543,0.09446,0.10381,0.03458,0.20347,0.26547,-0.12623,0.32644,0.08283,-0.26466,-0.08857,0.11107,-0.19137,-0.05887,-0.3196],[-0.20156,0.01998,0.02215,-0.01999,0.27636,-0.26046,0.23739,-0.0236,-0.00197,0.07088,-0.21213,0.0286,-0.01163,-0.06019,0.28498,-0.02623],[0.19157,0.1121,0.07513,-0.27574,0.13437,0.06324,0.10747,-0.16438,0.10261,0.32057,-0.02489,0.04459,0.08399,0.10244,-0.32276,0.31399],[0.17639,0.04005,0.06265,0.10578,-0.03693,-0.15443,-0.06391,-0.2447,-0.18059,-0.1353,0.1045,-0.24145,0.22327,-0.00175,0.27239,-0.05509],[0.05828,0.0286,-0.32034,-0.09522,-0.21059,-0.02583,-0.26134,0.23267,-0.10726,-0.19237,-0.28372,-0.29232,-0.02607,0.00391,-0.06773,0.05802],[0.17983,-0.28918,0.38757,0.26895,0.2275,-0.2055,-0.22471,0.1451,0.11225,0.08379,0.18922,0.06996,-0.17068,0.18108,-0.1664,-0.30409],[-0.17505,-0.15208,0.09744,-0.084,-0.1555,0.08518,0.1685,0.1052,-0.14718,0.25945,-0.00883,0.22955,0.07728,0.108,-0.28176,-0.11843],[-0.1189,-0.02759,-0.06296,0.07884,0.08764,0.22839,-0.16949,0.29886,-0.03868,-0.21952,-0.14534,0.08422,-0.14129,0.2641,0.13031,-0.07477],[0.17798,-0.17056,0.00037,-0.02814,-0.08898,-0.05171,-0.11156,-0.17823,-0.22633,-0.16809,-0.18369,0.2179,-0.21474,-0.05826,-0.04628,0.10064],[-0.18439,-0.20909,-0.00442,0.18422,-0.03336,0.20349,0.08033,0.06397,-0.01188,0.0442,0.16289,-0.07629,-0.05557,0.1979,-0.16394,0.15071],[-0.2535,0.01289,0.01881,0.15224,-0.26651,-0.00187,-0.09915,0.13835,-0.02702,0.17047,-0.19774,-0.14743,0.06879,0.00489,0.22766,-0.14541],[0.00447,0.02723,-0.12751,-0.2601,-0.14844,0.25384,0.08949,-0.23207,-0.01257,0.12188,-0.20441,0.01252,-0.24863,-0.08312,-0.29235,0.01439],[0.08526,-0.03726,0.15582,0.24857,0.08613,-0.00744,0.29724,0.07978,-0.19799,-0.15438,0.14278,-0.02917,0.02349,-0.18525,0.05532,-0.19354],[-0.1671,-0.13652,-0.13044,0.29298,0.10265,0.19707,-0.14795,-0.11384,0.15984,0.15895,-0.08078,0.13652,0.04696,0.07955,0.01253,0.18772],[-0.04432,-0.12367,-0.1947,0.10783,-0.24075,-0.06036,0.28727,0.28754,-0.05645,-0.274,-0.08804,0.22316,0.25903,-0.0654,-0.02437,0.17689],[-0.02112,0.28751,0.06252,0.02618,0.20114,-0.31542,0.19117,0.04555,0.01953,-0.2821,0.12832,-0.24553,0.37971,-0.24567,0.03872,-0.18779],[-0.10716,0.06997,-0.0754,-0.13345,0.16992,0.22089,0.10714,-0.208,0.05706,0.18158,0.12028,-0.06306,-0.26217,0.1994,-0.03291,0.14205],[0.03379,0.02149,0.09822,0.19005,0.29307,-0.13384,0.04447,-0.26318,0.26768,0.29897,-0.02051,-0.02835,-0.08101,-0.04094,-0.18328,-0.14592],[-0.18566,-0.04378,-0.20791,0.07998,-0.18127,-0.2606,0.25889,-0.01126,-0.34092,-0.12071,-0.26246,-0.25374,0.13855,-0.08606,-0.17749,0.10747],[-0.01652,-0.18963,0.12601,-0.09467,0.17462,0.19378,-0.02326,-0.06716,0.12888,-0.00884,0.12828,0.15742,-0.09075,0.2503,-0.14651,0.18477],[-0.07684,0.10933,-0.30689,0.21776,-0.03278,0.00724,-0.33381,-0.01337,-0.00108,0.22636,0.05702,-0.16315,0.19484,0.18457,0.10639,0.42646],[0.16938,-0.16442,-0.08017,-0.15322,-0.11904,-0.03131,0.1078,0.21632,0.09669,0.14784,0.18192,0.16806,-0.22201,0.05004,-0.10493,-0.03318],[0.06165,0.27574,-0.20403,0.02296,-0.16184,-0.27365,0.09476,0.07503,0.03854,-0.03299,0.11667,-0.14896,0.02896,0.15411,0.16447,-0.02976],[0.00326,0.02769,0.18878,0.08951,-0.14823,0.14582,-0.24141,-0.04944,-0.12765,0.22845,0.03658,-0.15084,-0.09974,0.02332,0.02253,0.12032],[-0.15139,0.16354,-0.07611,0.00132,0.04174,0.14009,-0.09397,-0.04016,0.05057,-0.24475,-0.15742,0.22949,-0.12685,-0.14612,-0.12859,-0.14206],[0.07856,0.30103,-0.21711,0.1117,0.12994,0.03212,0.17772,0.2475,-0.01315,0.06959,0.14741,-0.20849,0.27822,0.19807,0.07093,0.04382],[-0.06444,0.0832,0.03171,-0.03586,0.20669,-0.19998,0.00157,-0.2502,0.11895,0.1739,0.11667,-0.1403,0.15235,0.09747,0.04676,0.1799],[0.2225,0.064,-0.07039,-0.14895,0.16398,-0.03133,0.03013,-0.03975,-0.19205,-0.22965,-0.16521,-0.05339,0.21488,0.19305,-0.00945,0.04365],[0.09086,-0.06994,-0.12472,0.13813,0.22831,-0.16412,-0.05218,-0.26872,0.28983,0.07916,0.24509,-0.00086,0.0528,-0.09584,0.18418,-0.119],[0.04924,0.07082,0.19609,-0.21465,-0.1045,0.18971,0.07617,-0.14642,-0.14894,-0.04649,-0.23469,-0.22277,-0.0337,0.09903,-0.14005,0.12564],[-0.13263,-0.19263,0.04551,0.14888,-0.29183,0.00785,0.23274,-0.15933,0.14837,0.04784,0.0928,-0.21902,0.19792,0.22819,0.08808,-0.0134],[-0.30199,0.22233,0.09214,0.14499,-0.02682,0.22491,-0.08435,-0.11688,0.08892,-0.08206,-0.12423,-0.05047,-0.12155,-0.09606,0.18886,-0.24202],[-0.25105,0.16552,-0.22877,0.20048,0.02579,0.1551,-0.03097,-0.00407,-0.19519,-0.04402,0.15611,0.12058,-0.08599,0.05531,-0.09883,0.15291],[0.0066,-0.04744,0.14235,-0.00274,0.14875,-0.11993,0.04016,-0.1924,-0.19883,0.15505,0.04412,-0.01328,-0.10475,-0.03967,-0.29262,0.22785],[-0.03161,-0.31621,-0.42711,0.0692,0.01095,0.13909,0.06452,0.25439,-0.05038,0.04693,0.13573,0.30343,0.10026,0.0828,-0.10254,0.16381],[-0.14965,-0.08328,0.27565,0.22015,0.07824,-0.1354,-0.21671,0.00387,0.15064,0.12304,-0.17041,0.06708,0.1528,-0.06067,-0.33939,-0.15531],[0.29005,0.13159,-0.11027,0.25573,0.00088,-0.05702,0.09547,0.23633,0.01428,-0.07135,-0.21803,-0.15374,0.1757,-0.23396,0.42014,-0.04766],[-0.19975,-0.22374,0.28147,-0.14459,0.1761,0.02646,-0.10055,0.06662,-0.06139,0.12954,0.13476,0.22736,0.02356,-0.12752,0.05478,-0.22034],[0.01305,0.0467,-0.11343,0.11316,-0.08305,0.00106,-0.1797,0.12233,-0.2255,-0.10632,0.22064,0.05943,-0.24627,0.19443,0.35516,-0.1996],[0.07538,0.28027,0.08969,0.19838,0.0913,-0.21063,0.19749,-0.22305,-0.3501,-0.22964,-0.04231,-0.10325,-0.01022,0.11376,0.02158,-0.12261],[-0.127,-0.23904,0.13809,0.03441,0.09903,0.18956,0.06733,-0.08883,-0.15634,0.11637,0.13753,0.17236,-0.00672,-0.10781,0.31344,0.10005],[-0.03676,-0.02667,-0.26963,0.08178,0.21992,0.06725,0.11848,-0.10677,-0.26431,-0.08636,-0.17278,-0.12614,0.25132,-0.16227,-0.08869,0.201]],"blocks.1.attn.qkv.bias":[-0.0894,0.22661,-0.05457,0.05371,0.02507,-0.3699,0.25737,0.12025,-0.18225,0.21328,0.07753,0.0509,-0.09806,0.0579,-0.07391,-0.19259,0.2299,0.1259,0.00633,0.02584,0.25488,-0.03802,0.05344,-0.06515,-0.12185,0.2143,-0.01699,-0.17675,-0.08697,0.12678,0.24314,0.24225,-0.09517,0.13108,-0.2499,0.24277,-0.20384,-0.17315,0.11666,-0.10309,-0.19147,-0.20815,0.00368,0.07754,0.1283,-0.20745,0.09082,0.08728],"blocks.1.attn.proj.weight":[[0.04,-0.07685,0.19097,-0.03998,-0.18613,0.03792,-0.06108,-0.0582,0.21773,0.15966,0.11243,-0.00114,-0.18082,-0.29524,0.31643,0.05532],[0.20442,0.03393,-0.25088,0.16396,0.04158,-0.08056,0.12238,-0.2448,-0.25199,-0.16671,0.20329,-0.06521,0.09957,0.09951,-0.00149,0.08257],[0.25254,-0.0224,0.33442,-0.03099,0.02352,0.27005,0.06008,-0.11237,-0.17592,0.08241,0.10741,-0.29858,-0.10109,-0.00419,0.18362,0.26985],[0.07327,-0.17945,0.14524,0.02493,-0.46311,0.12885,0.06699,0.02112,0.05095,0.05247,0.13258,-0.10628,-0.04802,0.19962,-0.22479,-0.28314],[-0.03699,-0.18419,-0.05923,0.2174,0.17581,0.00891,-0.08315,0.22476,-0.26084,-0.02089,0.09689,-0.19045,-0.10196,0.12518,-0.04819,-0.11103],[0.09993,-0.0677,-0.1917,0.22344,0.01955,0.1649,-0.29611,-0.24675,-0.09057,-0.04035,0.22636,0.13072,0.08633,-0.00363,-0.01591,0.08219],[-0.2447,0.10917,-0.13175,-0.10273,0.07553,-0.22727,0.0302,-0.09172,0.0613,-0.04569,0.10524,-0.09884,0.24235,0.18071,0.08812,0.10795],[-0.35315,0.00311,-0.21412,0.16303,-0.05572,0.22613,-0.26488,-0.22949,0.15353,0.20345,0.14979,-0.19289,-0.06933,0.21188,-0.0813,0.11257],[-0.15066,-0.03928,-0.04386,-0.09992,-0.11027,-0.23225,-0.03854,0.14888,-0.01627,0.24621,-0.15284,0.09534,-0.04198,-0.03247,0.00779,-0.08383],[-0.09055,-0.06067,0.19771,0.14696,0.26854,-0.26312,-0.25461,-0.07247,-0.06999,-0.11441,0.21749,-0.22107,0.1591,0.09949,-0.31697,-0.24317],[0.08989,0.14601,0.29244,0.21501,-0.05513,0.0715,0.01609,-0.1337,0.12641,-0.18611,-0.04994,0.26801,-0.14112,-0.08213,0.16392,-0.29549],[0.00974,-0.08208,-0.22335,0.20701,-0.00978,-0.02038,0.18478,-0.03096,0.01575,0.08413,-0.10664,-0.20938,-0.36459,-0.04125,-0.26527,0.17203],[0.12939,0.04359,-0.25742,0.09229,-0.22325,-0.28618,-0.01731,-0.00061,0.30709,-0.15436,-0.19643,-0.15614,-0.01854,-0.09659,0.09077,-0.11307],[0.04723,-0.20512,-0.17811,-0.23674,-0.08503,0.08506,0.12946,-0.09263,-0.2219,-0.18301,-0.20703,-0.03033,0.09639,-0.07283,0.23921,0.10162],[0.12034,-0.00649,-0.02051,0.22811,-0.17062,-0.06376,0.38333,0.07239,-0.1905,-0.20338,0.05386,0.17738,0.20087,0.18473,-0.10065,-0.0154],[-0.23414,0.00062,-0.21535,0.14401,0.12203,0.31999,-0.15372,-0.18833,-0.18365,0.199,-0.24826,-0.0758,0.09951,0.07252,0.19542,0.05824]],"blocks.1.attn.proj.bias":[-0.19359,-0.18917,-0.27803,-0.0246,-0.07299,0.01058,-0.0455,-0.09629,0.11158,0.05157,0.11292,-0.20631,-0.13146,0.05508,-0.01414,0.17506],"blocks.1.norm2.weight":[1.15884,1.01682,1.18995,0.891,1.2268,1.03555,1.10713,1.00503,1.14736,0.98734,1.06877,1.06878,1.09466,0.96158,0.98992,1.13071],"blocks.1.norm2.bias":[-0.0315,-0.0264,0.00387,-0.06339,-0.01363,0.03594,-0.00049,-0.01697,-0.026,0.00901,0.00633,0.05024,-0.04281,0.01529,-0.07329,-0.03585],"blocks.1.mlp.0.weight":[[-0.23812,0.19247,0.01837,0.04287,0.32703,0.05289,-0.0917,-0.00028,0.07164,-0.00611,0.04797,-0.25161,0.26667,0.24299,0.14981,-0.05643],[0.2922,-0.19571,0.26328,0.13726,0.23677,0.2331,-0.20633,-0.0713,0.16859,-0.196,0.08403,-0.02579,0.09328,0.18508,-0.05812,0.04502],[0.30685,0.00517,0.16096,0.04118,-0.1098,0.13821,0.00718,0.11745,-0.43191,-0.13607,0.2447,-0.07376,0.1628,-0.1354,0.0839,-0.20004],[0.06872,0.07495,-0.32268,-0.0541,0.46811,0.15289,-0.09952,-0.0963,0.11157,-0.16802,-0.25269,0.14114,0.05276,0.05082,-0.13449,-0.09467],[-0.21398,0.1483,-0.23641,0.18984,-0.26931,0.10254,-0.22178,0.13534,0.01732,-0.21331,0.00209,-0.1179,0.15519,0.1503,-0.04238,-0.05998],[0.07891,0.04855,0.22753,-0.02499,0.1842,0.1244,-0.18438,0.14169,-0.33988,-0.04813,0.01251,-0.04594,0.11767,0.12567,-0.21434,0.34305],[-0.1642,-0.04286,-0.31146,0.20435,0.18712,-0.12766,0.01439,-0.36314,0.24238,0.16474,-0.02567,-0.3297,-0.19046,-0.16505,-0.05054,-0.02802],[-0.21664,-0.18172,0.00594,-0.07927,0.11422,0.1084,-0.16149,-0.00354,0.21204,-0.26905,-0.15219,-0.14877,0.39405,-0.29649,-0.19384,0.12513],[-0.051,-0.17462,0.20252,-0.16319,0.07633,0.29147,-0.04804,-0.18234,-0.1144,-0.09095,0.23853,0.07764,0.24302,0.04106,0.07217,0.0939],[-0.26003,0.17247,-0.24434,-0.00994,0.42721,-0.03549,0.52048,0.26075,-0.1961,0.41756,-0.25621,0.082,0.25966,0.02025,0.11921,0.06318],[-0.35009,0.30071,-0.09854,-0.26251,0.04516,0.18105,-0.30467,0.00531,-0.05813,-0.09636,-0.25477,-0.10256,-0.28049,-0.16411,0.03971,-0.05826],[0.24747,0.21972,-0.36745,-0.20685,0.10617,0.04444,0.02932,0.15378,0.11966,-0.1192,-0.05718,0.15256,0.12289,0.00443,-0.56551,0.20762],[0.11618,0.20675,-0.00315,0.08007,-0.33055,-0.1197,-0.04749,0.07997,0.16957,0.17504,0.06296,-0.17387,0.08531,-0.35006,-0.08089,0.2987],[0.00897,-0.16607,-0.18838,-0.02854,-0.01131,-0.10557,-0.0691,0.02356,-0.11043,0.06763,0.05504,-0.31361,0.15236,-0.01511,-0.01105,-0.0875],[-0.10543,-0.07695,-0.34258,0.15083,0.09652,-0.22078,-0.07651,-0.0843,0.31536,0.19809,-0.11547,0.08507,0.18681,-0.01212,-0.17559,-0.22681],[0.10904,-0.167,0.03191,0.14824,-0.09038,-0.2415,-0.29063,-0.07196,0.17206,0.16079,-0.36731,0.37809,-0.18348,0.03736,0.03791,0.12693],[-0.51278,-0.12274,-0.16818,0.1142,0.16907,-0.01547,-0.13256,-0.30234,-0.02767,0.01555,-0.39109,0.09394,0.23528,-0.17491,-0.03089,0.07012],[0.21794,0.04646,-0.20368,0.08949,-0.08313,0.11334,-0.23641,0.24452,0.09319,-0.14248,0.34183,0.3267,-0.26502,-0.06004,0.03127,-0.05533],[0.25765,0.12545,0.29227,0.09408,-0.11045,0.18957,-0.17305,0.24892,-0.16492,0.05414,-0.07484,-0.20727,0.02551,0.09494,0.06975,-0.01852],[0.16544,-0.08912,0.04819,-0.17318,-0.35107,0.05985,0.10768,-0.15616,-0.10681,0.22035,0.10001,0.11931,0.1398,0.18475,0.10042,-0.27952],[0.09327,0.29005,0.04997,-0.15441,-0.18826,-0.0347,0.09002,0.1495,-0.33348,0.02961,0.29645,-0.05025,-0.13803,-0.06054,0.0821,-0.22393],[0.24687,-0.09435,-0.0295,-0.1179,-0.09943,0.05025,0.33814,0.09589,-0.1678,-0.04107,-0.19392,-0.11764,0.16348,-0.23163,0.08712,-0.15217],[-0.23913,-0.16116,0.11983,0.14053,0.17316,0.17531,0.01316,0.1018,0.1259,0.11507,-0.13565,-0.0348,-0.15655,0.10932,-0.18799,0.01914],[0.2239,0.40073,-0.12241,-0.01187,-0.09884,0.04724,-0.00919,-0.08856,0.24143,0.1696,-0.13269,0.17352,0.23228,-0.01805,-0.06605,0.01401],[0.07905,0.18198,-0.04486,-0.01791,-0.02725,-0.11451,0.22033,-0.0048,0.22342,0.42206,-0.08668,-0.14655,0.1283,-0.03154,0.16998,0.34393],[-0.02539,0.17664,0.06265,0.18223,-0.13165,0.1645,0.09298,0.19755,0.15419,0.22508,-0.01488,-0.09824,0.01224,0.1889,-0.05552,-0.35978],[0.2802,0.07671,0.29762,-0.02677,0.29457,0.01589,-0.08394,0.18771,0.06839,0.24716,0.09914,-0.00013,0.0494,-0.33479,-0.08435,-0.19469],[0.40397,0.02201,0.03281,-0.02209,-0.08815,-0.14199,0.18918,-0.33477,0.05116,-0.11301,-0.02328,0.37976,0.24023,0.06761,-0.14937,0.2402],[0.2412,-0.18091,-0.27368,0.00419,0.30517,-0.26057,-0.35863,0.09835,0.00568,-0.02365,0.09177,-0.12865,0.00863,-0.25638,-0.11188,-0.1573],[-0.00757,0.258,0.44583,0.08117,-0.28668,-0.23047,0.05151,0.14417,-0.39547,0.16545,-0.09282,-0.00406,-0.2414,-0.15722,-0.28769,0.08391],[0.26625,0.05124,-0.00711,0.12595,-0.11377,-0.0498,-0.07112,-0.11189,0.3037,-0.20681,-0.11619,0.12945,0.0804,-0.1087,-0.03081,0.15804],[-0.29531,0.15451,0.12778,-0.03704,-0.08037,-0.4339,-0.24037,-0.31206,0.26843,0.12574,0.24297,0.09895,-0.25631,-0.07072,0.18378,0.05945]],"blocks.1.mlp.0.bias":[-0.07079,0.02059,-0.10792,0.07552,0.19186,-0.19016,0.00805,-0.18978,-0.25347,0.19697,-0.1268,-0.07194,0.00805,-0.15708,-0.28008,0.04271,0.06546,-0.09237,-0.12236,0.25784,-0.14966,-0.23872,0.0397,-0.06494,-0.21735,0.18279,-0.12488,-0.02429,-0.05611,-0.09128,0.06087,-0.16044],"blocks.1.mlp.2.weight":[[-0.13026,-0.23376,-0.08773,-0.14821,-0.05346,-0.08533,0.14919,-0.10439,0.18073,0.03677,0.15099,-0.07802,-0.10024,-0.2101,-0.15043,0.0717,-0.11057,0.18622,-0.17162,0.08848,-0.09754,0.0104,0.19185,-0.26227,-0.08136,0.02435,-0.17881,-0.10966,-0.17563,0.04517,-0.12308,-0.14143],[0.27405,-0.07886,0.11976,0.04115,-0.05904,-0.22449,0.08727,-0.06509,-0.10636,-0.03432,-0.2713,0.30871,-0.07621,-0.1422,0.01546,-0.00428,0.18921,-0.15184,-0.06481,-0.2571,-0.11044,-0.0022,0.16905,0.08947,-0.09097,-0.03676,0.07403,0.0725,0.0121,0.14997,-0.09248,0.03533],[-0.01652,-0.08192,0.17961,-0.26234,-0.17902,0.3074,0.04193,-0.24214,-0.18525,0.21514,-0.24141,-0.0847,-0.10151,-0.08815,0.21372,0.07032,-0.02808,-0.02145,0.10988,0.12099,-0.0537,0.08762,-0.05816,0.18235,0.16949,-0.16086,-0.12202,-0.09695,0.09648,-0.27003,0.26317,0.09082],[0.00858,0.02811,0.0096,-0.02352,-0.08867,-0.12949,-0.05037,0.12637,-0.04188,0.1984,-0.0252,0.21569,0.08938,-0.12336,-0.06159,-0.01659,0.1928,0.06911,0.13394,-0.09105,0.07034,-0.18288,0.02074,-0.10626,-0.06687,0.03345,0.13063,0.03219,-0.19384,-0.12629,-0.02764,0.05839],[-0.03363,0.02495,0.06227,-0.11068,0.13336,0.08159,0.07504,-0.00059,-0.04183,-0.00378,-0.07812,-0.03821,-0.12983,0.17387,0.15658,-0.08646,0.0118,0.01075,0.10417,-0.00563,-0.03381,0.18707,0.05607,0.15733,0.08524,0.15392,0.10186,0.24915,-0.28032,-0.12283,-0.03392,0.23051],[0.07578,0.07372,-0.01626,0.13101,0.07219,0.03213,0.20136,-0.40066,-0.03016,0.17254,0.06566,0.07691,0.08173,-0.10188,-0.02727,-0.10755,0.12415,0.1293,-0.04641,0.10721,0.08816,0.16658,-0.23935,0.10363,0.02401,-0.04283,0.04611,0.21663,0.0672,0.32246,0.2312,-0.06321],[-0.14213,-0.14527,0.10177,0.04905,-0.07793,-0.01709,0.02913,0.08189,-0.11337,-0.05761,0.20417,-0.23308,-0.04025,-0.02243,0.06876,0.13452,0.20633,-0.04583,0.08253,-0.00045,0.05712,-0.03324,0.00212,0.1151,0.24852,0.06247,0.11996,0.02748,0.07192,0.10204,0.13665,-0.2807],[0.10275,-0.02177,0.09997,0.15048,0.06997,-0.18764,-0.00359,-0.06739,-0.10968,-0.06787,-0.07839,-0.06531,0.05066,0.12465,0.05813,-0.06353,-0.00487,-0.23519,-0.13407,-0.21179,-0.0298,-0.27368,-0.03591,-0.21087,-0.24831,0.00296,-0.04673,-0.16661,0.19566,0.15637,0.1111,-0.12853],[-0.03123,-0.0195,-0.05166,0.01108,0.10355,-0.12405,0.13735,0.12601,0.02856,-0.15994,0.10064,-0.16982,-0.10017,-0.089,0.01351,-0.0178,-0.06875,0.00978,-0.05878,-0.1776,0.19573,-0.17747,-0.03744,-0.11873,-0.11876,0.02222,0.05027,-0.21563,0.2018,-0.12311,0.14256,-0.07891],[0.01021,-0.02684,0.05407,-0.05274,-0.1755,-0.102,-0.11635,0.33795,-0.14042,0.2043,0.00335,-0.17491,0.22523,0.03712,0.24901,-0.12056,-0.23773,0.06596,0.13638,0.05714,-0.14281,-0.05749,-0.03927,-0.08651,0.02199,-0.24464,-0.2073,-0.32625,0.03252,0.08138,0.29195,0.01654],[-0.03285,0.13684,0.04409,0.20147,0.03456,-0.03227,0.10012,-0.09054,-0.22241,0.01684,0.00039,-0.21162,-0.17765,0.17659,-0.03223,0.236,-0.01697,0.12372,-0.03143,-0.06769,0.1347,-0.09748,-0.15404,-0.14499,0.16815,-0.07097,0.11771,0.14079,-0.05094,0.11281,0.0559,-0.23062],[-0.17705,0.12393,0.2163,0.10268,0.14577,0.00817,0.11744,0.09936,0.0814,0.14407,0.07796,-0.00257,0.10578,-0.14139,0.03826,-0.00614,0.14095,-0.11592,-0.05554,0.00133,0.17528,-0.03003,-0.04058,0.03575,-0.02191,0.04099,0.15874,0.06665,-0.05279,0.0616,0.18191,-0.0111],[-0.17124,-0.16957,0.06565,-0.1917,-0.08676,-0.0536,0.29567,0.07607,0.13347,0.07881,-0.02242,0.10355,-0.13304,-0.08495,0.23254,-0.02529,-0.04592,0.10551,-0.09408,-0.07872,-0.00749,0.02084,0.12224,-0.06719,0.04005,-0.03148,-0.24614,0.08848,-0.1401,0.11568,0.11468,-0.12443],[-0.0551,-0.01246,0.11632,0.13025,-0.14028,-0.06115,0.12468,0.02252,0.15228,0.1798,0.0775,0.17342,0.03702,-0.05089,-0.09224,0.08673,0.08218,0.29209,-0.10492,-0.07804,0.01418,-0.09351,-0.12424,-0.10755,0.09083,-0.17338,-0.12931,0.03525,0.004,0.06782,0.03806,0.29523],[0.00741,-0.06033,0.02544,0.04054,-0.05332,0.03916,0.06241,0.11337,-0.21902,-0.09128,-0.05525,0.20993,-0.09527,-0.08026,-0.25041,0.36128,0.02691,-0.09427,-0.0183,-0.06108,0.12643,-0.03674,-0.00726,0.23816,0.03414,0.09907,0.21983,0.06566,-0.08647,-0.16397,0.07326,0.08485],[0.15109,0.09545,-0.00738,-0.04773,0.05621,0.03976,0.00975,0.02138,-0.01998,-0.05268,0.0583,0.05567,0.14191,0.08389,-0.23053,-0.1777,-0.04156,-0.01185,0.16614,0.11826,-0.16311,0.15026,-0.03593,-0.17183,0.03131,0.30312,0.1578,0.05872,0.04438,-0.04579,-0.10979,0.06324]],"blocks.1.mlp.2.bias":[0.1653,0.17395,0.10651,0.01914,-0.17008,-0.02344,-0.03505,-0.09787,-0.05397,0.10408,-0.13885,0.11299,0.0965,-0.19964,-0.15175,-0.1126],"norm.weight":[1.76846,1.91319,1.83802,1.59011,1.64133,1.70791,1.54622,1.51881,1.66082,1.87659,1.81991,1.74124,1.76046,1.7236,1.80934,1.70181],"norm.bias":[-0.06052,0.07085,-0.06648,-0.10534,0.03136,0.02455,-0.01453,0.0101,0.01687,-0.06272,0.01928,-0.00762,0.06899,0.01432,0.01513,-0.07904],"head.weight":[[0.89455,-0.42317,0.40969,0.578,-0.78016,-0.6455,0.00807,-0.21804,-0.23278,0.3662,0.01995,-0.0003,-0.68119,0.35085,0.34449,-0.01854],[0.35912,0.40087,-0.05741,-0.38765,-0.33889,-0.15621,0.18154,-0.13275,-0.1674,-0.75241,-0.27987,0.59024,0.49117,-0.25485,0.55425,-0.56516],[-0.42519,0.12508,-0.63662,0.1342,0.42035,-0.1614,-0.52374,-0.3275,0.27786,-0.46275,-0.2189,0.54003,-0.27363,0.39877,0.30875,0.54819],[-0.73608,0.52752,0.05505,0.07168,0.19256,0.05981,-0.11742,0.06578,0.11799,0.50172,-0.3039,-0.02332,0.36007,0.46342,-0.32981,-0.4779],[-0.38864,-0.18769,0.49832,0.05833,0.2948,0.37132,0.50116,0.031,-0.42286,-0.2544,0.35315,0.3093,-0.56315,-0.45433,-0.03374,0.18252],[-0.00155,-0.53293,-0.11341,-0.29747,-0.09318,-0.53638,0.42322,0.0511,0.70081,0.62937,-0.19386,-0.25569,0.60414,-0.29382,-0.39887,-0.27127],[0.71017,-0.71872,0.26558,-0.22241,-0.23199,0.49422,-0.17133,-0.59546,0.064,0.02687,0.36849,0.64796,0.30411,0.47025,-0.42868,0.11642],[0.38789,0.2439,-0.54521,0.36687,-0.44961,0.44181,0.41655,0.47478,-0.43246,0.07417,-0.55858,0.15319,-0.29725,-0.34271,-0.39955,0.27701],[0.20885,0.06539,-0.22747,-0.38131,0.11418,-0.12826,-0.25252,-0.06643,0.12714,-0.29428,0.57,-0.77153,0.17564,0.19523,0.35107,0.04496],[0.27645,0.21983,0.64203,0.17796,0.50881,0.08271,0.05698,-0.00973,-0.49417,0.31834,-0.57175,-0.374,0.02134,-0.4429,-0.27994,0.40641]],"head.bias":[0.04391,-0.073,-0.02944,0.1022,0.18963,0.18693,0.07967,0.22449,-0.00118,0.09911]}