{"cls_token":[[[0.00694,-0.01019,-0.05255,0.03272,-0.00701,0.00547,-0.00477,0.03646,0.06662,-0.09631,-0.00658,0.00486,0.02299,-0.06019,0.04525,0.01257]]],"pos_embed":[[[-0.01959,0.00507,-0.03009,0.04373,-0.0101,0.04349,0.00265,0.03262,0.03245,-0.07976,-0.00412,0.01456,0.02081,-0.03314,0.01798,-0.02982],[0.15249,-0.04038,-0.07135,-0.07413,0.18748,-0.25973,0.01476,-0.08117,0.16088,0.00133,0.25675,-0.01595,0.06168,-0.12495,-0.12392,0.12957],[-0.00671,0.03268,-0.27814,0.24257,-0.19764,-0.17674,0.24359,0.16047,-0.01296,0.26317,-0.07943,-0.09004,-0.11947,-0.01471,0.09679,-0.09092],[0.07389,0.14133,0.00368,0.08804,0.07903,0.20512,-0.11491,-0.16671,-0.16622,0.09827,-0.20972,-0.01432,-0.08569,0.09271,-0.08761,-0.12301],[-0.14265,-0.08275,0.15743,-0.22567,0.06578,0.11987,-0.1125,-0.00369,0.11894,-0.00877,0.08928,-0.16587,0.18172,-0.14437,0.17806,-0.00308]]],"patch_embed.proj.weight":[[-0.03143,-0.0092,0.02299,0.08997,0.0454,0.04946,0.02014,-0.05377,-0.0086,0.02327,-0.03102,-0.04662,-0.04211,-0.08756,-0.09434,-0.05168,0.01892,0.01148,-0.03573,0.08225,0.00458,0.02082,0.02661,0.04308,0.05636,0.01059,0.01934,-0.05596,0.01314,0.01915,-0.02707,-0.01725,0.05517,-0.03639,0.06992,0.04834,0.02091,-0.00538,0.08339,0.048,0.03782,0.04698,0.08034,-0.03741,0.04831,0.03578,-0.04716,-0.01568,0.06819,0.13216,0.06247,0.08062,0.02982,0.0581,0.05264,0.09859,0.10545,0.08313,0.1119,0.1083,0.03953,0.11743,0.11642,0.05646,0.10163,0.09693,0.09541,-0.0334,-0.02311,0.02222,-0.00792,0.02183,0.07944,0.08953,0.0617,0.02537,0.04108,0.10381,0.05166,0.07385,0.00964,0.12158,-0.0363,-0.14786,-0.08066,-0.04321,0.04751,-0.02094,-0.05522,-0.03823,-0.00157,-0.07146,-0.00969,-0.02044,0.05342,0.05733,0.09554,0.01077,-0.07318,-0.04183,-0.06672,0.05628,0.00287,-0.07739,-0.04091,-0.07461,-0.0031,-0.12115,-0.10578,-0.03166,-0.11332,-0.04119,-0.01638,0.01393,-0.03374,-0.09151,-0.04594,0.00928,-0.07838,-0.10477,-0.05095,-0.10236,-0.09731,-0.06685,-0.12139,-0.08105,-0.09958,-0.06163,0.03462,-0.06677,-0.04453,-0.06011,-0.05291,0.0227,-0.02255,-0.00827,-0.02503,-0.05355,-0.1016,-0.06477,-0.0479,-0.10103,-0.04115,0.01069,-0.05736,-0.04886,-0.0656,-0.13586,-0.02918,-0.01343,-0.02476,0.00627,0.0201,-0.10068,-0.09111,-0.04639,-0.05238,-0.0252,-0.04946,-0.03322,-0.07003,-0.03426,-0.08964,-0.13211,-0.04087,-0.06407,-0.01068,0.08925,0.03389,0.04393,0.03776,0.07338,-0.04632,-0.04094,0.00346,-0.02922,-0.05111,0.02027,-0.10549,-0.08751,-0.09228,-0.03547,-0.00067,0.07544,0.03179,0.0361,-0.05088,0.0078,-0.01885,-0.05748,0.03272,-0.00745,0.02981,-0.06019,-0.04419,-0.0332,0.03298,0.03151,0.023,-0.05432,0.00138,0.0247,0.03812,-0.0153,0.02072,0.06076,0.03635,0.0381,0.05152,-0.02618,-0.00871,-0.04829,0.01676,0.0218,0.03871,0.00958,0.05976,0.06163,0.0993,0.01263,0.05065,-0.00301,0.03769,0.05853,0.00844,-0.01523,0.00994,-0.01469,-0.03061,-0.01511,-0.00768,-0.00774,0.04539,0.05757,0.01463,0.09003,0.07443,0.06237,0.00572,-0.00677,-0.05063,-0.02945,0.03744,-0.02488,0.08776,0.00942,-0.02004,0.01497,-0.08566,0.01619,0.00522,-0.02466,-0.04794,-0.05166,-0.01418,0.03565],[-0.03761,0.02449,0.05036,-0.09684,-0.13835,-0.02839,0.01567,0.0605,0.05326,0.01294,-0.00577,0.03429,-0.00756,0.05607,0.10524,0.07788,-0.10936,0.05379,-0.01672,-0.04621,-0.07915,0.05916,0.13032,0.1479,0.12348,0.08768,0.17085,0.09834,0.12238,0.10033,0.04174,0.0264,0.00418,0.01804,-0.0304,-0.03605,0.02198,0.01768,0.06063,0.08186,0.07928,0.11726,0.12424,0.10138,0.09895,0.1284,0.01792,0.06462,0.03981,-0.00082,-0.02553,-0.03502,0.03915,0.08382,0.04856,0.07492,0.09046,0.1057,0.07931,0.09943,0.10565,0.04246,-0.00227,0.08017,-0.05756,-0.02982,-0.05405,-0.05933,-0.00701,-0.00351,0.02912,-0.01806,-0.01582,-0.03763,-0.01205,-0.0245,-0.04609,-0.02191,0.01305,0.05108,-0.10908,-0.05171,-0.06151,-0.00042,-0.10529,-0.11111,-0.03137,-0.04839,-0.08242,-0.01834,-0.06595,0.00461,-0.0606,-0.02011,-0.0805,-0.04489,-0.00856,0.01786,0.05117,-0.00371,-0.04811,-0.0808,-0.07083,-0.01507,-0.0801,-0.02636,-0.05484,-0.0087,0.04676,0.02873,0.03201,0.07744,-0.03397,0.06292,-0.04394,0.01748,-0.01569,-0.03985,-0.01885,-0.08,-0.02753,-0.09419,-0.02797,-0.0931,0.00359,0.02598,0.01087,0.03634,0.00892,0.04598,-0.04339,0.00782,-0.09905,-0.00989,0.01741,-0.03137,0.00273,-0.05203,-0.06183,-0.04173,0.06741,-0.02803,0.01127,0.04781,0.01736,-0.0096,0.01577,-0.10042,-0.03303,0.00602,-0.05742,0.00443,-0.0423,-0.01325,-0.02572,0.02855,0.04174,0.06584,-0.01469,0.00182,0.07057,-0.00673,-0.07654,-0.11303,-0.06647,-0.02701,-0.03633,-0.01463,0.02711,0.02013,0.03865,0.13487,0.05955,-0.02217,0.04478,0.02072,0.00316,0.03201,-0.05414,-0.02967,-0.07445,-0.03839,-0.01674,-0.01356,-0.01008,0.06772,0.04102,0.10442,0.0689,0.06288,-0.00779,-0.03705,0.06707,-0.01139,-0.00871,-0.01774,0.04316,0.04019,0.02052,0.01151,0.0683,-0.02135,0.01076,-0.00781,0.01553,-0.05053,-0.07062,-0.00705,-0.0082,-0.01877,-0.06288,0.02485,-0.01801,0.04276,0.03015,0.059,0.03101,-0.03148,0.02012,-0.01876,-0.12416,-0.11984,-0.11634,-0.08429,-0.00813,0.05294,0.01747,-0.02061,0.01766,0.06939,0.06112,0.01949,0.03208,0.03646,-0.0542,-0.00243,-0.02453,-0.02441,0.01785,-0.00616,-0.04003,0.0388,0.08713,0.09944,0.00539,0.02979,0.0326,-0.00747,-0.00777,-0.00832,0.06678,0.00406,0.02541,0.04372,-0.03536,-0.04865],[-0.06287,-0.02304,-0.03593,-0.00145,0.07463,-0.01297,0.04161,0.00521,0.12959,0.02604,0.05413,-0.05881,-0.00079,-0.07755,-0.10738,-0.07162,-0.02472,-0.02271,-0.0174,-0.04502,-0.02295,-0.00237,-0.06756,-0.02487,-0.02,-0.03962,-0.00794,0.01629,0.02667,0.00764,-0.07835,-0.06364,-0.06551,-0.02938,-0.0456,0.00138,0.00451,-0.07425,-0.02121,0.0246,-0.00298,0.06164,0.02702,-0.03191,0.02726,-0.04786,-0.02386,-0.09646,-0.00224,-0.02429,0.01815,0.04694,0.02396,-0.02336,0.00637,0.03627,-0.01902,-0.02234,0.00557,0.01636,0.00812,0.03115,0.09059,-0.00093,-0.00496,-0.03017,-0.05986,-0.0269,-0.00242,0.01241,-0.0474,-0.02537,-0.08484,0.00739,-0.03727,-0.0057,-0.005,-0.02894,-0.08443,-0.00674,-0.01691,-0.05232,0.00419,-0.05031,0.01973,-0.02526,0.04647,-0.00362,-0.0634,-0.02769,0.03356,-0.07488,-0.06548,-0.09929,-0.08099,-0.0627,-0.02715,0.00492,-0.09845,0.04008,-0.02314,-0.04651,0.02115,-0.05028,0.00386,0.00956,-0.00123,-0.04556,0.03231,0.02463,-0.02051,0.00789,-0.02316,-0.03955,0.06099,-0.04444,0.00193,-0.00371,-0.00287,-0.02336,-0.0032,0.07531,-0.05532,-0.03166,-0.03541,-0.02668,0.03017,-0.02926,-0.0096,0.08019,-0.01637,0.05582,-0.03284,0.00153,-0.01364,-0.04971,-0.02841,-0.06035,-0.06224,-0.01023,-0.08778,0.0435,0.02262,0.02621,0.09644,0.06883,0.07456,0.04218,0.0109,-0.05501,-0.01324,-0.00107,-0.03408,-0.06007,-0.00236,-0.02841,-0.06303,0.04772,-0.0398,-0.05146,0.11973,0.04007,0.03828,0.0174,0.06333,-0.06194,-0.06793,0.02431,-0.09903,-0.07517,-0.04024,-0.0237,0.06114,0.03389,0.01127,0.01901,0.0695,0.03824,0.01288,0.05276,0.04227,0.07223,-0.03148,-0.00689,0.00967,0.09588,0.0651,0.06362,0.13232,0.04673,0.06104,0.10051,-0.01294,0.0254,0.12526,0.06666,0.02315,0.02673,0.0764,0.1469,0.11691,0.06799,0.15285,0.12588,0.14774,0.09484,0.14046,0.06456,-0.06916,0.06942,0.01636,0.00342,0.01196,0.06688,0.04381,0.15199,0.09019,0.15715,0.1056,0.05524,0.0746,0.05407,0.05619,0.04309,-0.11334,-0.00158,-0.06285,0.03813,0.03903,0.02835,-0.06922,-0.01166,0.02295,0.00666,0.03108,-0.03,-0.05649,-0.00761,-0.05418,-0.05049,0.00783,-0.13085,-0.15411,-0.10155,-0.02132,-0.13561,-0.19127,-0.13533,-0.14814,-0.09232,-0.02042,-0.04401,0.06022,-0.02375,-0.03828,-0.08222],[-0.01687,-0.02466,0.04513,-0.03364,-0.06995,-0.04368,-0.11317,-0.09266,-0.08933,-0.12236,-0.06516,-0.03302,0.01791,0.1094,0.13672,0.1633,0.05726,0.0386,0.04636,-0.0777,-0.11635,-0.06884,-0.11002,-0.04932,-0.01155,0.02047,-0.00873,0.01222,0.03754,-0.02941,0.00917,0.02055,0.04943,-0.08582,-0.07092,-0.12637,-0.09928,-0.05919,-0.09161,-0.01338,-0.02591,0.0851,0.10079,0.05339,-0.01496,0.00916,0.02403,0.05632,0.0121,0.01013,-0.0104,-0.06224,-0.04511,-0.07891,-0.04648,-0.03462,-0.02892,0.08858,0.0249,-0.01144,0.06699,0.07899,0.01036,0.07788,-0.06521,0.03424,0.01257,0.02395,-0.01885,-0.00208,0.04917,0.02928,-0.05529,0.01116,-0.01198,-0.00016,0.00832,-0.0372,-0.00355,0.04737,-0.04422,-0.02846,0.07936,0.09125,-0.01076,0.01879,0.12208,-0.00886,-0.00151,-0.04547,0.02241,-0.04322,0.03649,-0.06441,0.00574,0.01004,-0.00146,0.07532,0.07826,0.02794,0.00041,0.02489,-0.03087,-0.00183,0.02646,0.07525,-0.06943,0.00754,-0.07451,-0.0621,0.0394,0.02103,-0.01385,0.00121,0.04606,-0.05478,-0.00797,-0.00759,-0.02773,-0.04625,0.08122,-0.05754,-0.06715,-0.036,-0.0227,-0.05442,-0.01349,0.07767,0.0071,-0.00729,0.0429,-0.09779,0.00638,-0.01022,0.01429,-0.08814,-0.04319,0.03369,-0.03758,-0.01343,0.00737,-0.01092,-0.0166,-0.02028,0.01771,0.015,0.00401,-0.05968,-0.06953,-0.07886,-0.05337,-0.02698,0.03094,-0.04083,-0.08525,-0.06199,0.04207,-0.02707,0.05324,-0.05069,0.04285,0.02856,0.0925,0.0057,0.06403,-0.05981,-0.04158,-0.07646,0.01973,0.04187,-0.07016,-0.02908,-0.00255,0.04163,0.00364,-0.10269,-0.02054,-0.01247,0.06274,0.03953,0.10065,0.08017,0.00796,0.0035,0.05284,-0.03766,0.01359,-0.06138,-0.02971,-0.04175,-0.05613,-0.05768,-0.00201,-0.02205,0.05474,0.11555,0.05904,0.06874,0.06556,0.01567,-0.00146,0.04503,0.02146,-0.02883,0.02318,0.00994,0.01682,-0.00735,-0.03541,-0.06764,0.00775,0.02463,-0.00601,0.00488,0.03486,0.07293,-0.00261,-0.01189,0.04586,0.08176,0.06656,0.00346,0.05978,-0.02168,-0.02205,0.0288,0.04608,0.01571,0.02473,0.01388,0.03942,0.08264,0.06882,0.05286,0.05236,0.12831,0.0603,0.08541,0.05035,0.03128,0.0616,0.0439,0.03309,0.06213,0.0498,0.03613,0.08215,0.18054,0.08172,0.0668,0.08283,-0.03708,-0.06974,-0.00633,-0.00382,-0.04358],[-0.02913,0.10534,0.03749,0.01698,-0.06059,-0.04305,-0.00604,0.0023,-0.01591,0.05449,0.09571,0.09923,0.13848,0.08363,-0.01716,0.04555,0.05322,0.03543,0.00267,0.03452,-0.06443,-0.01651,-0.07748,0.0036,0.04427,0.04321,0.02158,0.014,-0.02826,-0.04596,-0.0472,0.01735,0.1028,0.05266,0.05321,0.02117,-0.01143,-0.08878,0.00072,-0.02283,-0.04102,-0.03483,-0.05517,0.0056,-0.05396,-0.07638,-0.0536,0.00247,0.04818,0.08965,-0.01008,0.05167,-0.0224,-0.09361,-0.00637,0.04501,-0.05098,0.0248,-0.03328,-0.02682,0.01662,0.0,-0.02683,0.07762,-0.02017,0.02811,0.0642,-0.01522,0.02216,-0.05384,-0.0369,-0.02158,0.00803,-0.017,-0.05069,0.00331,-0.00146,0.04703,0.04204,0.05634,-0.03264,0.01374,0.04999,0.07652,0.04077,-0.05358,-0.11559,-0.05983,-0.02358,-0.06248,0.0665,0.0945,0.03393,0.10874,0.08637,0.11091,0.03204,0.02538,0.08157,0.04169,-0.06165,-0.01829,-0.00948,-0.02694,-0.02792,-0.06306,0.0748,-0.0251,0.02243,-0.03208,0.05082,0.04156,-0.01092,0.04868,0.0307,0.00563,-0.05448,-0.04046,-0.05112,-0.07604,-0.01666,-0.03195,0.02286,-0.0269,0.00049,0.05022,0.02583,0.01692,0.07473,0.02038,0.03308,0.01094,-0.11382,-0.07215,-0.02363,-0.05527,0.05178,0.05285,0.02645,-0.00044,0.03907,0.0151,0.02846,-0.05419,0.03963,0.04248,0.02919,-0.01625,-0.10822,-0.06381,-0.01111,-0.00097,-0.01269,-0.00388,0.10857,0.06936,0.06085,0.04121,0.01614,0.0231,0.02438,0.0413,-0.00536,-0.10012,-0.10111,-0.02142,0.01218,0.06484,0.03338,0.03602,-0.02007,-0.00633,-0.01401,-0.03129,0.03587,0.00949,0.04766,-0.00516,-0.06229,-0.08594,0.00047,-0.03049,0.0431,0.0256,0.03326,0.02207,0.02507,0.01892,0.05441,0.02599,-0.04397,0.01545,-0.07509,-0.03813,-0.12282,-0.12672,-0.1128,-0.00746,0.0265,0.02434,0.01138,0.04221,0.02619,0.00677,0.07588,0.04552,-0.04118,0.05438,-0.08062,-0.09769,-0.03924,-0.07591,-0.12211,-0.06918,-0.02244,-0.05182,0.01306,0.0079,0.01808,0.02858,-0.02253,0.06264,-0.0445,0.04954,-0.06275,0.01937,-0.11661,-0.04829,-0.03563,-0.05291,-0.01395,0.03938,-0.06303,0.01523,-0.01422,-0.03686,-0.07583,-0.02175,-0.06095,0.04801,-0.06646,0.01606,0.05424,0.00304,0.05166,0.04657,0.14388,0.0697,-0.02225,-0.07162,-0.04572,-0.06641,0.01024,-0.03134,-0.06475,-0.03685],[-0.0693,0.02428,0.00356,0.08188,-0.00692,0.02711,0.0247,0.00594,0.01439,0.00457,0.0427,0.11483,0.07411,0.03475,-0.05128,-0.12026,0.02631,0.09459,-0.04318,-0.01822,0.01877,0.08321,0.04133,-0.01056,-0.09298,-0.01804,-0.02198,-0.01317,0.08237,0.00513,-0.07748,-0.1121,0.02928,0.1084,-0.02335,0.09731,0.08102,-0.00729,0.0474,-0.07172,-0.04544,-0.04599,-0.03021,-0.02607,-0.03655,-0.04043,0.00513,-0.05209,-0.0381,-0.00889,-0.00977,0.07327,0.02102,-0.03733,-0.02968,-0.06826,-0.02399,-0.09777,-0.03407,-0.07898,-0.01465,0.03864,0.04705,-0.05755,-0.01905,0.00883,-0.0456,0.02275,-0.01292,0.00705,-0.00781,-0.0581,-0.00721,-0.07452,-0.0335,-0.05265,0.05601,0.01314,-0.01652,0.05422,0.03106,-0.08014,-0.00468,-0.02255,0.02423,-0.01568,0.0277,0.05013,-0.04009,0.01183,-0.02441,-0.00245,0.01044,-0.01747,0.02922,-0.07162,-0.02806,-0.06806,-0.04282,0.04381,0.00441,-0.01901,0.04543,0.00917,0.07724,0.0505,0.08213,0.01372,0.06479,0.06748,-0.03504,0.01583,-0.07053,-0.04112,-0.0804,-0.00694,-0.07393,-0.04544,0.002,0.01368,-0.05114,0.02257,0.00607,0.04329,-0.00642,0.00907,0.02997,0.01764,-0.08892,-0.10952,-0.07429,0.03428,0.00728,-0.05226,-0.01494,-0.03542,-7e-05,0.06177,0.00746,0.03494,0.04492,-0.03358,-0.05546,-0.03381,-0.02146,-0.05132,-0.08289,-0.00477,-0.02153,0.03044,0.09591,0.07271,0.04147,0.10036,0.00061,0.06451,0.04082,-0.04699,-0.03173,-0.02239,0.0815,0.01667,0.02708,0.03054,0.15861,0.10727,0.09765,0.02437,0.07704,0.08994,0.04015,-0.02709,-0.07856,0.00781,-0.0537,-0.07526,0.09466,0.02978,0.13237,0.12194,0.14853,0.09145,0.06946,0.0796,0.04618,-0.00921,-0.01819,-0.07135,-0.04084,-0.05965,0.00319,-0.05153,0.07456,0.08681,0.07992,0.08183,0.10254,0.09297,0.0462,0.02903,-0.00926,-0.05778,0.02815,-0.05064,-0.01617,-0.07981,-0.08164,-0.05906,0.02696,0.02125,-0.02063,-0.02454,-0.02271,-0.00386,-0.03158,-0.01346,0.03198,-0.09248,0.01352,0.04933,-0.05513,0.01804,-0.04522,0.02036,-0.03535,0.0619,-0.01662,-0.03501,-0.08062,-0.08025,-0.00503,0.03529,-0.01317,-0.00866,0.01096,-0.0567,-0.04066,0.00854,-0.00568,-0.00138,-0.04801,-0.0729,-0.06325,0.01812,-0.05598,0.00232,-0.0265,-0.09537,-0.1102,-0.15599,-0.03962,-0.03438,0.00708,0.02981,-0.00379,-0.03586],[-0.0858,0.01627,0.0583,0.10652,-0.00894,0.03295,-0.04227,-0.10704,-0.09806,-0.15861,-0.06465,-0.1274,-0.06019,0.01607,0.0952,0.07408,-0.01613,-0.00269,0.1085,0.07057,0.06368,0.04909,-0.01343,-0.02865,0.03207,-0.06672,-0.0631,-0.11368,-0.00065,0.0223,-0.02764,0.02663,-0.02839,-0.01919,0.03845,-0.01193,0.04304,0.00225,0.03974,0.04294,0.02637,0.02038,-0.01893,-0.02511,-0.07953,0.02698,0.04901,0.10635,-0.05126,-0.00751,0.00375,0.007,0.05005,-0.02524,0.01761,0.05698,-0.02271,-0.03369,0.0432,-0.10387,-0.05161,-0.10748,0.03016,0.08774,-0.0589,-0.0427,-0.06291,0.0141,-0.00458,0.01944,0.06412,0.04518,0.02977,-0.02944,0.01731,-0.10515,-0.01002,0.02251,-0.07869,-0.03261,-0.04504,-0.15864,-0.09897,-0.08403,-0.05887,-0.0052,0.01777,-0.00652,0.03029,0.00565,-0.05649,-0.07323,0.04849,-0.0544,-0.02132,-0.14466,-0.0531,-0.08847,-0.0037,-0.05316,0.00453,-0.06982,-0.00072,-0.04053,-0.04786,-0.06719,-0.05113,0.01023,0.0735,-0.04126,-0.01348,-0.02927,0.04303,-0.02706,0.03769,0.09502,0.04919,0.09731,-0.08924,-0.00409,0.0142,0.0299,-0.05352,0.02415,0.01636,0.00548,-0.04157,-0.13081,-0.01114,0.02699,-0.05025,-0.01204,0.01389,-0.00237,-0.05724,0.04659,0.05224,0.0064,0.09556,0.07095,-0.00816,0.07841,-0.01569,-0.01249,0.0624,0.02345,0.06523,-0.0309,0.03935,-0.022,0.00689,0.02062,0.09226,0.05642,0.07226,0.06103,0.00638,0.00462,-0.01062,0.0255,-0.03893,0.00194,0.11216,0.10792,0.02534,0.11764,0.08862,0.0916,0.08543,0.09533,0.05594,-0.00983,0.07182,0.08739,-0.04436,0.07576,0.01644,0.04103,-0.0247,0.06345,-0.00265,0.06352,0.06386,0.04677,0.02818,0.01201,0.05987,0.05316,-0.03002,-0.03665,0.03602,0.053,0.0232,-0.03403,-0.02628,-0.04431,-0.04031,0.00409,0.04791,0.03587,0.00978,0.00283,0.04636,0.00659,0.05696,-0.00143,-0.01023,-0.03254,0.04421,0.01365,-0.11362,-0.1436,-0.08464,-0.04627,0.00521,0.01389,0.09338,0.01426,-0.00369,0.08564,-0.01763,-0.05537,-0.0008,-0.06003,-0.03995,-0.01577,-0.03267,0.00768,-0.06223,-0.10633,-0.01982,-0.02039,-0.02313,-0.03233,-0.00362,-0.07875,-0.08464,-0.06032,-0.0611,-0.00635,0.08418,0.05812,0.03594,-0.03516,-0.0223,0.02316,0.03253,0.05369,-0.03158,0.0163,-0.04305,-0.0286,0.02916,0.0249,-0.02961,-0.04953],[-0.16611,-0.08888,0.06756,0.08721,0.01692,0.00879,0.10461,0.10156,0.06364,0.14132,0.09944,0.00643,0.03561,0.01728,0.02373,-0.01541,-0.07797,-0.09151,-0.02438,-0.03264,0.02058,0.01277,0.02229,0.0373,-0.04359,-0.08501,-0.07307,-0.01408,-0.01976,-0.04911,-0.03343,-0.0422,-0.03534,-0.0727,-0.15551,-0.04796,0.04175,0.00633,0.0089,-0.07488,-0.12105,-0.01408,-0.05991,0.00766,-0.01645,0.02091,0.00682,0.0219,0.03295,-0.07918,-0.08885,-0.03697,0.00175,-0.00634,-0.04018,-0.03876,-0.08742,-0.00885,-0.14468,-0.1197,-0.06105,-0.03164,-0.12053,-0.07654,0.02172,0.09296,0.05565,0.07945,0.01385,0.00243,-0.12875,-0.06654,-0.04796,-0.042,-0.09531,-0.09703,-0.14946,-0.05767,-0.08437,-0.1648,0.12381,0.02762,0.03035,-0.00963,0.04706,-0.04973,-0.04815,-0.00413,0.01332,-0.04858,-0.03046,-0.06767,-0.00926,-0.04601,-0.07714,-0.01033,-0.01668,0.04372,0.047,-0.00689,0.04098,-0.03018,0.0117,0.04923,-0.03485,0.02006,-0.02863,0.02723,0.02306,-0.03183,0.05812,0.0017,-0.05246,0.07118,0.11192,0.01577,0.02602,-0.01986,-0.03457,-0.02543,0.01933,0.04339,-0.05129,0.04833,0.09968,0.04132,0.06404,0.06949,0.00891,0.058,0.08692,0.04356,0.07456,0.04842,0.06082,0.00803,0.08489,-0.0488,-0.04308,0.02654,0.04263,0.05281,0.06264,0.10263,-0.00955,0.12312,0.08028,0.06094,0.11561,-0.00228,-0.00431,-0.0832,0.0006,0.06197,0.05993,0.03569,0.06867,0.00903,0.01271,0.07832,-0.03876,0.09103,0.07362,0.07354,0.04162,0.04689,0.05577,0.01608,-0.02276,0.04325,0.08782,0.04368,0.0468,0.05386,0.03221,0.04981,-0.01595,-0.0133,0.05039,0.03837,-0.02315,0.08558,-0.01936,0.07164,0.02651,-0.02944,-0.04256,-0.02077,-0.01678,-0.04421,-0.09465,-0.02082,0.0178,-0.03642,-0.00272,-0.00606,-0.0421,-0.04218,-0.02627,0.01789,0.02624,-0.06735,-0.08514,-0.06665,-0.11217,-0.14632,-0.10831,0.05432,-0.07084,0.03779,-0.09316,-0.00096,0.01695,-0.10126,-0.01714,-0.03438,-0.04481,-0.07389,-0.09126,-0.05684,-0.17348,-0.05893,0.00279,-0.01137,-0.1265,-0.04419,0.07089,0.01827,0.03431,0.01387,-0.0032,0.00498,-0.02845,-0.04176,-0.03038,0.03689,-0.03033,-0.04367,0.0439,0.00428,-0.10032,-0.00535,0.03593,0.03896,0.03644,0.01864,0.05977,0.03227,-0.00079,0.07539,-0.03708,0.03848,0.11751,-0.04734,-0.01602,-0.03385],[-0.0198,0.01105,-0.02737,-0.10198,0.00887,-0.03397,-0.06191,-0.08516,-0.13971,-0.03081,-0.14699,-0.03895,-0.09006,-0.03429,-0.05108,-0.01487,0.08131,-0.00764,-0.09064,-0.06891,-0.07127,0.00188,0.01913,-0.06651,0.01548,-0.09177,-0.08441,-0.15953,-0.02829,-0.02807,-0.031,0.01887,0.02827,0.01098,-0.0426,-0.09118,-0.02645,0.05536,0.01449,0.05675,0.03739,-0.06614,0.02795,-0.08502,-0.1409,-0.11857,-0.03695,-0.0478,0.02642,-0.04211,-0.00907,-0.03445,0.10262,0.12927,0.06794,0.05547,0.05492,0.09142,0.04526,0.04924,0.04866,0.00751,-0.05242,-0.04541,-0.06768,-0.03352,0.03414,-0.02446,0.07732,0.15311,0.07809,-0.00857,0.04283,0.1275,0.07694,0.06116,0.04983,0.05542,0.05637,0.01386,-0.08618,0.00754,0.04566,0.08455,0.12406,0.06536,-0.00563,0.02761,0.02858,0.05726,0.12751,0.10845,0.13618,0.10648,0.10092,-0.01903,-0.05575,-0.04104,0.10032,0.0419,0.1167,0.02279,0.0267,0.02877,0.01428,0.10725,0.01245,0.02837,0.07235,-0.00059,0.079,0.07151,-0.08823,-0.04779,-0.00066,0.04169,0.03733,-0.00938,0.03623,-0.01507,0.01731,-0.00599,0.02652,0.04191,0.00027,0.00305,0.03799,0.07382,-0.15283,-0.03394,0.02907,-0.01209,0.05288,0.01883,0.02373,-0.04074,0.02713,-0.00517,-0.03899,0.0216,0.05303,0.05483,-0.03738,-0.00692,-0.01604,-0.03668,0.04499,0.04163,0.08443,-0.04681,-0.00331,0.00614,0.00354,-0.02723,0.0951,-0.01957,0.01739,-0.00484,0.03329,-0.01365,-0.0206,-0.00203,0.04525,0.05449,0.03647,-0.09198,0.04471,-0.0587,-0.04793,-0.0622,0.02032,-0.0311,-0.06538,-0.02233,-0.03241,-0.03655,0.02655,0.11703,0.09603,0.05868,-0.07004,0.03133,-0.01058,-0.07376,-0.03553,-0.14711,-0.11419,-0.10992,-0.04254,0.00316,0.02047,-0.07825,-0.06673,0.02752,0.0365,0.01759,-0.01918,0.04342,-0.08045,-0.0151,-0.07512,-0.07164,-0.11262,-0.0911,-0.03042,-0.02392,0.0664,-0.02019,-0.06321,-0.03909,0.0474,-0.06861,-0.11129,-0.04667,-0.11982,-0.08664,-0.03073,-0.09778,-0.06735,0.03613,0.03781,0.08562,0.05824,-0.00729,-0.0921,-0.05932,-0.0715,-0.0324,-0.08063,-0.05428,-0.0952,-0.09331,-0.05294,0.0379,0.07743,0.09106,0.12415,0.09066,0.10298,-0.00628,-0.0672,-0.04041,-0.06733,-0.0594,-0.09354,-0.01438,0.00227,0.04571,0.08508,0.1139,0.06926,0.13871,0.04571,-0.01929,-0.01853,-0.08221],[-0.07039,-0.01897,-0.09519,-0.05689,-0.09864,-0.0338,0.00977,-0.01086,0.00999,0.00826,-0.07004,-0.01952,-0.02131,-0.01688,-0.01162,-0.06783,-0.02193,0.09392,0.01223,0.02889,0.08594,0.03728,0.08516,0.00592,0.08422,0.01368,-0.03235,0.02455,-0.00242,-0.02409,-0.02505,-0.04038,-0.01698,0.06465,0.0616,0.10996,0.12602,0.10245,0.0519,0.03423,0.02024,-0.04263,-0.0529,-0.07845,-0.07453,-0.10118,-0.06094,-0.04562,-0.03125,-0.01822,0.07258,0.09503,0.01379,0.01387,0.13582,0.02245,-0.00438,-0.03398,-0.04563,-0.09518,0.03171,-0.03993,-0.03275,-0.02856,-0.0915,0.03068,0.01979,0.07292,0.01439,0.01567,0.01665,0.0027,0.07437,0.086,0.02964,0.089,0.02897,0.06663,-0.02227,-0.02873,-0.09365,0.04307,0.06895,0.07842,0.05913,0.07449,0.01852,-0.01316,0.0465,0.08053,0.06114,0.02911,0.03025,0.03964,0.02068,-0.03741,-0.11713,-0.08058,-0.02088,0.02868,0.01443,0.08827,-0.00099,0.09547,-0.0006,0.05682,0.09927,0.061,0.06584,0.06341,0.00781,0.02213,0.04193,-0.00172,0.02548,-0.00279,0.01128,-0.03057,0.03213,-0.0075,0.05121,0.03357,-0.01231,0.08432,-0.04671,-0.04122,-0.0318,-0.04185,-0.00456,-0.04429,0.01745,0.05518,-0.03328,0.06488,0.06934,0.04908,-0.02667,0.01963,0.02521,-0.01658,0.00776,0.02367,-0.05052,-0.03278,0.02037,0.04261,0.08322,0.01592,-0.01857,0.01558,-0.00546,-0.0141,-0.06016,-0.01937,-0.05355,-0.0372,-0.05654,0.01786,-0.10188,0.00793,0.02517,0.01731,0.03205,-0.00691,0.01721,-0.0244,0.00547,-0.04384,-0.0137,-0.06099,-0.04643,-0.03227,-0.09039,-0.03746,-0.0437,-0.06191,-0.03095,-0.08406,-0.11203,-0.03504,0.02349,-0.04661,-0.05657,-0.07195,-0.10844,-0.07051,-0.03696,-0.06596,-0.06679,0.02734,0.03015,0.01778,-0.16942,-0.14716,-0.07642,-0.0718,0.02167,0.016,0.02606,-0.05925,-0.0149,-0.02207,-0.01034,0.09797,0.03455,0.04728,0.00949,0.05633,-0.1455,-0.17861,-0.02904,0.05899,-0.00361,0.07382,0.04699,0.0426,0.04271,0.00829,0.07191,0.1196,0.09408,-0.03354,-0.02682,-0.02223,-0.04552,-0.04942,0.02918,0.09568,0.05432,0.10643,0.08935,0.11229,0.03049,0.00452,0.11756,0.03256,-0.05288,-0.01863,-0.10198,-0.188,-0.05287,0.00218,0.01496,0.01962,0.01822,0.07618,0.10841,0.02175,-0.00426,0.00793,-0.02601,-0.11569,-0.08487,-0.08744,-0.08715,-0.13364],[0.09449,0.08817,0.02884,0.02345,0.00072,-0.02283,-0.01992,-0.10039,-0.01958,0.0628,0.0478,0.06234,0.04992,0.04447,0.04037,-0.06295,-0.01727,-0.00196,-0.0348,-0.07294,0.04174,0.03652,-0.02857,0.05888,-0.04059,-0.00961,-0.04197,0.00054,-0.00706,0.05632,-0.03174,-0.07531,-0.00841,-0.0652,-0.03856,-0.07711,0.04023,0.03782,-0.01192,0.06069,0.02828,-0.00466,0.04939,-0.0186,-0.00222,-0.04269,-0.06954,-0.06043,0.01492,-0.03777,0.02126,0.04079,0.00712,0.0103,0.07939,0.00654,-0.01444,0.0107,-0.01765,0.01827,0.01601,-0.11822,-0.1566,-0.12253,-0.02748,-0.01838,-0.05032,-0.00381,0.04382,-0.01449,0.00293,0.04917,0.0824,-0.05544,-0.02401,-0.04179,-0.03283,-0.03521,-0.11445,-0.18407,-0.05827,0.03518,0.02968,0.02689,0.08722,0.05581,0.00291,-0.00513,0.02793,0.00615,0.05728,0.03036,0.00814,0.04559,-0.04596,-0.05036,-0.04686,-0.04099,0.01912,0.09823,0.02952,-0.0171,0.02749,0.01667,0.05289,-0.03394,0.03207,0.02885,0.01707,0.05119,-0.01731,-0.07359,0.01389,-0.01223,-0.00827,0.03546,0.03296,-0.02547,0.00388,-0.00247,-0.00632,0.00938,0.01058,-0.00382,0.02392,0.06362,-0.00405,-0.08952,-0.04456,0.04258,0.05759,0.04171,0.03872,0.04442,-0.02897,-0.00317,-0.00344,0.03922,0.01687,-0.02356,0.00233,-0.02147,-0.05112,-0.08061,-0.06865,-0.10658,0.03123,-0.03501,-0.01201,-0.00385,-0.05127,-0.0219,-0.0636,-0.05368,-0.0898,0.02215,0.01195,-0.04784,-0.03062,-0.02865,-0.0645,0.04466,0.01644,0.03779,-0.01122,-0.128,-0.1024,-0.03296,-0.06217,-0.00983,-0.07946,-0.04514,0.04746,0.01908,0.01787,-0.01912,-0.06389,0.01126,0.01746,-0.05596,-0.05222,-0.02915,-0.0452,-0.00418,-0.10902,-0.06201,-0.07026,-0.05705,-0.0434,-0.04443,-0.05104,-0.05569,0.00428,0.03938,0.03274,-0.03976,0.04342,0.00149,-0.03295,0.0006,0.02615,-0.05081,0.0477,-0.00948,-0.02489,-0.08818,-0.04537,-0.03352,0.10381,0.09505,0.00753,0.03228,0.07544,0.07776,0.05173,0.03884,0.06883,0.0062,0.01794,0.06842,0.02618,0.03695,-0.02723,0.05246,0.10429,0.13385,0.07782,-5e-05,0.02622,0.08086,0.0939,0.0807,0.10147,0.05449,0.06943,0.18343,0.07797,0.08435,0.10866,0.01574,0.04436,0.05227,0.03079,-0.0014,-0.02494,-0.05914,0.03469,0.08245,0.03677,-0.00442,0.10359,0.01297,0.02008,0.03529,0.01222,0.09377],[0.05722,0.00904,-0.00362,-0.07531,0.03216,-0.00602,-0.00327,-0.02373,0.0062,0.0569,0.0665,0.08557,0.05851,0.07109,0.04047,0.0533,-0.10891,-0.06581,-0.0004,-0.02802,0.03101,0.07051,-0.09355,-0.04127,0.00043,0.01821,-0.00835,0.03674,0.09039,-0.01029,-0.00855,0.08061,0.00355,0.04632,0.08593,0.13618,0.09699,0.01599,-0.0217,-0.02334,-0.06079,-0.07395,0.03631,0.06125,0.0454,0.0373,0.10104,0.15914,0.05702,0.14985,0.06872,0.07895,0.07031,-0.03416,-0.02264,0.00488,-0.08962,-0.15298,-0.024,-0.03406,0.05825,0.11317,0.18486,0.21375,-0.02521,0.10148,0.00729,-0.05712,-0.05263,-0.06511,-0.04598,-0.07417,0.01484,-0.13375,-0.08408,-0.04342,-0.05527,0.05244,0.05781,0.16823,0.05069,0.01547,-0.01265,-0.10478,-0.01916,-0.02998,-0.03596,0.03585,-0.04027,-0.12463,-0.03491,-0.0439,-0.07496,-0.02836,-0.02016,-0.04201,-0.11867,-0.06001,-0.07594,-0.05032,-0.08474,-0.07676,-0.06265,0.0228,-0.00753,0.00073,0.01347,-0.0531,-0.01398,-0.10521,-0.14653,-0.13208,-0.06458,-0.04072,0.03288,-0.04592,0.03231,0.01336,-0.02186,-0.02568,-0.02129,0.03318,0.04124,-0.03903,-0.0609,-0.08909,-0.10157,-0.06976,-0.07492,-0.02145,-0.03706,0.00912,0.02609,0.01819,0.01513,0.02261,0.06588,0.0288,0.11305,0.0271,0.0234,0.05964,-0.01685,-0.10788,-0.05524,-0.04152,-0.01365,-0.01357,0.04537,-0.05058,-0.01484,0.05738,0.04417,-0.0009,0.01597,0.01929,0.02909,-0.00498,-0.09001,-0.04969,-0.11771,-0.08586,0.01201,0.04429,0.02294,0.01612,-0.01542,-0.03357,-0.02213,0.05294,-0.04436,-0.01666,0.0052,-0.05063,-0.0246,0.01186,-0.16749,-0.01825,0.01497,0.08913,0.06411,-0.0015,0.06751,0.00518,0.02411,-0.02584,-0.01473,-0.00014,-0.02579,-0.02119,-0.00394,0.01385,-0.11766,0.01245,0.08459,-0.00065,0.03067,-0.06001,-0.00528,-0.05593,-0.07208,-0.04478,-0.06933,-0.04329,-0.06592,0.03911,-0.06785,-0.03025,-0.02219,-0.00697,0.0219,0.02551,0.00161,-0.00963,-0.07133,-0.04878,-0.07879,-0.03522,-0.13384,-0.03836,-0.05963,0.02497,-0.09569,-0.04356,0.0367,0.01265,0.02661,0.01307,-0.03142,-0.00454,-0.10107,-0.06479,-0.05283,-0.06203,-0.12329,-0.069,0.02512,0.04835,-0.03872,-0.03859,-0.00378,-0.02516,0.04617,0.04607,0.04523,0.02902,-0.04788,0.04357,0.04543,0.09764,0.0781,0.09539,0.08649,0.06358,-0.00217,0.013],[0.0753,0.05795,0.03526,-0.0015,0.03692,-0.03082,-0.08942,-0.16129,-0.12096,-0.07792,-0.00321,-0.00165,-0.12234,-0.10132,-0.05092,0.01222,0.10508,-0.03504,-0.02661,-0.02549,0.01952,-0.00232,-0.13015,-0.09707,0.02978,-0.01064,-0.09856,0.00593,0.01922,0.00021,-0.03859,0.09336,0.04143,0.06428,0.03344,0.0133,0.013,-0.00686,0.0063,0.02694,0.03295,-0.07816,0.0322,0.02012,0.05998,-0.00611,0.06835,0.00582,0.03997,0.0389,-0.00621,-0.07261,-0.07806,-0.00192,0.09506,0.02621,0.07767,-0.01245,-0.01767,0.06159,0.02729,0.01377,0.03023,0.04114,0.04602,-0.03593,-0.091,-0.12271,0.05242,0.12238,0.11965,-0.01114,0.06026,0.1241,0.02117,0.11115,-0.03686,0.04441,0.03305,0.00987,0.01228,-0.03302,-0.02691,-0.03527,0.06003,0.03525,0.05958,0.0631,0.08927,0.11514,0.07389,0.08945,0.06479,-0.02228,0.01734,-0.01364,0.05184,0.01493,0.03186,-0.00665,0.01728,0.02102,0.02577,0.12203,0.05529,0.06453,0.08863,0.01237,0.02331,-0.05213,-0.01223,-0.00995,0.04659,-0.01526,0.00752,0.03915,0.00075,0.02321,0.01087,-0.00602,0.03572,-0.01039,0.08739,-0.03373,0.03992,0.08312,0.00912,0.00407,0.05818,0.04388,0.03562,0.00823,0.01297,0.00593,0.04712,0.00127,-0.01772,-0.05915,-0.04882,-0.0178,-0.06658,-0.01314,0.04738,-0.00673,0.02421,0.01838,-0.01766,0.02319,0.03998,0.03967,0.05185,0.01383,0.01056,-0.00539,-0.07097,-0.02322,-0.01303,-0.00467,-0.00882,-0.00213,0.0706,0.05672,0.02282,-0.0375,0.01109,0.01357,-0.00493,-0.02401,-0.00437,-0.01399,-0.07745,-0.02728,0.01215,-0.05161,0.05187,-0.06008,0.10452,-0.01054,-0.04945,-0.06902,-0.02076,-0.12035,-0.13285,-0.08655,-0.05395,-0.06607,0.00931,-0.02198,-0.06704,0.00482,-0.02212,-0.0456,0.15141,0.04157,-0.00178,0.02112,-0.03945,-0.02401,-0.13437,-0.07049,-0.07662,-0.08674,-0.07807,0.01234,-0.02378,0.00175,0.05451,0.05811,0.00788,0.01998,0.09716,0.00112,0.03683,-0.02849,-0.02191,-0.05235,-0.0002,-0.07187,-0.02337,-0.07176,-0.02113,0.0499,-0.06846,0.08334,-0.01885,-0.04073,0.06347,-0.05236,-0.00971,-0.02855,-0.00031,0.01587,-0.11787,-0.04607,-0.11601,-0.06169,-0.09189,-0.11406,-0.03627,0.10252,0.0554,-0.01727,-0.04044,-0.00394,-0.10014,-0.05163,-0.04392,-0.02012,-0.05714,-0.05944,-0.08181,-0.05723,-0.04352,-0.01636,-0.07609,0.04808],[0.07045,0.01726,-0.02861,0.02677,0.03351,0.06391,0.01903,0.07605,-0.02139,0.02932,-0.02121,-0.06027,-0.01797,-0.06364,0.00612,0.04936,0.08526,0.00039,-0.07128,-0.03136,-0.10235,-0.06178,-0.05754,0.01361,0.00514,-0.10618,-0.17097,-0.06176,-0.08403,-0.00187,-0.03178,0.1334,0.01058,0.01847,-0.06043,-0.08397,-0.08167,-0.06163,-0.14221,-0.12269,-0.0853,-0.10053,-0.1214,0.00909,-0.00057,0.02555,0.00836,0.09791,0.01201,-0.04039,0.03188,-0.01364,-0.0005,-0.07797,-0.18244,-0.07607,-0.01156,-0.05507,-0.0111,0.02048,0.00747,-0.02205,0.02534,0.0052,0.03353,0.08514,-0.0274,0.01066,-0.05287,-0.02025,-0.06383,-0.12559,-0.03165,0.07089,-0.04361,-0.01658,-0.00699,-0.01436,0.02906,0.0363,-0.03264,0.08885,0.08323,0.07446,0.03321,0.03899,-0.0109,0.03893,-0.00233,0.05439,-0.02484,-0.02528,-0.01619,0.0239,-0.08911,0.01508,-0.05091,0.0531,-0.04408,0.05718,0.07199,0.00192,0.05681,-0.0105,0.0745,-0.02331,0.0994,-0.00528,0.06237,0.0388,-0.01738,0.10199,0.02968,0.0484,0.07468,0.03278,0.00215,-0.02736,-0.02902,0.00319,0.02026,-0.04485,-0.01829,0.0906,0.00954,-0.05798,-0.00714,-0.04237,0.03087,0.02668,0.03653,-0.02468,0.0194,0.04014,-0.0523,0.02545,-0.06191,0.0412,-0.04239,-0.02172,-0.02851,-0.007,-0.00243,-0.03642,-0.0233,0.03104,-0.01187,-0.06505,0.00474,0.02991,0.00541,0.01401,0.0227,-0.047,-0.00169,-0.03196,-0.01715,-0.01529,0.00442,-0.02265,0.00183,0.01651,-0.06919,-0.06949,-0.09472,-0.09023,-0.02004,-0.04368,-0.12578,-0.01389,-0.02418,0.029,0.0372,-0.00811,0.00948,0.04747,0.02864,-0.02009,0.01577,-0.00853,-0.10157,-0.06966,0.04182,-0.10297,-0.07973,-0.01992,-0.02376,-0.01214,0.07788,0.01378,0.01961,0.02751,0.08454,0.10705,0.1376,0.08936,0.00086,0.01948,0.02733,0.0762,0.04552,0.09444,-0.02559,0.04938,0.03446,0.06271,-0.0016,-0.04643,0.09932,0.03733,0.0748,0.12948,0.05385,0.12896,0.13965,0.07972,0.02825,0.05897,0.0041,-0.00694,0.00498,-0.01076,-0.0545,0.02954,-0.02297,-0.06505,-0.02403,0.0344,0.07869,0.03014,0.03523,0.07194,-0.03181,-0.0198,-0.03065,0.01422,-0.03497,-0.09325,-0.07221,-0.01174,-0.00399,-0.08057,-0.10707,-0.04047,-0.02027,-0.00461,-0.06328,-0.15049,-0.0326,-0.04896,-0.03956,-0.01198,-0.0937,-0.03967,-0.04332,0.01379],[0.05836,0.16627,0.09063,0.02995,0.016,0.09545,0.11432,0.09973,0.07847,0.05983,0.0952,0.00986,-0.00879,-0.02462,0.02966,-0.03032,0.14256,0.04389,-0.02931,0.03247,-0.00327,0.09341,0.07743,0.07962,0.06365,0.06258,0.07356,0.01944,0.03391,-0.05377,0.02683,0.03271,0.06815,0.01808,-0.01587,-0.10936,-0.0421,-0.04477,-0.03198,0.01402,-0.0088,0.03163,-0.00389,0.00778,-0.01849,-0.02032,-0.01865,0.05362,0.06407,0.02061,0.03533,-0.04567,-0.01424,-0.01569,-0.05135,-0.01199,-0.05848,-0.01947,0.01405,0.0183,-0.02696,-0.05338,-0.02801,0.02126,0.04066,-0.00169,-0.01336,-0.04583,-0.01728,-0.02944,-0.07975,-0.05569,-0.09024,-0.08453,-0.06285,-0.06402,-0.05369,0.01658,-0.02532,0.02629,-0.02731,-0.07225,-0.00747,-0.02674,-0.0153,0.01558,-0.07662,-0.04487,-0.08184,-0.0865,-0.03347,-0.07332,-0.0124,-0.03512,-0.04127,0.0328,-0.00782,0.07973,-0.00931,-0.04368,-0.04705,-0.04315,-0.0509,-0.00904,0.04745,-0.03936,0.01291,-0.04637,0.00056,-0.02614,-0.02215,0.01206,0.06121,-0.04317,0.03768,0.04511,0.04913,-0.04947,0.03321,-0.05004,-0.05554,-0.063,-0.01519,-0.08447,-0.08025,0.02297,-0.0485,0.00884,0.05632,-0.0279,-0.02538,0.04637,0.04135,-0.07895,0.00121,0.01022,0.02301,0.01138,-0.05906,-0.01077,-0.03046,0.03459,-0.0679,-0.0143,0.05681,0.00548,0.03437,0.03323,-0.01813,-0.00735,0.07891,-0.0638,-0.05843,0.05331,-0.02045,-0.0361,0.03357,-0.07181,0.01289,-0.04347,0.16748,0.02322,0.06161,0.01062,0.13861,0.02883,0.09121,0.06638,0.01558,-0.056,0.01714,0.03715,0.02562,-0.04311,0.03817,-0.04751,0.03631,0.0461,0.05634,0.0764,-0.01819,0.02715,0.02122,0.01929,0.0521,0.00532,-0.04843,0.06098,-0.02112,-0.00845,0.01756,-0.003,0.06482,0.06809,-0.06984,-0.1098,-0.11669,-0.06675,-0.01491,-0.06361,0.01146,0.04225,0.01098,0.05893,0.07582,0.03933,-0.05549,-0.00124,0.08888,0.04394,-0.05546,0.01472,-0.01695,-0.03994,-0.12799,-0.0351,-0.04319,0.00425,0.04092,-0.05485,0.0366,-0.06646,-0.0567,-0.03627,0.1205,0.10943,0.04638,0.05333,0.05381,0.0482,-0.03159,-0.08898,-0.03005,-0.00207,-0.06221,0.05643,0.04083,-0.01605,0.035,0.02479,0.03914,0.0968,0.05802,0.01935,-0.05491,0.04411,-0.02395,-0.02898,-0.03343,-0.08347,-0.05687,-0.04734,-0.02435,0.01354,-0.0069,-0.01624],[-0.0426,-0.00041,-0.06191,-0.1118,-0.01024,0.02839,0.09798,0.01744,0.04573,0.00961,0.08374,-0.01719,0.00498,0.04808,0.00371,0.04664,-0.02211,-0.07993,-0.05598,-0.0588,-0.12272,0.05017,0.09563,-0.03589,0.023,0.00466,0.14481,-0.03498,0.04082,-0.00699,0.0972,0.07985,-0.11103,-0.10144,0.00285,-0.056,-0.02825,-0.03083,0.05352,0.04985,0.01385,-0.04393,-0.01181,-0.03102,-0.01379,-0.02001,0.00799,0.04233,-0.09178,-0.06144,-0.09878,-0.05352,-0.03006,0.03257,0.04624,-0.06423,-0.06958,-0.08084,0.05111,-0.07703,-0.0091,-0.02299,0.05264,0.0613,0.07771,-0.00636,0.00458,-0.03159,0.01418,-0.03547,-0.01732,0.03318,-0.01316,-0.02966,0.04336,0.05488,-0.03264,-0.02105,0.03602,0.02518,0.16755,-0.03238,0.02047,-0.02958,0.01414,0.04607,0.01074,0.02234,0.03725,-0.01481,0.02897,0.03658,0.00576,-0.01435,0.03282,-0.00857,0.15098,0.01732,-0.04847,0.00975,0.03057,0.07292,-0.06075,0.05868,0.05682,0.00982,-0.07583,0.00181,0.02194,0.03805,0.00107,0.01417,0.04708,-0.00842,-0.06485,-0.04322,0.02266,0.04561,0.00791,0.04028,0.02588,0.01132,-0.05292,0.0365,0.07438,0.05592,0.05937,-0.04811,0.06935,-0.02513,-0.02966,-0.01172,-0.01309,0.04967,-0.00408,0.00909,0.04217,0.00234,0.03596,-0.04145,-0.03109,0.03274,0.05762,0.00952,-0.06711,-0.05649,0.01434,-0.02671,0.03459,0.13618,0.1106,0.06965,0.03116,0.03795,0.05624,-0.01809,0.05977,-0.00275,-0.01564,-0.02292,-0.06771,-0.03894,0.01387,0.00562,0.01464,0.05219,0.11434,0.02849,-0.01893,0.00704,0.09094,0.08577,0.0543,-0.00359,0.00935,0.04688,-0.10773,-0.18077,-0.07745,-0.0428,0.01903,0.0251,-0.0463,0.0715,-0.00268,0.05781,-0.01296,-0.03206,-0.04655,-0.01437,0.02742,-0.02615,0.10076,-0.01199,-0.09619,-0.09368,-0.01893,0.03389,-0.04176,-0.01616,-0.02945,-0.02048,-0.0471,-0.0181,0.01664,-0.0371,0.00236,-0.07553,0.15496,-0.00387,-0.10514,-0.01435,0.02415,0.00619,-0.13008,-0.04924,-0.04752,-0.07847,-0.04572,-0.07916,-0.08491,-0.09424,-0.0173,-0.08982,0.15523,-0.03647,-0.0387,-0.01515,0.01544,0.01608,-0.1123,-0.05896,-0.08971,-0.10282,-0.04294,-0.07496,-0.07042,0.0352,-0.021,-0.0215,0.11093,-0.06132,-0.08455,-0.04102,-0.06726,-0.02385,-0.02666,-0.04582,-0.12808,-0.00218,0.04439,-0.03547,0.06606,0.09102,0.04236,0.01426]],"patch_embed.proj.bias":[-0.01656,0.03098,0.00393,0.01299,0.00709,-0.02551,-0.01559,-0.02183,-0.00366,0.12691,0.02089,-0.04055,-0.06599,-0.09629,-0.05483,-0.08654],"blocks.0.norm1.weight":[1.01328,1.00879,1.0048,0.98339,1.03346,1.02201,1.01859,0.99356,0.97018,0.9965,1.07302,0.99038,1.09859,0.95276,1.02492,0.98552],"blocks.0.norm1.bias":[-0.00932,0.00469,-0.00199,-0.00339,0.00485,-0.03505,-0.0232,0.00237,-0.00391,0.01668,0.00043,0.00084,0.01722,-0.00767,0.02253,0.0057],"blocks.0.attn.qkv.weight":[[-0.0756,0.11227,0.19219,-0.26534,-0.07921,0.01064,0.12454,0.1845,-0.22071,-0.13949,0.11827,-0.26681,-0.08349,0.1117,-0.25541,-0.00489],[-0.29267,-0.05533,-0.25491,-0.05854,-0.06346,0.00877,-0.18085,0.1355,0.07533,-0.22039,0.13059,-0.22695,0.14072,-0.04043,-0.05619,0.30968],[-0.21859,-0.03166,-0.29476,0.22629,-0.04821,0.28553,-0.07157,-0.12203,0.05383,-0.0935,-0.05857,0.15254,0.09413,0.13683,0.04037,-0.05474],[-0.01789,-0.00657,-0.11562,-0.119,0.06463,-0.26347,0.18312,0.19041,0.03153,-0.04414,-0.41526,-0.05665,0.2328,0.22135,-0.1615,0.23338],[0.38299,-0.02638,-0.03421,0.07144,0.23112,-0.03925,-0.08081,-0.0278,-0.02884,0.07098,0.06823,0.03825,-0.04316,0.2317,0.01842,0.14599],[0.11289,0.15933,-0.03059,0.18559,0.11554,0.14621,-0.16767,0.06727,-0.05687,-0.16523,-0.0261,0.10996,-0.02412,-0.11789,0.0311,-0.24255],[-0.17971,-0.06154,-0.22441,0.05935,-0.15916,0.03594,-0.141,-0.16708,0.2655,-0.14338,0.21795,-0.09003,-0.05659,0.12953,0.12623,0.26105],[-0.23191,-0.01963,0.02924,-0.08073,-0.09452,0.0453,0.14627,-0.05842,0.2524,-0.0756,-0.20498,-0.20164,0.26038,0.17364,0.10652,-0.13722],[0.04275,-0.03958,0.21401,-0.04087,0.03458,0.17223,-0.03623,0.06379,0.12252,-0.22463,-0.04767,-0.04668,-0.18631,0.00495,-0.01392,0.15524],[-0.1386,0.02915,-0.29664,0.22522,-0.28795,-0.15173,-0.01843,0.16285,-0.01314,0.22857,-0.26469,0.00528,-0.2439,-0.11842,-0.14167,-0.018],[0.10526,-0.27301,0.22345,-0.19633,-0.06912,-0.0657,0.00705,-0.04231,0.1893,0.16348,0.19154,-0.25819,-0.08468,0.12155,-0.23126,0.12686],[0.0603,0.11496,0.23191,-0.17545,0.31205,-0.25307,-0.04021,-0.14316,-0.15392,0.07494,-0.2924,0.2208,-0.17989,0.2036,-0.21233,0.13482],[0.28012,0.09718,0.23052,-0.23159,-0.00483,-0.06705,-0.02354,0.03923,-0.22664,0.07392,0.13874,0.15262,-0.15725,0.22774,-0.13304,0.06862],[0.07597,0.00187,-0.01663,-0.00241,0.17105,-0.23888,0.03234,0.11285,-0.25201,0.10582,0.14445,-0.03855,-0.00986,0.28117,-0.03631,0.24342],[0.20227,-0.14295,0.14051,0.0021,-0.0581,0.15298,-0.17031,0.02824,0.07191,-0.07792,0.2398,-0.04484,-0.10101,0.18636,0.04937,0.0726],[0.02322,0.19243,-0.11358,-0.05752,0.1734,-0.21158,0.14442,-0.03572,0.2076,-0.02033,0.12512,-0.07183,0.16095,-0.15128,-0.10283,-0.22786],[0.08482,0.12293,-0.2304,-0.23439,0.16449,-0.04812,0.11909,0.03684,0.07961,-0.09865,-0.12553,-0.21361,0.16158,-0.03003,-0.16606,-0.22203],[0.23445,0.07147,-0.12523,-0.0912,0.19016,-0.08873,-0.13834,-0.05495,-0.11206,0.22745,0.33443,-0.06978,-0.00198,-0.20329,-0.03255,-0.23967],[-0.10593,-0.15775,-0.0681,0.08735,-0.16145,-0.05656,-0.04199,-0.27582,-0.19449,0.16281,0.37834,-0.10176,0.04284,-0.18191,0.1236,-0.04916],[-0.14415,-0.16532,0.11427,-0.22937,0.15652,-0.11797,-0.13631,-0.42474,0.1577,0.07497,0.12104,0.01902,0.18148,-0.13135,0.09935,-0.14577],[-0.05493,0.04964,-0.28338,0.23857,-0.14969,-0.19576,-0.02674,-0.00072,0.25624,-0.25238,0.21135,-0.13662,-0.16754,0.12827,-0.18212,-0.10904],[-0.176,0.2066,-0.05275,0.13628,0.20033,0.12895,-0.14574,-0.11416,0.06483,-0.23497,-0.22313,0.21904,0.14963,0.26529,-0.01733,0.12628],[-0.27464,0.23121,-0.01098,0.01017,-0.03002,-0.21846,0.06939,0.17038,-0.13732,-0.11941,-0.22417,-0.12248,-0.03821,0.11718,-0.03128,0.23382],[-0.13036,0.21115,0.02172,-0.25376,-0.04408,0.01088,0.12149,0.05965,0.15756,0.16137,-0.19241,0.26305,-0.08805,0.08828,-0.11982,0.15434],[-0.03397,0.02322,0.07647,0.28007,0.01501,-0.09727,0.29208,-0.01629,-0.10664,-0.04278,0.10126,0.07193,0.16952,0.1128,-0.13243,-0.1802],[0.18247,-0.06483,0.32045,-0.00083,0.18852,0.15505,-0.15083,-0.06739,-0.09391,-0.08053,-0.11038,-0.12459,-0.29982,-0.10363,0.15804,-0.0904],[-0.04261,0.16432,-0.01417,-0.16236,0.19324,-0.36252,-0.08267,0.37665,0.18084,-0.13095,-0.07034,-0.12994,-0.09777,0.13126,-0.01412,0.16354],[0.26728,-0.25203,-0.1801,0.07696,0.20462,0.01567,-0.29329,0.05717,-0.13666,0.22419,0.12989,-0.20673,-0.24439,0.1506,-0.05561,0.06494],[0.25929,0.27779,0.20435,-0.0662,0.25371,0.11869,-0.25798,-0.27227,0.07947,0.00543,0.0715,0.23494,-0.20265,-0.24368,-0.04009,-0.22842],[-0.19465,0.00112,0.18851,-0.10599,-0.06666,0.31261,-0.1732,-0.20641,-0.003,-0.14303,0.23079,0.03255,0.22749,0.17995,-0.23755,0.19704],[-0.01952,-0.03077,0.16463,-0.14214,-0.17903,-0.08178,-0.02044,0.03586,0.12527,0.01635,-0.07112,-0.15792,0.04681,0.0688,-0.00642,-0.15957],[-0.1658,-0.23203,0.03079,0.1361,-0.01936,-0.22348,0.10901,-0.04115,0.2249,0.09191,-0.21622,-0.10077,-0.23509,-0.05108,0.06851,0.07471],[0.22272,-0.00846,0.10798,-0.25823,0.10882,0.05873,-0.36606,0.13214,-0.20924,-0.08405,0.11898,-0.07819,0.27365,-0.14174,-0.04887,-0.18871],[0.07012,0.08884,-0.28782,-0.14695,0.08641,0.18884,0.15785,-0.0459,-0.0491,-0.02927,0.20845,-0.01662,-0.11432,-0.05277,0.09235,-0.14022],[-0.12099,-0.06648,0.0759,0.01032,0.24143,-0.23405,0.28938,0.13889,0.07015,-0.1233,0.18505,0.26742,0.12619,0.1157,0.06608,0.27587],[-0.03323,-0.1295,-0.00371,-0.00851,-0.30209,-0.00127,-0.18323,-0.15028,-0.13917,-0.00473,0.04633,-0.11041,0.02138,0.2256,0.25186,-0.11705],[0.13492,0.23112,-0.21363,0.12176,0.10996,-0.14088,-0.02883,-0.10223,0.0389,0.20032,0.00515,0.23513,0.12839,-0.14072,-0.07383,-0.10181],[0.31065,0.04211,0.00453,0.20591,0.19989,0.12528,0.18221,-0.15546,0.20174,-0.10943,0.21965,0.05306,0.08993,0.08294,-0.18327,0.12864],[-0.03268,-0.05082,0.12855,-0.23821,-0.05902,0.10049,-0.00784,0.09707,0.19935,-0.22224,0.09304,0.18586,-0.06906,-0.10456,0.33052,0.20751],[-0.04011,-0.11896,0.07579,0.29381,-0.12445,-0.07103,0.04831,0.09452,-0.20769,-0.21749,0.1616,0.08535,-0.08495,0.17976,0.02282,-0.15325],[0.21934,-0.10122,-0.2582,0.19083,-0.12096,-0.24117,-0.19586,0.2027,0.08472,-0.12054,0.22906,0.20844,-0.15189,0.00645,0.12595,-0.10928],[-0.20238,-0.06842,0.12033,-0.08274,-0.02508,-0.02509,-0.12912,0.20104,-0.20005,-0.23882,-0.0993,-0.01296,-0.25941,-0.03914,-0.03124,-0.2355],[-0.15645,0.37167,0.05428,0.0438,-0.18682,-0.14589,-0.11126,-0.26181,0.14762,-0.23907,0.11343,-0.25249,-0.11033,-0.06827,-0.23731,-0.08171],[0.05481,-0.12332,0.21871,0.06405,0.09592,0.09425,0.21563,0.15013,0.17156,-0.16134,0.08608,-0.0135,-0.23039,-0.14951,-0.25837,0.11739],[0.18212,-0.10374,0.33612,-0.02865,-0.20853,0.0737,-0.00873,-0.14662,0.10361,0.02081,-0.05974,0.23399,-0.03666,0.21283,-0.12715,0.09778],[-0.03637,-0.04001,-0.05987,0.0704,0.28584,0.06529,-0.15277,-0.11201,0.06217,0.03864,-0.20575,0.27125,0.27806,0.06089,0.11891,0.08841],[-0.0234,-0.25933,0.0054,0.18561,-0.02402,0.06856,-0.07303,-0.19826,-0.19238,-0.19991,-0.232,-0.18248,-0.23249,0.20121,-0.03613,-0.24792],[0.08915,-0.04925,-0.10947,-0.07079,0.22671,-0.17185,0.00613,0.05924,0.20199,-0.07023,0.01345,-0.15677,0.25487,-0.11204,0.28246,0.02558]],"blocks.0.attn.qkv.bias":[-0.16864,0.12475,0.07296,0.13254,0.0166,0.02644,0.05197,-0.13136,0.14794,-0.09386,-0.25457,-0.17572,0.08032,0.21658,0.09887,0.16261,-0.14259,-0.1395,0.20505,0.23952,-0.22364,-0.14281,0.11411,-0.03403,0.23395,-0.24331,0.13643,-0.20352,0.11041,0.09663,0.01099,-0.09647,-0.05838,0.20292,-0.07976,-0.1084,0.12428,0.17009,0.17534,-0.07218,-0.18815,-0.10611,0.03265,-0.17899,0.1975,-0.16069,0.20281,-0.20725],"blocks.0.attn.proj.weight":[[-0.24596,0.15844,-0.15867,-0.24492,0.05628,-0.18853,0.06575,0.06665,0.21171,0.06696,-0.19031,0.04877,0.15629,0.24984,-0.15723,-0.16392],[0.06919,-0.13096,-0.13892,0.17137,-0.2489,-0.01972,0.129,0.17847,-0.0018,-0.06314,-0.04391,0.07839,-0.09693,-0.14879,0.07717,-0.13252],[0.08662,0.11354,0.25385,0.15223,0.22733,0.12905,0.09083,-0.16647,0.03676,-0.0623,0.08179,-0.19643,0.07527,-0.26616,0.17028,-0.02233],[-0.14371,-0.05722,0.00279,-0.28138,0.12741,-0.02506,-0.20844,-0.24777,0.1738,-0.10292,-0.03767,-0.14606,0.10714,-0.1296,0.23252,-0.14048],[-0.12999,0.14533,0.03913,-0.07408,0.13922,-0.09304,0.04949,0.29801,-0.01452,-0.17807,-0.09518,-0.08096,0.01859,-0.05379,0.29716,-0.08537],[-0.06209,-0.16246,0.15043,0.1945,-0.17935,0.0515,0.1333,0.16369,-0.20665,0.03788,-0.10401,-0.0844,-0.15882,-0.13894,0.1652,-0.00866],[-0.04579,-0.01934,-0.028,-0.09747,0.10274,-0.16808,0.12238,-0.09105,-0.01419,-0.1862,-0.02441,0.24752,0.13426,0.22751,0.17126,0.10752],[0.10344,0.07867,-0.05513,0.08913,-0.11665,0.02665,0.07991,-0.11647,0.16653,0.11882,0.17508,-0.12006,0.21676,0.05824,0.11995,-0.30219],[0.18739,0.29226,-0.16007,0.10983,0.04846,0.19877,0.09804,0.21456,-0.07811,-0.13011,0.1954,0.17051,0.00484,0.01812,-0.16496,-0.08261],[0.25298,-0.22903,-0.32148,0.02069,-0.05837,0.07712,0.17413,0.0164,0.12417,0.25347,0.17469,0.07422,-0.15893,-0.11348,-0.06247,0.19288],[0.17658,-0.25249,0.1519,-0.18747,-0.0917,0.0027,0.07536,-0.22103,-0.15552,-0.20199,0.12739,0.05371,-0.08381,0.12386,0.20307,-0.19627],[-0.05681,0.10144,-0.08239,0.09384,0.21697,-0.1575,-0.1433,-0.19697,-0.13572,0.03174,-0.23899,0.18459,-0.21097,0.10889,-0.00388,0.00536],[-0.07607,-0.21435,-0.02045,-0.05263,-0.00698,-0.20147,-0.06074,0.04572,-0.20699,-0.09594,0.14924,0.15456,-0.07312,0.03325,-0.13138,-0.10071],[-0.21949,0.00711,-0.05128,-0.07895,0.17708,-0.16867,0.00934,-0.05845,0.26345,-0.25103,0.16537,-0.07905,-0.133,0.15146,0.12199,-0.00978],[0.26911,-0.12678,0.01617,0.05292,0.22208,-0.11651,-0.23387,0.03395,0.09727,-0.06505,-0.18981,0.27881,-0.0653,-0.09335,-0.20188,-0.17984],[0.05069,0.06379,0.0727,-0.08315,-0.16705,-0.02253,0.01848,0.04883,0.17907,-0.08444,-0.05502,-0.27051,0.14959,0.23834,0.02807,0.11083]],"blocks.0.attn.proj.bias":[0.21247,-0.2118,-0.27199,-0.10956,-0.02968,0.1321,0.04017,-0.10108,0.03739,0.21,0.11092,0.00713,0.00118,0.23325,-0.00064,-0.16662],"blocks.0.norm2.weight":[1.07139,1.0543,1.14547,1.08142,0.98766,1.01723,1.05232,1.01884,1.17532,1.04445,1.04641,1.06739,1.00662,1.09278,1.06049,0.99699],"blocks.0.norm2.bias":[-0.01294,0.04599,0.05908,-0.00838,0.00536,-0.03529,-0.00273,-0.02857,-0.08296,-0.02724,-0.00089,-0.05312,-0.00495,-0.00153,-0.01084,0.01719],"blocks.0.mlp.0.weight":[[-0.16757,-0.11217,-0.11407,-0.2979,-0.27512,-0.08247,-0.30539,-0.23942,-0.05583,0.08354,-0.13144,-0.01151,0.11043,0.24851,-0.02638,0.15569],[0.1119,0.17763,0.26981,-0.00347,-0.14749,-0.21792,0.18991,0.31631,0.17615,0.13463,-0.047,0.11079,-0.04317,0.06232,0.35442,-0.24759],[-0.13563,0.17413,0.17794,-0.06224,0.14438,0.10084,-0.33513,-0.00166,-0.16063,-0.09258,-0.1735,-0.21857,0.0002,0.08169,-0.01279,-0.1782],[0.02991,0.30591,-0.13197,-0.23494,0.13837,0.22069,-0.08262,-0.04515,0.14761,-0.00954,0.01064,-0.14124,0.13721,-0.30295,-0.08223,-0.17458],[-0.13169,-0.04191,-0.05292,0.10566,-0.18362,-0.01455,0.10207,-0.24144,0.09327,0.17633,-0.15178,0.26116,0.12911,-0.0784,-0.08664,-0.03039],[0.12934,-0.04462,-0.06837,0.0108,-0.03678,0.1729,0.10627,0.14862,0.16657,-0.10046,-0.03508,0.15162,-0.06942,-0.09255,0.14817,-0.09991],[-0.14317,0.08383,0.11845,0.2315,-0.1453,-0.00177,0.15037,0.00826,0.01679,0.03129,-0.0271,0.02853,0.29882,-0.15481,0.11142,-0.25479],[0.05848,-0.12645,-0.09201,0.05373,-0.03966,0.11111,-0.11586,-0.08814,-0.01972,-0.0692,-0.2644,0.1027,-0.14187,0.25533,0.01614,-0.19996],[-0.17965,-0.12679,-0.09833,-0.00088,0.04061,-0.20395,-0.2077,-0.15773,0.02891,-0.19819,-0.16655,0.06986,-0.24396,-0.20785,0.16286,-0.15117],[-0.29676,0.13775,0.41371,-0.10496,-0.25466,-0.15658,0.03017,0.30857,-0.49406,-0.40153,0.16267,-0.0256,-0.04305,0.15508,0.33811,0.0595],[0.03084,-0.00783,-0.13302,0.42346,0.16676,-0.19088,-0.19338,-0.01599,0.14326,0.01558,0.21099,-0.20177,-0.01448,0.20157,-0.18355,-0.04653],[-0.12773,0.24239,-0.13552,0.12458,-0.1476,0.02839,-0.15382,0.14042,0.09005,-0.1799,0.02153,0.09241,0.01116,-0.24197,0.02755,-0.0241],[-0.0516,-0.04077,-0.06432,0.17034,0.0002,-0.00587,0.17098,0.01565,0.20385,0.23752,-0.10971,0.02906,0.16311,-0.17869,-0.09887,-0.23228],[0.21944,-0.06287,0.35935,-0.28611,-0.03125,-0.43072,0.0937,-0.19555,-0.23799,0.25443,-0.22164,0.36958,0.05561,0.20497,0.02792,-4e-05],[-0.16695,0.1789,0.11872,-0.0532,-0.07019,0.03586,0.26805,-0.16964,-0.26483,0.06414,-0.03906,-0.01896,0.46451,-0.11407,-0.19773,-0.15802],[-0.24771,0.21268,0.05416,-0.18508,0.09366,-0.13951,0.38007,-0.26452,-0.15298,0.16726,-0.16038,0.10493,-0.23972,0.2214,-0.16616,-0.16286],[-0.11796,0.0488,0.15731,0.03914,-0.10954,-0.30481,0.12728,-0.10063,0.25609,-0.30468,-0.25347,-0.27202,-0.1107,0.06245,-0.23634,0.24624],[-0.19326,0.0822,-0.0165,0.02413,0.1372,-0.20522,0.13664,0.11906,0.03067,0.21949,0.06757,-0.17531,-0.07741,0.03551,-0.24462,-0.10644],[-0.38297,-0.11437,-0.11544,-0.16054,0.03529,-0.26388,-0.13964,-0.27764,-0.34619,0.20984,-0.01748,0.02192,-0.00924,0.02069,0.39685,-0.05729],[0.03843,0.05975,-0.06389,0.20013,-0.08559,0.24081,0.03329,0.22646,0.15661,0.16919,0.21439,0.07122,-0.19545,-0.37775,0.23659,-0.01516],[0.20905,0.15626,0.17048,0.12628,0.23264,-0.1701,0.12646,0.10535,0.00729,-0.18096,-0.22186,0.04591,0.00146,0.17469,-0.13071,0.19228],[-3e-05,-0.02493,-0.04714,0.18378,0.10981,0.03155,-0.00034,-0.01206,-0.16275,-0.01097,0.22024,0.16688,0.02423,0.06442,0.07825,-0.18595],[0.06831,0.16044,-0.16411,-0.00633,0.15064,0.23194,-0.01288,0.11413,-0.09133,0.04292,0.04744,-0.13702,-0.03037,-0.14138,0.0665,-0.2127],[0.13264,0.22849,0.16395,-0.27064,-0.12128,0.03727,0.0876,0.19702,-0.30661,0.08659,-0.13484,0.35209,-0.23099,-0.26813,-0.14527,0.09677],[0.184,-0.19087,-0.04527,-0.2061,-0.03363,0.14626,0.23172,-0.0933,0.07169,0.11138,0.07981,0.26664,0.27988,-0.06974,0.26483,0.23815],[0.09867,0.1491,-0.05211,0.17478,0.06257,-0.20656,-0.2641,-0.11365,0.30526,-0.15996,-0.14153,0.23302,-0.13836,0.03432,0.23178,-0.16649],[-0.08364,-0.04604,0.06428,-0.20301,-0.24311,0.02252,0.17601,0.13063,0.29519,-0.08114,0.17041,0.07667,0.0413,-0.04166,-0.08263,-0.15337],[-0.34107,0.25675,-0.23097,-0.12714,-0.16619,-0.11571,0.25336,-0.23553,-0.19759,0.18747,-0.18244,-0.07946,-0.01105,0.0569,-0.2342,0.35738],[-0.09191,-0.20305,0.40022,-0.1743,0.20145,0.09564,-0.00226,0.2076,-0.34468,-0.21282,-0.07655,-0.27739,-0.1954,-0.157,0.22484,0.15931],[-0.19324,-0.08595,-0.41549,0.0851,-0.02508,-0.35512,-0.02833,0.18532,0.2366,0.02054,0.0027,0.27408,0.02961,-0.15172,0.40204,0.21301],[-0.16679,-0.12261,0.36115,-0.09464,-0.08866,0.19914,0.18192,0.00584,-0.20791,-0.22884,-0.16425,-0.08227,-0.10002,-0.03228,-0.16629,0.26775],[0.07515,0.1513,-0.18428,0.14937,-0.15143,-0.0933,-0.13708,0.23074,0.08563,-0.12414,0.18378,-0.13074,0.24268,-0.17609,0.12179,-0.21506]],"blocks.0.mlp.0.bias":[-0.07427,-0.24106,0.08659,-0.27507,0.10518,-0.00272,0.07323,-0.05137,0.26122,-0.11366,-0.24207,0.01973,-0.05362,-0.13762,-0.14905,-0.22688,-0.09052,-0.16371,-0.16797,-0.25186,0.18187,0.22925,-0.16251,0.08433,-0.1534,-0.10072,0.19225,-0.14527,0.20602,0.15516,0.06315,-0.14359],"blocks.0.mlp.2.weight":[[0.02155,-0.14085,0.00967,-0.01125,-0.20842,-0.06037,-0.17909,-0.19235,-0.07324,-0.16012,0.04522,-0.02471,-0.13198,-0.24245,-0.00935,0.02429,0.08174,0.22213,-0.05596,0.05913,0.12981,-0.03839,0.10842,0.02168,0.08094,0.06718,-0.12892,0.08099,0.00182,-0.25421,-0.02087,0.04373],[-0.06355,-0.0179,0.21924,-0.1259,-0.10763,0.09157,-0.16551,0.10956,0.20402,-0.00515,0.028,0.06596,0.04048,0.01091,-0.28503,0.02098,-0.01264,-0.04924,0.05574,-0.00162,-0.09935,0.00961,0.03028,-0.18869,-0.06293,0.08336,0.08704,-0.13173,0.09028,-0.0884,0.09351,-0.21729],[0.26127,0.11655,0.01142,-0.09871,0.12764,0.02134,0.0391,-0.22127,0.12442,-0.3358,-0.19841,0.0772,-0.01427,-0.07218,0.0977,0.06339,0.13019,-0.01114,0.01661,0.20032,-0.0416,-0.1377,-0.02297,-0.03497,0.10187,0.0133,0.07657,0.29728,0.02154,-0.11966,-0.09466,0.08792],[-0.04056,0.03724,0.07727,0.00669,-0.02084,-0.08237,0.05424,-0.11762,0.08179,0.15985,-0.1524,0.09901,0.08067,0.32684,0.02171,-0.176,0.08463,-0.05742,-0.14944,0.04433,-0.0354,0.13434,0.06168,0.0893,-0.08516,-0.09158,0.15208,0.13892,-0.03665,-0.02561,-0.03261,-0.04201],[-0.02347,-0.04488,-0.04918,-0.1804,-0.01081,-0.16015,-0.02114,0.01702,0.00102,-0.20113,0.1795,-0.19385,0.17116,0.16624,-0.03,-0.0674,-0.12566,-0.00993,-0.16088,-0.02315,0.1348,0.06194,-0.07373,-0.12958,-0.02607,-0.0554,0.15447,0.07958,8e-05,0.10435,-0.08945,-0.2725],[0.10271,-0.1172,0.02596,-0.01939,-0.0541,0.1312,0.00945,0.12568,-0.15684,0.1846,-0.07618,-0.09276,-0.02215,-0.11247,-0.18198,-0.18948,0.21613,0.01861,0.08183,-0.03676,-0.16919,-0.06901,-0.0249,-0.07836,0.02475,0.06748,0.04228,-0.01566,0.21979,-0.01042,-0.1999,0.0248],[-0.05253,0.24727,-0.04714,0.02329,-0.03681,0.00794,-0.13449,-0.02279,0.13471,0.00205,0.01353,-0.0152,-0.00347,-0.05754,0.19572,-0.00471,-0.05004,-0.13974,0.05473,0.04758,0.27017,-0.17026,0.01121,-0.00869,-0.16955,-0.11368,0.01074,0.08862,0.12597,0.25148,0.1043,-0.07395],[0.05205,-0.0979,-0.30057,-0.24339,-0.00219,0.06206,0.13272,0.09464,-0.04116,-0.1125,-0.00371,-0.01422,0.15312,-0.21795,0.01419,-0.08776,-0.06552,0.00499,-0.02569,0.03494,-0.05236,0.10659,-0.07519,0.2138,-0.02856,-0.02324,-0.06066,0.05664,0.00105,0.10731,0.20833,0.08825],[-0.07399,-0.00533,0.1815,0.06584,0.09258,0.13633,-0.15406,0.17179,0.00141,-0.14567,0.03534,-0.01766,-0.03345,0.13803,-0.07527,-0.00795,-0.22851,-0.06884,0.09422,0.10065,-0.11356,-0.13024,0.0118,0.00271,0.00969,-0.15126,-0.06517,-0.25892,-0.16775,0.17597,-0.12257,0.02847],[-0.08013,-0.08877,-0.0534,0.07612,-0.19451,0.0466,0.026,-0.1373,0.08029,-0.1104,0.25163,-0.03681,0.04183,-0.16334,0.06857,0.19215,0.28211,0.08361,0.1239,0.13363,0.00204,0.12561,-0.12269,-0.04547,-0.1389,0.25283,-0.11982,0.10369,0.10571,0.04773,-0.02219,0.13289],[0.11461,-0.11084,-0.19092,0.10234,-0.04711,0.11931,-0.07698,-0.00209,-0.16171,-0.05566,0.113,-0.04395,-0.08941,-0.12382,0.12701,0.02576,-0.09754,-0.19233,-0.31898,-0.11359,0.24003,-0.06351,-0.1235,-0.03704,-0.06227,-0.15761,-0.04976,0.01196,-0.37216,-0.00794,-0.09775,-0.02877],[0.06123,0.17211,-0.07372,-0.04828,-0.18362,-0.01998,-0.14808,-0.08364,0.06746,-0.16427,0.04245,0.10805,-0.01916,-0.04152,-0.10176,-0.02646,0.10387,0.07668,-0.11085,-0.12276,0.03213,-0.14942,-0.11895,-0.02992,-0.12151,0.01645,0.04305,0.06853,-0.03622,0.01737,0.12366,-0.07748],[0.27385,-0.07379,-0.11565,0.04861,0.00895,-0.00576,-0.01227,-0.05505,-0.13487,0.20376,-0.02851,-0.02577,0.13924,-0.10435,0.099,0.08444,-0.09206,-0.01529,-0.03375,0.0702,-0.01207,-0.12178,0.19545,0.03798,0.15429,0.01834,0.23865,-0.00194,-0.08255,0.07233,-0.25688,0.04761],[-0.20456,-0.17775,0.07047,0.08503,-0.04173,-0.01592,0.24877,0.07822,-0.05738,-0.03137,0.02297,-0.09845,0.01342,0.14328,0.16659,-0.22638,-0.10432,-0.13157,0.05695,-0.04717,-0.11275,-0.03162,0.1558,0.05525,0.28603,0.1165,-0.16188,-0.13916,-0.0188,0.3299,0.17569,0.13793],[-0.08095,-0.3078,-0.15085,0.02374,0.08649,0.12445,0.01811,0.08729,0.10889,0.05805,0.03711,-0.16357,-0.03204,-0.12188,-0.25201,0.33245,-0.0629,-0.1612,-0.00433,-0.12451,0.07113,0.08619,0.03259,0.12203,-0.09015,0.07109,0.15677,0.05823,0.01273,0.13514,0.10181,0.06117],[-0.13117,0.17238,0.02332,0.12656,0.15189,-0.1207,0.23617,-0.08995,0.06773,0.27519,-0.11076,0.01566,-0.023,0.08895,0.19545,-0.06779,-0.01941,-0.03819,0.10799,-0.14675,-0.05419,0.12503,0.01527,-0.2427,-0.04009,0.05446,-0.07658,0.20327,0.06997,0.17078,0.017,0.13698]],"blocks.0.mlp.2.bias":[-0.08318,0.07115,0.13468,-0.07416,-0.05754,-0.14289,0.13447,-0.04448,-0.15793,0.0521,0.13935,-0.15768,-0.01196,0.01421,-0.02943,-0.12733],"blocks.1.norm1.weight":[1.00993,1.02213,1.08854,0.99377,1.05607,1.00507,1.07181,1.14139,1.09136,1.14176,1.09465,1.02099,1.12486,1.17785,1.10007,1.047],"blocks.1.norm1.bias":[0.00966,-0.00454,-0.06372,0.04675,-0.04118,-0.01899,-0.00751,-0.05133,0.03172,0.01991,-0.02527,0.00396,0.01493,-0.0136,0.03761,-0.00963],"blocks.1.attn.qkv.weight":[[0.059,0.08543,-0.19445,0.0429,-0.29064,0.32224,-0.12427,-0.09114,-0.21523,-0.22038,0.21312,0.3016,-0.11896,0.19968,-0.04225,-0.16462],[-0.1234,-0.18079,-0.1433,0.04714,0.08806,0.11929,-0.3647,0.04433,-0.1644,-0.35975,-0.27211,-0.1408,-0.02989,-0.167,-0.24985,0.23651],[0.14138,0.04886,-0.2034,0.11494,-0.03545,0.0648,0.16318,-0.04951,-0.06834,-0.08453,0.24005,-0.27967,0.25782,0.35154,0.16419,-0.22665],[-0.11983,-0.17705,0.20647,0.00724,-0.02634,0.27947,0.11052,0.11989,-0.19384,-0.19776,0.00023,0.25367,0.31882,-0.00776,-0.17167,0.09485],[-0.25497,-0.1346,-0.08966,-0.22569,0.21587,-0.16652,0.12771,-0.06537,-0.15905,0.3127,-0.00969,-0.24506,-0.28326,-0.08205,0.24226,-0.24452],[0.30411,0.21207,0.1197,0.18589,-0.00909,0.11726,0.15261,0.08063,0.07648,0.02021,-0.08907,-0.22516,-0.17754,0.06813,0.29505,-0.00598],[-0.14842,-0.08328,0.17858,0.28732,-0.19994,0.06898,-0.05763,-0.24317,-0.06119,0.15837,0.18547,-0.22746,-0.05564,-0.06493,-0.01559,-0.15414],[-0.05134,-0.26765,-0.13192,0.0909,-0.17703,-0.16788,0.19767,0.09488,0.21974,0.16286,-0.0079,-0.24786,0.29657,0.23701,-0.24398,-0.04116],[-0.24369,-0.09256,0.22198,0.00841,0.12917,0.05043,0.13683,-0.34943,0.02252,0.00756,0.05993,-0.03908,-0.03373,0.24587,-0.05297,0.19011],[0.17585,0.06945,-0.05298,0.19902,0.00841,0.05777,-0.24224,0.30378,-0.06253,0.17487,-0.26507,0.03717,0.07942,0.25794,0.09236,0.26347],[0.08086,0.13268,0.12282,-0.29006,-0.24924,0.14585,0.00938,-0.24618,0.09284,0.10725,0.02332,-0.21715,0.08961,-0.15534,-0.00442,0.1172],[0.15241,0.1356,-0.01866,-0.01982,0.24104,-0.21231,-0.15666,0.09242,0.27095,0.03957,-0.25842,0.17282,-0.28444,-0.05786,-0.16046,-0.10308],[0.05334,-0.22315,-0.11443,0.04388,-0.05608,0.0982,-0.04237,0.1353,0.02599,0.22667,0.39036,-0.04448,-0.06875,-0.3038,-0.03272,-0.26423],[-0.14735,0.06065,0.05505,0.14244,0.03999,0.30324,-0.23389,-0.25369,-0.13531,-0.16712,0.28354,0.01741,0.17767,0.23927,-0.05474,-0.19365],[-0.29907,-0.07416,-0.17744,0.00073,0.16045,-0.08781,-0.12277,0.15624,-0.18833,0.1119,0.17307,0.03299,-0.2677,0.14166,0.0876,0.00779],[-0.05967,0.33282,-0.0141,-0.02612,-0.18167,-0.00834,0.09199,0.12982,-0.09124,0.0559,0.3451,-0.32604,0.08037,-0.16227,0.06386,0.12021],[0.1103,-0.23252,-0.09675,0.07181,0.18571,0.20928,0.12939,-0.26684,0.11908,-0.09419,-0.18085,-0.00669,-0.02868,-0.08886,-0.08981,-0.00045],[-0.14872,-0.10232,-0.07582,0.01574,0.06946,0.27571,-0.12491,-0.25295,-0.25353,-0.05026,-0.05992,-0.13972,0.08963,0.09896,0.2428,0.20507],[-0.09759,0.2963,0.2431,0.14283,0.22088,0.03018,0.23206,0.03261,0.31495,-0.12918,0.21121,-0.04024,0.07603,-0.2734,-0.20916,0.15895],[-0.05095,0.18714,0.12965,-0.00888,-0.05722,-0.16698,0.061,-0.10181,-0.15413,-0.03444,-0.41632,0.29373,0.20744,0.3407,-0.05898,-0.20094],[0.17649,-0.02663,0.26035,-0.25839,0.24761,-0.29957,0.09697,0.1118,0.29896,-0.31863,-0.27753,0.14374,0.12441,0.2739,0.04249,0.05144],[-0.045,-0.3193,-0.03165,-0.08823,-0.09779,0.00059,-0.03552,-0.29831,0.23489,0.08372,0.03671,0.1639,0.09862,-0.131,0.14573,0.19621],[-0.10707,0.08411,-0.25454,-0.16118,0.08906,0.01389,-0.27664,0.13672,0.24033,0.06811,-0.13613,-0.12236,0.2304,0.11421,-0.12975,-0.05139],[-0.11815,0.1801,-0.08967,0.01659,0.21918,0.03223,0.13854,-0.18717,0.09777,-0.12609,-0.31979,-0.16049,-0.0826,0.27654,-0.27851,0.26354],[-0.08654,0.10209,0.07168,0.12873,-0.0902,0.31415,0.31841,0.10938,-0.09977,-0.47714,0.22855,-0.20136,0.19912,-0.06248,-0.22214,0.17554],[-0.07949,0.35171,-0.17115,-0.14486,0.15066,0.28865,0.36947,-0.09964,0.15965,0.13906,-0.20157,0.08898,-0.16399,0.10214,-0.12808,0.04039],[0.16301,-0.09819,0.19311,-0.27944,-0.04772,0.21103,-0.04202,0.03056,0.15399,0.04696,0.08983,-0.07909,0.13034,0.28828,0.08591,-0.05416],[-0.30255,-0.27195,-0.2618,0.0262,-0.1553,-0.00239,-0.15928,-0.15771,-0.12299,0.04017,-0.14788,0.15764,0.10913,0.01356,-0.18942,0.17618],[0.02472,0.00192,-0.21138,0.29765,0.00753,-0.13543,-0.2327,-0.06543,0.1516,-0.09118,0.11154,-0.03233,0.20768,-0.04272,-0.03498,0.19281],[0.09658,-0.11398,-0.22518,0.0078,-0.25816,-0.08121,-0.30694,-0.12357,-0.07735,-0.04061,0.08104,0.06063,-0.23316,0.32719,0.09735,0.11296],[0.27136,-0.13669,-0.25988,-0.03545,0.22332,0.37669,0.02748,-0.15455,-0.02925,0.06829,-0.02441,-0.01054,0.34495,0.08383,0.09597,0.09875],[-0.24391,0.00805,-0.31646,0.03045,-0.33577,-0.10549,0.00511,0.11058,-0.21904,0.04635,-0.04113,0.04887,0.2531,0.07098,-0.28964,-0.00474],[-0.07879,-0.14454,-0.09309,-0.18409,-0.1895,-0.1378,0.15064,0.29601,0.23724,-0.0025,0.14162,-0.06112,0.16274,0.01538,0.45372,-0.0864],[0.19507,-0.24783,0.28226,-0.18423,0.04718,-0.06828,0.19883,0.00296,-0.16887,0.02118,0.30317,-0.15927,-0.26713,0.03808,0.03599,-0.0147],[0.11518,-0.06997,-0.13165,0.12636,0.01363,-0.27703,-0.25194,-0.09765,0.0388,-0.14124,-0.13436,0.11763,-0.07952,0.06071,0.19117,-0.07561],[-0.06528,-0.02227,0.16639,-0.1483,-0.21429,0.06611,0.10854,0.0868,0.28379,0.15455,0.01718,0.15836,-0.0208,-0.01756,0.39632,-0.14695],[0.11432,0.05349,-0.05621,0.14292,-0.06912,-0.14396,-0.01195,-0.03608,-0.12994,0.13628,0.35375,-0.03738,0.06649,-0.49512,0.08185,0.12398],[-0.23719,-0.16939,-0.00508,-0.10171,-0.09992,0.04118,-0.20677,0.10085,0.10923,-0.26735,-0.03227,-0.08175,0.16336,-0.12038,0.023,-0.08979],[-0.01118,0.05173,0.0985,0.02446,0.32602,-0.12533,-0.20039,-0.17331,-0.01198,-0.03549,-0.07027,-0.08001,0.12226,-0.19674,0.17995,-0.16745],[0.10139,0.15051,0.32439,-0.18263,0.11699,0.13686,-0.22447,0.1665,0.10848,0.08147,0.08846,-0.15435,-0.21941,-0.30533,0.08804,-0.05336],[0.23001,-0.12784,0.00283,-0.17798,-0.1284,0.27189,-0.17649,-0.19727,0.23077,0.22059,-0.0918,0.00307,-0.10833,-0.02905,0.10439,-0.26839],[-0.16882,0.00383,-0.27002,0.06134,0.2032,-0.12247,-0.05425,-0.03879,0.07033,0.30299,-0.24536,-0.01151,0.19834,0.09303,0.1303,0.23714],[0.05525,0.11101,-0.11168,0.03174,-0.05529,-0.21204,-0.09428,-0.18257,0.21801,0.21763,-0.0791,0.06505,0.06644,-0.00471,-0.24606,0.16759],[-0.07585,-0.25418,-0.16862,0.2829,-0.10259,0.10922,0.0422,-0.25235,-0.14097,0.17748,0.15387,-0.139,0.27896,0.16543,0.27089,0.02752],[-0.19308,0.05782,-0.07841,0.15147,0.12295,-0.0979,0.05853,0.35738,0.00067,-0.1888,0.22114,-0.209,-0.06805,0.15094,-0.14957,0.14865],[0.15005,-0.11062,-0.21222,0.13483,-0.25978,0.07051,0.21331,0.08242,0.07397,0.26534,-0.16593,-0.04589,0.08474,-0.13148,0.15981,-0.26557],[-0.1246,-0.04421,-0.1115,-0.17073,-0.04246,-0.0324,-0.17957,-0.07631,0.06093,0.18652,0.06507,0.08113,0.1018,-0.02276,-0.21612,0.00145],[0.1131,0.086,-0.18293,-0.23369,-0.03303,-0.24544,-0.01636,0.09266,-0.01059,0.10279,0.1086,0.17225,0.26786,0.10244,-0.20468,-0.25183]],"blocks.1.attn.qkv.bias":[-0.10068,0.01701,0.13675,-0.10555,0.37276,-0.15994,0.21003,-0.03225,-0.11844,0.15626,0.15693,0.17278,0.27908,0.30516,0.32215,0.12768,-0.07723,0.21291,-0.06302,-0.03233,0.11153,0.22447,-0.18094,0.0351,0.02803,0.24408,0.17915,-0.02583,0.25351,-0.1752,0.23392,0.24935,-0.06532,-0.21603,0.23556,0.16454,0.19002,0.25564,0.13873,-0.16021,-0.03118,-0.12793,0.03637,-0.14695,0.16117,0.01269,-0.10915,0.15511],"blocks.1.attn.proj.weight":[[0.17128,0.0166,0.11179,0.09739,-0.11515,-0.06118,0.23686,0.14269,-0.32372,-0.16187,-0.13648,0.19829,-0.29168,0.20076,0.08601,0.28192],[0.17348,0.04334,0.01902,-0.16972,-0.2163,0.03921,0.18476,-0.04582,0.28211,0.24798,-0.05049,0.15156,-0.18355,0.11839,-0.24183,-0.16107],[0.04454,0.11242,-0.05149,-0.22843,-0.18593,0.05375,-0.10328,0.07046,0.09614,-0.19007,0.00528,-0.28883,0.0512,-0.29183,0.22039,0.11095],[0.01857,-0.0701,0.0056,-0.27436,-0.20154,-0.16067,-0.25258,-0.04778,-0.18953,0.123,0.11302,-0.06517,0.09885,0.21652,0.15747,-0.17136],[-0.09273,0.01971,0.12445,-0.06083,0.2281,0.1071,-0.02696,-0.11855,0.05284,-0.09669,0.02026,0.21253,-0.10006,-0.0294,0.19172,0.10975],[0.07516,-0.16216,0.02066,0.05442,0.16313,-0.26247,-0.09069,-0.32384,0.15603,0.17211,0.11881,0.00623,-0.00553,-0.24005,-0.01039,-0.09303],[0.25467,0.22956,0.04307,-0.10816,0.24093,-0.10854,0.03006,0.27299,-0.048,-0.13957,-0.01097,0.13142,0.06406,-0.06909,-0.29599,-0.20552],[-0.07457,0.16862,-0.16733,0.10476,-0.08567,-0.03815,-0.04356,0.12651,-0.02652,0.19017,-0.16309,0.01328,-0.06839,0.12373,-0.16501,-0.03012],[-0.14022,0.00973,-0.13346,0.14625,-0.28087,-0.07378,0.14403,0.13363,-0.10573,-0.05796,0.16801,-0.2246,0.07281,0.15324,0.20736,0.00973],[0.05256,-0.38205,0.1938,0.32786,0.01805,-0.0508,-0.1792,-0.06422,-0.09491,-0.02375,-0.18107,-0.00102,-0.28609,0.22934,0.04321,-0.18884],[0.25232,0.11282,0.06861,0.18589,-0.20651,0.1043,-0.21947,-0.10561,-0.17589,0.18864,0.29224,-0.14615,-0.14026,0.03874,-0.03627,-0.18721],[-0.22879,0.06671,0.26329,-0.2399,-0.32235,0.05843,-0.17011,-0.19619,-0.05347,-0.17589,0.15475,0.09427,-0.19562,0.05299,-0.03784,0.18882],[0.16824,0.1467,-0.09132,0.07113,-0.34221,0.02605,0.21595,-0.16448,0.14272,-0.1291,0.17142,-0.19218,0.02796,0.03773,-0.24089,-0.05434],[-0.09526,0.02231,-0.09664,0.12505,0.03904,-0.25607,-0.18579,0.17902,0.20901,-0.14794,0.17713,-0.08348,-0.2661,-0.32316,0.00513,0.26372],[0.01622,0.24242,-0.09624,0.05707,-0.00413,-0.01183,0.25179,0.02102,-0.1033,-0.12459,-0.11752,-0.03031,-0.22151,-0.25666,-0.13217,-0.02037],[0.22533,0.00167,0.06434,0.05088,-0.12287,0.11886,0.04829,-0.1055,0.25037,0.16121,0.22343,0.23934,0.19937,0.19067,-0.18199,0.21615]],"blocks.1.attn.proj.bias":[0.03145,-0.07999,0.09888,-0.02859,0.14252,0.17896,0.13318,0.17061,-0.18723,-0.07686,0.04047,0.14776,-0.20924,0.10431,-0.06386,0.24772],"blocks.1.norm2.weight":[1.15549,1.11172,1.15813,1.08083,1.1144,1.14894,1.15288,1.10365,0.96628,1.11115,1.17839,1.17858,1.06689,1.23455,1.09623,1.12439],"blocks.1.norm2.bias":[0.01057,0.01716,-0.04444,0.00509,-0.06002,0.08184,-0.07682,0.04915,-0.06976,0.04583,0.04201,-0.02834,-0.07728,-0.01819,-0.07272,-0.00993],"blocks.1.mlp.0.weight":[[0.00561,-0.11745,0.05167,-0.33454,-0.17468,0.18035,-0.0751,-0.15084,0.07119,-0.16448,-0.22385,-0.15905,0.21569,0.25476,-0.07779,-0.2503],[-0.17696,0.19088,0.16764,0.20011,0.08553,-0.02344,-0.19471,0.07836,0.18237,-0.31937,-0.27193,-0.00187,0.01667,-0.28686,0.08967,-0.14404],[0.24983,0.02868,-0.06925,0.06523,0.09985,0.2604,0.16951,-0.01661,-0.27142,0.02956,-0.2004,-0.2385,0.19263,0.00314,-0.30981,0.11098],[-0.28389,0.32193,0.16654,0.16449,0.08365,-0.13151,-0.08662,-0.08068,-0.12058,-0.17946,-0.11027,0.38069,0.18358,-0.23852,0.23417,0.00676],[0.06759,0.21098,0.01622,0.0473,0.15512,0.02843,-0.04457,0.19282,-0.10216,-0.01754,0.38899,0.23287,0.05234,-0.33054,0.1351,0.18431],[0.25227,-0.21889,0.02364,0.09588,0.24971,0.13423,-0.26442,-0.21833,0.04202,0.1123,-0.01418,-0.1739,0.21228,0.18556,-0.01587,0.09267],[-0.05756,0.00855,-0.18637,-0.08679,0.16946,0.14238,-0.10164,0.13343,-0.01517,-0.03182,0.11165,0.18436,-0.16458,-0.00437,-0.06579,-0.28398],[-0.11439,-0.34223,-0.12777,-0.00385,0.06505,-0.04031,0.17993,-0.28823,0.1883,-0.12303,0.00204,0.205,0.00675,-0.06188,0.06925,0.17246],[-0.07238,0.19646,0.05538,-0.19938,-0.21111,0.12416,0.21803,-0.16897,-0.00476,-0.18488,-0.18279,0.1741,0.02092,0.38133,0.09861,-0.14181],[0.0301,-0.17945,0.11701,0.15245,0.19324,-0.0208,-0.33466,0.08897,0.15188,0.25877,0.22091,0.39337,-0.18197,-0.21966,-0.32051,-0.27612],[-0.1917,-0.22216,0.04781,0.4269,-0.35602,0.14305,0.20651,0.12167,0.13429,-0.07587,0.16984,-0.28782,-0.03058,-0.0535,-0.00098,-0.01489],[-0.17004,-0.22425,0.37011,-0.00896,-0.32101,-0.13751,-0.20754,0.06347,0.03576,-0.10482,0.22211,0.25295,0.07057,-0.28985,-0.29201,-0.1261],[0.28271,0.02222,-0.09569,-0.16919,0.0725,-0.17948,0.24701,-0.2807,-0.02079,-0.16066,-0.06146,-0.14557,0.15667,0.21186,-0.13461,-0.34191],[0.23493,-0.0773,-0.10127,-0.02606,0.12606,0.18338,-0.11492,0.11124,-0.16015,-0.02043,0.16049,0.00368,0.14103,0.12505,-0.2098,0.06877],[0.35108,-0.13254,0.31404,-0.08703,0.00514,-0.04449,-0.15111,-0.37044,0.234,-0.24441,-0.13517,0.27089,0.28444,0.08009,-0.02468,0.15702],[-0.21424,0.1905,0.19533,0.05134,-0.15398,0.42746,-0.3105,-0.09112,-0.12975,0.17052,0.21597,-0.03779,0.01601,-0.1669,-0.2302,0.0467],[0.29307,-0.26322,0.09595,0.37508,-0.02718,-0.12049,-0.34055,0.02647,-0.35612,-0.04488,0.01462,0.1735,-0.00786,-0.14353,-0.32123,0.14034],[0.22235,0.23715,-0.02685,-0.13002,-0.20969,0.01524,0.11062,-0.15672,0.35399,0.34624,0.07901,0.31777,-0.02996,-0.16601,0.03614,-0.28179],[-0.00564,-0.00262,0.1377,0.12509,0.18652,-0.3386,0.09208,-0.15215,0.22578,-0.12795,0.19561,0.01841,-0.18597,0.22842,0.16233,-0.1955],[0.16593,-0.04843,-0.12123,0.12983,-0.38393,-0.60291,-0.14181,-0.00343,0.21728,0.09856,-0.25291,-0.04562,0.19058,0.08319,-0.00725,-0.02023],[-0.03772,-0.07041,0.01386,-0.27358,-0.01394,0.37115,0.22888,-0.23926,-0.06967,0.24877,0.12557,0.24324,0.05943,-0.06848,-0.29793,-0.16151],[0.01263,-0.00304,0.02629,-0.13263,-0.13612,0.05063,-0.24242,0.1667,-0.02612,0.24491,-0.02498,-0.07306,0.17103,0.25429,0.02972,-0.02006],[-0.01298,0.11017,-0.12076,-0.07843,0.25581,-0.09838,-0.15701,-0.28715,0.01013,0.31279,0.31266,-0.19443,-0.15456,-0.05581,0.02539,0.13445],[-0.05862,-0.07842,0.11052,0.19573,0.27348,-0.11251,-0.12007,0.0218,-0.1087,-0.28374,-0.15173,-0.01239,0.35817,-0.13748,0.29709,-0.09713],[-0.0307,-0.18378,0.10415,-0.32263,-0.06974,0.04146,0.22666,-0.15685,0.0314,-0.10544,0.09306,-0.18236,-0.10301,0.00364,-0.01197,0.25354],[0.08155,0.04489,0.39895,0.21128,-0.30955,-0.28738,-0.08756,-0.14169,0.04765,-0.17948,-0.04747,-0.09834,0.22889,-0.15751,-0.13432,0.20547],[-0.23649,0.00512,-0.26734,0.09728,-0.1899,0.17261,0.23459,-0.15536,0.13944,-0.28531,0.36817,-0.07446,0.24668,-0.17009,-0.28594,0.09768],[-0.35596,-0.19022,0.35865,0.25195,0.09469,-0.11025,0.20421,-0.35028,0.15646,-0.1418,-0.3215,0.09358,0.05037,0.12298,0.32189,0.12728],[0.0621,-0.31906,0.23279,0.15783,0.07171,0.05037,0.30619,-0.2405,-0.24037,0.24361,0.01984,-0.07376,-0.1606,0.15247,0.11168,0.06387],[0.30307,-0.1681,0.2244,-0.21762,-0.15334,-0.08501,0.19192,0.02911,-0.32454,0.11599,-0.12946,0.30324,0.01028,-0.39352,-0.08778,-0.15717],[-0.19765,0.28009,-0.08789,0.13502,-0.05622,0.25203,-0.22094,-0.14777,-0.02152,0.22827,-0.25712,0.04786,-0.15388,0.18579,0.14505,-0.11577],[-0.12202,-0.19865,0.1885,-0.24495,0.183,-0.04932,0.22288,-0.09117,0.29655,0.16232,0.01104,-0.07862,0.01506,-0.17965,-0.03091,-0.21031]],"blocks.1.mlp.0.bias":[-0.06404,-0.07865,-0.17138,-0.27937,0.09858,0.22759,-0.03047,0.19372,-0.00649,-0.25413,-0.28648,-0.22275,0.04816,0.16306,0.00641,0.0112,-0.10819,0.07694,0.11962,0.10336,0.11967,-0.22717,0.00534,0.16105,0.22156,-0.05281,0.00786,-0.23846,0.1642,0.08647,-0.13884,0.17808],"blocks.1.mlp.2.weight":[[-0.05085,-0.0023,-0.19099,0.0754,0.0461,-0.20677,-0.09424,-0.01045,0.05604,-0.01637,-0.327,0.03527,-0.01074,-0.04296,-0.1542,0.42382,0.06805,0.26486,0.07758,0.19314,0.10274,-0.00617,0.12801,-0.05406,-0.00356,0.0927,0.05662,-0.01517,-0.04872,-0.15342,-0.24603,0.1229],[0.00518,-0.04113,0.05635,0.12053,-0.10185,-0.14586,-0.00596,0.07823,0.13182,0.27569,0.15778,0.08436,-0.15959,0.00296,-0.04977,-0.11802,-0.01351,-0.08982,0.14162,0.08422,-0.0913,0.03842,-0.01879,0.05683,0.02322,0.15003,0.18315,-0.23746,0.08094,0.04816,0.11682,-0.0262],[-0.21298,-0.08168,-0.0102,-0.16656,0.22133,-0.00613,0.08097,-0.01123,-0.23816,-0.21118,0.00346,-0.2782,0.03819,0.22804,0.10599,-0.18342,-0.10157,0.04826,0.05624,-0.04483,0.14133,0.01278,-0.22559,0.0617,-0.00064,-0.02152,0.17198,0.23509,-0.1992,-0.15078,0.32641,0.15778],[0.23165,0.11638,-0.19098,-0.15652,-0.19095,-0.14258,0.2021,-0.07791,0.1177,0.13387,0.0923,0.14385,0.03066,0.03402,-0.27763,0.02714,-0.00961,-0.23381,-0.20531,-0.09305,0.21935,-0.11871,0.07554,0.12214,0.11054,-0.00371,0.16549,-0.1472,-0.00802,-0.08618,0.1509,0.21],[0.00914,0.18869,0.03516,-0.33898,-0.22504,-0.11472,-0.07671,-0.1571,0.17724,-0.19741,0.30306,-0.03207,0.00522,-0.00846,0.03384,0.00082,-0.05862,0.03355,-0.15503,-0.24431,-0.10642,-0.10324,0.03596,-0.11644,0.09606,0.30062,0.30323,-0.30594,-0.08079,-0.01508,0.0553,-0.0232],[0.16295,0.09576,0.02197,0.13646,0.06202,-0.07405,-0.00585,0.08469,-0.00783,0.15137,-0.10324,0.17957,0.05843,-0.109,0.16784,-0.34944,-0.12203,-0.12933,-0.08122,0.15651,-0.05092,0.17481,0.04047,0.20787,-0.15819,0.07774,0.01629,-0.20891,-0.1751,0.17629,0.112,-0.1252],[-0.29868,0.18739,0.12979,0.1314,0.07224,-0.00512,0.17464,0.08241,0.02017,0.09384,0.05793,-0.03433,-0.12632,-0.06013,-0.00677,-0.00652,-0.2458,-0.11827,0.09932,0.07707,0.03313,0.0692,0.03922,0.0086,-0.11356,-0.0792,0.02751,0.11692,-0.00535,-0.17065,0.19047,-0.09149],[0.17896,-0.04336,0.04309,0.05781,-0.04179,0.26619,-0.13614,-0.22544,0.01364,-0.1188,0.06418,-0.11831,0.01486,-0.14544,-0.06943,-0.15352,0.1236,-0.08928,-0.01581,-0.29019,-0.03056,0.05099,-0.06321,-0.29409,-0.1495,0.03609,-0.10396,0.06506,0.00072,0.3196,-0.15208,-0.00224],[-0.08453,-0.1446,-0.01069,0.1036,-0.04519,0.01725,0.16913,0.2286,-0.03928,-0.09769,-0.16392,-0.03611,0.01942,-0.0456,0.26037,-0.01751,-0.10609,0.1747,0.04022,-0.01431,-0.27047,0.03713,0.02465,0.11612,0.15789,0.17476,-0.0897,0.08596,-0.12899,-0.10419,-0.11298,-0.1594],[-0.02733,0.10968,-0.14754,0.07533,0.21627,-0.01678,-0.01606,0.20644,0.153,0.10002,0.10012,-0.11367,0.00697,-0.03728,-0.20155,-0.06057,0.0868,0.10039,0.03529,0.23334,0.20016,0.08474,-0.20108,-0.01222,-0.06823,-0.05814,-0.17219,0.19209,0.1562,-0.11499,-0.07201,-0.0598],[0.02556,0.1855,-0.024,0.34069,0.06983,0.11336,0.01622,-0.21271,-0.29191,0.07993,0.13958,-0.04386,0.21867,-0.20564,0.15352,0.10648,-0.18006,-0.09851,0.08936,0.03524,0.07923,-0.08145,-0.20792,0.09467,-0.13202,-0.0364,-0.26462,-0.26028,0.10799,-0.30807,-0.00303,0.25038],[0.00179,-0.1386,-0.22306,-0.18155,-0.2135,0.21908,-0.24298,-0.07297,0.14734,0.13994,0.00736,0.25868,0.22491,0.14277,0.03302,0.03139,0.34856,0.01401,-0.05993,0.07865,0.00155,-0.09674,0.02223,0.15081,0.20042,0.13115,-0.10513,0.04355,-0.0307,0.12734,-0.08391,-0.04657],[-0.09234,-0.10264,0.0283,-0.06686,0.1405,-0.10921,-0.08965,0.18273,-0.13183,-0.09099,-0.0939,-0.20115,0.13694,-0.06471,-0.03144,0.15847,-0.09342,0.12816,0.10019,0.05162,0.27095,-0.09292,-0.00884,-0.08854,0.06044,-0.00119,-0.22401,-0.05857,-0.2459,-0.117,0.14483,-0.12173],[0.17871,0.07258,-0.0553,-0.0058,-0.1244,0.13021,-0.0224,0.12159,0.16377,-0.14176,0.11812,-0.11058,0.04029,-0.12237,0.28707,0.04502,0.14054,0.16505,-0.0983,-0.17445,0.03903,-0.15688,-0.1908,-0.06205,-0.07776,0.08538,0.05401,0.0723,0.18542,0.23137,-0.00773,-0.19793],[-0.28088,0.09922,0.14717,0.12384,0.06412,-0.05385,0.01658,0.09619,-0.11289,-0.24018,-0.19034,0.15784,0.13258,0.1504,-0.01572,-0.09644,-0.07576,-0.14844,0.0654,-0.08894,-0.1858,0.03599,-0.03867,-0.01429,0.09632,0.11606,0.17897,0.12699,-0.11487,-0.08039,-0.23337,-0.0678],[-0.19731,-0.11658,-0.14485,-0.15897,-0.0315,-0.14203,0.07525,-0.14438,0.02725,0.12257,-0.04939,-0.13179,-0.06092,0.0958,-0.2549,0.01033,0.04481,0.04556,-0.06064,0.02088,0.12321,-0.13443,-0.08288,-0.19595,0.01546,-0.23707,0.04435,0.15034,0.20093,0.05633,0.11097,-0.1297]],"blocks.1.mlp.2.bias":[-0.00376,-0.05071,-0.02311,0.03889,-0.07944,0.01223,-0.04803,-0.07845,0.17141,-0.02089,0.0206,0.1255,0.14724,-0.12857,-0.13048,-0.01279],"norm.weight":[1.72711,1.59638,1.58679,1.57811,1.63391,1.60395,1.57467,1.67933,1.62528,1.6201,1.66841,1.60469,1.58158,1.63687,1.65206,1.60796],"norm.bias":[0.09862,0.10765,-0.14676,0.13061,0.03927,0.14658,-0.08392,-0.11846,0.07373,-0.04837,-0.00568,0.05749,0.00206,-0.01229,-0.05193,-0.13847],"head.weight":[[-0.66382,-0.3295,0.34968,0.38066,0.37726,-0.61911,0.20056,0.73878,-0.473,0.46608,0.50817,-0.4353,-0.27506,0.68513,-0.27501,0.21147],[-0.14353,-0.37493,0.48527,-0.66652,-0.58026,0.20911,0.08805,0.50972,-0.65329,-0.12634,-0.3379,0.59852,-0.19652,-0.3801,0.38635,0.44873],[0.19881,-0.04559,-0.5557,0.5847,-0.11822,-0.08457,-0.26943,-0.29743,-0.37773,0.3662,0.2791,0.55943,-0.55126,-0.35169,-0.57169,0.27785],[0.38622,0.17961,0.41994,0.25096,0.52848,-0.17607,0.04239,-0.588,-0.44637,-0.52371,-0.26118,-0.5385,0.55605,-0.53343,-0.16566,0.46116],[0.63283,-0.08051,-0.60543,-0.52663,0.46588,-0.55511,0.43115,0.53723,0.45577,0.08283,0.01108,0.18737,-0.4417,0.45503,0.72871,-0.17298],[-0.13627,-0.45292,0.45628,0.26476,0.45453,0.29892,-0.54687,-0.31819,0.5531,-0.58398,0.13306,0.62677,0.42863,0.39167,0.09309,-0.4389],[-0.73026,-0.42564,0.46706,-0.00442,-0.45581,-0.5317,0.31159,-0.48138,0.63804,0.53625,-0.65154,0.17687,-0.22748,0.33145,0.13994,0.36168],[0.61562,-0.11454,-0.15258,-0.38915,-0.62302,0.01525,-0.31842,0.06497,0.46484,0.46037,-0.15728,-0.39708,0.57864,-0.13965,-0.56231,-0.29059],[-0.31125,0.14222,0.28041,0.26291,-0.3625,0.50842,0.62731,-0.29767,0.13017,0.01473,0.63304,-0.40899,-0.26841,-0.42157,0.61278,-0.43854],[-0.29112,0.66818,-0.31065,0.10971,0.39838,0.68066,0.05236,0.42529,0.11733,0.08204,-0.65311,-0.32428,-0.31904,0.4491,-0.07723,-0.42902]],"head.bias":[-0.09914,0.12267,0.0313,-0.17415,-0.10673,-0.16688,0.08051,-0.24139,-0.12226,-0.09702]}